1.586930267512798309e-02
6.491549313068389893e-02
4.878413677215576172e-02
-1.848708689212799072e-01
-1.294811367988586426e-01
2.936984598636627197e-02
3.403208553791046143e-01
-2.539679408073425293e-01
-3.553367406129837036e-02
-8.012513071298599243e-02
-1.784461438655853271e-01
5.711901187896728516e-01
6.783069968223571777e-01
-3.517778590321540833e-02
-7.680647373199462891e-01
-4.837881624698638916e-01
-3.753837049007415771e-01
2.385371625423431396e-01
1.467744410037994385e-01
3.292585909366607666e-01
3.098423965275287628e-02
-3.287166953086853027e-01
2.816356122493743896e-01
4.368188383523374796e-04
1.084711700677871704e-01
3.335495889186859131e-01
-5.337289571762084961e-01
-2.393982606008648872e-03
1.142245829105377197e-01
2.679233439266681671e-02
2.268709093332290649e-01
-4.491941332817077637e-01
-2.657406330108642578e-01
-1.335398759692907333e-02
4.501748085021972656e-01
6.238167881965637207e-01
3.055351376533508301e-01
-2.435384988784790039e-01
-2.692414522171020508e-01
2.787237763404846191e-01
6.806822121143341064e-02
-3.444016277790069580e-01
7.400732487440109253e-02
2.694661617279052734e-01
8.973481506109237671e-02
-1.537675261497497559e-01
6.032746285200119019e-02
-1.179426312446594238e-01
-6.450518220663070679e-02
-3.316883370280265808e-02
-9.784939466044306755e-04
-3.154456019401550293e-01
-1.864171177148818970e-01
-7.911167293787002563e-02
3.023149967193603516e-01
8.246222883462905884e-02
-2.262231558561325073e-01
-4.642654955387115479e-01
-1.350012421607971191e-01
4.552757367491722107e-02
1.610118299722671509e-01
1.681136488914489746e-01
2.214518934488296509e-01
2.661208212375640869e-01
9.139467030763626099e-02
-3.831556141376495361e-01
-4.939855039119720459e-01
-6.892435997724533081e-02
1.233782246708869934e-01
2.423831671476364136e-01
1.755964159965515137e-01
2.819564044475555420e-01
9.977524727582931519e-02
1.539058387279510498e-01
-4.814481139183044434e-01
8.013927936553955078e-02
-9.915076196193695068e-02
2.166642397642135620e-01
8.983322978019714355e-02
3.554813563823699951e-02
-1.893945038318634033e-01
7.612667232751846313e-02
-9.918170422315597534e-02
1.638214588165283203e-01
2.270709723234176636e-02
2.047873735427856445e-01
-7.236909121274948120e-02
-5.109206773340702057e-03
-8.809819817543029785e-03
4.912767559289932251e-02
1.778868734836578369e-01
-2.021469026803970337e-01
-3.218566179275512695e-01
-5.178425312042236328e-01
1.574440449476242065e-01
2.701494395732879639e-01
3.286864459514617920e-01
7.829473167657852173e-02
1.768195070326328278e-02
1.182150915265083313e-01
-1.121521275490522385e-02
1.452146619558334351e-01
1.150448173284530640e-01
-3.724670112133026123e-01
1.839241944253444672e-02
3.351818919181823730e-01
-3.984594345092773438e-01
-5.028117895126342773e-01
1.022867634892463684e-01
-7.642587274312973022e-02
-1.894921809434890747e-01
-3.500428199768066406e-01
-9.354930371046066284e-02
6.652077287435531616e-02
5.282354354858398438e-01
4.507581889629364014e-01
4.161179065704345703e-01
2.211977541446685791e-02
-8.693303167819976807e-02
-8.251033723354339600e-03
5.259184911847114563e-02
-1.528416723012924194e-01
2.586741372942924500e-02
1.339434236288070679e-01
-6.989703327417373657e-02
3.646699488162994385e-01
2.566339969635009766e-01
-8.009822107851505280e-03
-1.318741738796234131e-01
-5.223519802093505859e-01
-2.229648679494857788e-01
-3.374134302139282227e-01
-1.596078723669052124e-01
-1.802341789007186890e-01
7.141384761780500412e-03
-2.423469722270965576e-01
-1.091291382908821106e-01
7.201632857322692871e-02
3.606858849525451660e-01
3.950361013412475586e-01
1.154672428965568542e-01
1.476690471172332764e-01
-2.255671471357345581e-01
-2.481358647346496582e-01
-3.323746323585510254e-01
-3.250640630722045898e-01
-1.826059520244598389e-01
-1.428244560956954956e-01
-1.757924556732177734e-01
1.751093417406082153e-01
3.162811994552612305e-01
2.546312808990478516e-01
1.868975758552551270e-01
-2.775208950042724609e-01
1.207925900816917419e-01
-5.638402700424194336e-02
-1.702985465526580811e-01
9.366279840469360352e-02
6.189227476716041565e-02
1.018191576004028320e-01
2.611431479454040527e-01
5.379797145724296570e-02
4.322852194309234619e-02
-4.896893352270126343e-02
1.296506077051162720e-01
5.774145573377609253e-02
-2.860851883888244629e-01
-2.056825906038284302e-01
6.280521396547555923e-03
1.192991659045219421e-01
-1.302967816591262817e-01
9.180065244436264038e-02
2.943354249000549316e-01
-4.486414417624473572e-02
4.933452233672142029e-02
-5.715771317481994629e-01
-4.536803662776947021e-01
1.887497007846832275e-01
2.012455463409423828e-01
5.525321364402770996e-01
2.480040341615676880e-01
2.816313803195953369e-01
8.257705718278884888e-02
-1.398731023073196411e-01
-4.430546760559082031e-01
-3.116194307804107666e-01
-1.501524001359939575e-01
1.479100622236728668e-02
2.467766106128692627e-01
3.823586925864219666e-02
-2.139876186847686768e-01
1.825417019426822662e-02
4.540997371077537537e-02
3.403372690081596375e-02
9.911327809095382690e-02
-8.258822560310363770e-02
-1.775791198015213013e-01
9.750147163867950439e-02
1.168248206377029419e-01
1.852357983589172363e-01
-4.415144324302673340e-01
-9.097273647785186768e-02
1.557820439338684082e-01
-3.162660300731658936e-01
-2.882040441036224365e-01
-1.838228553533554077e-01
-2.568529844284057617e-01
-1.832181960344314575e-01
1.714733056724071503e-02
-2.910539507865905762e-01
1.958942860364913940e-01
-1.420888304710388184e-01
-3.176645040512084961e-01
-2.484442293643951416e-01
-1.226146221160888672e-01
-7.032232731580734253e-02
-1.907859146595001221e-01
-1.597354412078857422e-01
-2.590097673237323761e-02
-1.940818130970001221e-01
-2.428261488676071167e-01
-2.993166148662567139e-01
1.397269964218139648e-01
-2.566068666055798531e-03
-3.940530419349670410e-01
-1.621858477592468262e-01
-1.322853937745094299e-02
3.529603481292724609e-01
3.733537197113037109e-01
-6.946068257093429565e-02
-5.655120611190795898e-01
-4.360381960868835449e-01
-2.594255805015563965e-01
1.835814565420150757e-01
1.094927862286567688e-01
5.600717663764953613e-02
1.558934450149536133e-01
-1.914932578802108765e-01
3.844379782676696777e-01
3.632540702819824219e-01
-1.902479380369186401e-01
-4.419998824596405029e-01
-1.695057600736618042e-01
2.993971407413482666e-01
3.492905795574188232e-01
2.797259017825126648e-02
-2.751794457435607910e-02
-1.995471864938735962e-01
3.036160469055175781e-01
1.349647995084524155e-02
-1.752249896526336670e-01
2.068111486732959747e-02
2.069441229104995728e-01
7.830166071653366089e-02
-3.557310998439788818e-01
-4.571919441223144531e-01
5.092092752456665039e-01
5.108155608177185059e-01
3.901512324810028076e-01
-1.774661988019943237e-02
-6.145828962326049805e-01
-7.103998064994812012e-01
-3.747218251228332520e-01
3.381812870502471924e-01
3.226246535778045654e-01
1.145204752683639526e-01
6.461597234010696411e-02
5.866911262273788452e-02
-1.676322966814041138e-01
3.325017914175987244e-02
1.567119210958480835e-01
1.586004160344600677e-02
-7.623558491468429565e-02
4.144989326596260071e-02
3.638825193047523499e-02
1.340332478284835815e-01
1.227718517184257507e-01
-3.715837895870208740e-01
-1.671714708209037781e-03
-2.134451717138290405e-01
-8.179990574717521667e-03
-2.595227360725402832e-01
1.283209621906280518e-01
5.044287443161010742e-02
-2.165452241897583008e-01
2.742381393909454346e-01
3.551185727119445801e-01
3.577719628810882568e-01
4.981756582856178284e-02
3.186168074607849121e-01
2.096617519855499268e-01
3.103469908237457275e-01
-4.228169098496437073e-03
-2.292408496141433716e-01
-1.243291795253753662e-01
-9.011780470609664917e-02
-2.715889811515808105e-01
-2.755247056484222412e-01
-1.826404035091400146e-01
-2.391863316297531128e-01
8.474694192409515381e-02
-1.943805515766143799e-01
-1.589984595775604248e-01
-1.695845276117324829e-01
2.514128386974334717e-01
3.541501611471176147e-02
4.238972440361976624e-02
4.564622789621353149e-02
-2.965376973152160645e-01
8.026784285902976990e-03
2.271608635783195496e-02
-9.967259131371974945e-03
-1.731691807508468628e-01
-1.096141431480646133e-02
8.461516350507736206e-03
-2.370950728654861450e-01
4.710641875863075256e-02
2.704012766480445862e-02
3.919152915477752686e-02
3.468480706214904785e-01
-1.462946087121963501e-01
-1.760704517364501953e-01
9.403615444898605347e-02
3.478958308696746826e-01
1.241734251379966736e-01
-6.408373266458511353e-02
2.859746217727661133e-01
-2.634228765964508057e-01
-1.892018020153045654e-01
3.540552854537963867e-01
1.006915569305419922e-01
-5.322126150131225586e-01
1.056678369641304016e-01
4.037653505802154541e-01
-1.205830797553062439e-01
-2.778225541114807129e-01
1.525244712829589844e-01
3.354329615831375122e-02
2.065772712230682373e-01
3.420193493366241455e-01
-1.643563508987426758e-01
-8.432407379150390625e-01
-8.939860463142395020e-01
8.318077921867370605e-01
7.638534903526306152e-01
2.506574690341949463e-01
-2.642965614795684814e-01
-8.637156337499618530e-02
-1.705857217311859131e-01
7.633842527866363525e-02
-6.868009567260742188e-01
3.297534286975860596e-01
3.606935739517211914e-01
-1.088914424180984497e-01
-5.719530209898948669e-02
2.589809298515319824e-01
-1.877798140048980713e-01
-1.565675586462020874e-01
1.293371915817260742e-01
-1.019043549895286560e-01
-2.395911840721964836e-03
1.184225678443908691e-01
-1.750973165035247803e-01
4.944191277027130127e-01
1.881671994924545288e-01
-5.360940843820571899e-02
-1.897190213203430176e-01
-2.592260837554931641e-01
3.116091191768646240e-01
4.986364766955375671e-02
-3.490173220634460449e-01
1.273923832923173904e-02
-2.613240480422973633e-01
8.640350401401519775e-02
1.935351043939590454e-01
-3.439946770668029785e-01
2.968781888484954834e-01
2.426168024539947510e-01
2.783586382865905762e-01
1.069938093423843384e-01
-2.718175649642944336e-01
-7.394230365753173828e-02
-2.359458506107330322e-01
8.443212509155273438e-02
-3.614861518144607544e-02
-8.269110321998596191e-02
5.232464522123336792e-02
1.608478724956512451e-01
-2.533082962036132812e-01
-1.316355317831039429e-01
5.673165619373321533e-02
1.766427010297775269e-01
1.573640108108520508e-01
5.236138030886650085e-02
-2.249886989593505859e-01
8.326312154531478882e-02
4.584755375981330872e-02
-2.646998465061187744e-01
-1.924871951341629028e-01
-2.872947603464126587e-02
-1.930869370698928833e-01
2.092088162899017334e-01
-2.666860818862915039e-01
8.988457918167114258e-02
2.482287883758544922e-01
-2.620342373847961426e-01
-2.068255245685577393e-01
1.385209411382675171e-01
1.319365203380584717e-01
-2.749834358692169189e-01
2.165188044309616089e-01
1.975899562239646912e-02
2.125508189201354980e-01
-1.476598381996154785e-01
1.044335216283798218e-01
2.209115028381347656e-01
-3.489780724048614502e-01
1.332149505615234375e-01
4.339064657688140869e-01
-2.537874877452850342e-02
-4.428338110446929932e-01
-2.800030410289764404e-01
-1.555886864662170410e-01
1.650718450546264648e-01
4.454311430454254150e-01
-2.674914002418518066e-01
-1.002077683806419373e-01
-7.839748263359069824e-02
-1.614825427532196045e-02
4.776262491941452026e-02
2.404471784830093384e-01
-1.313206739723682404e-02
-1.376252472400665283e-01
6.228876486420631409e-02
-2.532922327518463135e-01
-1.919282674789428711e-01
2.185978926718235016e-02
1.007837131619453430e-01
-3.417483866214752197e-01
-9.802050888538360596e-03
-2.723982930183410645e-01
1.154155060648918152e-01
1.736123859882354736e-01
6.128284707665443420e-02
2.584528625011444092e-01
-1.644767820835113525e-01
-8.598465472459793091e-02
1.206545829772949219e-01
3.742933571338653564e-01
4.338563978672027588e-01
-1.024724394083023071e-01
4.389495253562927246e-01
9.868743270635604858e-02
2.702276706695556641e-01
-6.111269444227218628e-02
-1.624609082937240601e-01
-1.338478177785873413e-01
-4.434291645884513855e-02
2.568264007568359375e-01
3.147412538528442383e-01
-4.841120168566703796e-02
-3.253094553947448730e-01
-3.695537149906158447e-01
-9.929380565881729126e-02
3.135969638824462891e-01
2.222024351358413696e-01
2.594488263130187988e-01
-2.717882990837097168e-01
-3.751599192619323730e-01
-4.087437093257904053e-01
7.769282907247543335e-02
5.031462311744689941e-01
3.958878815174102783e-01
1.671530008316040039e-01
4.171343892812728882e-02
9.462165087461471558e-02
-2.160426080226898193e-01
1.743414103984832764e-01
1.086963787674903870e-01
-2.414695769548416138e-01
-4.980162484571337700e-04
9.421385824680328369e-02
2.833418846130371094e-01
-3.761007264256477356e-02
-2.029507905244827271e-01
-2.819408178329467773e-01
-6.452745199203491211e-01
2.770517170429229736e-01
9.276809096336364746e-01
6.212346553802490234e-01
-1.376047432422637939e-01
-5.575410127639770508e-01
-4.442280232906341553e-01
3.898454830050468445e-02
1.917759329080581665e-01
1.138119548559188843e-01
-8.249020576477050781e-02
-2.669650018215179443e-01
3.021471798419952393e-01
-1.383070796728134155e-01
1.321264803409576416e-01
-4.610700905323028564e-02
-1.583949476480484009e-01
1.394204944372177124e-01
1.184642463922500610e-01
-4.665659368038177490e-02
-9.726371616125106812e-02
-6.476034224033355713e-02
5.861606076359748840e-02
9.438068419694900513e-02
-7.792351394891738892e-02
1.178894340991973877e-01
-3.840225934982299805e-02
1.168990414589643478e-02
-3.863771259784698486e-02
8.057443052530288696e-02
-2.046627551317214966e-01
1.794608123600482941e-02
2.386085130274295807e-02
7.987382821738719940e-03
-3.989569470286369324e-02
-8.447962999343872070e-02
-5.074580758810043335e-02
-6.595925986766815186e-02
8.322887122631072998e-02
-3.713844418525695801e-01
-2.862454652786254883e-01
-1.632211208343505859e-01
1.500888019800186157e-01
1.575648412108421326e-02
-1.752227395772933960e-01
-6.717731803655624390e-02
6.634240597486495972e-02
3.033962845802307129e-02
-9.387660771608352661e-02
3.338267207145690918e-01
1.386142224073410034e-01
8.004188537597656250e-02
2.339085787534713745e-01
-7.186198979616165161e-02
-4.674806892871856689e-01
-2.961168885231018066e-01
-7.714059948921203613e-02
3.269416093826293945e-01
1.987722516059875488e-01
2.763367891311645508e-01
-4.010898992419242859e-02
4.266125336289405823e-02
3.438334465026855469e-01
-4.261489808559417725e-01
1.025098487734794617e-01
6.180077791213989258e-01
-4.268608242273330688e-02
-5.158151388168334961e-01
-2.055412232875823975e-01
-1.439800411462783813e-01
3.030720353126525879e-01
3.546764850616455078e-01
1.248820498585700989e-01
-2.707564234733581543e-01
-4.080354273319244385e-01
-3.517683148384094238e-01
1.101676374673843384e-01
-1.951546780765056610e-02
4.584768787026405334e-02
-1.696830242872238159e-02
-1.525712162256240845e-01
3.973145782947540283e-01
2.289482057094573975e-01
-2.300818711519241333e-01
-3.280228674411773682e-01
-4.088141918182373047e-01
2.032341361045837402e-01
2.958955466747283936e-01
3.079640865325927734e-01
4.670367389917373657e-02
7.264070212841033936e-02
2.626443207263946533e-01
-1.626214385032653809e-02
1.431071106344461441e-02
-8.042576909065246582e-02
9.705199301242828369e-02
3.497466444969177246e-02
3.949483111500740051e-02
-6.350855529308319092e-02
-2.501439750194549561e-01
-2.682386040687561035e-01
2.479770220816135406e-02
6.402815133333206177e-02
1.256443411111831665e-01
2.399008721113204956e-01
2.048191726207733154e-01
-1.831121295690536499e-01
-4.104005396366119385e-01
-4.235354363918304443e-01
-2.981989085674285889e-01
1.033289134502410889e-01
2.680842876434326172e-01
2.301434129476547241e-01
2.439787387847900391e-01
3.544386327266693115e-01
2.130217999219894409e-01
1.105860918760299683e-01
1.980524137616157532e-02
-2.431000769138336182e-01
-1.683964394032955170e-02
-2.549205422401428223e-01
-5.107521638274192810e-02
-3.530070185661315918e-02
-2.171746939420700073e-01
-2.644205093383789062e-01
1.622548848390579224e-01
3.820294737815856934e-01
1.503199338912963867e-01
-3.994166105985641479e-02
5.382845923304557800e-02
-4.191534128040075302e-03
1.588210165500640869e-01
-6.530816107988357544e-02
-2.564674615859985352e-01
-2.670797407627105713e-01
-9.291201829910278320e-02
9.810455143451690674e-02
1.837105751037597656e-01
7.986860722303390503e-02
-4.678702056407928467e-01
-5.734359472990036011e-02
7.420340180397033691e-02
6.796764582395553589e-02
-3.227070271968841553e-01
2.220473885536193848e-01
8.932477980852127075e-02
3.752753436565399170e-01
1.594901680946350098e-01
-3.096702136099338531e-02
-1.125421449542045593e-01
-2.077825069427490234e-01
-5.826443061232566833e-02
3.021386265754699707e-01
1.245090365409851074e-02
1.150077767670154572e-02
6.469648331403732300e-02
-1.075993105769157410e-01
-6.867168843746185303e-02
-6.180486455559730530e-02
-1.291623115539550781e-01
-1.521517783403396606e-01
-2.566178441047668457e-01
-2.043568342924118042e-01
-4.289186596870422363e-01
8.255050331354141235e-02
-3.129111528396606445e-01
-1.232323870062828064e-01
2.319396436214447021e-01
4.413056671619415283e-01
1.296618431806564331e-01
-2.421327680349349976e-01
-5.007359385490417480e-01
-2.653358578681945801e-01
2.534774243831634521e-01
4.120561480522155762e-01
4.036096632480621338e-01
-1.440806835889816284e-01
-5.575920939445495605e-01
-4.117464423179626465e-01
8.987037092447280884e-02
4.307263195514678955e-01
6.231645941734313965e-01
-9.752847999334335327e-02
-4.914293587207794189e-01
-3.931225538253784180e-01
-4.701297357678413391e-02
1.653293818235397339e-01
1.028271242976188660e-01
5.117269232869148254e-02
-4.789787530899047852e-02
-1.577296704053878784e-01
1.664306819438934326e-01
-1.258655488491058350e-01
-2.447697371244430542e-01
-3.115918934345245361e-01
3.510789871215820312e-01
2.711153626441955566e-01
-1.355001032352447510e-01
-3.861107230186462402e-01
2.362011559307575226e-02
-1.682988181710243225e-02
-3.117968142032623291e-01
3.895929828286170959e-02
-2.843411266803741455e-01
7.801903784275054932e-02
-9.248147252947092056e-04
1.308750659227371216e-01
-2.219180017709732056e-01
-3.492147326469421387e-01
1.318937353789806366e-02
3.335840702056884766e-01
6.503814458847045898e-01
-1.342529505491256714e-01
-8.778646588325500488e-01
-3.647024929523468018e-01
-2.708462476730346680e-01
-1.318387836217880249e-01
2.014952898025512695e-02
1.999423950910568237e-01
1.167332082986831665e-01
3.977580741047859192e-02
-2.318464666604995728e-01
-1.622564941644668579e-01
8.769150078296661377e-02
5.205259099602699280e-02
1.672437191009521484e-01
6.639659404754638672e-02
2.966952882707118988e-02
3.506556525826454163e-02
1.754756122827529907e-01
2.287659607827663422e-02
-8.885700255632400513e-02
2.814106047153472900e-01
1.442340612411499023e-01
1.065070480108261108e-01
1.035958155989646912e-01
-1.317790448665618896e-01
-2.688874900341033936e-01
-1.615245342254638672e-01
3.965130820870399475e-02
-4.134391248226165771e-02
2.426710277795791626e-01
3.574007004499435425e-02
-2.711802124977111816e-01
-1.733562052249908447e-01
-3.802750110626220703e-01
-1.218807846307754517e-01
2.211317867040634155e-01
3.668326139450073242e-01
3.750408887863159180e-01
-1.959036737680435181e-01
1.790517382323741913e-02
-1.066394299268722534e-01
2.286096662282943726e-01
3.731123507022857666e-01
2.114781141281127930e-01
1.373082995414733887e-01
2.546307444572448730e-01
1.999041885137557983e-01
3.764845058321952820e-02
-1.453637927770614624e-01
-2.253527194261550903e-01
-1.164138242602348328e-01
5.327810719609260559e-02
1.351176053285598755e-01
1.514418721199035645e-01
2.845177948474884033e-01
1.783677637577056885e-01
-7.432235032320022583e-02
2.416952885687351227e-02
1.448265314102172852e-01
2.767222523689270020e-01
3.849027156829833984e-01
1.139717102050781250e-01
-3.068238310515880585e-02
-2.575704455375671387e-01
-1.150801107287406921e-01
1.352512836456298828e-01
4.856194183230400085e-02
-1.218133121728897095e-01
-2.030613459646701813e-02
2.431457862257957458e-02
-1.791331768035888672e-01
-1.462122648954391479e-01
-2.839785516262054443e-01
9.823772311210632324e-02
-9.285920858383178711e-02
-4.948970302939414978e-02
-2.601813673973083496e-01
-5.116947889328002930e-01
-2.968654409050941467e-02
-7.873564958572387695e-02
-9.761194698512554169e-03
1.205381751060485840e-02
1.758595854043960571e-01
-1.960090696811676025e-01
-4.572588577866554260e-02
-1.444545835256576538e-01
-1.246680542826652527e-01
1.694312393665313721e-01
-3.477033227682113647e-02
7.064017653465270996e-02
-4.839989915490150452e-02
-2.245650887489318848e-01
-2.267971187829971313e-01
-3.162065744400024414e-01
-1.903768032789230347e-01
3.832800686359405518e-02
-1.779842078685760498e-01
-4.975305497646331787e-02
1.564873009920120239e-02
-1.055703163146972656e-01
2.396748363971710205e-01
-6.353526562452316284e-02
