5.792049765586853027e-01
-4.774274826049804688e-01
5.167671442031860352e-01
-2.047261297702789307e-01
5.866811275482177734e-01
1.340997964143753052e-01
-1.478350013494491577e-01
2.972263693809509277e-01
1.403540074825286865e-01
-1.693321615457534790e-01
8.400911092758178711e-01
-5.196921229362487793e-01
4.750473797321319580e-01
2.117092609405517578e-01
-5.425469875335693359e-01
-7.444772124290466309e-02
-2.813138533383607864e-03
-2.503011822700500488e-01
-6.061974167823791504e-02
-1.753425598144531250e-01
-3.202655017375946045e-01
-2.836364209651947021e-01
4.849018156528472900e-02
-4.001512825489044189e-01
3.439118266105651855e-01
-3.743876814842224121e-01
-3.661334216594696045e-01
1.113832090049982071e-02
7.947902381420135498e-02
-1.221072822809219360e-01
-1.363364160060882568e-01
-4.416556656360626221e-02
-8.649006485939025879e-02
-7.136885523796081543e-01
8.835332840681076050e-02
8.219147324562072754e-01
-3.257963061332702637e-02
4.302836656570434570e-01
-1.260983496904373169e-01
1.146243661642074585e-01
7.096993923187255859e-02
3.051109611988067627e-01
3.019304871559143066e-01
-3.681215345859527588e-01
4.097687080502510071e-02
-2.271435111761093140e-01
3.037610352039337158e-01
-1.403298601508140564e-02
-4.167641103267669678e-01
-2.947022616863250732e-01
2.569768726825714111e-01
1.090574488043785095e-01
-3.249885439872741699e-01
3.837428390979766846e-01
-5.611352249979972839e-02
-1.137577965855598450e-01
-1.698827147483825684e-01
4.893697053194046021e-02
2.089206501841545105e-02
1.299905497580766678e-02
-2.911476194858551025e-01
1.197533458471298218e-01
3.981896638870239258e-01
-3.172386586666107178e-01
-8.848418295383453369e-02
2.562103569507598877e-01
-2.839600443840026855e-01
1.295080333948135376e-01
1.870602071285247803e-01
-1.231493987143039703e-02
5.731016397476196289e-02
-1.366278249770402908e-02
4.093931615352630615e-02
2.228630334138870239e-01
-2.160820364952087402e-01
3.527225852012634277e-01
-2.189934551715850830e-01
-9.841328859329223633e-02
3.009040653705596924e-01
-3.287524878978729248e-01
-1.396967917680740356e-01
8.401346951723098755e-02
2.154994904994964600e-01
3.295032680034637451e-01
4.134964942932128906e-01
3.380880951881408691e-01
3.340603783726692200e-02
2.075770869851112366e-02
2.497544437646865845e-01
3.590841293334960938e-01
3.913837671279907227e-02
2.389104664325714111e-01
2.655268609523773193e-01
2.808667719364166260e-01
-3.105413019657135010e-01
-1.288971602916717529e-01
8.671791106462478638e-02
3.500738143920898438e-01
7.841987907886505127e-02
4.522161781787872314e-01
4.362874329090118408e-01
6.720207333564758301e-01
3.942209184169769287e-01
-4.755182564258575439e-02
2.118475586175918579e-01
3.345367610454559326e-01
-2.932201921939849854e-01
1.914504915475845337e-01
1.660268157720565796e-01
6.036083027720451355e-02
-6.130408123135566711e-02
-6.036004051566123962e-02
4.854355752468109131e-01
-2.922706007957458496e-01
-9.216311573982238770e-02
1.288349926471710205e-01
-2.743074595928192139e-01
8.861913532018661499e-02
-1.610023975372314453e-01
9.663574397563934326e-02
9.775859117507934570e-02
-5.117175728082656860e-02
2.192283608019351959e-02
2.566578797996044159e-02
-1.334463953971862793e-01
4.397653788328170776e-02
5.324069410562515259e-02
-2.099149376153945923e-01
1.581387966871261597e-01
-3.714380860328674316e-01
1.229420602321624756e-01
-3.506246721372008324e-03
-1.954814791679382324e-01
3.755513727664947510e-01
4.890013858675956726e-02
-4.537951946258544922e-02
2.874983549118041992e-01
2.374450415372848511e-01
-1.623038202524185181e-02
-4.611339420080184937e-02
1.961598694324493408e-01
1.141087859869003296e-01
1.960122138261795044e-01
-1.847444474697113037e-01
1.494582295417785645e-01
-1.159189492464065552e-01
2.457571327686309814e-01
-2.609492838382720947e-02
3.817903250455856323e-02
3.489582538604736328e-01
-3.746378719806671143e-01
5.370338447391986847e-03
-3.002477623522281647e-02
-2.823490500450134277e-01
2.268755435943603516e-01
-2.946382164955139160e-01
2.209985852241516113e-01
-2.679639160633087158e-01
7.854847609996795654e-02
-7.414533942937850952e-02
-1.188170909881591797e-01
1.854004263877868652e-01
-2.258745729923248291e-01
8.594541251659393311e-02
-2.146058380603790283e-01
-1.650191247463226318e-01
3.631960749626159668e-01
-4.918209314346313477e-01
2.086086422204971313e-01
-1.119406074285507202e-01
2.150837928056716919e-01
-2.767165303230285645e-01
1.079868227243423462e-01
-2.994555830955505371e-01
-4.350113496184349060e-02
4.231861531734466553e-01
8.349154889583587646e-02
-5.174663290381431580e-02
1.738739162683486938e-01
-1.757751554250717163e-01
-7.169613242149353027e-02
-3.705127537250518799e-02
3.739462494850158691e-01
-1.298339962959289551e-01
5.346809625625610352e-01
2.424631714820861816e-01
-4.520938917994499207e-02
5.518738646060228348e-03
1.283079236745834351e-01
2.864271700382232666e-01
-1.350377686321735382e-02
-1.838488131761550903e-02
4.830913245677947998e-02
2.032351493835449219e-01
1.025169789791107178e-01
2.319654673337936401e-01
1.147072389721870422e-01
2.595748007297515869e-01
1.262153238058090210e-01
4.720592796802520752e-01
1.529324706643819809e-02
4.640837311744689941e-01
9.087772667407989502e-02
-1.190831065177917480e-01
7.856953740119934082e-01
-2.638906538486480713e-01
-1.010883823037147522e-01
2.863882668316364288e-02
-1.415941864252090454e-01
5.479562282562255859e-01
-2.352296113967895508e-01
-1.225813031196594238e-01
-1.380802541971206665e-01
2.163674682378768921e-01
-2.219803333282470703e-01
3.014918789267539978e-02
-1.139990538358688354e-01
1.074969843029975891e-01
-1.985111087560653687e-01
-1.431322395801544189e-01
1.160062998533248901e-01
-2.411871254444122314e-01
9.500630199909210205e-02
8.241303265094757080e-02
-1.637900024652481079e-01
-2.733559347689151764e-02
-3.462973237037658691e-01
-2.949148714542388916e-01
2.991696298122406006e-01
1.343827098608016968e-01
-5.486221611499786377e-02
-6.336249113082885742e-01
-4.921571910381317139e-02
-6.384817510843276978e-02
-4.100712239742279053e-01
9.011723846197128296e-02
5.105243995785713196e-02
1.509526520967483521e-01
-1.365571171045303345e-01
1.960246637463569641e-02
-1.890191584825515747e-01
1.982866972684860229e-01
8.918440341949462891e-02
2.647275328636169434e-01
-3.040959835052490234e-01
-1.583779752254486084e-01
3.926489353179931641e-01
-1.207017973065376282e-01
8.119657635688781738e-02
9.206237271428108215e-03
-1.122798398137092590e-01
-1.322634369134902954e-01
4.072864651679992676e-01
6.827701926231384277e-01
5.414500832557678223e-01
1.611060202121734619e-01
4.711435735225677490e-01
-3.549150004982948303e-02
4.139022529125213623e-01
-3.393072262406349182e-02
2.060797363519668579e-01
-1.965868026018142700e-01
6.970808506011962891e-01
1.512468755245208740e-01
-5.254607200622558594e-01
8.042309433221817017e-02
1.058125793933868408e-01
-1.238237023353576660e-01
1.517146676778793335e-01
-9.437713027000427246e-02
-3.224860131740570068e-02
2.070291787385940552e-01
-4.905431568622589111e-01
3.957034945487976074e-01
-6.409398913383483887e-01
-1.292644143104553223e-01
-1.353466808795928955e-01
-3.319581747055053711e-01
2.093185782432556152e-01
-2.621110081672668457e-01
1.442942861467599869e-02
-3.824641406536102295e-01
1.093734279274940491e-01
-2.012925148010253906e-01
-6.436610221862792969e-01
-1.004756093025207520e+00
-6.609616279602050781e-01
-1.519255787134170532e-01
-9.029272198677062988e-02
2.892202697694301605e-03
-2.069440111517906189e-02
4.380241036415100098e-02
2.539277449250221252e-02
-1.700285077095031738e-01
-9.637273102998733521e-02
-1.302601248025894165e-01
-8.955447375774383545e-02
-1.608366519212722778e-01
-1.396923363208770752e-01
-6.460960954427719116e-02
-6.063556298613548279e-02
-1.796769052743911743e-01
-6.341937184333801270e-02
2.145338431000709534e-02
-1.311262100934982300e-01
-5.274115204811096191e-01
-9.903530776500701904e-02
9.163402765989303589e-02
-1.054470539093017578e-01
9.286013990640640259e-02
4.394974559545516968e-02
-1.360560655593872070e-01
-8.419955521821975708e-02
5.448765158653259277e-01
-4.544808268547058105e-01
3.886721432209014893e-01
-3.487356901168823242e-01
1.062645241618156433e-01
-7.630825974047183990e-03
-2.214434891939163208e-01
1.220172286033630371e+00
8.698685169219970703e-01
1.216415688395500183e-01
8.602010458707809448e-02
6.301295757293701172e-01
-3.623395785689353943e-02
8.234012126922607422e-02
1.358252484351396561e-02
-1.765587180852890015e-01
2.473576217889785767e-01
-4.028955996036529541e-01
2.074969112873077393e-01
-4.138513281941413879e-02
-2.649049758911132812e-01
-1.632198542356491089e-01
-2.217765748500823975e-01
7.719572782516479492e-01
3.653144836425781250e-01
3.575894236564636230e-01
2.255599647760391235e-01
1.663896888494491577e-01
-9.266699850559234619e-02
1.191886216402053833e-01
-6.194837018847465515e-02
1.619689911603927612e-02
-6.380700320005416870e-02
5.912310909479856491e-03
1.096913218498229980e-01
-1.202805340290069580e-01
-3.837450593709945679e-02
-3.023190796375274658e-01
3.113801479339599609e-01
-4.145523905754089355e-01
3.351994156837463379e-01
-3.602223694324493408e-01
-6.152541637420654297e-01
-3.543248772621154785e-01
-2.583924531936645508e-01
-4.146900493651628494e-03
-1.802852749824523926e-01
-9.044948220252990723e-02
-4.072950780391693115e-01
-3.781820535659790039e-01
-2.661591172218322754e-01
-2.294629812240600586e-01
-9.246310591697692871e-02
-9.349585510790348053e-03
-3.782713040709495544e-02
-2.789998352527618408e-01
-1.015081182122230530e-01
-3.010579571127891541e-02
-7.276697456836700439e-02
-1.645099967718124390e-01
-1.621300578117370605e-01
-1.506557017564773560e-01
1.067245304584503174e-01
-7.244765013456344604e-02
-5.239988490939140320e-02
-2.074979543685913086e-01
-1.376238167285919189e-01
-2.519886195659637451e-01
-2.929953932762145996e-01
-2.084697037935256958e-01
-3.069420158863067627e-01
-1.447441875934600830e-01
-5.211486816406250000e-01
-1.140518300235271454e-02
1.276241894811391830e-02
-3.796008825302124023e-01
-1.537376195192337036e-01
2.499652951955795288e-01
-2.629163563251495361e-01
-1.569786369800567627e-01
-5.496024340391159058e-02
-5.030113831162452698e-02
-1.270361095666885376e-01
5.248484015464782715e-02
-1.488648355007171631e-01
4.353802651166915894e-03
-3.194575607776641846e-01
-1.930383294820785522e-01
8.253997191786766052e-03
4.200911149382591248e-02
-2.188303768634796143e-01
-2.886684834957122803e-01
-5.762526765465736389e-02
-1.072776969522237778e-02
-2.234828919172286987e-01
4.263237714767456055e-01
1.925430595874786377e-01
9.256893396377563477e-02
-9.954405948519706726e-03
-7.012454420328140259e-02
3.074533641338348389e-01
-2.227769345045089722e-01
1.720536351203918457e-01
-9.093958139419555664e-02
1.583310663700103760e-01
2.466189116239547729e-01
-1.404003351926803589e-01
1.253367066383361816e-01
4.567610025405883789e-01
-1.058049649000167847e-01
-2.316661365330219269e-02
8.081179857254028320e-02
2.679222635924816132e-02
-4.719669744372367859e-02
-3.941859304904937744e-02
-6.048771319910883904e-04
-7.369740307331085205e-02
2.721900641918182373e-01
-4.159954786300659180e-01
2.254449874162673950e-01
1.163723021745681763e-01
-7.209559530019760132e-02
1.152078732848167419e-01
-1.995228230953216553e-01
2.900730967521667480e-01
3.636608645319938660e-02
-9.410326369106769562e-03
-1.587146520614624023e-02
-1.007235497236251831e-01
3.975569009780883789e-01
-3.538630306720733643e-01
-7.886260747909545898e-03
1.341656744480133057e-01
2.688758373260498047e-01
-1.258134990930557251e-01
4.324174486100673676e-03
-3.285767138004302979e-01
2.527428567409515381e-01
-1.440219730138778687e-01
-2.768153250217437744e-01
1.910026744008064270e-02
3.327292501926422119e-01
1.839940845966339111e-01
-5.889582037925720215e-01
-5.624337792396545410e-01
-1.215472698211669922e+00
-6.568492054939270020e-01
-2.970380783081054688e-01
-7.277500033378601074e-01
-7.951481342315673828e-01
-7.162163853645324707e-01
-4.824005663394927979e-01
-3.662006258964538574e-01
-9.120745062828063965e-01
-4.286905527114868164e-01
-5.315338373184204102e-01
-6.707608699798583984e-01
-5.739282369613647461e-01
-8.541342020034790039e-01
-9.266773462295532227e-01
-3.602805733680725098e-01
-1.158881664276123047e+00
-1.289358377456665039e+00
4.622112810611724854e-01
-6.585039496421813965e-01
3.661992847919464111e-01
1.178010702133178711e-01
-1.049065962433815002e-01
-1.506117917597293854e-02
-2.366815693676471710e-02
1.473470181226730347e-01
-1.542649716138839722e-01
1.047687903046607971e-01
-1.290734708309173584e-01
-3.403751552104949951e-02
3.038176298141479492e-01
-1.070635616779327393e-01
4.729214608669281006e-01
-4.924497008323669434e-01
3.713733851909637451e-01
3.137745708227157593e-02
-2.357285469770431519e-01
5.007160082459449768e-02
-4.048182815313339233e-02
8.245830982923507690e-02
-1.269922107458114624e-01
2.146077305078506470e-01
-1.839169561862945557e-01
2.544586956501007080e-01
-3.151073157787322998e-01
1.942229717969894409e-01
-4.087859392166137695e-02
-3.507194668054580688e-02
1.078143417835235596e-01
-9.143368899822235107e-02
-8.424836397171020508e-02
1.209692358970642090e-01
4.793724417686462402e-01
-2.513786554336547852e-01
3.301523029804229736e-01
3.554592132568359375e-01
2.397160083055496216e-01
4.226056337356567383e-01
3.167204856872558594e-01
-3.840653598308563232e-01
4.444766342639923096e-01
1.910816431045532227e-01
5.939102172851562500e-02
5.495756864547729492e-01
3.666315674781799316e-01
1.602359265089035034e-01
1.731917709112167358e-01
-1.568761765956878662e-01
-3.214436024427413940e-02
5.576540157198905945e-02
2.321337535977363586e-02
1.810321211814880371e-01
-1.767893284559249878e-01
4.708233475685119629e-02
-1.403186172246932983e-01
3.305183351039886475e-01
1.437913328409194946e-01
3.399385511875152588e-02
4.235331341624259949e-02
1.342981308698654175e-02
1.828530877828598022e-01
-1.224958747625350952e-01
1.549771279096603394e-01
-2.288851141929626465e-01
-7.247187942266464233e-02
2.268144190311431885e-01
5.254583358764648438e-01
-2.909197211265563965e-01
2.961930930614471436e-01
4.372817277908325195e-01
2.611025571823120117e-01
-1.259972155094146729e-01
3.341210484504699707e-01
-1.848057955503463745e-01
3.163104504346847534e-02
4.563549160957336426e-01
1.477665174752473831e-02
1.388661116361618042e-01
-2.555324882268905640e-02
7.168212532997131348e-02
-4.892032742500305176e-01
1.441543251276016235e-01
3.289451599121093750e-01
-9.375251829624176025e-03
-2.594882249832153320e-01
4.882606118917465210e-02
-8.376504480838775635e-02
-4.263047501444816589e-02
-3.819067478179931641e-01
5.540603771805763245e-03
6.293745338916778564e-02
-9.154108911752700806e-02
-2.716401815414428711e-01
1.808348447084426880e-01
1.295530647039413452e-01
-4.693407565355300903e-02
1.239434257149696350e-01
-1.818877309560775757e-01
3.109009265899658203e-01
2.498313188552856445e-01
2.771440446376800537e-01
-1.321197301149368286e-02
7.708431035280227661e-02
1.871215403079986572e-01
1.451480239629745483e-01
-1.472245994955301285e-02
-1.364196389913558960e-01
5.763590335845947266e-02
2.654673159122467041e-01
-1.680206656455993652e-01
1.265889108180999756e-01
1.549908518791198730e-01
4.989011585712432861e-02
2.100189924240112305e-01
-2.388772219419479370e-01
-5.219254493713378906e-01
1.034043803811073303e-01
-1.506431847810745239e-01
-6.716310046613216400e-03
-6.523904204368591309e-02
-3.236011862754821777e-01
-1.492252498865127563e-01
9.052635170519351959e-03
1.909119635820388794e-01
6.279189139604568481e-02
3.280821144580841064e-01
-5.392448306083679199e-01
1.574136912822723389e-01
4.435974359512329102e-01
-2.149190008640289307e-01
-2.388146519660949707e-01
-1.881470233201980591e-01
2.390500456094741821e-01
4.460448622703552246e-01
-8.342685550451278687e-02
3.022803366184234619e-01
-2.103193402290344238e-01
1.815764755010604858e-01
-1.265445500612258911e-01
2.330252230167388916e-01
-2.150402963161468506e-01
7.473180443048477173e-02
-1.551244594156742096e-02
2.365772053599357605e-02
5.639265105128288269e-02
2.438464015722274780e-01
-2.843763530254364014e-01
2.614625692367553711e-01
1.811210960149765015e-01
-2.987503111362457275e-01
9.399135410785675049e-02
1.483363062143325806e-01
-2.077807635068893433e-01
2.997613251209259033e-01
-2.964122295379638672e-01
3.562188148498535156e-01
-1.069668903946876526e-01
7.048430293798446655e-02
1.789040267467498779e-01
-3.576775193214416504e-01
-3.362579271197319031e-02
-4.338547587394714355e-02
1.473143994808197021e-01
-1.163040250539779663e-01
4.829101860523223877e-01
-3.150291368365287781e-02
7.891322672367095947e-02
-2.220359295606613159e-01
-7.309671044349670410e-01
-2.037262469530105591e-01
-6.853261590003967285e-01
-3.747917711734771729e-01
-3.634864985942840576e-01
-3.534207940101623535e-01
-2.622625529766082764e-01
2.277806103229522705e-01
2.460063099861145020e-01
-3.928520083427429199e-01
-1.560050845146179199e-01
-3.668428957462310791e-01
-1.735195368528366089e-01
7.796885073184967041e-02
-8.718907237052917480e-01
-3.745738267898559570e-01
-4.590030014514923096e-01
-2.746118903160095215e-01
-1.425772160291671753e-01
-3.249633014202117920e-01
-3.033915460109710693e-01
-3.830349147319793701e-01
9.012657403945922852e-02
-4.370103478431701660e-01
-9.029012918472290039e-02
-6.628789901733398438e-01
-9.580787271261215210e-02
-1.946912333369255066e-02
-6.908274888992309570e-01
-5.304696559906005859e-01
-1.974804252386093140e-01
-3.514003157615661621e-01
-4.341304302215576172e-01
-5.880064368247985840e-01
9.221887588500976562e-02
3.325206041336059570e-01
2.013267129659652710e-01
-1.482002437114715576e-01
2.796685993671417236e-01
1.953635178506374359e-02
2.349010854959487915e-01
-1.072735786437988281e-01
1.017865613102912903e-01
7.440517842769622803e-02
-2.686910331249237061e-01
-2.778283506631851196e-02
5.675893425941467285e-01
1.533968448638916016e-01
-1.352487597614526749e-02
2.329509705305099487e-01
8.084886707365512848e-03
-1.666438579559326172e-02
5.503848940134048462e-02
-4.220834746956825256e-02
2.500112354755401611e-02
4.980427213013172150e-03
-4.995744302868843079e-02
-1.788154989480972290e-02
-1.570860110223293304e-02
-7.527185976505279541e-02
8.296786248683929443e-02
7.485809922218322754e-02
-6.836231052875518799e-02
-1.010852120816707611e-02
3.514946624636650085e-02
2.791462466120719910e-02
-5.657466873526573181e-02
-1.574296131730079651e-02
-6.542207598686218262e-01
-4.263753071427345276e-02
-8.890596777200698853e-02
-5.125608444213867188e-01
9.395612031221389771e-02
-5.142810568213462830e-02
-1.659551709890365601e-01
4.828692600131034851e-02
-4.794814288616180420e-01
1.669214963912963867e-01
-1.431171000003814697e-01
-6.551099419593811035e-01
1.899569779634475708e-01
-5.207661390304565430e-01
8.899854868650436401e-02
2.769321501255035400e-01
-1.140930354595184326e-01
5.112408995628356934e-01
1.842414140701293945e-01
2.132931053638458252e-01
-3.673700392246246338e-01
2.780866622924804688e-01
-1.730180978775024414e-01
2.880303263664245605e-01
-3.991205394268035889e-01
2.748852968215942383e-01
4.210248589515686035e-01
-3.430015444755554199e-01
9.863219410181045532e-02
1.302543934434652328e-02
1.683264821767807007e-01
-3.709211200475692749e-02
6.021327897906303406e-02
-1.644644886255264282e-02
-5.047974586486816406e-01
-1.837874501943588257e-01
-2.464790344238281250e-01
-1.982714980840682983e-01
-2.882456779479980469e-01
9.980267286300659180e-02
1.628772765398025513e-01
-2.541295886039733887e-01
5.705112218856811523e-02
1.232713162899017334e-01
-2.573998868465423584e-01
-2.267981134355068207e-02
1.725986152887344360e-01
-1.506737321615219116e-01
2.468281239271163940e-01
8.339664340019226074e-01
3.022549152374267578e-01
2.588008642196655273e-01
-6.167504563927650452e-02
2.843554019927978516e-01
-3.234997391700744629e-01
4.147932529449462891e-01
-1.749634742736816406e-02
-9.633440524339675903e-03
1.287894994020462036e-01
2.601029872894287109e-01
6.885118484497070312e-01
-6.416030228137969971e-02
-1.162635982036590576e-01
-1.333444714546203613e-01
6.103859543800354004e-01
1.267835348844528198e-01
-1.099024936556816101e-01
5.597262382507324219e-01
3.265498280525207520e-01
1.189980059862136841e-01
-1.802386045455932617e-01
-9.341002255678176880e-02
-9.361695498228073120e-02
3.410457074642181396e-01
4.368804767727851868e-02
-8.654820173978805542e-02
1.745155639946460724e-02
1.882232725620269775e-01
2.925488166511058807e-02
-7.931989431381225586e-02
1.803506910800933838e-01
2.314236760139465332e-01
6.700301170349121094e-01
-2.745550870895385742e-01
2.219213992357254028e-01
3.221098184585571289e-01
3.246827721595764160e-01
1.041373014450073242e-01
3.523844107985496521e-02
4.218973517417907715e-01
4.366417601704597473e-02
-1.072365045547485352e-01
8.331658900715410709e-04
1.216877549886703491e-01
3.371843993663787842e-01
4.475038647651672363e-01
-6.041327863931655884e-02
2.232960015535354614e-01
2.285785824060440063e-01
4.812883138656616211e-01
2.994968891143798828e-01
3.854973912239074707e-01
-3.329264521598815918e-01
3.064511530101299286e-02
1.513753831386566162e-01
9.866896271705627441e-02
-1.381572037935256958e-01
-6.889031082391738892e-02
-1.813129484653472900e-01
-1.241886094212532043e-01
-7.074037194252014160e-02
8.087665587663650513e-02
5.374839156866073608e-02
1.129089519381523132e-01
8.964724093675613403e-02
-3.407023251056671143e-01
-2.874573171138763428e-01
2.054648250341415405e-01
4.479682818055152893e-02
7.195115834474563599e-02
2.464076429605484009e-01
-2.200281918048858643e-01
-2.504781782627105713e-01
8.507029712200164795e-02
2.021395415067672729e-01
-6.997996568679809570e-02
8.530100435018539429e-02
1.090148612856864929e-01
-7.248934358358383179e-02
1.340709179639816284e-01
2.513867914676666260e-01
-7.351319491863250732e-02
-3.540513664484024048e-02
2.841415703296661377e-01
-2.766067683696746826e-01
1.354923099279403687e-01
1.301365196704864502e-01
-5.499410629272460938e-02
1.765097826719284058e-01
1.158532798290252686e-01
8.192091481760144234e-04
-1.959094107151031494e-01
3.358033299446105957e-01
-1.380631327629089355e-01
1.203478053212165833e-01
3.562955558300018311e-01
-4.933748543262481689e-01
-3.149493783712387085e-02
8.262774348258972168e-02
1.899911649525165558e-02
5.383534729480743408e-02
-7.899790257215499878e-02
-8.516737818717956543e-02
3.053477406501770020e-01
1.024613007903099060e-01
-1.256756186485290527e-01
-2.991154789924621582e-01
6.254967451095581055e-01
-2.774395048618316650e-01
-1.648168861865997314e-01
1.190287992358207703e-01
1.345370262861251831e-01
2.588746510446071625e-02
1.385641992092132568e-01
3.971755970269441605e-03
-1.121137142181396484e-01
1.533701866865158081e-01
1.868838071823120117e-01
-1.420117318630218506e-01
3.215133771300315857e-02
3.502166271209716797e-02
-6.398375034332275391e-01
1.938596069812774658e-01
1.164069995284080505e-01
-4.033125936985015869e-01
1.808855533599853516e-01
1.868695616722106934e-01
-4.702799320220947266e-01
-1.106054261326789856e-01
6.774228215217590332e-01
1.687255352735519409e-01
-7.842066138982772827e-02
2.100539505481719971e-01
-2.243419885635375977e-01
5.379904508590698242e-01
4.418933987617492676e-01
4.892044067382812500e-01
5.959514379501342773e-01
7.660281658172607422e-01
5.060756802558898926e-01
3.076694309711456299e-01
6.379122734069824219e-01
6.343046426773071289e-01
3.602435886859893799e-01
6.878539919853210449e-02
-2.329687029123306274e-02
-2.009204179048538208e-01
2.033118903636932373e-01
9.681289792060852051e-01
-4.937340319156646729e-01
6.172448396682739258e-01
1.014970541000366211e+00
9.243851304054260254e-01
7.081993222236633301e-01
-2.695808887481689453e+00
-2.774902820587158203e+00
-1.500364542007446289e+00
-1.542579412460327148e+00
-1.974590301513671875e+00
-2.384235858917236328e+00
-1.907791495323181152e+00
-1.880503177642822266e+00
-1.188799977302551270e+00
-2.269328117370605469e+00
-2.305588245391845703e+00
-1.822500467300415039e+00
-2.645622014999389648e+00
-3.300890922546386719e+00
-2.043476402759552002e-01
3.078387975692749023e-01
-1.053871139883995056e-01
-6.176495179533958435e-02
-2.626783028244972229e-02
1.266629695892333984e-01
-7.628552615642547607e-02
1.697000563144683838e-01
-8.297543227672576904e-02
2.487253099679946899e-01
-1.454210728406906128e-01
-4.471240639686584473e-01
5.162210464477539062e-01
-3.717507421970367432e-02
-1.814403235912322998e-01
2.883572876453399658e-01
5.237229168415069580e-02
-2.078760564327239990e-01
3.909154534339904785e-01
-5.847766995429992676e-01
1.006951089948415756e-02
5.193733572959899902e-01
8.505361527204513550e-02
-1.091125458478927612e-01
2.854163050651550293e-01
5.398436188697814941e-01
-3.237638622522354126e-02
-1.457638591527938843e-01
2.562583684921264648e-01
1.667740345001220703e-01
-2.580699324607849121e-01
3.076615929603576660e-01
2.625206410884857178e-01
-5.660009384155273438e-02
2.829615771770477295e-01
5.938011780381202698e-02
-2.458981573581695557e-01
-3.005436249077320099e-02
1.815191470086574554e-02
1.215699128806591034e-02
-6.771162897348403931e-02
5.702660977840423584e-02
-2.005008012056350708e-01
5.470147728919982910e-02
1.531225070357322693e-02
-3.653157129883766174e-02
-3.829930722713470459e-02
-8.913988620042800903e-02
1.119341403245925903e-01
1.593360095284879208e-03
1.082058399915695190e-01
-2.311678603291511536e-02
4.651774168014526367e-01
-3.543635010719299316e-01
3.424198925495147705e-01
7.912737131118774414e-02
-1.437589079141616821e-01
-1.951782256364822388e-01
1.276199221611022949e-01
1.069539263844490051e-01
4.661519452929496765e-02
-2.995446920394897461e-01
4.144426286220550537e-01
-1.823678314685821533e-01
2.144611626863479614e-01
9.682485461235046387e-02
-1.791891604661941528e-01
2.462698221206665039e-01
2.839930653572082520e-01
-4.820758402347564697e-01
-1.586466841399669647e-02
4.193757772445678711e-01
2.867116928100585938e-01
3.421086072921752930e-02
-1.330426335334777832e-01
8.012667531147599220e-04
1.734592020511627197e-01
-1.659308075904846191e-01
-3.196243941783905029e-02
-2.891150675714015961e-02
-1.285794526338577271e-01
-8.394543081521987915e-02
-1.392999291419982910e-01
1.330121755599975586e-01
1.345465183258056641e-01
1.322644650936126709e-01
2.132807374000549316e-01
-4.518670961260795593e-02
-5.791035890579223633e-01
5.826078057289123535e-01
-1.390402317047119141e-01
1.774070858955383301e-01
-1.780820637941360474e-01
4.022149443626403809e-01
-3.419915139675140381e-01
1.689559370279312134e-01
2.600235342979431152e-01
-4.038375020027160645e-01
1.817140430212020874e-01
-2.894898056983947754e-01
1.626039147377014160e-01
-2.386999428272247314e-01
1.582352966070175171e-01
-1.998081952333450317e-01
-7.841259241104125977e-02
2.007105797529220581e-01
6.999035179615020752e-02
9.928789734840393066e-02
7.005044072866439819e-02
-1.464759111404418945e-01
2.045826166868209839e-01
5.640666559338569641e-02
1.358599960803985596e-01
3.076830506324768066e-02
2.252715453505516052e-02
-1.792797446250915527e-02
2.989025115966796875e-01
2.616667449474334717e-01
-1.176856830716133118e-01
-2.223394066095352173e-02
1.788845062255859375e-01
2.191632091999053955e-01
1.694122254848480225e-01
2.707850188016891479e-02
1.131978332996368408e-01
-4.363587200641632080e-01
4.200482368469238281e-02
-1.272611618041992188e-01
-4.551694169640541077e-02
-9.249245375394821167e-02
5.768512561917304993e-02
4.965284839272499084e-02
-1.574249118566513062e-01
1.100115403532981873e-01
4.694414138793945312e-01
-6.756166219711303711e-01
-5.418471693992614746e-01
-3.471809253096580505e-02
1.629600822925567627e-01
8.757320046424865723e-02
-1.622292846441268921e-01
5.426868796348571777e-03
2.211926132440567017e-01
-5.189523473381996155e-02
-2.279050946235656738e-01
-7.065082341432571411e-02
-4.303056001663208008e-02
-3.389615714550018311e-01
-8.425354212522506714e-02
1.212961003184318542e-01
1.010369285941123962e-01
9.618756920099258423e-02
2.390033192932605743e-02
-4.399162717163562775e-03
1.523726712912321091e-02
-4.255476593971252441e-01
6.004921197891235352e-01
-4.929845631122589111e-01
4.744909703731536865e-01
-2.296145111322402954e-01
5.360081791877746582e-01
1.186135858297348022e-01
-1.871930956840515137e-01
2.479077726602554321e-01
7.817345112562179565e-02
-1.243915334343910217e-01
8.035362362861633301e-01
-5.324647426605224609e-01
4.551477730274200439e-01
2.137311100959777832e-01
-4.853076040744781494e-01
-8.143253624439239502e-02
9.244815446436405182e-03
-2.738766670227050781e-01
-2.632778696715831757e-02
-1.355253159999847412e-01
-3.302680850028991699e-01
-2.249802649021148682e-01
2.609075419604778290e-02
-3.824659585952758789e-01
3.111707866191864014e-01
-3.674606680870056152e-01
-3.286391496658325195e-01
5.435584858059883118e-02
1.041848808526992798e-01
-5.505293980240821838e-02
-1.420710533857345581e-01
-2.193538421124685556e-05
-8.229193091392517090e-02
-6.929891109466552734e-01
9.831190854310989380e-02
8.046236038208007812e-01
8.225246332585811615e-03
4.143012464046478271e-01
-1.171082258224487305e-01
1.403959244489669800e-01
6.288213282823562622e-02
3.632299005985260010e-01
3.159692883491516113e-01
-3.529953956604003906e-01
9.185262769460678101e-02
-2.307402640581130981e-01
2.879218459129333496e-01
-4.303656518459320068e-02
-4.014270901679992676e-01
-2.811989486217498779e-01
2.407989352941513062e-01
7.630553096532821655e-02
-3.516339063644409180e-01
3.540093302726745605e-01
-8.313197642564773560e-02
-1.115605160593986511e-01
-1.648604422807693481e-01
8.271112293004989624e-02
-1.681287586688995361e-02
1.596576347947120667e-02
-2.725965678691864014e-01
1.235590428113937378e-01
3.907962739467620850e-01
-2.947242856025695801e-01
-6.831702589988708496e-02
2.223093211650848389e-01
-2.850015759468078613e-01
1.773209869861602783e-01
1.969984173774719238e-01
1.101680938154459000e-02
2.578761801123619080e-02
9.336783550679683685e-03
5.483395233750343323e-02
2.548721134662628174e-01
-1.863965690135955811e-01
3.317588269710540771e-01
-1.746548563241958618e-01
-7.615879178047180176e-02
3.117469549179077148e-01
-3.161330521106719971e-01
-1.370331943035125732e-01
9.289643168449401855e-02
1.843362003564834595e-01
2.811298668384552002e-01
4.108665883541107178e-01
2.933213114738464355e-01
4.259901121258735657e-02
7.921063341200351715e-03
2.907779514789581299e-01
3.194771409034729004e-01
7.174447178840637207e-02
2.282411009073257446e-01
2.535089850425720215e-01
2.319797575473785400e-01
-3.309734761714935303e-01
-1.345758140087127686e-01
5.498183146119117737e-02
3.231187760829925537e-01
4.379361495375633240e-02
3.865785002708435059e-01
4.234153926372528076e-01
6.013053655624389648e-01
3.934284746646881104e-01
-8.607971668243408203e-02
1.903785765171051025e-01
3.022553622722625732e-01
-3.301957249641418457e-01
2.075119018554687500e-01
1.225463449954986572e-01
1.094335988163948059e-01
-4.684102535247802734e-02
-6.284200400114059448e-02
4.500232636928558350e-01
-2.586857378482818604e-01
-1.000434830784797668e-01
1.213256567716598511e-01
-2.525099813938140869e-01
1.138388291001319885e-01
-1.453424692153930664e-01
1.051793545484542847e-01
8.570321649312973022e-02
-2.559656091034412384e-02
4.265412315726280212e-02
7.804919779300689697e-02
-1.084012389183044434e-01
7.569326460361480713e-02
5.843845009803771973e-02
-2.166641056537628174e-01
1.109160184860229492e-01
-3.748577535152435303e-01
1.439836472272872925e-01
2.152650989592075348e-02
-2.116347402334213257e-01
3.697941005229949951e-01
4.438332840800285339e-02
-3.875140845775604248e-02
3.197591304779052734e-01
2.368371486663818359e-01
-5.193815100938081741e-03
-2.535753138363361359e-02
1.644076257944107056e-01
9.744485467672348022e-02
1.738525778055191040e-01
-1.795376092195510864e-01
1.643364876508712769e-01
-1.243169978260993958e-01
2.163523137569427490e-01
-4.371180012822151184e-02
2.463132701814174652e-02
3.741952776908874512e-01
-4.094384014606475830e-01
-3.195439639966934919e-04
9.921860881149768829e-03
-3.190731704235076904e-01
1.877628117799758911e-01
-3.360898494720458984e-01
2.170074731111526489e-01
-2.703311443328857422e-01
4.285123944282531738e-02
-8.494394272565841675e-02
-1.142154783010482788e-01
1.974381953477859497e-01
-2.593903243541717529e-01
9.176940470933914185e-02
-1.862387806177139282e-01
-1.395564079284667969e-01
3.476209044456481934e-01
-4.260917007923126221e-01
2.190420329570770264e-01
-1.583030074834823608e-01
2.402538955211639404e-01
-2.800604999065399170e-01
1.036605760455131531e-01
-3.009040355682373047e-01
-5.340551584959030151e-02
4.056452214717864990e-01
1.121218726038932800e-01
-5.556745827198028564e-02
1.734133362770080566e-01
-1.441658586263656616e-01
-1.010039225220680237e-01
-1.566521357744932175e-03
3.507708013057708740e-01
-1.327090114355087280e-01
5.463781356811523438e-01
2.426718473434448242e-01
-5.638986360281705856e-03
-8.332005701959133148e-03
1.345394998788833618e-01
2.495366334915161133e-01
-4.266054928302764893e-02
-4.917705804109573364e-02
2.022351883351802826e-02
1.556428074836730957e-01
7.577873766422271729e-02
2.533381581306457520e-01
1.051558256149291992e-01
2.958550453186035156e-01
1.453566700220108032e-01
4.648930430412292480e-01
4.281233251094818115e-02
4.634512960910797119e-01
1.165477484464645386e-01
-1.051981970667839050e-01
7.391349673271179199e-01
-2.526659965515136719e-01
-1.170567572116851807e-01
-3.312566550448536873e-03
-1.369753032922744751e-01
5.131253004074096680e-01
-1.867658346891403198e-01
-1.358285397291183472e-01
-1.465357095003128052e-01
2.297179698944091797e-01
-1.692178994417190552e-01
2.056019846349954605e-03
-1.239888370037078857e-01
8.250133693218231201e-02
-1.947467923164367676e-01
-1.810601949691772461e-01
1.450679302215576172e-01
-2.159381210803985596e-01
1.271987259387969971e-01
8.762464672327041626e-02
-1.712034791707992554e-01
-4.495057463645935059e-02
-3.317840099334716797e-01
-2.771829068660736084e-01
2.922837436199188232e-01
1.742653250694274902e-01
-3.252496197819709778e-02
-6.431074142456054688e-01
-6.261442601680755615e-02
-2.129393070936203003e-02
-3.915481567382812500e-01
6.299392879009246826e-02
4.570132493972778320e-02
1.952008157968521118e-01
-1.615197509527206421e-01
6.234752014279365540e-02
-1.951167583465576172e-01
2.055580466985702515e-01
6.055172905325889587e-02
2.459129095077514648e-01
-2.602486014366149902e-01
-1.983322799205780029e-01
4.213495552539825439e-01
-1.007366329431533813e-01
4.454019665718078613e-02
3.581902384757995605e-02
-1.047014296054840088e-01
-1.233599409461021423e-01
3.752989768981933594e-01
6.633703708648681641e-01
5.339247584342956543e-01
1.513060182332992554e-01
4.823031127452850342e-01
-5.806793645024299622e-02
3.730717599391937256e-01
-6.623908877372741699e-02
2.381293028593063354e-01
-1.670223325490951538e-01
6.831402182579040527e-01
1.342287510633468628e-01
-4.974818527698516846e-01
1.047435104846954346e-01
1.171814054250717163e-01
-1.165673434734344482e-01
1.347007602453231812e-01
-1.169315353035926819e-01
-4.460364580154418945e-02
1.743859946727752686e-01
-5.075614452362060547e-01
4.373080134391784668e-01
-6.209415197372436523e-01
-1.432904601097106934e-01
-1.231833472847938538e-01
-2.921136617660522461e-01
2.568107545375823975e-01
-2.597808241844177246e-01
3.994194418191909790e-02
-3.681588172912597656e-01
1.344640702009201050e-01
-1.915020048618316650e-01
-6.610031127929687500e-01
-9.773776531219482422e-01
-6.487417817115783691e-01
-1.860774159431457520e-01
-8.804734796285629272e-02
-1.166442316025495529e-02
-2.520667202770709991e-02
6.865745037794113159e-02
3.622416406869888306e-02
-1.761031746864318848e-01
-1.231388971209526062e-01
-8.459798991680145264e-02
-6.425239145755767822e-02
-2.051077336072921753e-01
-1.140203028917312622e-01
-3.070742636919021606e-02
-1.111593544483184814e-01
-1.809410601854324341e-01
-6.411547213792800903e-02
1.240840274840593338e-02
-9.876081347465515137e-02
-4.914661943912506104e-01
-9.546600282192230225e-02
7.130343466997146606e-02
-1.013239845633506775e-01
1.004072502255439758e-01
2.491308562457561493e-02
-1.148944869637489319e-01
-1.080757528543472290e-01
5.629096627235412598e-01
-4.699707627296447754e-01
3.583513200283050537e-01
-3.433199524879455566e-01
1.409755945205688477e-01
-4.077313060406595469e-04
-2.515836358070373535e-01
1.207006573677062988e+00
8.380791544914245605e-01
1.028188988566398621e-01
1.235019490122795105e-01
6.554518938064575195e-01
-1.427416596561670303e-02
9.700742363929748535e-02
2.120279707014560699e-02
-1.394678205251693726e-01
2.485171556472778320e-01
-3.963379263877868652e-01
2.063649594783782959e-01
-8.058821409940719604e-02
-2.172775268554687500e-01
-1.677878499031066895e-01
-2.442147880792617798e-01
7.656248211860656738e-01
3.345555067062377930e-01
4.015230536460876465e-01
2.591468095779418945e-01
1.642070859670639038e-01
-5.593732371926307678e-02
1.100734770298004150e-01
-1.426785532385110855e-02
-2.255905978381633759e-02
-7.200141251087188721e-02
-1.707435213029384613e-02
7.398165762424468994e-02
-1.223891228437423706e-01
-4.710942972451448441e-03
-2.870748937129974365e-01
3.243231773376464844e-01
-4.145338535308837891e-01
3.479637205600738525e-01
-3.422056138515472412e-01
-6.240395903587341309e-01
-3.227945864200592041e-01
-2.593159377574920654e-01
-2.350293798372149467e-03
-1.847465485334396362e-01
-1.004273295402526855e-01
-3.611343502998352051e-01
-3.686533570289611816e-01
-2.952380180358886719e-01
-1.774474382400512695e-01
-9.529040008783340454e-02
1.930363848805427551e-02
-7.680165022611618042e-02
-2.582393586635589600e-01
-7.418420910835266113e-02
1.692923530936241150e-02
-8.598441630601882935e-02
-1.595105677843093872e-01
-1.043841764330863953e-01
-1.481316536664962769e-01
1.268707662820816040e-01
-8.623831719160079956e-02
-1.514223963022232056e-02
-1.688418835401535034e-01
-1.264392882585525513e-01
-2.349080890417098999e-01
-2.712889909744262695e-01
-1.862334161996841431e-01
-2.930327355861663818e-01
-1.193792596459388733e-01
-5.242224931716918945e-01
5.475459620356559753e-02
-7.173730526119470596e-03
-3.289152681827545166e-01
-1.400742828845977783e-01
2.628318369388580322e-01
-2.893101572990417480e-01
-1.966056078672409058e-01
-1.400460582226514816e-02
-6.374228000640869141e-02
-8.495239168405532837e-02
4.135397821664810181e-02
-1.440648734569549561e-01
-2.798060514032840729e-02
-3.207615911960601807e-01
-2.176471501588821411e-01
2.505682781338691711e-02
3.799121826887130737e-02
-2.177697271108627319e-01
-3.233355879783630371e-01
-5.094016715884208679e-02
-1.091660745441913605e-02
-2.329360991716384888e-01
4.322012960910797119e-01
1.866153031587600708e-01
4.514881968498229980e-02
-4.443148151040077209e-02
-9.557447582483291626e-02
2.758344709873199463e-01
-2.312081903219223022e-01
1.740669757127761841e-01
-1.235050633549690247e-01
1.022239774465560913e-01
2.430934906005859375e-01
-1.357294619083404541e-01
7.438655942678451538e-02
3.962812125682830811e-01
-1.131126880645751953e-01
-1.470686402171850204e-02
6.844733655452728271e-02
3.227098612114787102e-03
-2.552059851586818695e-02
-7.336689531803131104e-02
4.162536934018135071e-02
-8.265592157840728760e-02
2.470279783010482788e-01
-3.974999189376831055e-01
2.351526170969009399e-01
1.306425929069519043e-01
-8.592686802148818970e-02
7.934989035129547119e-02
-2.403873056173324585e-01
3.032998144626617432e-01
4.018004611134529114e-02
-2.804140001535415649e-02
-6.859602872282266617e-03
-7.032836228609085083e-02
4.017080366611480713e-01
-3.879796266555786133e-01
-1.480576209723949432e-02
1.577980965375900269e-01
2.757459878921508789e-01
-1.193302944302558899e-01
-1.881417632102966309e-02
-3.371079862117767334e-01
2.571763098239898682e-01
-1.045679375529289246e-01
-2.755083739757537842e-01
1.433822978287935257e-02
3.143872916698455811e-01
1.854322701692581177e-01
-5.585652589797973633e-01
-5.433493852615356445e-01
-1.174605250358581543e+00
-6.378484964370727539e-01
-2.782255113124847412e-01
-7.078531384468078613e-01
-7.756772041320800781e-01
-6.771716475486755371e-01
-5.106250047683715820e-01
-3.666259944438934326e-01
-8.611793518066406250e-01
-3.896625638008117676e-01
-5.152162909507751465e-01
-6.368231177330017090e-01
-5.828285813331604004e-01
-8.054397702217102051e-01
-8.756281137466430664e-01
-3.087382018566131592e-01
-1.096536278724670410e+00
-1.268514394760131836e+00
4.702606797218322754e-01
-6.561588048934936523e-01
3.484071195125579834e-01
1.549258232116699219e-01
-1.024106517434120178e-01
6.720195990055799484e-03
-1.358491368591785431e-02
1.098017394542694092e-01
-1.822735518217086792e-01
1.285778135061264038e-01
-1.114283427596092224e-01
-2.782947849482297897e-03
3.177593648433685303e-01
-1.266341954469680786e-01
4.644913971424102783e-01
-4.971282184123992920e-01
3.272380828857421875e-01
-1.446142559871077538e-04
-2.671377956867218018e-01
1.720407418906688690e-02
-6.361257284879684448e-02
1.041609123349189758e-01
-1.371190249919891357e-01
1.987756788730621338e-01
-2.169411480426788330e-01
2.937513589859008789e-01
-3.337599635124206543e-01
1.968939304351806641e-01
-7.720513641834259033e-02
-4.663750901818275452e-02
1.222670599818229675e-01
-9.001932293176651001e-02
-7.606051862239837646e-02
1.061633899807929993e-01
4.645300805568695068e-01
-2.463019341230392456e-01
3.164939284324645996e-01
2.877564430236816406e-01
1.806000769138336182e-01
3.860346972942352295e-01
3.065600097179412842e-01
-3.841202259063720703e-01
4.184546470642089844e-01
2.024444192647933960e-01
3.614433482289314270e-02
5.494617223739624023e-01
3.873351514339447021e-01
1.411460191011428833e-01
1.888681948184967041e-01
-1.638220399618148804e-01
-1.789887994527816772e-02
9.868524223566055298e-02
1.745254360139369965e-02
1.565383970737457275e-01
-1.693679988384246826e-01
8.016923069953918457e-02
-1.254866868257522583e-01
3.092304468154907227e-01
1.074603125452995300e-01
4.595088586211204529e-02
7.702657580375671387e-02
2.068508602678775787e-02
1.678500771522521973e-01
-1.200333386659622192e-01
1.445230394601821899e-01
-2.078402191400527954e-01
-4.956413060426712036e-02
1.862871646881103516e-01
5.498858094215393066e-01
-3.210240900516510010e-01
2.794768512248992920e-01
4.349761605262756348e-01
2.671341300010681152e-01
-1.183912009000778198e-01
2.916624248027801514e-01
-1.851654648780822754e-01
-2.248753234744071960e-02
4.460177719593048096e-01
4.463428631424903870e-02
1.018202975392341614e-01
-4.533438012003898621e-02
4.156718496233224869e-03
-4.518675804138183594e-01
1.292629837989807129e-01
3.515470027923583984e-01
-6.086556985974311829e-02
-2.390095293521881104e-01
3.661247342824935913e-02
-7.338463515043258667e-02
-6.279636919498443604e-02
-3.688937723636627197e-01
3.513379767537117004e-02
6.665869802236557007e-02
-6.939586251974105835e-02
-3.049947917461395264e-01
1.950474679470062256e-01
1.244337335228919983e-01
-7.843261212110519409e-02
1.703280657529830933e-01
-1.507028490304946899e-01
3.510940074920654297e-01
2.476230263710021973e-01
2.778241932392120361e-01
-9.903429076075553894e-03
6.148444488644599915e-02
1.952757686376571655e-01
1.313150674104690552e-01
-2.441512979567050934e-02
-1.394533365964889526e-01
5.977191403508186340e-02
2.857243716716766357e-01
-1.357707828283309937e-01
9.316159784793853760e-02
1.352414488792419434e-01
3.810287266969680786e-02
1.497349143028259277e-01
-2.181450277566909790e-01
-5.358624458312988281e-01
1.014221236109733582e-01
-1.134174764156341553e-01
1.691286568529903889e-03
-4.969346523284912109e-02
-3.319234549999237061e-01
-1.554600149393081665e-01
4.288214445114135742e-02
1.898159086704254150e-01
5.137002468109130859e-02
2.946515679359436035e-01
-5.636314749717712402e-01
1.718630790710449219e-01
4.882053434848785400e-01
-1.810460835695266724e-01
-2.009756416082382202e-01
-1.703725606203079224e-01
2.165129035711288452e-01
4.146174788475036621e-01
-4.436397552490234375e-02
2.931076884269714355e-01
-2.496587187051773071e-01
1.639698594808578491e-01
-1.395644098520278931e-01
1.908793300390243530e-01
-2.668354213237762451e-01
8.548502624034881592e-02
-4.134209454059600830e-02
4.773503914475440979e-02
3.898015990853309631e-02
2.765465378761291504e-01
-3.006911873817443848e-01
2.843243181705474854e-01
1.207981258630752563e-01
-3.258398175239562988e-01
1.300240755081176758e-01
1.327392905950546265e-01
-1.951382160186767578e-01
2.760597169399261475e-01
-2.832082211971282959e-01
3.255205452442169189e-01
-1.219989284873008728e-01
3.532093018293380737e-02
1.898648738861083984e-01
-3.093983530998229980e-01
-4.462616518139839172e-02
-3.894944861531257629e-02
8.891773223876953125e-02
-1.256951391696929932e-01
5.058417916297912598e-01
-4.416715353727340698e-02
6.899065524339675903e-02
-2.547039985656738281e-01
-6.860777735710144043e-01
-2.191189527511596680e-01
-7.188189029693603516e-01
-3.519562482833862305e-01
-3.702393174171447754e-01
-3.981831371784210205e-01
-2.491461038589477539e-01
2.216422706842422485e-01
2.598677575588226318e-01
-3.977431952953338623e-01
-1.909646689891815186e-01
-3.271083533763885498e-01
-1.858619451522827148e-01
5.452720448374748230e-02
-8.576608300209045410e-01
-3.477848172187805176e-01
-4.056216776371002197e-01
-2.691988050937652588e-01
-1.521919518709182739e-01
-3.585547804832458496e-01
-3.086526095867156982e-01
-3.124647438526153564e-01
1.141596883535385132e-01
-3.962269723415374756e-01
-4.179964587092399597e-02
-6.302453875541687012e-01
-7.510743290185928345e-02
-1.938597857952117920e-02
-6.759467720985412598e-01
-5.107721090316772461e-01
-1.619988530874252319e-01
-3.680921792984008789e-01
-4.369914829730987549e-01
-5.188462138175964355e-01
1.090063676238059998e-01
3.020920157432556152e-01
2.181739211082458496e-01
-1.464131772518157959e-01
2.791932523250579834e-01
5.936153978109359741e-02
1.803260296583175659e-01
-7.229125499725341797e-02
1.060405522584915161e-01
8.266977965831756592e-02
-2.373289614915847778e-01
-3.094080649316310883e-02
5.266616940498352051e-01
1.200195252895355225e-01
-1.511864177882671356e-02
2.324992567300796509e-01
1.552747376263141632e-02
-3.289190307259559631e-02
6.429577618837356567e-02
-3.641675040125846863e-02
2.405695430934429169e-02
3.127527981996536255e-02
-4.757321998476982117e-02
-1.753245014697313309e-03
4.722783342003822327e-03
-8.830690383911132812e-02
4.955957084894180298e-02
8.457891643047332764e-02
-8.638282120227813721e-02
-5.301640834659337997e-03
1.128622330725193024e-02
5.912243388593196869e-03
-5.624281242489814758e-02
-1.912540383636951447e-02
-6.437590122222900391e-01
-5.786541849374771118e-02
-1.242986619472503662e-01
-5.208647847175598145e-01
8.491807430982589722e-02
-8.828042075037956238e-03
-1.925281882286071777e-01
6.744929403066635132e-02
-4.723498225212097168e-01
1.454955786466598511e-01
-1.102716997265815735e-01
-6.709715127944946289e-01
2.168695181608200073e-01
-5.170416831970214844e-01
1.054570302367210388e-01
3.275926113128662109e-01
-9.213191270828247070e-02
4.863764643669128418e-01
1.879594177007675171e-01
1.710657030344009399e-01
-3.470362126827239990e-01
3.235292136669158936e-01
-2.206031978130340576e-01
3.114915788173675537e-01
-3.709728121757507324e-01
2.694227099418640137e-01
3.682349920272827148e-01
-3.445682525634765625e-01
7.591609656810760498e-02
1.176262740045785904e-02
1.567161232233047485e-01
-6.608148664236068726e-02
7.615028321743011475e-02
-5.428633093833923340e-02
-4.901250302791595459e-01
-1.726350188255310059e-01
-2.072187811136245728e-01
-1.546247899532318115e-01
-3.033588826656341553e-01
1.015839129686355591e-01
1.874014586210250854e-01
-2.517200112342834473e-01
3.734160214662551880e-02
1.523826867341995239e-01
-2.461391538381576538e-01
-1.138894725590944290e-02
1.678377389907836914e-01
-1.782209575176239014e-01
2.477747052907943726e-01
7.738061547279357910e-01
3.136003613471984863e-01
2.297357469797134399e-01
-9.391181170940399170e-02
2.709080874919891357e-01
-3.150395154953002930e-01
4.218786358833312988e-01
-2.214426174759864807e-02
-6.335037201642990112e-02
1.648925989866256714e-01
2.629688084125518799e-01
6.884811520576477051e-01
-5.506372824311256409e-02
-1.330844759941101074e-01
-1.121564358472824097e-01
6.583953499794006348e-01
1.187326386570930481e-01
-1.256270706653594971e-01
5.533538460731506348e-01
2.951942384243011475e-01
1.651699841022491455e-01
-1.258493661880493164e-01
-1.106541380286216736e-01
-8.911076188087463379e-02
3.568344116210937500e-01
3.058974817395210266e-02
-5.351153761148452759e-02
-2.770764566957950592e-02
1.773348003625869751e-01
2.987589873373508453e-02
-9.831197559833526611e-02
1.526074558496475220e-01
2.172894775867462158e-01
6.540929079055786133e-01
-2.997163236141204834e-01
1.598561853170394897e-01
3.546795547008514404e-01
3.031409084796905518e-01
1.147808730602264404e-01
5.010646581649780273e-02
4.190496802330017090e-01
4.269661009311676025e-02
-1.544541120529174805e-01
-2.409368194639682770e-02
9.643089026212692261e-02
3.203125298023223877e-01
4.185623228549957275e-01
-7.649763673543930054e-02
2.228374779224395752e-01
1.713521033525466919e-01
4.406609237194061279e-01
2.508582770824432373e-01
3.557586371898651123e-01
-3.021371662616729736e-01
1.643579266965389252e-02
1.742449849843978882e-01
9.767785668373107910e-02
-1.194329410791397095e-01
-7.300497591495513916e-02
-1.960462331771850586e-01
-1.358574628829956055e-01
-7.353022694587707520e-02
7.234579324722290039e-02
6.622716039419174194e-02
1.496760547161102295e-01
9.930342435836791992e-02
-2.912319004535675049e-01
-2.815814018249511719e-01
1.705729365348815918e-01
1.736684516072273254e-02
7.134631276130676270e-02
2.581371963024139404e-01
-1.748151779174804688e-01
-2.348972558975219727e-01
6.091434136033058167e-02
2.243650108575820923e-01
-5.942906066775321960e-02
8.474387228488922119e-02
1.279327124357223511e-01
-9.167213737964630127e-02
1.055823192000389099e-01
2.332789748907089233e-01
-3.621589019894599915e-02
-5.758777633309364319e-02
2.360511273145675659e-01
-2.288090735673904419e-01
1.361127197742462158e-01
1.226383447647094727e-01
-8.283390663564205170e-03
1.880247592926025391e-01
1.019506752490997314e-01
6.671885959804058075e-03
-1.969548463821411133e-01
3.368962109088897705e-01
-1.414737105369567871e-01
1.716381758451461792e-01
3.691136538982391357e-01
-4.670254588127136230e-01
-2.716762386262416840e-02
8.101759850978851318e-02
1.710458099842071533e-02
5.808323994278907776e-02
-2.413618937134742737e-02
-3.904397785663604736e-02
2.945983409881591797e-01
9.194702655076980591e-02
-1.254055798053741455e-01
-2.918976843357086182e-01
6.054147481918334961e-01
-2.863046228885650635e-01
-1.483417302370071411e-01
9.557124227285385132e-02
1.472268998622894287e-01
-8.519106544554233551e-03
1.580262631177902222e-01
3.463085275143384933e-03
-1.280591040849685669e-01
1.803652644157409668e-01
2.077929228544235229e-01
-1.378495991230010986e-01
7.363335788249969482e-02
6.927482038736343384e-02
-6.214537024497985840e-01
1.898378729820251465e-01
7.756654173135757446e-02
-3.655591309070587158e-01
1.592619866132736206e-01
1.682706773281097412e-01
-4.403321146965026855e-01
-1.119398251175880432e-01
6.191946864128112793e-01
1.666566431522369385e-01
-1.088064685463905334e-01
2.018665224313735962e-01
-1.900645643472671509e-01
5.090250372886657715e-01
4.336930215358734131e-01
4.359489679336547852e-01
6.091459989547729492e-01
7.350417971611022949e-01
4.982662200927734375e-01
3.191759586334228516e-01
6.078970432281494141e-01
5.870563387870788574e-01
3.893448412418365479e-01
4.436270892620086670e-02
-6.100802496075630188e-02
-2.036572545766830444e-01
1.595858782529830933e-01
9.632388353347778320e-01
-5.253169536590576172e-01
5.874152779579162598e-01
9.547676444053649902e-01
9.548546671867370605e-01
6.810323596000671387e-01
-2.633399009704589844e+00
-2.785331010818481445e+00
-1.479269623756408691e+00
-1.508843183517456055e+00
-1.930548667907714844e+00
-2.347063064575195312e+00
-1.900796175003051758e+00
-1.844977498054504395e+00
-1.127778530120849609e+00
-2.264674425125122070e+00
-2.311527490615844727e+00
-1.787834286689758301e+00
-2.642326354980468750e+00
-3.287111043930053711e+00
-1.667204201221466064e-01
2.920417785644531250e-01
-1.037404984235763550e-01
-5.554652959108352661e-02
-1.890843547880649567e-02
1.202758625149726868e-01
-6.468659639358520508e-02
1.807532310485839844e-01
-8.562625199556350708e-02
2.614747881889343262e-01
-1.523056328296661377e-01
-4.216858744621276855e-01
5.124402642250061035e-01
-4.994600638747215271e-02
-2.206187397241592407e-01
2.803258299827575684e-01
1.954157277941703796e-02
-2.081530988216400146e-01
3.893973827362060547e-01
-5.635933279991149902e-01
2.498676255345344543e-02
5.178749561309814453e-01
7.438523322343826294e-02
-1.263992488384246826e-01
2.480224370956420898e-01
5.783689618110656738e-01
-4.463981464505195618e-02
-1.089474782347679138e-01
2.663115561008453369e-01
1.793638616800308228e-01
-2.751693427562713623e-01
3.175316751003265381e-01
2.455313056707382202e-01
-2.107422240078449249e-02
3.008212447166442871e-01
7.312520593404769897e-02
-2.214321792125701904e-01
-8.590636774897575378e-03
1.370058977045118809e-03
1.020148675888776779e-02
-3.420595452189445496e-02
4.721997305750846863e-02
-2.044077813625335693e-01
4.028804227709770203e-02
1.049273298121988773e-03
6.682516075670719147e-03
-1.741226576268672943e-02
-9.182248264551162720e-02
1.388280987739562988e-01
-1.019499264657497406e-02
1.210908070206642151e-01
-2.075760811567306519e-02
4.421012401580810547e-01
-3.702318966388702393e-01
3.090196847915649414e-01
9.078087657690048218e-02
-9.655787050724029541e-02
-2.157655358314514160e-01
1.313689649105072021e-01
9.670490771532058716e-02
4.776634648442268372e-02
-2.994424998760223389e-01
3.731549978256225586e-01
-1.539340168237686157e-01
2.249248921871185303e-01
8.379650115966796875e-02
-1.529089063405990601e-01
2.330783754587173462e-01
2.692849934101104736e-01
-4.969891011714935303e-01
-1.259876880794763565e-02
4.172954559326171875e-01
2.426843047142028809e-01
-1.641583256423473358e-02
-1.557578593492507935e-01
-2.272604266181588173e-03
1.638259738683700562e-01
-1.447991281747817993e-01
-4.593351855874061584e-02
-7.250914722681045532e-02
-1.537774652242660522e-01
-8.812655508518218994e-02
-1.613324135541915894e-01
9.625716507434844971e-02
1.444884985685348511e-01
1.699917465448379517e-01
2.092098444700241089e-01
-5.700277537107467651e-02
-5.656434297561645508e-01
5.597259998321533203e-01
-8.768078684806823730e-02
1.728844642639160156e-01
-1.598218679428100586e-01
4.008224904537200928e-01
-3.680330514907836914e-01
1.678174138069152832e-01
2.699238657951354980e-01
-4.245627522468566895e-01
2.087110280990600586e-01
-2.616319060325622559e-01
1.574926078319549561e-01
-2.527007758617401123e-01
1.536825299263000488e-01
-1.715452969074249268e-01
-8.947950601577758789e-02
2.243462204933166504e-01
7.408847659826278687e-02
1.094786226749420166e-01
1.028519272804260254e-01
-1.340794265270233154e-01
2.516820132732391357e-01
2.354217320680618286e-02
1.335220336914062500e-01
3.028034232556819916e-02
-1.635188423097133636e-02
1.914623938500881195e-02
2.799682915210723877e-01
2.779116928577423096e-01
-1.302603930234909058e-01
-1.434342470020055771e-02
1.876520812511444092e-01
2.297062873840332031e-01
1.971984505653381348e-01
4.708062484860420227e-02
1.274049431085586548e-01
-4.521725177764892578e-01
7.269018888473510742e-02
-8.972646296024322510e-02
-6.794622540473937988e-02
-7.881165295839309692e-02
2.812342904508113861e-02
6.568805873394012451e-02
-1.266353130340576172e-01
9.059259295463562012e-02
4.427975416183471680e-01
-6.682043075561523438e-01
-5.401992797851562500e-01
-4.552475363016128540e-02
1.739836037158966064e-01
6.691460311412811279e-02
-1.503101438283920288e-01
6.482474040240049362e-03
2.007896155118942261e-01
-5.849461629986763000e-02
-1.970081776380538940e-01
-8.024014532566070557e-02
-9.389100596308708191e-03
-3.173154592514038086e-01
-9.685995429754257202e-02
1.281929016113281250e-01
5.306777730584144592e-02
7.378638535737991333e-02
3.498298302292823792e-02
5.836909986101090908e-04
2.911456860601902008e-02
-4.205301403999328613e-01
-6.075180172920227051e-01
5.358381867408752441e-01
-4.957481920719146729e-01
2.465957105159759521e-01
-5.690492391586303711e-01
-1.311564743518829346e-01
1.574532687664031982e-01
-3.138224780559539795e-01
-1.305532455444335938e-01
1.663501262664794922e-01
-8.046815991401672363e-01
4.953319728374481201e-01
-4.749849140644073486e-01
-2.300565242767333984e-01
5.145269036293029785e-01
8.698189258575439453e-02
-6.322143226861953735e-02
2.605253159999847412e-01
3.185277059674263000e-02
1.126607209444046021e-01
3.143756687641143799e-01
2.249516546726226807e-01
-1.142905838787555695e-02
3.817529380321502686e-01
-3.523519933223724365e-01
4.082975685596466064e-01
3.733039200305938721e-01
-3.174998983740806580e-02
-1.195624619722366333e-01
9.469179809093475342e-02
1.356064379215240479e-01
-1.377827674150466919e-02
9.814503043889999390e-02
7.302569150924682617e-01
-1.096187382936477661e-01
-7.846199274063110352e-01
2.598220482468605042e-02
-4.271289110183715820e-01
1.677976399660110474e-01
-1.351032257080078125e-01
-9.945377707481384277e-02
-3.244206011295318604e-01
-3.080762326717376709e-01
3.756914734840393066e-01
-5.237434804439544678e-02
1.978995054960250854e-01
-2.923981547355651855e-01
3.879145532846450806e-02
4.051640033721923828e-01
2.536440491676330566e-01
-2.438080608844757080e-01
-7.408521324396133423e-02
3.293682932853698730e-01
-3.560337722301483154e-01
8.180686831474304199e-02
9.059391170740127563e-02
1.618610471487045288e-01
-3.411601856350898743e-02
-1.642505405470728874e-03
3.404641523957252502e-02
3.009703159332275391e-01
-8.464904129505157471e-02
-3.922182619571685791e-01
3.055602312088012695e-01
7.930994033813476562e-02
-2.443974167108535767e-01
2.546220421791076660e-01
-1.351330429315567017e-01
-1.521496772766113281e-01
-3.102753497660160065e-02
-4.599526152014732361e-02
2.624070085585117340e-02
-3.058591671288013458e-02
-2.285733669996261597e-01
2.087369263172149658e-01
-3.596713542938232422e-01
2.145214378833770752e-01
7.174887508153915405e-02
-3.314546942710876465e-01
3.469156920909881592e-01
1.759778559207916260e-01
-5.519835650920867920e-02
-2.232552021741867065e-01
-3.068759143352508545e-01
-4.684138000011444092e-01
-3.358632326126098633e-01
-9.760481119155883789e-02
-9.221277385950088501e-02
-2.858275175094604492e-01
-3.643779456615447998e-01
-5.583278089761734009e-02
-2.687815129756927490e-01
-2.898046672344207764e-01
-2.617743611335754395e-01
2.852102220058441162e-01
8.619644492864608765e-02
-1.021033972501754761e-01
-3.698873221874237061e-01
-3.836943209171295166e-02
-4.700597822666168213e-01
-4.491993188858032227e-01
-7.165911197662353516e-01
-4.176673889160156250e-01
7.250958681106567383e-02
-1.901058852672576904e-01
-3.127999603748321533e-01
3.173522651195526123e-01
-1.947280615568161011e-01
-1.563884913921356201e-01
-1.012051776051521301e-01
7.388997077941894531e-02
7.621876895427703857e-02
-4.872258007526397705e-01
2.691146731376647949e-01
9.696630388498306274e-02
-1.658058017492294312e-01
2.254581004381179810e-01
-1.226973235607147217e-01
1.183826476335525513e-01
-1.280877292156219482e-01
-9.278172254562377930e-02
1.066254545003175735e-02
-7.917560636997222900e-02
-4.650468751788139343e-02
1.121265143156051636e-01
-1.069611683487892151e-01
-7.743696123361587524e-02
1.750966310501098633e-01
-1.578980833292007446e-01
3.397472798824310303e-01
-1.332236081361770630e-01
-4.179359972476959229e-02
1.663679778575897217e-01
-3.470073640346527100e-01
-4.642807692289352417e-02
5.452413111925125122e-02
-3.113826513290405273e-01
-1.933739334344863892e-01
9.653559536673128605e-04
4.935126006603240967e-02
-1.466098725795745850e-01
-1.016364023089408875e-01
-1.889733523130416870e-01
1.764784902334213257e-01
-1.348576247692108154e-01
1.228463053703308105e-01
-2.344567030668258667e-01
4.226512834429740906e-02
-2.960246801376342773e-02
-3.719204068183898926e-01
3.749149739742279053e-01
-1.546966005116701126e-02
5.162823945283889771e-03
2.911526262760162354e-01
-2.248381674289703369e-01
2.995254099369049072e-01
-2.218673825263977051e-01
2.496835142374038696e-01
-6.577360630035400391e-02
3.732695057988166809e-02
4.924486204981803894e-02
-2.168270051479339600e-01
2.309835553169250488e-01
-1.378656774759292603e-01
1.745921969413757324e-01
1.674201488494873047e-01
-3.430833816528320312e-01
4.692564904689788818e-01
-2.375606894493103027e-01
1.433112770318984985e-01
-1.989835798740386963e-01
2.881780862808227539e-01
-8.563384413719177246e-02
2.826898396015167236e-01
8.212720602750778198e-02
-4.064827561378479004e-01
-8.571775257587432861e-02
2.079898491501808167e-02
-1.542042046785354614e-01
1.859265118837356567e-01
9.460302442312240601e-02
4.351232573390007019e-02
-3.727303147315979004e-01
1.405377686023712158e-01
-5.481344461441040039e-01
-2.348751574754714966e-01
4.716295003890991211e-02
9.598445147275924683e-03
-1.236466690897941589e-01
-2.874851822853088379e-01
4.928642511367797852e-02
4.089496284723281860e-02
-5.918781086802482605e-02
-1.851590722799301147e-01
-5.362580716609954834e-02
-2.208279967308044434e-01
-1.520711481571197510e-01
-2.911845147609710693e-01
-9.365789592266082764e-02
-4.781550765037536621e-01
2.070040814578533173e-02
-4.628667235374450684e-01
-7.907475531101226807e-02
1.605508923530578613e-01
-7.824850082397460938e-01
2.971899509429931641e-01
1.294013112783432007e-01
5.091337952762842178e-03
1.639631837606430054e-01
-5.026741027832031250e-01
2.062498182058334351e-01
1.822907477617263794e-01
1.640393286943435669e-01
-2.098128348588943481e-01
2.227365523576736450e-01
-1.385444588959217072e-02
1.195785775780677795e-01
-5.680140852928161621e-02
1.847622841596603394e-01
1.207615807652473450e-01
-1.258125305175781250e-01
2.100334018468856812e-01
-1.393729746341705322e-01
-9.741590917110443115e-02
1.725339740514755249e-01
-1.034467853605747223e-02
3.102568984031677246e-01
2.674678564071655273e-01
-3.025730848312377930e-01
-1.928120255470275879e-01
2.990358322858810425e-02
6.087481975555419922e-01
-1.066778507083654404e-02
7.393292151391506195e-03
3.827526569366455078e-01
-7.494004815816879272e-02
-9.280072897672653198e-02
-1.688170284032821655e-01
1.186803951859474182e-01
-7.672856003046035767e-02
1.858341097831726074e-01
-2.410991340875625610e-01
-1.070172414183616638e-01
-3.044715523719787598e-01
2.589899301528930664e-01
1.645079851150512695e-01
-4.357867836952209473e-01
8.708582073450088501e-02
-1.236568540334701538e-01
-3.785327821969985962e-02
9.040370583534240723e-02
9.384323656558990479e-02
-4.231604933738708496e-01
-6.571629643440246582e-01
-5.606992244720458984e-01
-1.247852221131324768e-01
-4.878990650177001953e-01
9.507324546575546265e-03
-3.879669010639190674e-01
3.989901021122932434e-02
-2.415884733200073242e-01
1.583650708198547363e-01
-6.602713465690612793e-01
-1.867460757493972778e-01
4.831965863704681396e-01
-1.087556406855583191e-01
-1.175115332007408142e-01
1.154216676950454712e-01
-1.090515404939651489e-01
1.179681494832038879e-01
9.606974571943283081e-02
-1.900302767753601074e-01
5.109408497810363770e-01
-4.318004250526428223e-01
6.213936805725097656e-01
1.748315691947937012e-01
1.314921677112579346e-01
3.298104703426361084e-01
-2.005897313356399536e-01
2.433841526508331299e-01
4.050572402775287628e-03
3.836675286293029785e-01
-1.307405680418014526e-01
2.430217713117599487e-01
6.938086748123168945e-01
1.024536371231079102e+00
6.226680278778076172e-01
1.764637678861618042e-01
7.223232835531234741e-02
3.061220794916152954e-02
4.045685008168220520e-02
-9.207423776388168335e-02
-1.264493074268102646e-02
1.396841555833816528e-01
1.301845461130142212e-01
1.139254346489906311e-01
6.825112551450729370e-02
1.857663840055465698e-01
9.058499336242675781e-02
2.111701108515262604e-02
1.098121851682662964e-01
1.605771183967590332e-01
8.600729703903198242e-02
-6.955284625291824341e-02
9.918408095836639404e-02
5.188502669334411621e-01
1.173042953014373779e-01
-5.271057784557342529e-02
1.281580626964569092e-01
-9.449483454227447510e-02
-1.348961517214775085e-02
1.231122538447380066e-01
1.417593210935592651e-01
-5.631318688392639160e-01
4.799050986766815186e-01
-3.671389520168304443e-01
3.614881932735443115e-01
-8.620905131101608276e-02
4.135290160775184631e-03
2.790928781032562256e-01
-1.156968712806701660e+00
-8.585010170936584473e-01
-1.103850826621055603e-01
-8.599606156349182129e-02
-6.698054671287536621e-01
4.076779261231422424e-02
-5.084884166717529297e-02
3.909688908606767654e-03
1.478100568056106567e-01
-2.732606530189514160e-01
3.952586352825164795e-01
-2.036277502775192261e-01
6.813269853591918945e-02
2.346250116825103760e-01
2.024907469749450684e-01
2.566985487937927246e-01
-7.971546053886413574e-01
-3.207806646823883057e-01
-3.232167661190032959e-01
-2.395200580358505249e-01
-1.852664351463317871e-01
7.098284363746643066e-02
-1.597087085247039795e-01
1.347192004323005676e-02
2.811695076525211334e-02
1.118022277951240540e-01
-2.552611380815505981e-02
-5.845271050930023193e-02
1.279127299785614014e-01
1.266260072588920593e-02
2.999316751956939697e-01
-3.414052724838256836e-01
4.256538450717926025e-01
-3.067395389080047607e-01
3.304714262485504150e-01
5.909517407417297363e-01
2.943427264690399170e-01
2.602912485599517822e-01
1.357478182762861252e-02
1.476024836301803589e-01
9.183340519666671753e-02
3.783270120620727539e-01
3.820370137691497803e-01
2.430248707532882690e-01
1.987441480159759521e-01
8.021757006645202637e-02
-6.316094845533370972e-02
2.304954081773757935e-02
2.659474015235900879e-01
8.753711730241775513e-02
6.295532453805208206e-03
1.089486479759216309e-01
1.315976381301879883e-01
1.417058259248733521e-01
1.172713190317153931e-01
-1.289070695638656616e-01
4.237803444266319275e-02
-1.729264482855796814e-02
1.613821387290954590e-01
9.607709199190139771e-02
2.142478078603744507e-01
2.542820274829864502e-01
1.867090165615081787e-01
2.744508683681488037e-01
1.041133999824523926e-01
5.433642268180847168e-01
-5.183520540595054626e-02
-3.041151911020278931e-02
3.716386258602142334e-01
1.463918536901473999e-01
-3.086479604244232178e-01
2.343900203704833984e-01
1.273076534271240234e-01
3.774346783757209778e-02
3.727110475301742554e-02
8.847118914127349854e-02
-1.056373417377471924e-01
9.620774537324905396e-02
-3.447075560688972473e-02
3.250591456890106201e-01
1.892412304878234863e-01
-7.098231930285692215e-03
-3.795771673321723938e-02
1.757227331399917603e-01
2.798904478549957275e-01
3.107224218547344208e-02
9.118742309510707855e-03
2.681387960910797119e-01
-4.510497748851776123e-01
-1.913190633058547974e-01
-4.749875515699386597e-02
1.073851948603987694e-03
8.872563391923904419e-02
-2.585940957069396973e-01
2.260117828845977783e-01
-1.055384278297424316e-01
1.069085747003555298e-01
-1.055023819208145142e-01
-1.954040527343750000e-01
1.318005174398422241e-01
-9.905254095792770386e-02
-4.208890199661254883e-01
7.245030999183654785e-02
5.409512296319007874e-02
-5.345443263649940491e-02
9.043836966156959534e-03
3.338962048292160034e-02
4.431877657771110535e-02
-1.762482523918151855e-02
7.596223801374435425e-02
-2.205917239189147949e-01
3.783861398696899414e-01
-2.369819730520248413e-01
-1.306317895650863647e-01
1.115880236029624939e-01
-1.138782501220703125e-01
2.177252173423767090e-01
-3.144334256649017334e-01
-3.534907475113868713e-02
3.062505088746547699e-02
3.379858657717704773e-02
1.333956867456436157e-01
-3.767431378364562988e-01
3.668601810932159424e-01
-7.512843701988458633e-03
-1.402195096015930176e-01
-2.456125020980834961e-01
1.610547006130218506e-01
3.075644001364707947e-02
3.202478587627410889e-01
-2.119126915931701660e-01
1.160808354616165161e-01
2.514151334762573242e-01
-2.103563956916332245e-02
-2.898571789264678955e-01
-1.526615768671035767e-01
5.712127685546875000e-01
5.223537087440490723e-01
1.204239964485168457e+00
6.278053522109985352e-01
2.723121643066406250e-01
6.951831579208374023e-01
7.403193116188049316e-01
6.663079857826232910e-01
4.794020652770996094e-01
3.232957422733306885e-01
8.452038168907165527e-01
4.164079427719116211e-01
5.375916957855224609e-01
5.948859453201293945e-01
5.763235092163085938e-01
8.113405108451843262e-01
8.902610540390014648e-01
3.632101714611053467e-01
1.123688697814941406e+00
1.293488740921020508e+00
-4.959905147552490234e-01
6.851579546928405762e-01
-3.702033758163452148e-01
-1.257425546646118164e-01
1.079445704817771912e-01
-5.068007390946149826e-03
1.753602549433708191e-02
-1.484118849039077759e-01
1.802162975072860718e-01
-9.463372826576232910e-02
1.463281512260437012e-01
7.709832862019538879e-03
-2.795570790767669678e-01
1.101127415895462036e-01
-4.813283085823059082e-01
5.014021992683410645e-01
-3.369615674018859863e-01
2.243786118924617767e-02
2.435967624187469482e-01
-5.463511124253273010e-02
6.588273495435714722e-02
-1.102708876132965088e-01
1.506028771400451660e-01
-2.255360186100006104e-01
1.915821582078933716e-01
-2.472596615552902222e-01
3.263564407825469971e-01
-1.450547724962234497e-01
4.458651691675186157e-02
3.517285734415054321e-02
-1.123608350753784180e-01
7.042036205530166626e-02
8.674974739551544189e-02
-1.462778747081756592e-01
-4.878256916999816895e-01
1.881546676158905029e-01
-3.176067173480987549e-01
-3.585666120052337646e-01
-2.347571402788162231e-01
-3.754186630249023438e-01
-3.097037672996520996e-01
3.370080590248107910e-01
-4.528703093528747559e-01
-2.224406301975250244e-01
-9.558366239070892334e-02
-5.842225551605224609e-01
-3.944172859191894531e-01
-1.266981959342956543e-01
-1.604992449283599854e-01
2.021976411342620850e-01
4.214925691485404968e-02
-6.622270494699478149e-02
-1.894057914614677429e-02
-1.712488085031509399e-01
1.788003444671630859e-01
-8.502573519945144653e-02
1.372433751821517944e-01
-3.067748248577117920e-01
-1.018830835819244385e-01
-3.706157580018043518e-02
-5.533356219530105591e-02
-8.934976533055305481e-03
-1.922021061182022095e-01
1.528214067220687866e-01
-1.940887719392776489e-01
1.640018671751022339e-01
6.613437831401824951e-02
-2.177323251962661743e-01
-5.555022954940795898e-01
3.295336663722991943e-01
-3.117854893207550049e-01
-4.580609202384948730e-01
-2.536122798919677734e-01
1.699981838464736938e-01
-2.961774170398712158e-01
1.791222542524337769e-01
-1.977967470884323120e-02
-4.554450511932373047e-01
-7.581023499369621277e-03
-1.140245348215103149e-01
2.290762960910797119e-02
-6.481416057795286179e-03
4.284487068653106689e-01
-1.815210431814193726e-01
-3.403761684894561768e-01
8.309339173138141632e-03
2.190850824117660522e-01
-9.110385924577713013e-02
5.756341293454170227e-02
2.065923810005187988e-02
3.721511662006378174e-01
-1.379517093300819397e-02
-8.017480373382568359e-02
7.246901094913482666e-02
2.548938393592834473e-01
-1.691317707300186157e-01
-1.162315085530281067e-01
5.108596011996269226e-02
-1.829465329647064209e-01
1.855704933404922485e-01
-3.359115123748779297e-01
-2.319747805595397949e-01
-2.730106711387634277e-01
-2.506350283510982990e-04
-9.115280210971832275e-02
-2.073186933994293213e-01
-1.047018840909004211e-01
1.568833179771900177e-02
1.507584601640701294e-01
-4.817824065685272217e-02
-2.790722250938415527e-01
1.381528675556182861e-01
-1.105879172682762146e-01
-1.221479624509811401e-01
-3.569542989134788513e-02
-1.779088675975799561e-01
2.100014388561248779e-01
5.113238096237182617e-01
-6.325754523277282715e-02
1.143219694495201111e-01
1.377924252301454544e-02
9.032685309648513794e-02
3.042607009410858154e-01
1.371354311704635620e-01
-1.353832893073558807e-02
-2.092999219894409180e-01
-5.711061507463455200e-02
-3.082737922668457031e-01
5.324286818504333496e-01
-1.566967368125915527e-01
-4.792253673076629639e-01
2.056697905063629150e-01
2.198835909366607666e-01
1.667012274265289307e-01
-2.404846101999282837e-01
-4.330426454544067383e-01
9.131124615669250488e-02
-2.721250355243682861e-01
2.714360058307647705e-01
-2.123390138149261475e-01
1.288811415433883667e-01
-2.011673152446746826e-01
2.432845532894134521e-01
-1.053653135895729065e-01
2.071417123079299927e-02
-3.682696819305419922e-02
-3.975090757012367249e-02
-2.229733914136886597e-01
2.923029065132141113e-01
-2.845880687236785889e-01
-1.419695019721984863e-01
2.869132161140441895e-01
-1.439704298973083496e-01
-2.181884795427322388e-01
2.042390555143356323e-01
-2.784177958965301514e-01
2.723116874694824219e-01
-3.874749541282653809e-01
1.044761836528778076e-01
-4.533657059073448181e-02
-1.983949989080429077e-01
3.302455544471740723e-01
5.387644283473491669e-03
2.916625142097473145e-02
-1.486399918794631958e-01
1.083055436611175537e-01
-5.361589193344116211e-01
2.570533566176891327e-02
-5.980537086725234985e-02
2.317176610231399536e-01
7.574766874313354492e-01
2.224473655223846436e-01
6.922476887702941895e-01
3.807886540889739990e-01
3.459604382514953613e-01
3.867092430591583252e-01
2.411147505044937134e-01
-2.117213159799575806e-01
-2.605923414230346680e-01
3.884145617485046387e-01
1.777412891387939453e-01
3.373354375362396240e-01
1.529714316129684448e-01
-6.277526915073394775e-02
9.179077148437500000e-01
3.763441443443298340e-01
4.314834177494049072e-01
2.291917502880096436e-01
1.682036370038986206e-01
3.498586118221282959e-01
3.014404773712158203e-01
3.417686820030212402e-01
-9.822507202625274658e-02
4.083620309829711914e-01
9.785556793212890625e-02
6.167210936546325684e-01
1.051829084753990173e-01
-2.289121039211750031e-02
7.092810869216918945e-01
5.278120040893554688e-01
1.854562908411026001e-01
3.912391066551208496e-01
4.426825642585754395e-01
5.439054369926452637e-01
-9.058104455471038818e-02
-3.010136783123016357e-01
-1.642791479825973511e-01
1.528022140264511108e-01
-2.846571803092956543e-01
-2.452633716166019440e-02
-2.187134623527526855e-01
7.762938737869262695e-02
-9.282018244266510010e-02
-4.559749737381935120e-02
2.861490845680236816e-01
-5.270674824714660645e-03
-5.400608181953430176e-01
-1.081818714737892151e-01
2.852186746895313263e-02
-2.291021794080734253e-01
1.201034523546695709e-02
1.172659546136856079e-02
-5.475069582462310791e-02
7.297497242689132690e-02
-3.079261817038059235e-02
-2.133007720112800598e-02
3.629856556653976440e-02
2.582450397312641144e-03
1.884232833981513977e-02
8.336666226387023926e-02
-5.848627910017967224e-02
-4.164566472172737122e-02
6.812397390604019165e-02
1.680827140808105469e-02
-2.516826614737510681e-03
-1.018440444022417068e-02
3.901955112814903259e-02
3.275293856859207153e-02
6.250056028366088867e-01
7.626306265592575073e-02
1.114850044250488281e-01
5.149753689765930176e-01
-6.439637392759323120e-02
6.649626046419143677e-02
1.899502575397491455e-01
-2.060329914093017578e-02
4.738471806049346924e-01
-1.405280828475952148e-01
1.206953004002571106e-01
6.552263498306274414e-01
-1.883402615785598755e-01
5.117906928062438965e-01
-1.333473473787307739e-01
-3.097607493400573730e-01
1.412319988012313843e-01
-5.163859128952026367e-01
-1.744154691696166992e-01
-2.111243456602096558e-01
3.796957433223724365e-01
-3.026471734046936035e-01
1.748773753643035889e-01
-3.386017978191375732e-01
4.002332091331481934e-01
-2.775958180427551270e-01
-4.113346934318542480e-01
3.207227587699890137e-01
-1.257763057947158813e-01
-1.268259529024362564e-02
-1.509048193693161011e-01
7.822547852993011475e-02
-7.144852727651596069e-02
2.092913165688514709e-02
5.149002075195312500e-01
1.667220294475555420e-01
2.546771168708801270e-01
1.852800995111465454e-01
2.600765526294708252e-01
-1.216534823179244995e-01
-1.709448397159576416e-01
2.782551050186157227e-01
-4.827474057674407959e-02
-1.092040464282035828e-01
2.655948400497436523e-01
-7.371025159955024719e-03
-1.526786834001541138e-01
1.831777244806289673e-01
-2.316754460334777832e-01
-8.475364446640014648e-01
-3.401541709899902344e-01
-2.949802279472351074e-01
4.069731757044792175e-02
-3.424604237079620361e-01
2.755010724067687988e-01
-4.643576443195343018e-01
5.030464380979537964e-02
3.465227410197257996e-02
-1.897961944341659546e-01
-2.328794896602630615e-01
-7.381516098976135254e-01
5.682109668850898743e-02
7.746759802103042603e-02
1.197867095470428467e-01
-6.381474733352661133e-01
-1.513843536376953125e-01
9.258036315441131592e-02
-5.885380506515502930e-01
-3.104456663131713867e-01
-1.012669801712036133e-01
1.969886720180511475e-01
1.281236559152603149e-01
9.916675835847854614e-02
-3.054742515087127686e-01
-2.177288755774497986e-03
7.313674688339233398e-02
1.527693495154380798e-02
-1.528684347867965698e-01
4.998975899070501328e-03
6.152069196105003357e-02
-1.480084806680679321e-01
-2.171837538480758667e-01
-7.153171896934509277e-01
2.611476182937622070e-01
-2.143508046865463257e-01
-3.700399696826934814e-01
-3.580480515956878662e-01
-1.438909322023391724e-01
-1.569751650094985962e-02
-4.453589022159576416e-01
-5.337797105312347412e-02
1.231881082057952881e-01
2.391543053090572357e-02
-1.238693296909332275e-01
-2.964162826538085938e-01
-4.235486686229705811e-01
6.111378595232963562e-02
-1.829002350568771362e-01
-2.316992878913879395e-01
-4.500467479228973389e-01
-2.798325121402740479e-01
-3.867620825767517090e-01
3.289407789707183838e-01
-1.855734735727310181e-03
-1.448552608489990234e-01
-1.194348186254501343e-01
1.065531671047210693e-01
8.281068503856658936e-02
1.660945415496826172e-01
1.313018053770065308e-01
9.720510989427566528e-02
-8.853092044591903687e-02
-9.283231943845748901e-02
-1.614452302455902100e-01
-1.322706043720245361e-01
2.739169597625732422e-01
3.253170847892761230e-01
-1.984351873397827148e-01
-4.709147661924362183e-02
-5.435964465141296387e-02
-2.385653406381607056e-01
1.860949099063873291e-01
2.196978926658630371e-01
-6.446355581283569336e-02
-2.256697267293930054e-01
8.847592025995254517e-02
-1.110635623335838318e-01
-1.000323593616485596e-01
6.573423743247985840e-02
-1.234084665775299072e-01
-2.311647683382034302e-01
3.680726885795593262e-02
2.855374664068222046e-02
-2.344922572374343872e-01
2.816466391086578369e-01
-1.042760983109474182e-01
-1.290969252586364746e-01
1.048091705888509750e-02
-1.715995818376541138e-01
-1.150722429156303406e-01
2.085024490952491760e-02
1.887899786233901978e-01
-3.387297093868255615e-01
1.634435951709747314e-01
-1.595142036676406860e-01
-3.624569177627563477e-01
4.364255666732788086e-01
3.291958943009376526e-02
-5.722482129931449890e-02
2.574355900287628174e-02
-3.907086327672004700e-02
2.866194583475589752e-02
5.013462901115417480e-02
-3.095243573188781738e-01
-5.906157940626144409e-02
1.122521087527275085e-01
2.825837433338165283e-01
-5.869323015213012695e-01
2.836124002933502197e-01
1.903776675462722778e-01
-1.023522466421127319e-01
-1.471587866544723511e-01
-3.442853316664695740e-02
-1.678812056779861450e-01
-1.111744437366724014e-02
1.462212651968002319e-01
-1.792360097169876099e-01
-2.550367414951324463e-01
1.829546689987182617e-01
-6.547695398330688477e-02
-7.054691761732101440e-02
6.292687058448791504e-01
-1.953784674406051636e-01
-9.994164854288101196e-02
3.803194463253021240e-01
-1.434130966663360596e-01
-1.620348840951919556e-01
4.447939395904541016e-01
1.095038428902626038e-01
-6.825165748596191406e-01
-1.825274229049682617e-01
9.837438911199569702e-02
-2.216752618551254272e-01
1.816380918025970459e-01
-5.991808176040649414e-01
-4.449378848075866699e-01
-4.988696873188018799e-01
-6.123761534690856934e-01
-7.575666308403015137e-01
-5.548564791679382324e-01
-3.388614952564239502e-01
-6.466021537780761719e-01
-6.545903682708740234e-01
-4.312008023262023926e-01
-6.389679759740829468e-02
3.771039843559265137e-02
1.845716089010238647e-01
-2.066187709569931030e-01
-1.007495760917663574e+00
4.803700149059295654e-01
-6.046401262283325195e-01
-1.021477222442626953e+00
-9.720568656921386719e-01
-7.547166347503662109e-01
2.602526903152465820e+00
2.724269390106201172e+00
1.461741685867309570e+00
1.499328970909118652e+00
1.955900669097900391e+00
2.329968929290771484e+00
1.868374347686767578e+00
1.813604831695556641e+00
1.128698706626892090e+00
2.228172540664672852e+00
2.288899183273315430e+00
1.753644943237304688e+00
2.577568292617797852e+00
3.222371101379394531e+00
1.594138741493225098e-01
-3.351006507873535156e-01
1.146997138857841492e-01
3.837502375245094299e-02
3.011103346943855286e-02
-8.233892172574996948e-02
5.982349067926406860e-02
-1.825313866138458252e-01
8.609248697757720947e-02
-2.564564645290374756e-01
1.223399862647056580e-01
4.496528804302215576e-01
-5.225639939308166504e-01
4.712630435824394226e-02
1.819887012243270874e-01
-2.715064585208892822e-01
-4.736081138253211975e-02
1.776683926582336426e-01
-4.073772728443145752e-01
5.658735632896423340e-01
-2.282206900417804718e-02
-4.791988134384155273e-01
-6.924458593130111694e-02
1.255572289228439331e-01
-2.869618237018585205e-01
-5.537090301513671875e-01
6.512260437011718750e-02
1.305156499147415161e-01
-2.474149465560913086e-01
-1.529050618410110474e-01
3.059713244438171387e-01
-3.186039924621582031e-01
-2.385495901107788086e-01
9.125056862831115723e-02
-2.849101722240447998e-01
-5.033424869179725647e-02
2.220887392759323120e-01
-7.367588113993406296e-03
-5.756945349276065826e-03
-3.277615457773208618e-02
6.658188253641128540e-02
-7.906564325094223022e-02
1.942256093025207520e-01
-5.726465582847595215e-02
-2.633263915777206421e-02
2.625781297683715820e-02
4.817190021276473999e-02
1.127470508217811584e-01
-1.489570587873458862e-01
1.319979783147573471e-02
-1.158115416765213013e-01
-1.796761713922023773e-02
-4.437486231327056885e-01
4.131511747837066650e-01
-3.261497318744659424e-01
-6.670253723859786987e-02
1.279278546571731567e-01
2.152490019798278809e-01
-9.200649708509445190e-02
-1.472192257642745972e-01
1.794801466166973114e-02
3.084456920623779297e-01
-4.314584732055664062e-01
1.887269467115402222e-01
-1.880137622356414795e-01
-8.366062492132186890e-02
1.713110059499740601e-01
-1.978236138820648193e-01
-2.692275345325469971e-01
5.176258087158203125e-01
1.800582557916641235e-02
-4.082419574260711670e-01
-2.743949890136718750e-01
-2.315364591777324677e-02
1.179113388061523438e-01
3.506362810730934143e-02
-1.377405375242233276e-01
1.639797240495681763e-01
5.937972292304039001e-02
9.079913794994354248e-02
1.691454201936721802e-01
6.370099633932113647e-02
1.939872503280639648e-01
-1.111550703644752502e-01
-1.861941069364547729e-01
-1.543987095355987549e-01
-1.839282810688018799e-01
8.005675673484802246e-02
6.165512800216674805e-01
-5.890610814094543457e-01
9.565216302871704102e-02
-1.801742315292358398e-01
1.195551678538322449e-01
-3.863717019557952881e-01
3.183889687061309814e-01
-1.767998486757278442e-01
-2.495591044425964355e-01
4.380586147308349609e-01
-2.073853909969329834e-01
2.703204452991485596e-01
-1.738087385892868042e-01
2.282706499099731445e-01
-1.741433888673782349e-01
1.747845262289047241e-01
8.617441356182098389e-02
-2.443794757127761841e-01
-6.800998747348785400e-02
-1.108096018433570862e-01
-8.711986988782882690e-02
1.053924784064292908e-01
-2.219344824552536011e-01
-3.737492859363555908e-02
-1.566488444805145264e-01
-4.920316860079765320e-02
5.667701363563537598e-03
2.372092381119728088e-02
-2.844343781471252441e-01
-2.664166688919067383e-01
1.114546656608581543e-01
-4.769888706505298615e-03
-1.866119652986526489e-01
-2.106901109218597412e-01
-1.633699834346771240e-01
-3.423628583550453186e-02
-1.511350870132446289e-01
4.889002442359924316e-01
-5.330733209848403931e-02
1.409523189067840576e-01
6.808394193649291992e-02
8.170116692781448364e-02
-1.377960760146379471e-02
-3.018387034535408020e-02
1.413103789091110229e-01
-1.046783775091171265e-01
-4.961101710796356201e-01
6.818076372146606445e-01
5.678016543388366699e-01
4.894256964325904846e-02
-1.668204814195632935e-01
-7.404501736164093018e-02
1.370672285556793213e-01
6.652111653238534927e-03
-1.812955737113952637e-01
9.956385940313339233e-02
2.024411708116531372e-01
5.366602912545204163e-02
5.049490556120872498e-02
3.239403367042541504e-01
1.127088516950607300e-01
-1.150599494576454163e-01
-5.321699753403663635e-02
-1.046912446618080139e-01
-2.459575422108173370e-02
1.966223679482936859e-02
-2.154926396906375885e-02
4.250143766403198242e-01
-5.752831101417541504e-01
5.131784677505493164e-01
-5.151920318603515625e-01
2.203855365514755249e-01
-5.632262825965881348e-01
-1.601891517639160156e-01
1.667743474245071411e-01
-2.697216868400573730e-01
-1.191858649253845215e-01
1.390303969383239746e-01
-8.253179788589477539e-01
5.128810405731201172e-01
-4.798182547092437744e-01
-2.038199007511138916e-01
5.032681822776794434e-01
3.990244492888450623e-02
-1.037259306758642197e-02
2.487207502126693726e-01
2.900967001914978027e-02
1.178191006183624268e-01
2.942628264427185059e-01
2.744629681110382080e-01
-1.471107639372348785e-02
3.883287608623504639e-01
-3.426605761051177979e-01
3.738526701927185059e-01
3.227989077568054199e-01
-2.565710991621017456e-02
-8.512299507856369019e-02
1.102893352508544922e-01
1.735979914665222168e-01
1.274470239877700806e-02
5.726934969425201416e-02
6.987331509590148926e-01
-1.310706734657287598e-01
-7.830969095230102539e-01
2.328247204422950745e-02
-4.403766691684722900e-01
1.482457667589187622e-01
-1.446311920881271362e-01
-6.913808733224868774e-02
-3.165228068828582764e-01
-2.988481521606445312e-01
3.546126782894134521e-01
-8.919428288936614990e-02
2.146797776222229004e-01
-2.860141694545745850e-01
2.779059298336505890e-02
3.969656825065612793e-01
2.442451566457748413e-01
-2.262894660234451294e-01
-1.112854406237602234e-01
3.734829425811767578e-01
-3.945542573928833008e-01
5.250824987888336182e-02
1.009786576032638550e-01
1.687814295291900635e-01
-4.272808879613876343e-02
1.846348308026790619e-02
-6.906021852046251297e-03
2.446042448282241821e-01
-1.115775331854820251e-01
-3.863315284252166748e-01
2.994183897972106934e-01
4.362259432673454285e-02
-2.492711842060089111e-01
2.468793243169784546e-01
-1.491240561008453369e-01
-2.071498781442642212e-01
-5.208961293101310730e-02
-2.344928681850433350e-02
1.778591983020305634e-02
-1.383356936275959015e-02
-2.712280154228210449e-01
1.846937537193298340e-01
-3.623301386833190918e-01
2.007824778556823730e-01
7.495275884866714478e-02
-3.142535686492919922e-01
3.604181110858917236e-01
1.456656008958816528e-01
-5.066305771470069885e-02
-1.944929063320159912e-01
-2.746141850948333740e-01
-4.311923682689666748e-01
-2.894496321678161621e-01
-2.916538529098033905e-02
-6.326926872134208679e-03
-2.520496845245361328e-01
-3.206184208393096924e-01
-4.248180985450744629e-02
-2.405612319707870483e-01
-2.393170297145843506e-01
-2.621963322162628174e-01
3.034948110580444336e-01
1.288333386182785034e-01
-7.540420442819595337e-02
-3.226952850818634033e-01
-3.474430367350578308e-02
-4.103912115097045898e-01
-4.269867241382598877e-01
-6.245925426483154297e-01
-4.305791854858398438e-01
7.517635077238082886e-02
-1.967808753252029419e-01
-3.071104586124420166e-01
2.865304052829742432e-01
-1.791087836027145386e-01
-1.598979830741882324e-01
-1.092756465077400208e-01
7.958699017763137817e-02
5.995545908808708191e-02
-4.798973500728607178e-01
2.485436797142028809e-01
8.403015881776809692e-02
-1.523864120244979858e-01
2.660621404647827148e-01
-1.136151254177093506e-01
1.688662022352218628e-01
-6.962830573320388794e-02
-4.496082663536071777e-02
1.281701680272817612e-02
-2.926512062549591064e-02
-3.810761123895645142e-02
1.406261175870895386e-01
-6.489929556846618652e-02
-5.270134657621383667e-02
2.327449321746826172e-01
-1.496298164129257202e-01
3.410729467868804932e-01
-9.868274629116058350e-02
-1.377768535166978836e-02
2.053482532501220703e-01
-3.531287610530853271e-01
-6.173750385642051697e-03
4.740133509039878845e-02
-2.746529579162597656e-01
-2.274345308542251587e-01
-8.737377822399139404e-03
7.533292751759290695e-03
-1.564671993255615234e-01
-1.290378719568252563e-01
-1.774673461914062500e-01
2.026424556970596313e-01
-1.440566927194595337e-01
1.350659877061843872e-01
-2.215361595153808594e-01
1.600087620317935944e-02
-1.879891194403171539e-02
-3.949328362941741943e-01
4.068520367145538330e-01
3.347846493124961853e-02
3.164637461304664612e-02
3.006043434143066406e-01
-1.788862794637680054e-01
3.359868228435516357e-01
-2.486007064580917358e-01
2.655072212219238281e-01
-3.485245257616043091e-02
6.557660549879074097e-02
1.043747887015342712e-01
-1.724763214588165283e-01
2.643975913524627686e-01
-1.046651452779769897e-01
2.403014749288558960e-01
1.734991967678070068e-01
-3.336510658264160156e-01
4.726680219173431396e-01
-2.334132939577102661e-01
1.191829815506935120e-01
-2.391128987073898315e-01
2.777587473392486572e-01
-1.127781793475151062e-01
2.630706131458282471e-01
4.649402201175689697e-02
-4.008277356624603271e-01
-1.150984093546867371e-01
3.618380054831504822e-02
-1.701014786958694458e-01
1.577579677104949951e-01
8.125015348196029663e-02
3.278558142483234406e-03
-3.568948507308959961e-01
1.086182296276092529e-01
-5.599603652954101562e-01
-2.432298064231872559e-01
3.796961903572082520e-02
-1.556010730564594269e-02
-1.711708605289459229e-01
-2.624974250793457031e-01
4.888874012976884842e-03
1.205211319029331207e-02
-3.735521808266639709e-02
-1.497320979833602905e-01
-7.952822744846343994e-02
-2.599935233592987061e-01
-1.315543204545974731e-01
-3.064154982566833496e-01
-1.107023656368255615e-01
-5.118222236633300781e-01
3.731766715645790100e-03
-4.750319421291351318e-01
-8.447211980819702148e-02
1.351830363273620605e-01
-7.492761611938476562e-01
2.603609263896942139e-01
1.351544111967086792e-01
-3.122891765087842941e-03
1.448327451944351196e-01
-5.487818717956542969e-01
2.399504482746124268e-01
1.523744761943817139e-01
1.188984289765357971e-01
-2.377573698759078979e-01
1.755340695381164551e-01
-3.139441832900047302e-02
1.288679093122482300e-01
-5.924645811319351196e-02
1.833312511444091797e-01
1.806791722774505615e-01
-1.359039992094039917e-01
2.236223965883255005e-01
-1.337283104658126831e-01
-9.366565197706222534e-02
1.445553153753280640e-01
3.397082537412643433e-02
2.905076146125793457e-01
2.650160491466522217e-01
-2.832995653152465820e-01
-1.550874412059783936e-01
7.632665336132049561e-02
6.714778542518615723e-01
5.323858931660652161e-02
1.792123541235923767e-02
3.890123963356018066e-01
-4.284287244081497192e-02
-5.822688341140747070e-02
-2.003904432058334351e-01
1.395657062530517578e-01
-3.623145446181297302e-02
2.270193547010421753e-01
-1.646022647619247437e-01
-5.760601907968521118e-02
-2.473991811275482178e-01
2.652606368064880371e-01
1.939712017774581909e-01
-4.472006559371948242e-01
1.302814483642578125e-01
-7.535196840763092041e-02
2.105363458395004272e-02
8.992414176464080811e-02
1.456841230392456055e-01
-4.215607941150665283e-01
-6.386235952377319336e-01
-5.086384415626525879e-01
-1.271499395370483398e-01
-4.794401824474334717e-01
5.913368985056877136e-02
-3.926891088485717773e-01
3.240932151675224304e-02
-2.354142367839813232e-01
2.111188322305679321e-01
-6.701935529708862305e-01
-1.261305063962936401e-01
5.169730782508850098e-01
-9.177534282207489014e-02
-1.092360690236091614e-01
1.104739531874656677e-01
-1.119385510683059692e-01
1.068504750728607178e-01
8.234158903360366821e-02
-1.960119903087615967e-01
5.274693369865417480e-01
-4.521919190883636475e-01
6.440666913986206055e-01
1.621588021516799927e-01
9.524675458669662476e-02
2.817657887935638428e-01
-2.116123139858245850e-01
2.457248419523239136e-01
-2.696345932781696320e-02
3.563621938228607178e-01
-1.043101698160171509e-01
1.940911561250686646e-01
6.558738946914672852e-01
9.636095166206359863e-01
6.456701159477233887e-01
1.721048504114151001e-01
8.759555220603942871e-02
2.136894967406988144e-03
4.761961475014686584e-02
-7.663158327341079712e-02
-9.448135271668434143e-03
1.796593666076660156e-01
1.326770931482315063e-01
1.178479120135307312e-01
8.678577095270156860e-02
1.621452718973159790e-01
9.285799413919448853e-02
1.636653020977973938e-02
1.017788127064704895e-01
2.057545632123947144e-01
8.042378723621368408e-02
-1.180525310337543488e-02
1.240741088986396790e-01
5.265572071075439453e-01
1.143130734562873840e-01
-1.128614544868469238e-01
7.804265618324279785e-02
-9.324347227811813354e-02
-2.042704261839389801e-02
8.644334226846694946e-02
1.232644617557525635e-01
-5.518273115158081055e-01
4.589757323265075684e-01
-3.693139255046844482e-01
3.078770637512207031e-01
-1.080209240317344666e-01
-3.747128322720527649e-02
1.955528706312179565e-01
-1.195584654808044434e+00
-8.921878933906555176e-01
-9.038457274436950684e-02
-1.255638003349304199e-01
-6.494787335395812988e-01
3.706043213605880737e-02
-8.765267580747604370e-02
-6.728727370500564575e-02
1.530425101518630981e-01
-2.648849785327911377e-01
4.262978434562683105e-01
-2.465680241584777832e-01
4.765728488564491272e-02
2.691417932510375977e-01
2.016325145959854126e-01
2.086312472820281982e-01
-7.845289111137390137e-01
-3.545191287994384766e-01
-3.563883006572723389e-01
-2.281932383775711060e-01
-1.659642904996871948e-01
8.454274386167526245e-02
-1.339599043130874634e-01
5.511422455310821533e-02
1.649774797260761261e-02
9.428091347217559814e-02
8.041211403906345367e-03
-1.060962975025177002e-01
1.480235904455184937e-01
2.213914506137371063e-02
2.646594941616058350e-01
-3.373996019363403320e-01
4.194667339324951172e-01
-3.343350291252136230e-01
3.160577714443206787e-01
6.420768499374389648e-01
3.063632547855377197e-01
2.631660401821136475e-01
1.434059068560600281e-02
1.906591653823852539e-01
5.765492841601371765e-02
4.165595173835754395e-01
4.162835776805877686e-01
2.834164798259735107e-01
1.941509544849395752e-01
6.599395722150802612e-02
-2.901883050799369812e-02
3.933362290263175964e-02
2.539979219436645508e-01
8.322551846504211426e-02
1.864062808454036713e-02
1.132152006030082703e-01
1.432110369205474854e-01
1.176607534289360046e-01
1.057186797261238098e-01
-1.191089674830436707e-01
5.624648183584213257e-02
2.526667900383472443e-02
2.179920375347137451e-01
1.607347577810287476e-01
2.131487429141998291e-01
2.801882624626159668e-01
2.090468257665634155e-01
3.070062100887298584e-01
9.753770381212234497e-02
5.027997493743896484e-01
-5.091462284326553345e-02
-6.776237394660711288e-03
3.487370312213897705e-01
1.591047644615173340e-01
-2.562396228313446045e-01
2.787637114524841309e-01
1.979433596134185791e-01
6.812466681003570557e-02
5.403942987322807312e-02
7.001220434904098511e-02
-5.328745767474174500e-02
1.007023453712463379e-01
6.024815607815980911e-03
3.172589242458343506e-01
2.295431643724441528e-01
-4.064700007438659668e-02
3.252523485571146011e-03
1.872766315937042236e-01
3.288017511367797852e-01
4.535472765564918518e-02
6.613984238356351852e-03
2.491829842329025269e-01
-4.493516087532043457e-01
-1.738083958625793457e-01
-3.909174352884292603e-02
-1.017737668007612228e-02
6.908001005649566650e-02
-2.633245289325714111e-01
2.392559945583343506e-01
-1.389000713825225830e-01
8.011417835950851440e-02
-1.385059803724288940e-01
-2.386540025472640991e-01
9.785412997007369995e-02
-7.925055921077728271e-02
-4.185723364353179932e-01
5.861514061689376831e-02
4.157061129808425903e-02
-5.428998917341232300e-02
-7.094857282936573029e-04
-4.932244773954153061e-03
5.268112197518348694e-02
-9.650143794715404510e-03
7.785989344120025635e-02
-2.289149463176727295e-01
3.777862489223480225e-01
-2.347462773323059082e-01
-1.007603779435157776e-01
9.693571925163269043e-02
-7.099968194961547852e-02
2.507131099700927734e-01
-3.029038608074188232e-01
-4.092153161764144897e-02
2.287274925038218498e-03
9.577876888215541840e-03
1.207806989550590515e-01
-4.130465984344482422e-01
4.006035029888153076e-01
2.922397851943969727e-02
-1.724188625812530518e-01
-2.727928459644317627e-01
1.221468001604080200e-01
-9.638938121497631073e-03
3.154229223728179932e-01
-2.612577676773071289e-01
1.208302974700927734e-01
2.547420859336853027e-01
-3.041520155966281891e-02
-3.119662404060363770e-01
-1.506078690290451050e-01
5.904797911643981934e-01
5.418829321861267090e-01
1.160529971122741699e+00
6.807448863983154297e-01
2.751238048076629639e-01
7.326298356056213379e-01
7.607755661010742188e-01
6.781650781631469727e-01
5.050085186958312988e-01
3.410088717937469482e-01
8.495317697525024414e-01
3.668641746044158936e-01
5.144895911216735840e-01
6.397344470024108887e-01
5.412062406539916992e-01
8.632386922836303711e-01
9.090591669082641602e-01
3.538876473903656006e-01
1.123378515243530273e+00
1.276552557945251465e+00
-4.636330902576446533e-01
7.062376141548156738e-01
-3.690845072269439697e-01
-1.498770862817764282e-01
1.296624094247817993e-01
-1.605668477714061737e-02
5.288648605346679688e-02
-1.338243037462234497e-01
1.800924539566040039e-01
-9.157835692167282104e-02
1.235414072871208191e-01
2.725792117416858673e-02
-3.192513585090637207e-01
9.802795946598052979e-02
-4.356654286384582520e-01
4.872864782810211182e-01
-3.165631592273712158e-01
1.328689046204090118e-02
2.234503626823425293e-01
-6.068814545869827271e-02
1.190058700740337372e-02
-9.482248127460479736e-02
1.337416172027587891e-01
-2.268316447734832764e-01
2.026097029447555542e-01
-2.730369865894317627e-01
3.342130482196807861e-01
-1.788692921400070190e-01
6.021336466073989868e-02
9.367899969220161438e-03
-1.164379343390464783e-01
9.463653713464736938e-02
8.105430006980895996e-02
-1.343432515859603882e-01
-4.659590721130371094e-01
2.404016554355621338e-01
-3.195872008800506592e-01
-3.383254706859588623e-01
-2.217222005128860474e-01
-3.799986839294433594e-01
-2.948119342327117920e-01
3.556942343711853027e-01
-4.590290486812591553e-01
-1.981451064348220825e-01
-5.690205842256546021e-02
-5.149925351142883301e-01
-3.598004281520843506e-01
-1.355217397212982178e-01
-1.460982263088226318e-01
1.952346265316009521e-01
6.593495141714811325e-03
-7.896737754344940186e-02
-5.386055260896682739e-02
-1.408238410949707031e-01
1.885197907686233521e-01
-7.871687412261962891e-02
1.142517402768135071e-01
-3.231299817562103271e-01
-1.454641371965408325e-01
-5.227708816528320312e-02
-6.586333364248275757e-02
3.424388170242309570e-02
-1.848742365837097168e-01
1.454851031303405762e-01
-1.965892463922500610e-01
1.701106578111648560e-01
6.965385377407073975e-02
-1.726103872060775757e-01
-5.520532131195068359e-01
3.251559734344482422e-01
-3.148997426033020020e-01
-4.248237609863281250e-01
-2.991191148757934570e-01
1.348986178636550903e-01
-3.167819082736968994e-01
1.877825409173965454e-01
1.192824728786945343e-02
-4.302563965320587158e-01
-3.034514188766479492e-02
-9.697956591844558716e-02
3.742685168981552124e-02
-2.909872494637966156e-02
4.641310274600982666e-01
-1.556241214275360107e-01
-3.231587111949920654e-01
5.854442343115806580e-02
2.094399631023406982e-01
-7.432758808135986328e-02
4.655258730053901672e-02
1.604081504046916962e-02
3.865738213062286377e-01
-3.375769034028053284e-02
-1.013275608420372009e-01
8.406237512826919556e-02
2.877743840217590332e-01
-1.689928472042083740e-01
-1.429340094327926636e-01
9.470832347869873047e-02
-1.761532425880432129e-01
1.753928065299987793e-01
-3.567785024642944336e-01
-2.750449776649475098e-01
-2.262493520975112915e-01
1.221996848471462727e-03
-1.155029386281967163e-01
-2.080141156911849976e-01
-1.468882709741592407e-01
4.405362159013748169e-02
1.413024812936782837e-01
-3.028910048305988312e-02
-2.712565064430236816e-01
1.712369918823242188e-01
-1.479790508747100830e-01
-1.286273598670959473e-01
-5.345400795340538025e-02
-1.845969110727310181e-01
2.608600258827209473e-01
5.472726225852966309e-01
-7.183927297592163086e-02
1.482978612184524536e-01
2.264820784330368042e-02
6.490107625722885132e-02
3.301344811916351318e-01
1.801689267158508301e-01
-1.147434860467910767e-02
-2.119637578725814819e-01
-6.645078957080841064e-02
-2.966651022434234619e-01
5.541649460792541504e-01
-1.688554286956787109e-01
-4.584609866142272949e-01
1.862675249576568604e-01
2.209730595350265503e-01
2.010771632194519043e-01
-2.121678143739700317e-01
-4.098443686962127686e-01
8.931370824575424194e-02
-3.095985054969787598e-01
2.111747711896896362e-01
-2.137287557125091553e-01
1.541801691055297852e-01
-2.230030298233032227e-01
2.633678913116455078e-01
-7.528731226921081543e-02
5.099113285541534424e-02
-3.051906451582908630e-02
-6.813295185565948486e-03
-2.483135312795639038e-01
3.233919143676757812e-01
-2.549576163291931152e-01
-1.498391032218933105e-01
2.875284552574157715e-01
-7.503653317689895630e-02
-1.786027699708938599e-01
1.959975659847259521e-01
-3.053679764270782471e-01
3.188954591751098633e-01
-3.380163311958312988e-01
1.397491991519927979e-01
-5.664589256048202515e-02
-1.804236024618148804e-01
3.102723658084869385e-01
6.105876341462135315e-02
7.007009536027908325e-02
-9.106225520372390747e-02
1.267842352390289307e-01
-5.045570731163024902e-01
4.058013483881950378e-02
-5.379888415336608887e-02
2.443969249725341797e-01
6.875780820846557617e-01
2.099427729845046997e-01
7.135907411575317383e-01
3.370143175125122070e-01
3.402523100376129150e-01
3.462790548801422119e-01
2.475623041391372681e-01
-2.450971156358718872e-01
-2.619590759277343750e-01
4.076474905014038086e-01
1.519078910350799561e-01
3.593188822269439697e-01
