-3.729448020458221436e-01
4.154475033283233643e-02
5.695168972015380859e-01
1.777637600898742676e-01
1.784431785345077515e-01
-4.526227340102195740e-02
-1.068508028984069824e-01
-1.921785622835159302e-01
-5.791547894477844238e-02
-2.722269594669342041e-01
1.013086140155792236e-01
-1.429477930068969727e-01
-2.858716845512390137e-01
-1.359874010086059570e-01
5.355644971132278442e-02
3.980165719985961914e-01
5.526599884033203125e-01
-4.708338528871536255e-02
-8.231650292873382568e-02
-1.782846301794052124e-01
-2.260087132453918457e-01
5.340956151485443115e-02
-1.210113689303398132e-01
-3.432774543762207031e-02
1.518975496292114258e-01
-1.263079512864351273e-02
-4.488117620348930359e-02
-2.273042201995849609e-01
-1.209106817841529846e-01
-1.650222837924957275e-01
1.446779351681470871e-02
1.072666514664888382e-02
-3.766339719295501709e-01
-4.050712883472442627e-01
-3.386538326740264893e-01
3.978517055511474609e-01
6.585593223571777344e-01
2.389130741357803345e-01
-8.905328810214996338e-02
-5.825470760464668274e-02
1.030155494809150696e-01
3.111861050128936768e-01
1.889136582612991333e-01
-2.297286838293075562e-01
1.392911523580551147e-01
4.160085022449493408e-01
2.989721894264221191e-01
1.236102655529975891e-01
-1.609596312046051025e-01
6.513508502393960953e-03
7.133643329143524170e-02
9.614396840333938599e-02
2.771512977778911591e-02
3.322505950927734375e-02
-3.268902599811553955e-01
-2.672231197357177734e-01
-1.664516627788543701e-01
-1.244215220212936401e-01
3.834549337625503540e-02
6.105167418718338013e-02
-1.277734041213989258e-01
-1.716697365045547485e-01
-1.129704117774963379e-01
-4.389157891273498535e-02
1.757570207118988037e-01
6.697132438421249390e-02
7.535007596015930176e-02
-1.032992918044328690e-02
-4.449752345681190491e-02
-4.074806347489356995e-02
1.150339096784591675e-01
2.300876006484031677e-02
8.555198088288307190e-03
-5.840322375297546387e-01
-4.622187465429306030e-02
-4.708001911640167236e-01
-3.754455447196960449e-01
-3.505159318447113037e-01
-1.157738566398620605e-01
1.237654313445091248e-01
2.144384235143661499e-01
-1.349700242280960083e-01
1.819775998592376709e-01
2.492224276065826416e-01
2.431700229644775391e-01
3.371693566441535950e-02
-3.065430521965026855e-01
-1.030086949467658997e-01
2.193695679306983948e-02
4.657275229692459106e-02
7.212547212839126587e-02
1.239340230822563171e-01
-8.075541816651821136e-03
2.460538446903228760e-01
-1.162895858287811279e-01
1.181625053286552429e-01
2.064011543989181519e-01
-1.225355267524719238e-02
1.850896477699279785e-01
5.225156992673873901e-02
1.366163641214370728e-01
-8.367394655942916870e-02
-1.938372701406478882e-01
-1.102217510342597961e-01
1.806788146495819092e-01
2.509469687938690186e-01
1.461902260780334473e-01
-2.216442972421646118e-01
-5.972349271178245544e-02
2.478909641504287720e-01
3.527762889862060547e-01
-3.473425209522247314e-01
-3.554170429706573486e-01
-6.353951990604400635e-02
5.317229032516479492e-02
3.117888569831848145e-01
4.604335427284240723e-01
7.570102810859680176e-02
4.217277467250823975e-02
-2.087234556674957275e-01
-1.230637952685356140e-01
1.633464694023132324e-01
-6.609075516462326050e-02
-1.866360753774642944e-02
-2.016222476959228516e-01
-1.435587406158447266e-01
1.760801523923873901e-01
4.629013240337371826e-01
-3.843979537487030029e-02
-1.302450895309448242e-01
-3.235225677490234375e-01
1.280634943395853043e-02
6.088533904403448105e-03
-7.315165549516677856e-02
2.310826443135738373e-02
6.848346441984176636e-02
-5.236869677901268005e-02
-9.894032776355743408e-02
-2.267034202814102173e-01
-3.597609400749206543e-01
1.474388986825942993e-01
4.559810757637023926e-01
5.595818161964416504e-01
2.844147384166717529e-01
-3.442693054676055908e-01
-5.023427605628967285e-01
-3.308440744876861572e-02
5.225198268890380859e-01
1.108141317963600159e-01
-9.335371851921081543e-02
-1.307464241981506348e-01
-1.708341538906097412e-01
-1.498130988329648972e-02
-1.464672833681106567e-01
-7.376166433095932007e-02
-1.468393653631210327e-01
1.014000922441482544e-01
-1.768984645605087280e-02
3.033828549087047577e-02
-2.414675801992416382e-01
-2.015959471464157104e-01
-4.591906964778900146e-01
-2.297498434782028198e-01
-4.434904083609580994e-02
-8.714981377124786377e-02
1.059284657239913940e-01
2.028455138206481934e-01
2.201156020164489746e-01
2.266149669885635376e-01
3.197864890098571777e-01
-6.206019967794418335e-02
-3.003090247511863708e-02
-2.153462171554565430e-01
-5.501354336738586426e-01
-5.668092966079711914e-01
-1.772477924823760986e-01
-1.573386229574680328e-02
3.401010036468505859e-01
1.114189252257347107e-01
2.039564028382301331e-02
-2.056579105556011200e-02
5.242657288908958435e-02
6.443788111209869385e-02
-9.545350819826126099e-02
4.048947989940643311e-01
1.359338015317916870e-01
-1.574516743421554565e-01
6.466045230627059937e-02
-1.651561260223388672e-01
-3.107285499572753906e-01
-4.364089965820312500e-01
1.402404904365539551e-02
-1.440864428877830505e-02
2.197979949414730072e-02
-2.771244645118713379e-01
-1.515780948102474213e-02
-3.748214617371559143e-02
4.861805140972137451e-01
4.562597572803497314e-01
3.659364581108093262e-01
-1.574114561080932617e-01
-2.859462499618530273e-01
-2.953665256500244141e-01
-2.365556508302688599e-01
1.572084277868270874e-01
-1.435464471578598022e-01
-2.191811800003051758e-01
1.362175494432449341e-01
2.331864535808563232e-01
4.143401682376861572e-01
9.506562352180480957e-02
-5.948036164045333862e-02
-2.283747941255569458e-01
-9.166055917739868164e-02
-2.891843318939208984e-01
-5.804259330034255981e-02
-2.893045544624328613e-01
-6.795345991849899292e-02
-3.599232062697410583e-02
5.050738900899887085e-02
-1.799113750457763672e-01
-1.662826091051101685e-01
-9.036337733268737793e-01
5.091293454170227051e-01
5.053082108497619629e-01
-1.791811361908912659e-02
-7.453336715698242188e-01
-5.719703808426856995e-02
-5.108722299337387085e-02
1.714919656515121460e-01
2.532511353492736816e-01
-7.964733242988586426e-02
1.745474785566329956e-01
3.764027655124664307e-01
-1.474438700824975967e-02
-2.993087656795978546e-02
2.036835104227066040e-01
-2.274475246667861938e-01
1.419089268893003464e-03
1.258779019117355347e-01
-5.240908265113830566e-02
-7.845017313957214355e-02
3.148176074028015137e-01
-1.206705067306756973e-02
-4.041212424635887146e-02
-1.533311456441879272e-01
-2.169787138700485229e-01
-2.375749871134757996e-02
-1.462428271770477295e-01
1.906665116548538208e-01
2.490361332893371582e-01
2.833773195743560791e-01
-2.212070524692535400e-01
-1.465985774993896484e-01
-1.014713197946548462e-01
-1.850645542144775391e-01
2.275371998548507690e-01
6.123518943786621094e-01
8.235711604356765747e-03
2.939577102661132812e-01
2.571383118629455566e-01
-2.777415812015533447e-01
-1.964003145694732666e-01
-4.215008914470672607e-01
4.497164487838745117e-02
2.659878730773925781e-01
4.417967498302459717e-01
-7.341294735670089722e-02
-4.397192597389221191e-01
9.273575991392135620e-02
-3.320318087935447693e-02
-2.955571413040161133e-01
2.805605158209800720e-02
1.929406821727752686e-01
1.820492744445800781e-01
-3.327239453792572021e-01
4.427488893270492554e-03
3.254484385251998901e-02
2.892945110797882080e-01
1.650419980287551880e-01
-2.620537020266056061e-02
6.407301872968673706e-03
1.754081398248672485e-01
-6.085442379117012024e-03
8.435980230569839478e-02
1.558149009943008423e-01
2.053159177303314209e-01
3.400701284408569336e-01
-2.069727182388305664e-01
-5.087119713425636292e-02
-7.014262676239013672e-02
-2.873763740062713623e-01
-5.838729441165924072e-02
-1.225604191422462463e-01
-2.295529842376708984e-01
-2.439876794815063477e-01
1.032531484961509705e-01
-2.229499965906143188e-01
2.336020022630691528e-01
-9.292563796043395996e-02
-7.852439582347869873e-02
-4.195631295442581177e-02
2.439920902252197266e-01
-1.616417467594146729e-01
-3.878236934542655945e-02
1.568653285503387451e-01
-3.041618503630161285e-02
-3.161648213863372803e-01
1.345870345830917358e-01
3.839900195598602295e-01
-2.930724322795867920e-01
-1.524617969989776611e-01
1.219847276806831360e-01
2.017968595027923584e-01
-2.072524726390838623e-01
8.791106939315795898e-02
2.545029297471046448e-02
-1.182833835482597351e-01
5.768191441893577576e-02
2.222202867269515991e-01
-2.279331237077713013e-01
-3.410165607929229736e-01
4.379012584686279297e-01
4.140103757381439209e-01
-6.745790839195251465e-01
-3.531773686408996582e-01
3.471112251281738281e-01
6.928506493568420410e-01
-1.192316785454750061e-02
2.086405642330646515e-02
-6.145621538162231445e-01
-6.405976414680480957e-01
7.700833082199096680e-01
3.049280941486358643e-01
1.029769852757453918e-01
2.230594456195831299e-01
1.127525269985198975e-01
2.656656503677368164e-02
-1.466979384422302246e-01
-2.464163303375244141e-01
1.306201368570327759e-01
6.313379108905792236e-02
-1.748754084110260010e-01
-2.328689992427825928e-01
2.269255071878433228e-01
-3.041418790817260742e-01
-8.192905783653259277e-02
3.099412918090820312e-01
8.052443154156208038e-03
-1.598628759384155273e-01
2.412669658660888672e-01
-1.130497921258211136e-02
-3.881023824214935303e-02
4.112118110060691833e-02
2.303658276796340942e-01
2.278294116258621216e-01
-4.016581550240516663e-02
5.380218625068664551e-01
-6.567372381687164307e-02
-5.556249022483825684e-01
3.669005036354064941e-01
5.958946347236633301e-01
2.141858935356140137e-01
3.029309809207916260e-01
-1.821821630001068115e-01
-1.432485431432723999e-01
3.096993863582611084e-01
-1.679870337247848511e-01
-4.704649150371551514e-01
2.449752837419509888e-01
-4.223119001835584641e-03
4.190923571586608887e-01
-6.860885024070739746e-02
-2.574400901794433594e-01
1.824950277805328369e-01
1.640962660312652588e-01
7.694905251264572144e-02
2.615200821310281754e-03
-2.807023525238037109e-01
-2.649387717247009277e-01
-5.286298692226409912e-02
7.558550685644149780e-02
1.406125575304031372e-01
1.618701517581939697e-01
-1.582356691360473633e-01
-3.684521466493606567e-02
-9.189526736736297607e-02
-1.389455050230026245e-01
-2.402334511280059814e-01
-5.225500091910362244e-02
1.169275641441345215e-01
1.936771422624588013e-01
3.680253624916076660e-01
7.850157469511032104e-02
2.746775150299072266e-01
8.917359635233879089e-03
-1.038492769002914429e-01
-3.124487102031707764e-01
7.313245534896850586e-02
4.484774768352508545e-01
1.882719397544860840e-01
-4.392793476581573486e-01
-4.145349860191345215e-01
4.940241947770118713e-02
4.631592929363250732e-01
9.941593557596206665e-02
-5.507922172546386719e-01
9.161713719367980957e-02
-2.347122877836227417e-01
8.431730419397354126e-02
5.071757361292839050e-02
1.372771412134170532e-01
-6.944079697132110596e-02
3.234913051128387451e-01
-1.524540036916732788e-01
-6.684602051973342896e-02
1.119547933340072632e-01
6.629657745361328125e-02
-1.834182888269424438e-01
8.565739542245864868e-02
4.281383156776428223e-01
-1.668199002742767334e-01
-2.241680771112442017e-01
3.291790485382080078e-01
3.919013142585754395e-01
1.761996895074844360e-01
-2.477871924638748169e-01
-4.986369907855987549e-01
-7.372521162033081055e-01
-3.890054225921630859e-01
2.223484218120574951e-01
2.592996954917907715e-01
-2.448531091213226318e-01
9.232869744300842285e-02
3.586594164371490479e-01
-1.115797087550163269e-01
1.251180307008326054e-03
3.105323314666748047e-01
-1.172529254108667374e-02
-3.073849678039550781e-01
1.723717600107192993e-01
3.876501619815826416e-01
-6.912230700254440308e-02
-1.149429753422737122e-01
-2.344525456428527832e-01
2.936979532241821289e-01
3.883975744247436523e-01
2.445666342973709106e-01
2.270361334085464478e-01
-2.847515046596527100e-01
-3.942199349403381348e-01
-4.583757743239402771e-02
-3.134201467037200928e-02
9.103115648031234741e-02
2.765361964702606201e-02
4.091787710785865784e-02
3.801304996013641357e-01
2.013274878263473511e-01
1.035211831331253052e-01
-4.325039684772491455e-01
-3.891396820545196533e-01
-1.100544631481170654e-01
-2.286310642957687378e-01
-1.039468571543693542e-01
-1.454968843609094620e-02
-2.838830277323722839e-02
2.973353266716003418e-01
2.774410545825958252e-01
4.543003067374229431e-02
2.623879313468933105e-01
-8.102898299694061279e-02
-2.917572855949401855e-01
-3.011392056941986084e-01
1.860569268465042114e-01
9.045063704252243042e-02
1.444482356309890747e-01
1.676575541496276855e-01
2.146174162626266479e-01
1.997516453266143799e-01
-2.408561557531356812e-01
-3.076041042804718018e-01
-6.240773200988769531e-02
-7.094520609825849533e-03
-1.776727885007858276e-01
7.844275981187820435e-02
-7.820527255535125732e-02
-3.882412612438201904e-02
4.023984819650650024e-02
-1.253583580255508423e-01
-8.271314203739166260e-02
1.659840643405914307e-01
1.232605576515197754e-01
-3.483253121376037598e-01
-3.169171512126922607e-01
-2.025835812091827393e-01
1.559462547302246094e-01
1.056065633893013000e-01
2.116872519254684448e-01
4.436334669589996338e-01
1.114474311470985413e-01
1.757594496011734009e-01
5.442565083503723145e-01
-3.223961219191551208e-02
-2.018777579069137573e-01
1.589924246072769165e-01
-2.263092622160911560e-02
1.853953860700130463e-02
-3.238144814968109131e-01
-3.002212643623352051e-01
1.988091468811035156e-01
3.381949067115783691e-01
5.969591438770294189e-03
-1.228299885988235474e-01
1.036966443061828613e-01
1.399032920598983765e-01
2.502077817916870117e-02
-3.211614191532135010e-01
-4.112233817577362061e-01
2.792914509773254395e-01
1.090634241700172424e-01
2.654265761375427246e-01
-2.522482536733150482e-02
4.933790564537048340e-01
2.194038033485412598e-01
-2.652663886547088623e-01
-4.201046824455261230e-01
2.666889689862728119e-02
2.791779935359954834e-01
-1.316794659942388535e-02
-2.566791176795959473e-01
6.422681361436843872e-02
-1.034298986196517944e-01
-5.062867887318134308e-03
1.381313055753707886e-01
-2.778706848621368408e-01
-5.207352638244628906e-01
-2.552449405193328857e-01
3.461636006832122803e-01
3.968800008296966553e-01
7.533749341964721680e-01
5.846771597862243652e-02
-3.362226113677024841e-02
8.740858733654022217e-02
-1.316661685705184937e-01
-4.176840186119079590e-02
-2.635174691677093506e-01
-4.848919808864593506e-01
-6.257464736700057983e-02
-7.978703081607818604e-02
-2.743437588214874268e-01
1.095063835382461548e-01
2.599290013313293457e-01
-1.386673599481582642e-01
1.498555541038513184e-01
-1.027600467205047607e-01
5.171183943748474121e-01
-1.470066905021667480e-01
-4.345091879367828369e-01
-3.268406093120574951e-01
-3.851567208766937256e-02
1.181075423955917358e-01
4.651580452919006348e-01
1.361393630504608154e-01
1.012249439954757690e-01
-2.279698550701141357e-01
-1.075010523200035095e-01
-1.552567258477210999e-02
-1.240160688757896423e-01
1.786736100912094116e-01
1.956054568290710449e-01
1.980339437723159790e-01
6.586313992738723755e-02
-2.048449516296386719e-01
5.912920832633972168e-02
-2.683780193328857422e-01
-3.036640286445617676e-01
-9.486792236566543579e-02
1.202932521700859070e-01
2.943852841854095459e-01
3.129933774471282959e-01
6.664141267538070679e-02
-5.832295864820480347e-02
-4.541341960430145264e-01
-4.672636389732360840e-01
1.263794451951980591e-01
3.847911655902862549e-01
2.260372787714004517e-01
3.351669609546661377e-01
2.018846869468688965e-01
9.451839327812194824e-02
-3.124937117099761963e-01
-8.294871449470520020e-01
2.945926189422607422e-01
5.180196464061737061e-02
2.427551662549376488e-03
5.822185799479484558e-02
-4.889704659581184387e-02
-5.604732632637023926e-01
-4.291735887527465820e-01
4.605650901794433594e-02
1.481235325336456299e-01
2.599428296089172363e-01
4.906164854764938354e-02
-7.596486806869506836e-02
1.278002560138702393e-01
4.911676049232482910e-02
-3.205107748508453369e-01
-4.348651170730590820e-01
-3.542532026767730713e-01
-2.144308574497699738e-02
9.915954619646072388e-02
3.274403512477874756e-01
3.720156252384185791e-01
1.823387444019317627e-01
7.959825545549392700e-02
1.168266683816909790e-01
-3.184070587158203125e-01
-4.967796802520751953e-01
-5.084992647171020508e-01
-2.721840739250183105e-01
3.720612823963165283e-01
4.130806624889373779e-01
2.924233675003051758e-01
-2.985409460961818695e-02
-7.331146299839019775e-02
1.900956928730010986e-01
2.090085670351982117e-02
-3.014732003211975098e-01
-8.366975933313369751e-02
-2.565977573394775391e-01
-3.741499781608581543e-01
5.054263398051261902e-02
-1.451530959457159042e-02
-1.337667554616928101e-01
9.078992158174514771e-02
-1.101224794983863831e-01
-3.492374718189239502e-01
-9.338799118995666504e-02
-1.458632647991180420e-01
9.257415682077407837e-02
-4.628576710820198059e-02
-6.581862270832061768e-02
-2.457197457551956177e-01
1.087596192955970764e-01
3.651455743238329887e-03
3.980319574475288391e-02
2.192182242870330811e-01
5.967717617750167847e-02
-9.361807256937026978e-02
-1.336760818958282471e-01
1.339314132928848267e-01
-6.558137387037277222e-02
2.846887409687042236e-01
2.136048823595046997e-01
2.059168741106987000e-02
-1.685941368341445923e-01
4.391370713710784912e-02
-1.040835082530975342e-01
-7.695804536342620850e-02
-2.487801760435104370e-02
2.428366690874099731e-01
1.517936438322067261e-01
1.259789615869522095e-01
-2.982624173164367676e-01
-2.486168742179870605e-01
3.278588950634002686e-01
-3.626506030559539795e-02
-1.997645348310470581e-01
-1.546815782785415649e-01
-1.172760799527168274e-01
-1.600343883037567139e-01
9.666299074888229370e-02
3.562023043632507324e-01
2.221464961767196655e-01
3.208818286657333374e-02
3.783785924315452576e-02
-2.665855884552001953e-01
-2.692767381668090820e-01
-2.521232664585113525e-01
-1.053967401385307312e-01
-1.844023913145065308e-01
-8.764885365962982178e-03
2.618410885334014893e-01
2.713554501533508301e-01
1.094992682337760925e-01
-2.170479595661163330e-01
-1.541448235511779785e-01
2.972688674926757812e-01
1.064286828041076660e-01
9.082105755805969238e-02
-3.048519790172576904e-01
-3.396422863006591797e-01
7.501984480768442154e-03
2.230247259140014648e-01
2.008749097585678101e-01
1.425881683826446533e-01
1.042482443153858185e-02
3.245637714862823486e-01
3.700023293495178223e-01
-3.397525474429130554e-02
-2.664687037467956543e-01
9.100895375013351440e-03
-3.164539337158203125e-01
-9.260712862014770508e-01
-7.702095806598663330e-02
7.568867206573486328e-01
1.138791561126708984e+00
1.174279823899269104e-01
-5.575556159019470215e-01
-5.503545999526977539e-01
-1.425440758466720581e-01
1.410105526447296143e-01
1.930015683174133301e-01
-8.947216719388961792e-02
-1.331283897161483765e-01
1.755364239215850830e-01
4.042217507958412170e-02
-1.991035789251327515e-01
6.550333648920059204e-02
-6.976031698286533356e-03
1.027427837252616882e-01
-1.562713384628295898e-01
9.979045018553733826e-03
1.156802028417587280e-01
-1.443458497524261475e-01
-6.037330254912376404e-02
1.661600619554519653e-01
-4.554107412695884705e-02
1.299741491675376892e-02
-1.698371209204196930e-02
6.197448074817657471e-02
5.602958798408508301e-02
-1.096565425395965576e-01
5.737152323126792908e-02
-9.522175788879394531e-02
-1.092329341918230057e-02
1.100015193223953247e-01
-1.375953084789216518e-03
-3.465467598289251328e-03
-2.978068962693214417e-02
6.327341794967651367e-01
2.252774387598037720e-01
-2.511281371116638184e-01
-4.520861208438873291e-01
-3.172734379768371582e-01
-2.707856893539428711e-02
1.897162199020385742e-01
-5.024350434541702271e-02
-1.381666958332061768e-01
4.899017140269279480e-02
2.297949939966201782e-01
3.267553746700286865e-01
1.492122933268547058e-02
-3.402854204177856445e-01
-3.410950899124145508e-01
-2.856553494930267334e-01
-2.141888588666915894e-01
5.257388949394226074e-02
1.227230578660964966e-01
3.880626857280731201e-01
1.971594095230102539e-01
-2.345660030841827393e-01
-2.947273850440979004e-01
-1.843692809343338013e-01
-1.679897308349609375e-01
3.764890432357788086e-01
1.391809880733489990e-01
2.979222536087036133e-01
6.018010433763265610e-03
-6.471305340528488159e-02
-9.015613794326782227e-02
5.639211088418960571e-02
1.691168397665023804e-01
1.907747238874435425e-01
3.206429257988929749e-02
-3.554246723651885986e-01
-5.961279273033142090e-01
-2.642438113689422607e-01
1.164500713348388672e-01
6.943870335817337036e-02
-2.581042051315307617e-01
-2.132979333400726318e-01
-1.716481000185012817e-01
-1.188987493515014648e-01
-1.140810251235961914e-01
2.012636214494705200e-01
3.541643023490905762e-01
-2.083863765001296997e-01
-8.285570144653320312e-02
1.646688729524612427e-01
-2.110025379806756973e-03
-2.253233343362808228e-01
-9.612276405096054077e-02
3.540167957544326782e-02
-2.897666022181510925e-02
-6.929978728294372559e-03
-1.345401257276535034e-01
-7.490478456020355225e-02
-2.365107834339141846e-01
-3.588684797286987305e-01
-1.407912671566009521e-01
-1.562503427267074585e-01
2.694585621356964111e-01
2.005192935466766357e-01
-2.066395282745361328e-01
1.524904519319534302e-01
2.365472465753555298e-01
6.644372642040252686e-02
-1.775652468204498291e-01
-1.353438496589660645e-01
2.480004727840423584e-01
2.436974793672561646e-01
-3.573834896087646484e-01
-4.717985093593597412e-01
4.205085933208465576e-01
7.831321358680725098e-01
5.848771929740905762e-01
-1.580836772918701172e-01
-7.977503538131713867e-01
-8.032425642013549805e-01
-1.157743111252784729e-01
-9.435735642910003662e-02
8.671686798334121704e-02
-1.048737540841102600e-01
6.496188789606094360e-02
-5.553041025996208191e-02
-1.542342007160186768e-01
-1.355580985546112061e-02
4.630418121814727783e-02
-1.519519090652465820e-02
-3.129046875983476639e-03
5.554084852337837219e-02
-1.501441448926925659e-01
1.453187465667724609e-01
1.134798973798751831e-01
1.156201399862766266e-02
4.078945890069007874e-02
-8.685115724802017212e-02
1.186822876334190369e-01
-5.732662603259086609e-02
4.334805905818939209e-02
-1.098166257143020630e-01
2.134492387995123863e-03
1.943366974592208862e-02
-1.238792855292558670e-02
1.847732365131378174e-01
6.633082777261734009e-02
2.163218855857849121e-01
-1.921571940183639526e-01
-2.014885842800140381e-01
-1.495447382330894470e-02
3.384117484092712402e-01
1.633801758289337158e-01
2.711924724280834198e-02
3.690398335456848145e-01
8.832677267491817474e-03
1.801925897598266602e-02
-1.137169450521469116e-01
-6.218573078513145447e-02
-6.651588529348373413e-02
2.651243284344673157e-02
-5.967388302087783813e-02
-2.396862655878067017e-01
-2.604501843452453613e-01
3.042717278003692627e-02
1.879004836082458496e-01
1.829885095357894897e-01
-8.759752660989761353e-02
-9.203882515430450439e-02
1.661039292812347412e-01
9.875147044658660889e-02
1.860522627830505371e-01
4.994010925292968750e-02
2.374544888734817505e-01
4.379377067089080811e-01
2.055249959230422974e-01
3.981600105762481689e-01
3.587149456143379211e-02
-3.610492646694183350e-01
-1.737447082996368408e-01
-1.124783679842948914e-01
7.856688648462295532e-02
1.776058524847030640e-01
-6.343410909175872803e-02
2.241122126579284668e-01
1.106888130307197571e-01
-1.698498427867889404e-01
-5.598186254501342773e-01
2.089243382215499878e-01
-3.939446434378623962e-02
-1.668298840522766113e-01
2.667436897754669189e-01
1.852928102016448975e-01
-2.189972624182701111e-02
1.149630993604660034e-01
1.615570187568664551e-01
3.228344023227691650e-02
-1.114098727703094482e-01
-1.719929426908493042e-01
1.285684853792190552e-01
4.925240948796272278e-02
2.596129849553108215e-02
1.540441960096359253e-01
2.258363068103790283e-01
1.085929498076438904e-01
3.706891089677810669e-02
1.194789558649063110e-01
8.754907548427581787e-02
-2.832937054336071014e-03
1.725519448518753052e-01
2.799209058284759521e-01
-3.851945698261260986e-02
2.033205777406692505e-01
-1.539176516234874725e-02
-5.517427995800971985e-02
4.718314856290817261e-03
2.108829021453857422e-01
1.473074704408645630e-01
4.566383361816406250e-02
7.752131670713424683e-02
1.080985665321350098e-01
-2.847218513488769531e-01
6.765696406364440918e-02
1.150404214859008789e-01
6.973451972007751465e-01
8.084712177515029907e-02
2.837023735046386719e-01
3.874712288379669189e-01
-5.778606515377759933e-03
1.356244832277297974e-02
-6.996475160121917725e-02
1.115648541599512100e-02
-1.333570927381515503e-01
-1.943270862102508545e-02
-7.972790300846099854e-02
2.796453051269054413e-02
1.777987740933895111e-02
7.672465592622756958e-02
-6.854813545942306519e-02
-1.855580508708953857e-01
-2.988896891474723816e-02
-1.294826865196228027e-01
-4.062297940254211426e-01
-1.074982732534408569e-01
5.576205253601074219e-02
-5.369516834616661072e-02
3.595826923847198486e-01
-5.918195471167564392e-02
-3.250870406627655029e-01
-2.209291905164718628e-01
2.134895771741867065e-01
-3.953902982175350189e-03
7.716622352600097656e-01
9.864959865808486938e-02
-3.381946384906768799e-01
-1.771319806575775146e-01
-2.473934739828109741e-01
-2.844012975692749023e-01
-1.205790862441062927e-01
4.067406952381134033e-01
3.814142048358917236e-01
-5.832146853208541870e-02
-2.198370397090911865e-01
4.396534562110900879e-01
4.710290431976318359e-01
-2.676154077053070068e-01
-3.265917003154754639e-01
2.120401263236999512e-01
2.556586638092994690e-02
-3.225672245025634766e-01
3.590172827243804932e-01
5.191317796707153320e-01
-1.164287477731704712e-01
-5.391998216509819031e-02
-1.513650864362716675e-01
4.972475469112396240e-01
7.868065685033798218e-02
-2.469352334737777710e-01
4.598504677414894104e-02
3.201415762305259705e-02
-2.542944550514221191e-01
4.468553885817527771e-02
5.719754695892333984e-01
4.268412664532661438e-02
2.008081525564193726e-01
1.075263321399688721e-01
-3.205716907978057861e-01
-3.669570684432983398e-01
1.880724430084228516e-01
-1.267381105571985245e-02
3.493248522281646729e-01
3.148272037506103516e-01
-1.828354299068450928e-01
3.809620141983032227e-01
2.414811849594116211e-01
-1.393633335828781128e-01
-4.714340865612030029e-01
-7.863256335258483887e-01
4.241671860218048096e-01
-2.605405151844024658e-01
2.273093461990356445e-01
4.937288165092468262e-01
-6.570659875869750977e-01
-1.395429968833923340e-01
5.187864899635314941e-01
8.471128344535827637e-02
-6.612469553947448730e-01
2.737067043781280518e-01
3.787169456481933594e-01
-3.650640845298767090e-01
-1.267193704843521118e-01
2.115583419799804688e-01
2.010459899902343750e-01
-4.378050267696380615e-01
1.398961246013641357e-01
2.888091504573822021e-01
-3.123426139354705811e-01
-7.176082581281661987e-02
3.193116188049316406e-01
3.792380169034004211e-02
-6.095156669616699219e-01
4.914112687110900879e-01
2.097809612751007080e-01
-4.907307922840118408e-01
-8.209746330976486206e-02
4.857821762561798096e-01
-4.918275866657495499e-03
-5.734608173370361328e-01
3.569176793098449707e-01
2.509382367134094238e-01
-2.874681651592254639e-01
-3.519868850708007812e-01
6.129105687141418457e-01
-1.550478767603635788e-02
-5.255248546600341797e-01
3.105081021785736084e-01
-4.656590819358825684e-01
-4.254114627838134766e-01
2.525801658630371094e-01
4.131074845790863037e-01
5.326370000839233398e-01
1.551914364099502563e-01
-2.472867220640182495e-01
-2.394319623708724976e-01
-2.582751512527465820e-01
-2.532886266708374023e-01
-4.936766996979713440e-02
1.383971720933914185e-01
1.771913915872573853e-01
9.196815639734268188e-02
2.952701039612293243e-02
-2.025408446788787842e-01
-3.863702416419982910e-01
-4.229770898818969727e-01
-1.644948422908782959e-01
3.295622020959854126e-02
3.231297433376312256e-02
2.264847010374069214e-01
-2.106217741966247559e-01
1.526644974946975708e-01
2.843518853187561035e-01
2.656696736812591553e-01
1.921661198139190674e-01
6.408718228340148926e-02
-2.900523245334625244e-01
2.516034245491027832e-02
2.318726032972335815e-01
2.082006633281707764e-01
2.591084837913513184e-01
1.425420194864273071e-01
-8.937905728816986084e-02
-3.102878630161285400e-01
-8.803074806928634644e-02
-5.993059873580932617e-01
-2.194383591413497925e-01
3.042782843112945557e-01
2.690329253673553467e-01
2.872872054576873779e-01
2.768795937299728394e-02
2.386072427034378052e-01
-3.843060880899429321e-02
2.026066482067108154e-01
-8.729704469442367554e-02
-1.618511229753494263e-01
7.188810408115386963e-02
1.051580384373664856e-01
2.600801289081573486e-01
4.360544383525848389e-01
7.168442755937576294e-02
6.634137779474258423e-02
-2.697260081768035889e-01
-4.202588647603988647e-02
5.105417221784591675e-02
-1.801027059555053711e-01
-1.912884414196014404e-01
-2.221666654804721475e-04
9.983673226088285446e-04
1.449156403541564941e-01
1.697479188442230225e-01
5.327161774039268494e-02
-3.683830201625823975e-01
-2.634926438331604004e-01
-2.434429079294204712e-01
-1.737312376499176025e-01
8.936215192079544067e-02
5.109042674303054810e-02
4.729933440685272217e-01
3.051065802574157715e-01
3.492359220981597900e-01
1.262291669845581055e-01
6.717895716428756714e-02
-3.989306688308715820e-01
-3.142798542976379395e-01
2.957266271114349365e-01
1.444958746433258057e-01
-1.244291737675666809e-01
-9.344166144728660583e-03
1.934813410043716431e-01
6.695781350135803223e-01
4.790673255920410156e-01
-1.652342081069946289e-01
-5.188798308372497559e-01
-1.519433856010437012e-01
3.685728311538696289e-01
1.348012685775756836e-01
2.893508374691009521e-01
1.243042275309562683e-01
-4.846917688846588135e-01
-1.415583640336990356e-01
-2.258048951625823975e-01
-5.204268544912338257e-02
4.403302371501922607e-01
-5.981472507119178772e-02
-5.239933729171752930e-01
-1.266577988862991333e-01
1.292245239019393921e-01
3.208401501178741455e-01
6.488284468650817871e-02
-5.038397014141082764e-02
-1.999912708997726440e-01
-2.255918085575103760e-01
2.209264487028121948e-01
1.855625212192535400e-01
2.438928037881851196e-01
8.827861398458480835e-02
-1.914017796516418457e-01
-4.111272841691970825e-02
-2.433412522077560425e-01
-5.180950164794921875e-01
-3.139582872390747070e-01
1.172862946987152100e-01
2.272627949714660645e-01
3.232922852039337158e-01
4.185373708605766296e-02
-4.780643582344055176e-01
-1.915288865566253662e-01
2.374321967363357544e-01
7.496507465839385986e-02
1.797883771359920502e-02
5.088695138692855835e-02
-1.676332787610590458e-03
-8.297017961740493774e-02
-1.100009009242057800e-01
-1.029805764555931091e-01
7.671672105789184570e-02
-2.620945572853088379e-01
-1.070773135870695114e-02
-1.253947317600250244e-01
-2.534105777740478516e-01
-2.055112272500991821e-01
-2.356167733669281006e-01
9.330087155103683472e-02
-3.080660700798034668e-01
-6.472112238407135010e-02
-1.102632060647010803e-01
1.427003592252731323e-01
7.918716073036193848e-01
4.408919513225555420e-01
-1.823953241109848022e-01
-5.149697661399841309e-01
-3.575859367847442627e-01
1.147628873586654663e-01
2.714677453041076660e-01
-6.530649065971374512e-01
