8.931914567947387695e-01
-4.579772949218750000e-01
5.096665769815444946e-02
-2.048379629850387573e-01
-3.496313393115997314e-01
1.500202715396881104e-01
5.147593617439270020e-01
-4.220227599143981934e-01
9.261522442102432251e-03
-2.753156721591949463e-01
2.176160067319869995e-01
1.994107365608215332e-01
-1.388705372810363770e-01
3.864607587456703186e-02
-3.039331734180450439e-01
-3.989799618721008301e-01
5.640653967857360840e-01
1.370202451944351196e-01
4.937212467193603516e-01
6.228427868336439133e-03
-1.008643284440040588e-01
2.144554853439331055e-01
2.097655236721038818e-01
4.048145711421966553e-01
-3.387238979339599609e-01
5.958231687545776367e-01
2.177174687385559082e-01
2.332245856523513794e-01
2.590442895889282227e-01
8.765593171119689941e-02
2.313365638256072998e-01
2.652474343776702881e-01
3.843749165534973145e-01
4.929603338241577148e-01
3.153300881385803223e-01
-5.930695915594696999e-04
-2.971399128437042236e-01
8.778411895036697388e-02
-1.844381839036941528e-01
3.496662378311157227e-01
-1.844123154878616333e-01
3.219361007213592529e-01
-9.681697189807891846e-02
-1.857008337974548340e-01
6.551992148160934448e-02
2.054756432771682739e-01
1.608842983841896057e-02
1.463844180107116699e-01
3.476616144180297852e-01
-1.644750237464904785e-01
-3.100505471229553223e-01
4.302700459957122803e-01
7.171138375997543335e-02
5.280930921435356140e-02
2.029709815979003906e-01
-2.553003728389739990e-01
-4.036469012498855591e-02
-5.363831520080566406e-01
4.006167054176330566e-01
3.054286725819110870e-02
-3.433403074741363525e-01
1.513345241546630859e-01
-5.157709494233131409e-02
4.150443896651268005e-02
1.988971792161464691e-02
-1.496955603361129761e-01
-2.732416428625583649e-02
1.348990947008132935e-01
-1.773329079151153564e-01
-3.280071020126342773e-01
4.564699530601501465e-01
-1.208628341555595398e-01
2.355535477399826050e-01
4.381865262985229492e-02
3.643563687801361084e-01
4.910936653614044189e-01
-4.656140506267547607e-01
2.403896749019622803e-01
-5.220690369606018066e-01
2.391847372055053711e-01
-8.826074004173278809e-01
-2.216163724660873413e-01
-1.420462727546691895e-01
-2.471049875020980835e-02
-3.428185358643531799e-02
1.211245171725749969e-02
-1.080947518348693848e-01
3.339158594608306885e-01
1.482257544994354248e-01
-1.894157677888870239e-01
2.609900534152984619e-01
8.818493783473968506e-02
3.288000822067260742e-01
4.024906828999519348e-02
2.435811161994934082e-01
-5.897353589534759521e-02
-3.687344864010810852e-02
4.114940389990806580e-02
-6.372523307800292969e-02
1.075066067278385162e-02
9.471643716096878052e-02
2.185814529657363892e-01
5.336229205131530762e-01
-1.288437396287918091e-01
-2.590612471103668213e-01
-2.439589351415634155e-01
2.245402187108993530e-01
1.893066316843032837e-01
1.122441813349723816e-01
1.345361173152923584e-01
-3.289158642292022705e-01
2.591893263161182404e-02
1.590012311935424805e-01
6.908608973026275635e-02
-9.290777146816253662e-02
-2.989129722118377686e-01
3.324266970157623291e-01
-1.362604200839996338e-01
2.412463128566741943e-01
2.723842673003673553e-02
3.338928520679473877e-01
1.294356882572174072e-01
-4.166397452354431152e-01
4.241250157356262207e-01
-4.831830505281686783e-03
-1.214553341269493103e-01
1.932326853275299072e-01
1.543330103158950806e-01
-3.389138579368591309e-01
1.967115849256515503e-01
-2.503871619701385498e-01
2.718913555145263672e-01
-7.296447455883026123e-02
-2.157570272684097290e-01
6.730467826128005981e-02
2.506135106086730957e-01
-1.592453271150588989e-01
1.534210443496704102e-01
-6.903190910816192627e-02
7.746218144893646240e-02
-4.139113426208496094e-02
5.572206154465675354e-02
-1.187925934791564941e-01
1.100964993238449097e-01
-1.830459386110305786e-01
-1.864909678697586060e-01
2.341441810131072998e-02
9.691897779703140259e-02
8.157206326723098755e-02
-8.579905144870281219e-03
2.284087538719177246e-01
1.181495636701583862e-01
-5.338273644447326660e-01
-2.531680166721343994e-01
-1.840371266007423401e-02
-3.869123756885528564e-02
-8.521369099617004395e-02
6.689672917127609253e-02
8.980844914913177490e-02
-8.425244130194187164e-03
-2.386148571968078613e-01
2.977738976478576660e-01
-5.344426259398460388e-02
-1.505185663700103760e-01
-5.148674920201301575e-02
-3.310383483767509460e-02
-1.319176256656646729e-01
-5.997538566589355469e-02
-1.730007231235504150e-01
-2.443095147609710693e-01
6.018562242388725281e-02
-7.419029623270034790e-02
1.824012249708175659e-01
-6.747276335954666138e-02
-2.149982005357742310e-01
2.711420953273773193e-01
-5.139788240194320679e-02
8.939925581216812134e-02
-3.146052062511444092e-01
1.181771159172058105e-01
2.300115376710891724e-01
-2.505513727664947510e-01
2.246171385049819946e-01
-6.106702238321304321e-02
2.611102759838104248e-01
-5.490479990839958191e-02
6.704816818237304688e-01
3.241137042641639709e-02
7.769712060689926147e-02
2.248743176460266113e-02
-6.696872413158416748e-02
-2.507325708866119385e-01
3.365950882434844971e-01
2.594195008277893066e-01
2.132393121719360352e-01
-4.109777044504880905e-03
-8.490440249443054199e-02
-2.310325503349304199e-01
1.129200309514999390e-01
4.859744906425476074e-01
-1.594456285238265991e-01
2.777470648288726807e-01
-5.425533056259155273e-01
3.891408145427703857e-01
5.644151940941810608e-02
2.711045788601040840e-03
2.548907101154327393e-01
1.360357254743576050e-01
6.054799305275082588e-04
2.678977884352207184e-02
-8.021221309900283813e-02
1.775617152452468872e-01
7.099037617444992065e-02
-9.394786506891250610e-02
3.272609412670135498e-02
1.166501045227050781e-01
-2.019983083009719849e-01
1.146087273955345154e-01
2.135345190763473511e-01
1.328567117452621460e-01
-4.485268890857696533e-02
5.547748804092407227e-01
-8.099427819252014160e-02
-3.725987672805786133e-01
2.378663606941699982e-02
-2.625244259834289551e-01
7.285932451486587524e-02
1.617802977561950684e-01
-2.613883279263973236e-02
-3.839341690763831139e-03
5.010976195335388184e-01
-5.831535458564758301e-01
7.519441246986389160e-01
5.027521848678588867e-01
1.349704861640930176e-01
7.656524777412414551e-01
4.073444604873657227e-01
7.696950435638427734e-01
3.348790109157562256e-01
-3.389333784580230713e-01
2.181579470634460449e-01
-3.170437514781951904e-01
2.064654827117919922e-01
-2.949599027633666992e-01
2.465592622756958008e-01
-3.071601130068302155e-02
-1.767025738954544067e-01
4.210593700408935547e-01
-1.525906324386596680e-01
3.438603878021240234e-01
-7.905594259500503540e-02
-1.348312348127365112e-01
2.691475749015808105e-01
-6.964962184429168701e-02
-1.627153903245925903e-01
3.474644422531127930e-01
3.474929034709930420e-01
5.587795749306678772e-02
2.246168106794357300e-01
-4.194469004869461060e-02
1.204472258687019348e-01
1.336893588304519653e-01
3.789596557617187500e-01
-6.432494521141052246e-02
9.185001254081726074e-02
1.644189506769180298e-01
3.956837356090545654e-01
1.036163717508316040e-01
3.039689362049102783e-01
2.928078770637512207e-01
1.064758631400763988e-03
3.866142630577087402e-01
-3.544462621212005615e-01
9.551513195037841797e-02
-1.535027921199798584e-01
7.047336548566818237e-02
2.266646921634674072e-02
-8.603191003203392029e-03
5.843422189354896545e-02
2.291207015514373779e-02
1.453541801311075687e-03
1.283462345600128174e-01
6.811199337244033813e-02
-7.520635426044464111e-02
-1.388658434152603149e-01
-2.686655223369598389e-01
1.017664298415184021e-01
3.066055774688720703e-01
-5.865243673324584961e-01
-2.515077888965606689e-01
-2.481328547000885010e-01
-4.346978664398193359e-01
-3.977618217468261719e-01
-4.647779464721679688e-01
-3.705739378929138184e-01
-1.981137245893478394e-01
-4.428034424781799316e-01
1.032817438244819641e-01
-2.272329758852720261e-03
-1.261033564805984497e-01
-4.398098886013031006e-01
-5.268948078155517578e-01
-3.189287483692169189e-01
-3.108077943325042725e-01
-1.464863568544387817e-01
-3.459334969520568848e-01
4.026204720139503479e-02
-2.709408998489379883e-01
2.403874993324279785e-01
-9.017287194728851318e-02
-1.293239146471023560e-01
3.007215261459350586e-02
2.212670296430587769e-01
-1.758099347352981567e-01
7.189757376909255981e-02
-5.248116701841354370e-02
-3.544855862855911255e-02
8.090385794639587402e-02
-1.336921751499176025e-01
-5.050320923328399658e-02
4.387966692447662354e-01
-5.313860252499580383e-02
-6.518461555242538452e-02
-1.748591810464859009e-01
-1.411843858659267426e-02
-2.118328511714935303e-01
-2.665638625621795654e-01
-1.123521104454994202e-01
2.409144639968872070e-01
-1.287185251712799072e-01
6.812504678964614868e-02
-3.183116018772125244e-01
-1.717428863048553467e-01
1.128944009542465210e-01
-2.726485729217529297e-01
2.159814238548278809e-01
-4.407090544700622559e-01
-9.548739343881607056e-02
-1.472001224756240845e-01
-4.057699441909790039e-01
2.551880180835723877e-01
5.649275705218315125e-02
1.507291104644536972e-02
-3.784005343914031982e-02
8.476758003234863281e-02
-2.791219055652618408e-01
-8.291669073514640331e-04
2.432865053415298462e-01
-1.437927335500717163e-01
-1.321467459201812744e-01
2.080710381269454956e-01
2.361057884991168976e-02
4.058219864964485168e-02
-1.049272418022155762e-01
1.394704133272171021e-01
2.803286015987396240e-01
-7.545085251331329346e-02
3.104814291000366211e-01
4.363412037491798401e-02
-2.576233446598052979e-02
-1.233797892928123474e-01
-2.530793845653533936e-01
2.235423922538757324e-01
-2.213057875633239746e-01
-1.386102735996246338e-01
-1.212474405765533447e-01
-1.095257606357336044e-02
-1.155892852693796158e-02
2.227004617452621460e-01
2.180408537387847900e-01
-4.317590594291687012e-01
-4.278084635734558105e-02
1.774244010448455811e-01
-4.635430276393890381e-01
7.004873752593994141e-01
-1.137170288711786270e-02
4.373579025268554688e-01
4.200071096420288086e-01
4.562760889530181885e-01
3.750770390033721924e-01
3.821254372596740723e-01
6.242170557379722595e-02
1.266853064298629761e-01
5.366632714867591858e-02
8.848215639591217041e-02
5.311214327812194824e-01
4.399236664175987244e-02
3.004941642284393311e-01
5.882866978645324707e-01
4.365703165531158447e-01
7.553866505622863770e-01
8.848248124122619629e-01
4.483125731348991394e-02
1.493571400642395020e-01
2.906591892242431641e-01
-2.976162433624267578e-01
4.642409086227416992e-01
-3.328334689140319824e-01
-1.322174668312072754e-01
2.507653236389160156e-01
1.873481869697570801e-01
2.799362875521183014e-02
-1.406141519546508789e-01
3.735938966274261475e-01
-6.013146042823791504e-01
2.134893238544464111e-01
1.159679293632507324e-01
1.330715119838714600e-01
-5.469650030136108398e-01
-6.334783136844635010e-02
3.803228214383125305e-02
-1.404866110533475876e-02
-1.475756317377090454e-01
1.523334830999374390e-01
-1.523080766201019287e-01
-3.408738970756530762e-02
-1.378124766051769257e-02
-1.229214593768119812e-01
6.400409340858459473e-02
-9.016805887222290039e-02
-1.567089557647705078e-01
-2.052880525588989258e-01
-1.436752974987030029e-01
-4.272320494055747986e-02
-3.768367469310760498e-01
3.563973903656005859e-01
1.022048592567443848e-01
-1.420306740328669548e-03
-4.891382753849029541e-01
4.329354166984558105e-01
-4.905788302421569824e-01
6.419898867607116699e-01
-3.071753084659576416e-01
2.500236332416534424e-01
6.015784293413162231e-02
-2.310140579938888550e-01
-1.878334879875183105e-01
1.459534466266632080e-01
-1.209411025047302246e-01
3.890162110328674316e-01
-2.459392249584197998e-01
-3.970375359058380127e-01
-5.412327051162719727e-01
-1.315834820270538330e-01
-3.279038518667221069e-02
-2.900667488574981689e-01
-6.949554197490215302e-03
-2.321957200765609741e-01
1.342488229274749756e-01
3.981080055236816406e-01
-4.306017458438873291e-01
-8.393951505422592163e-02
-2.897702343761920929e-02
-5.310332030057907104e-02
-4.584788084030151367e-01
-1.001443937420845032e-01
3.565423786640167236e-01
4.950774367898702621e-03
-7.592303752899169922e-01
3.577568829059600830e-01
-1.088223829865455627e-01
1.102407127618789673e-01
-9.174736589193344116e-02
-1.930887252092361450e-01
1.916564851999282837e-01
-1.353346109390258789e-01
1.458822786808013916e-01
-1.041809991002082825e-01
-7.816576212644577026e-02
1.574376523494720459e-01
-9.997104853391647339e-02
5.857026949524879456e-02
7.307856529951095581e-02
6.243846192955970764e-02
-7.877942174673080444e-02
-7.258733361959457397e-02
2.312239855527877808e-01
7.377629727125167847e-02
-4.564028084278106689e-01
2.144647687673568726e-01
2.071164101362228394e-01
1.736140437424182892e-02
-9.410144388675689697e-02
4.628580436110496521e-02
1.000574156641960144e-01
-3.380252718925476074e-01
2.324855476617813110e-01
1.523804217576980591e-01
1.912633627653121948e-01
-3.486710786819458008e-02
2.464811503887176514e-01
-8.150032162666320801e-02
4.222678244113922119e-01
-4.055489003658294678e-01
-1.010342687368392944e-02
-2.440136224031448364e-01
-4.444852471351623535e-02
2.869064686819911003e-03
-2.919227480888366699e-01
1.169570833444595337e-01
-2.673305571079254150e-01
3.234060853719711304e-02
5.691876262426376343e-02
-1.048495024442672729e-01
-2.453158050775527954e-01
6.801200658082962036e-02
3.213714435696601868e-02
-2.590835690498352051e-01
-1.872923821210861206e-01
-5.241571068763732910e-01
5.479092597961425781e-01
-1.777343750000000000e-01
2.116055190563201904e-01
-1.336272507905960083e-01
5.077789425849914551e-01
4.786725714802742004e-02
-2.477511614561080933e-01
2.416446208953857422e-01
1.389971822500228882e-01
4.350064322352409363e-02
-2.644423246383666992e-01
2.034395188093185425e-01
8.239138871431350708e-02
-1.310470849275588989e-01
1.722751855850219727e-01
-1.558538246899843216e-02
8.306357264518737793e-02
1.874863207340240479e-01
3.059399724006652832e-01
-3.349781781435012817e-02
3.999303877353668213e-01
2.526829838752746582e-01
1.885515451431274414e-01
2.066016346216201782e-01
3.378854691982269287e-02
-3.273568451404571533e-01
1.099314838647842407e-01
8.320110291242599487e-02
4.885322153568267822e-01
2.372097373008728027e-01
4.252119362354278564e-01
1.711404765956103802e-04
1.532958149909973145e-01
4.025750756263732910e-01
-2.375128418207168579e-01
-1.678364723920822144e-01
1.571500599384307861e-01
-2.584480941295623779e-01
4.048804044723510742e-01
-5.120613574981689453e-01
1.985460147261619568e-02
-3.000857234001159668e-01
4.868498817086219788e-02
1.954832375049591064e-01
-2.283332645893096924e-01
-1.849778294563293457e-01
4.242919683456420898e-01
-2.232853509485721588e-02
-2.409728467464447021e-01
-1.673385947942733765e-01
-2.639090716838836670e-01
1.281866431236267090e-01
7.634124159812927246e-02
-4.840286821126937866e-02
-6.604185909964144230e-04
2.120698243379592896e-01
2.223333716392517090e-01
1.803146898746490479e-01
-1.256696581840515137e-01
2.630727291107177734e-01
7.101418077945709229e-02
2.538249790668487549e-01
-5.377994850277900696e-02
1.980992257595062256e-01
-6.908437609672546387e-02
1.535651534795761108e-01
4.890381917357444763e-02
3.706611394882202148e-01
1.936143189668655396e-01
-1.540525108575820923e-01
1.423198580741882324e-01
-7.913079857826232910e-02
-4.833932593464851379e-02
-1.174125261604785919e-02
2.459267079830169678e-01
-3.155261576175689697e-01
1.587474644184112549e-01
1.279704123735427856e-01
-3.421259224414825439e-01
3.902651369571685791e-01
-2.729144394397735596e-01
-1.005766466259956360e-01
2.024393528699874878e-02
9.651612490415573120e-02
-2.146169841289520264e-01
-2.560230493545532227e-01
1.487529426813125610e-01
-2.187376767396926880e-01
3.232153132557868958e-02
1.845809072256088257e-01
-2.377380579710006714e-01
-7.244607806205749512e-02
4.627588391304016113e-02
-1.978458613157272339e-01
9.438242763280868530e-02
1.401599496603012085e-02
1.154846772551536560e-01
-1.678530424833297729e-01
-2.674036324024200439e-01
2.137660235166549683e-01
1.470036059617996216e-01
-2.762988507747650146e-01
-8.635815232992172241e-02
1.404616534709930420e-01
-2.271687425673007965e-02
-3.482262790203094482e-02
1.914918720722198486e-01
-5.370931625366210938e-01
3.100688159465789795e-01
-4.636795446276664734e-02
3.901394084095954895e-02
1.092114299535751343e-01
-2.557309865951538086e-01
2.624280750751495361e-01
-2.631435096263885498e-01
-5.133455991744995117e-02
2.481788545846939087e-01
-2.228612005710601807e-01
4.929698705673217773e-01
1.898310333490371704e-01
-1.840096116065979004e-01
7.470360398292541504e-02
-8.829762786626815796e-02
3.704716861248016357e-01
-3.326825797557830811e-02
-2.378272591158747673e-03
-8.000074326992034912e-02
-6.742443144321441650e-02
1.965857446193695068e-01
1.285120993852615356e-01
6.256472319364547729e-02
1.224505752325057983e-01
1.504114419221878052e-01
6.152897700667381287e-02
2.874672114849090576e-01
1.034267842769622803e-01
4.934547543525695801e-01
-1.782597452402114868e-01
1.878500282764434814e-01
-1.137180626392364502e-01
1.365495771169662476e-01
-1.951625198125839233e-01
2.671200037002563477e-01
-2.407453395426273346e-02
-2.195287644863128662e-01
3.800188601016998291e-01
-9.877418726682662964e-02
7.709699124097824097e-02
-1.240651682019233704e-01
-1.921434886753559113e-02
1.822780370712280273e-01
-3.744784891605377197e-01
5.165169835090637207e-01
-1.206084247678518295e-02
3.696557879447937012e-01
-2.790199518203735352e-01
1.347616016864776611e-01
-1.139164194464683533e-01
3.093425631523132324e-01
-3.273427858948707581e-02
-1.456459015607833862e-01
1.841297894716262817e-01
1.593734472990036011e-01
6.436344236135482788e-02
6.435476988554000854e-02
-1.025489624589681625e-02
-1.100851368391886353e-04
2.829960547387599945e-02
-3.617878854274749756e-01
3.768659830093383789e-01
3.581536561250686646e-02
1.359920948743820190e-01
1.601379737257957458e-02
-1.731287986040115356e-01
1.216123625636100769e-01
-3.602091968059539795e-01
4.238925874233245850e-01
6.583096925169229507e-03
-2.000357955694198608e-01
9.863224625587463379e-02
1.850214749574661255e-01
-1.184714436531066895e-01
1.592000275850296021e-01
7.703410089015960693e-02
1.992415338754653931e-01
2.346080690622329712e-01
-2.063353955745697021e-01
-4.527978897094726562e-01
1.705769151449203491e-01
-4.525915086269378662e-01
-2.694445550441741943e-01
-2.411124557256698608e-01
-1.368997693061828613e-01
-3.895081877708435059e-01
-3.918291032314300537e-01
-1.337579488754272461e-01
-4.535980820655822754e-01
-1.294766068458557129e-01
-3.796057701110839844e-01
-1.650487631559371948e-02
-1.505983769893646240e-01
-3.549651503562927246e-01
-2.234709560871124268e-01
-6.486378312110900879e-01
-7.357844710350036621e-02
-2.166571766138076782e-01
4.158953428268432617e-01
-3.667184114456176758e-01
6.010985970497131348e-01
-4.714420139789581299e-01
-2.272614389657974243e-01
2.581964619457721710e-02
-2.625039219856262207e-02
1.432096213102340698e-01
-1.726092584431171417e-02
1.488985121250152588e-01
-1.234194561839103699e-01
3.088526660576462746e-03
3.035486638545989990e-01
-1.006404012441635132e-01
-7.147874832153320312e-01
1.016503795981407166e-01
5.714320018887519836e-02
-1.314709484577178955e-01
2.352690547704696655e-01
-3.661613762378692627e-01
3.178152143955230713e-01
-2.887346446514129639e-01
6.957846134901046753e-02
-1.245670393109321594e-01
9.532183408737182617e-02
1.563986837863922119e-01
-5.429074168205261230e-01
6.555501818656921387e-01
-7.099731564521789551e-01
-1.046090126037597656e-01
1.729485392570495605e-01
-1.835591718554496765e-02
-3.868014812469482422e-01
1.241444572806358337e-01
2.443214952945709229e-01
-9.055840969085693359e-02
8.724115043878555298e-02
7.685707509517669678e-02
9.421371668577194214e-02
-2.450055629014968872e-01
-2.937117218971252441e-01
9.538021683692932129e-02
1.367864310741424561e-01
-4.766632243990898132e-02
-1.688687205314636230e-01
9.297350794076919556e-02
1.142369583249092102e-01
-2.200125157833099365e-01
1.778827905654907227e-01
5.465709567070007324e-01
6.877682209014892578e-01
-5.543845519423484802e-02
5.377389192581176758e-01
-2.716146968305110931e-02
7.029224634170532227e-01
6.937842369079589844e-01
6.605988144874572754e-01
6.460828185081481934e-01
3.795376121997833252e-01
6.602798104286193848e-01
3.325045406818389893e-01
-5.190577507019042969e-01
-3.188230991363525391e-01
-3.902541846036911011e-02
3.105087280273437500e-01
9.799821972846984863e-01
4.229229986667633057e-01
2.497678436338901520e-02
1.526954472064971924e-01
1.390324980020523071e-01
-9.653194993734359741e-02
1.937032192945480347e-01
6.040527299046516418e-02
2.646041288971900940e-02
-3.133578225970268250e-02
2.112425863742828369e-01
-3.802365623414516449e-03
-9.569192677736282349e-02
2.284502387046813965e-01
2.147376835346221924e-01
-9.388094395399093628e-02
3.288419544696807861e-01
-2.580571770668029785e-01
-4.199254035949707031e+00
-2.808039665222167969e+00
-2.448926925659179688e+00
-2.226803064346313477e+00
-1.656657218933105469e+00
-1.534054994583129883e+00
-1.928783655166625977e+00
-1.164074420928955078e+00
-1.434037804603576660e+00
-2.043962478637695312e+00
-2.063690185546875000e+00
-1.392466545104980469e+00
-9.316734075546264648e-01
-2.606303691864013672e+00
-2.792033195495605469e+00
-3.078313827514648438e+00
-3.369106769561767578e+00
1.327847689390182495e-01
1.077699195593595505e-02
-3.744790852069854736e-01
2.552320063114166260e-01
1.869786977767944336e-01
-9.657137840986251831e-02
1.610640138387680054e-01
-1.774200201034545898e-01
-7.547574117779731750e-03
5.662639066576957703e-02
-1.922906339168548584e-01
5.314698815345764160e-01
-1.249947398900985718e-01
-3.274067044258117676e-01
3.289651870727539062e-01
-3.601047098636627197e-01
8.986093103885650635e-02
-1.960386289283633232e-03
-5.716838240623474121e-01
4.419168531894683838e-01
-3.555262982845306396e-01
1.185486540198326111e-01
-2.026679217815399170e-01
2.204255014657974243e-01
-6.292103528976440430e-01
3.781178891658782959e-01
-6.187499687075614929e-02
7.246810197830200195e-02
8.119260519742965698e-02
4.220768064260482788e-02
-4.947926700115203857e-01
-4.550136253237724304e-02
3.267816901206970215e-01
-3.168365955352783203e-01
-5.647228956222534180e-01
2.311640977859497070e-01
-1.888958811759948730e-01
-1.992434263229370117e-02
-1.269627362489700317e-01
1.074051260948181152e-01
-1.667288988828659058e-01
7.073621265590190887e-03
-4.318352416157722473e-02
-2.182761132717132568e-01
-1.441744416952133179e-01
-8.060074597597122192e-02
-6.446142494678497314e-02
4.483893886208534241e-02
-7.686696201562881470e-02
-2.105857580900192261e-01
1.285046637058258057e-01
1.868079900741577148e-01
1.497328579425811768e-01
-4.715515077114105225e-01
7.111019641160964966e-02
2.612054646015167236e-01
-3.817273080348968506e-01
-3.808565065264701843e-02
2.598797380924224854e-01
-7.568764500319957733e-03
-2.591820433735847473e-02
9.106624126434326172e-02
-2.351895123720169067e-01
3.152421116828918457e-01
-7.601877301931381226e-02
-1.482508778572082520e-01
1.190698817372322083e-01
-1.738138049840927124e-01
-1.455191615968942642e-02
1.599265486001968384e-01
-2.288148850202560425e-01
-4.569005221128463745e-02
1.852555945515632629e-02
2.885261364281177521e-02
-3.878864645957946777e-01
-3.935521095991134644e-02
-6.060161441564559937e-02
-1.768957525491714478e-01
-1.570434421300888062e-01
3.482541767880320549e-03
-6.171728372573852539e-01
9.761339053511619568e-03
-1.149862483143806458e-01
-2.308328300714492798e-01
2.807132899761199951e-01
5.161913037300109863e-01
2.069562524557113647e-01
3.315694928169250488e-01
-6.922941654920578003e-02
1.598358005285263062e-01
2.972677946090698242e-01
1.044004876166582108e-02
1.899413913488388062e-01
3.364489972591400146e-01
1.329326629638671875e-02
2.290313392877578735e-01
-1.632862538099288940e-01
3.163742125034332275e-01
9.694005548954010010e-02
1.400067508220672607e-01
7.123484462499618530e-02
5.522401332855224609e-01
-8.646842241287231445e-01
-4.858287274837493896e-01
-8.214251399040222168e-01
-6.655858755111694336e-01
-9.758404493331909180e-01
-8.290663957595825195e-01
-6.537215709686279297e-01
-3.021812736988067627e-01
-3.105883598327636719e-01
-3.465818464756011963e-01
-4.618177115917205811e-01
-1.430880874395370483e-01
-2.983727157115936279e-01
-1.969133913516998291e-01
-2.573520243167877197e-01
-5.353933572769165039e-01
2.356316149234771729e-01
5.968200564384460449e-01
7.314792275428771973e-01
2.867389023303985596e-01
2.049726992845535278e-01
4.238832592964172363e-01
7.436760663986206055e-01
1.845613718032836914e-01
-3.474707901477813721e-02
1.210281550884246826e-01
9.515403956174850464e-02
3.539368212223052979e-01
4.690556526184082031e-01
8.001541346311569214e-02
4.506613016128540039e-01
1.206111311912536621e-01
-2.179634720087051392e-01
3.048084974288940430e-01
4.442128837108612061e-01
-5.481042265892028809e-01
2.271324247121810913e-01
7.786068320274353027e-02
-2.909228801727294922e-01
2.356681823730468750e-01
-3.421993553638458252e-02
1.792180687189102173e-01
3.452952578663825989e-02
-1.398446708917617798e-01
9.416420757770538330e-02
7.615082710981369019e-02
-1.924617774784564972e-02
-2.308044023811817169e-02
1.444402635097503662e-01
-1.095445547252893448e-02
-5.091421604156494141e-01
-1.410616785287857056e-01
1.099828332662582397e-01
4.631312787532806396e-01
-4.291345775127410889e-01
2.238602489233016968e-01
-3.488551080226898193e-01
1.123842746019363403e-01
-1.322534978389739990e-01
1.246223002672195435e-01
-1.928013414144515991e-01
2.740731835365295410e-01
-3.170061623677611351e-03
-5.174790024757385254e-01
3.802740573883056641e-01
-1.311579812318086624e-02
5.636307001113891602e-01
-1.178696751594543457e-01
-5.603786930441856384e-02
1.791013926267623901e-01
-1.601828187704086304e-01
-2.701756060123443604e-01
9.380875527858734131e-02
2.014552205801010132e-01
1.164783015847206116e-01
4.209289327263832092e-02
-2.350055277347564697e-01
-1.571138948202133179e-01
2.982271611690521240e-01
-2.226457297801971436e-01
3.006696328520774841e-02
2.849222123622894287e-01
1.105631887912750244e-01
-2.789273560047149658e-01
-5.491563677787780762e-01
4.873534142971038818e-01
3.583803772926330566e-01
-5.242382362484931946e-02
-1.031039133667945862e-01
2.536609582602977753e-02
-4.664668813347816467e-02
1.339760571718215942e-01
1.416552904993295670e-02
-5.459441542625427246e-01
2.956249713897705078e-01
1.059294864535331726e-01
-2.063801884651184082e-01
-1.209217607975006104e-01
3.696328997611999512e-01
-2.534820437431335449e-01
2.633717060089111328e-01
-3.881193101406097412e-01
1.648471206426620483e-01
5.151099339127540588e-02
3.115245699882507324e-01
2.426170557737350464e-01
-2.528089284896850586e-01
4.985550940036773682e-01
-6.863146424293518066e-01
3.183784484863281250e-01
-2.526162564754486084e-01
-1.711897738277912140e-02
5.124014616012573242e-01
1.025267541408538818e-01
6.238410621881484985e-02
1.533494442701339722e-01
1.258231103420257568e-01
8.610877990722656250e-01
-2.842156887054443359e-01
-2.587722837924957275e-01
-4.590677022933959961e-01
-3.363936245441436768e-01
-4.812061488628387451e-01
-3.735726773738861084e-01
-4.453891515731811523e-01
-5.692380666732788086e-01
-2.123516649007797241e-01
-2.820226550102233887e-01
-1.075339466333389282e-01
-7.359667420387268066e-01
-6.771270632743835449e-01
-8.831050992012023926e-01
-2.608318328857421875e-01
-9.414062500000000000e-01
-7.631541490554809570e-01
-8.128570318222045898e-01
-1.077087819576263428e-01
-2.277062684297561646e-01
1.781860440969467163e-01
-2.734638936817646027e-02
-3.394522368907928467e-01
1.445892751216888428e-01
9.611108154058456421e-02
-4.544128179550170898e-01
1.460826694965362549e-01
-2.451436817646026611e-01
8.735188096761703491e-02
4.195184737909585238e-04
2.513143047690391541e-02
-2.242979705333709717e-01
1.166316419839859009e-01
-1.694477200508117676e-01
1.706484258174896240e-01
-5.199104547500610352e-01
2.819171547889709473e-01
1.431206613779067993e-01
-1.301429718732833862e-01
2.238508313894271851e-03
-2.322390675544738770e-01
1.459326148033142090e-01
-9.001111239194869995e-02
-2.981964647769927979e-01
1.487238854169845581e-01
2.162839621305465698e-01
1.524498015642166138e-01
1.641635596752166748e-01
-1.825978457927703857e-01
-3.229662179946899414e-01
5.409555435180664062e-01
-6.493832468986511230e-01
-8.492154479026794434e-01
4.178587496280670166e-01
-3.753078728914260864e-02
1.889239102602005005e-01
4.054929316043853760e-01
-1.424107104539871216e-01
-5.063095688819885254e-01
3.969073295593261719e-01
-4.703067988157272339e-02
2.574951648712158203e-01
-2.255380302667617798e-01
-1.968972682952880859e-01
1.290338486433029175e-01
-3.600550070405006409e-02
2.787353098392486572e-01
3.390313088893890381e-01
-4.992988705635070801e-01
-1.177719011902809143e-01
-4.093841016292572021e-01
4.544373229146003723e-02
1.157418563961982727e-01
-1.794055849313735962e-01
-1.284294128417968750e-01
-4.057965278625488281e-01
3.483963608741760254e-01
-5.541117191314697266e-01
-1.845732182264328003e-01
-1.624240875244140625e-01
-1.851621121168136597e-01
-3.575505316257476807e-02
-1.930247992277145386e-01
-2.461785078048706055e-01
-3.326437175273895264e-01
-3.942913711071014404e-01
-2.410296648740768433e-01
-2.847313880920410156e-02
2.648884057998657227e-01
-1.084038764238357544e-01
2.025144696235656738e-01
-3.424734473228454590e-01
1.914865374565124512e-01
-2.916142642498016357e-01
7.571583241224288940e-02
1.627622544765472412e-01
-4.866646230220794678e-02
-1.477550268173217773e-01
-5.416311323642730713e-02
-9.858939051628112793e-02
-3.271957635879516602e-01
1.444366723299026489e-01
2.652507424354553223e-01
-4.133496582508087158e-01
-1.161858290433883667e-01
-5.451313033699989319e-02
-2.090584486722946167e-01
2.305442839860916138e-01
2.193722687661647797e-02
4.901298582553863525e-01
-4.262751936912536621e-01
-1.218966324813663960e-03
3.377918303012847900e-01
-9.585515409708023071e-02
6.414148211479187012e-02
-7.790350914001464844e-02
1.586002483963966370e-02
9.667441993951797485e-02
-8.888156735338270664e-04
-1.213440820574760437e-01
2.086311578750610352e-01
3.417706787586212158e-01
-4.227513968944549561e-01
1.018753573298454285e-01
-2.161628752946853638e-01
-1.054385583847761154e-02
-3.324732780456542969e-01
-4.475977420806884766e-01
4.428798854351043701e-01
-2.365321218967437744e-01
5.167987346649169922e-01
-2.508105635643005371e-01
8.813484311103820801e-01
2.231397181749343872e-01
1.177791804075241089e-01
3.560437634587287903e-02
3.776255622506141663e-02
-1.437088474631309509e-02
1.560405939817428589e-01
-3.288151323795318604e-01
-8.944470435380935669e-02
1.815847307443618774e-01
-2.977374792098999023e-01
-5.783661082386970520e-02
-3.245019316673278809e-01
-2.958920225501060486e-02
-2.062947005033493042e-01
4.830235242843627930e-02
8.621728047728538513e-03
-8.362565189599990845e-02
5.237194150686264038e-02
4.319750517606735229e-02
-9.953954815864562988e-02
-1.884916126728057861e-01
-5.388373136520385742e-01
9.096296131610870361e-02
2.162077128887176514e-01
1.889567524194717407e-01
-2.002955079078674316e-01
-2.079441398382186890e-01
-7.059799879789352417e-02
-1.255851686000823975e-01
2.489547282457351685e-01
4.035708960145711899e-03
-1.996908634901046753e-01
-1.064866185188293457e-01
5.694707483053207397e-02
3.340097069740295410e-01
-3.433060646057128906e-01
1.567735373973846436e-01
-2.332502901554107666e-01
-7.181169092655181885e-02
-3.305744230747222900e-01
-1.291579902172088623e-01
3.646861910820007324e-01
-4.282648861408233643e-01
3.738378360867500305e-02
1.085943877696990967e-01
-2.297541052103042603e-01
-1.783904135227203369e-01
3.420811891555786133e-01
-2.333156317472457886e-01
1.986814737319946289e-01
-3.114139139652252197e-01
9.819248318672180176e-02
2.108027040958404541e-01
-6.478082388639450073e-02
-1.869360506534576416e-01
1.406861096620559692e-01
-1.368493139743804932e-01
9.193458408117294312e-02
-9.760761260986328125e-02
9.007429331541061401e-02
-5.654261261224746704e-02
1.552907079458236694e-01
-1.174112036824226379e-01
1.733792871236801147e-01
1.618053913116455078e-01
9.422394447028636932e-03
-6.241986155509948730e-02
-7.364606857299804688e-02
1.375577133148908615e-02
-1.754030585289001465e-01
-9.708196669816970825e-02
4.851635694503784180e-01
1.508119851350784302e-01
-3.050009347498416901e-02
-1.829886063933372498e-02
7.010608911514282227e-02
-8.362230658531188965e-02
-9.290377795696258545e-02
-5.769163742661476135e-02
1.722481101751327515e-01
-2.789276540279388428e-01
6.545931100845336914e-02
1.281182169914245605e-01
-5.102129653096199036e-04
5.470803752541542053e-02
1.249926388263702393e-01
-6.823274306952953339e-04
1.343177855014801025e-01
1.852538883686065674e-01
-2.273152396082878113e-02
5.169218033552169800e-02
-1.683722883462905884e-01
9.808071702718734741e-02
1.695894151926040649e-01
-2.099251151084899902e-01
3.532125428318977356e-02
-4.744302481412887573e-02
3.439350128173828125e-01
-1.050682738423347473e-01
-2.217561900615692139e-01
2.521233856678009033e-01
-2.165579795837402344e-01
4.400469362735748291e-02
-2.100906223058700562e-01
5.283626541495323181e-02
-6.472451686859130859e-01
-9.815806522965431213e-03
-8.494114130735397339e-02
-2.500124834477901459e-02
5.023021716624498367e-03
1.956747323274612427e-01
-3.887660503387451172e-01
-2.532190382480621338e-01
-2.118636965751647949e-01
-3.279547765851020813e-02
1.090143918991088867e-01
2.339864969253540039e-01
-1.157693937420845032e-01
-4.719451963901519775e-01
1.510671228170394897e-01
-2.282626330852508545e-01
4.563336968421936035e-01
-4.287863671779632568e-01
-8.447526395320892334e-02
4.734007641673088074e-03
-2.334134876728057861e-01
-1.301305145025253296e-01
2.870044484734535217e-02
-2.485118992626667023e-02
5.696414411067962646e-02
-1.824023574590682983e-01
-3.288581967353820801e-02
1.360221207141876221e-01
-5.693582352250814438e-03
-9.644436836242675781e-02
2.359486967325210571e-01
-1.019173264503479004e-01
-2.131965160369873047e-01
-9.437679499387741089e-02
8.509770780801773071e-02
-4.780997931957244873e-01
1.487818658351898193e-01
3.666391670703887939e-01
-5.747307091951370239e-02
3.021179735660552979e-01
-4.172332957386970520e-02
-1.014749407768249512e-01
5.965504050254821777e-02
5.636665970087051392e-02
-4.410292208194732666e-01
6.022072434425354004e-01
-6.778850555419921875e-01
-4.657078385353088379e-01
-9.035690128803253174e-02
-7.034923434257507324e-01
-3.427959382534027100e-01
-6.807344555854797363e-01
-3.178091049194335938e-01
3.549701869487762451e-01
-2.022921591997146606e-01
2.605983912944793701e-01
-1.705382317304611206e-01
2.817611694335937500e-01
-2.533461153507232666e-01
7.231939584016799927e-02
1.649101674556732178e-01
-3.667661547660827637e-01
1.454830318689346313e-01
-2.878783047199249268e-01
9.956803172826766968e-02
1.339674592018127441e-01
-2.297396361827850342e-01
8.393750339746475220e-02
1.379820257425308228e-01
-2.947580516338348389e-01
-2.801884114742279053e-01
-4.033834114670753479e-02
-1.927438229322433472e-01
2.354483865201473236e-02
-9.058912098407745361e-02
-1.532586067914962769e-01
-3.575264811515808105e-01
4.153401404619216919e-02
-5.416835099458694458e-02
-1.210553348064422607e-01
-3.314117491245269775e-01
-1.011039689183235168e-01
-2.765736579895019531e-01
-2.646688818931579590e-01
2.344498969614505768e-02
-3.666993379592895508e-01
2.820017337799072266e-01
-1.599084585905075073e-01
1.382089555263519287e-01
-7.381606847047805786e-02
3.551269881427288055e-03
2.420845068991184235e-02
-6.616794317960739136e-02
-2.910968661308288574e-02
2.454947121441364288e-02
-1.291434466838836670e-01
-6.996060162782669067e-02
7.945431023836135864e-02
1.096924468874931335e-01
2.543103098869323730e-01
-9.812493622303009033e-02
-2.862886488437652588e-01
5.205602645874023438e-01
2.042478621006011963e-01
1.913731545209884644e-01
3.844777643680572510e-01
3.224821686744689941e-01
4.437630772590637207e-01
3.550716042518615723e-01
1.941409558057785034e-01
3.805856108665466309e-01
-1.037764772772789001e-01
-3.813270479440689087e-02
6.223448738455772400e-02
3.567743301391601562e-01
4.374636411666870117e-01
2.619477212429046631e-01
2.599967420101165771e-01
8.240745961666107178e-02
2.871589362621307373e-01
-7.135940250009298325e-03
2.597316801548004150e-01
-2.410525381565093994e-01
8.926159888505935669e-02
1.428245306015014648e-01
-6.356463581323623657e-02
-2.558351457118988037e-01
2.195750027894973755e-01
-3.701681271195411682e-02
2.326613292098045349e-02
1.943962648510932922e-02
-4.406762868165969849e-02
1.325019747018814087e-01
5.347464978694915771e-02
-4.088973402976989746e-01
3.081981651484966278e-02
4.021711647510528564e-02
1.292312294244766235e-01
-4.382758215069770813e-02
2.087774425745010376e-01
1.980027258396148682e-01
1.871696114540100098e-02
-2.325996756553649902e-01
1.352345049381256104e-01
-6.438849121332168579e-02
2.988962233066558838e-01
1.231655180454254150e-01
-1.746226996183395386e-01
2.193470895290374756e-01
-2.171660661697387695e-01
3.485141992568969727e-01
7.553529739379882812e-02
1.109552979469299316e-01
3.368255794048309326e-01
-1.973526179790496826e-01
-6.060139462351799011e-02
-4.242733120918273926e-03
2.946966700255870819e-02
-7.432115823030471802e-02
2.455679029226303101e-01
-3.789648786187171936e-02
-2.418887615203857422e-01
9.538759291172027588e-02
1.062877550721168518e-01
-2.134898155927658081e-01
-2.894215472042560577e-02
-6.166898459196090698e-02
8.303759992122650146e-02
-1.110488474369049072e-01
-2.861039042472839355e-01
1.020046621561050415e-01
-2.961465120315551758e-01
-2.151380293071269989e-02
3.571305423974990845e-02
8.794710040092468262e-02
2.698631286621093750e-01
-2.314384877681732178e-01
2.286136001348495483e-01
1.174556910991668701e-01
1.213263869285583496e-01
1.923543773591518402e-02
-2.885209023952484131e-02
-2.208235114812850952e-01
-2.237782925367355347e-01
4.115965664386749268e-01
4.314842820167541504e-02
-1.516336202621459961e-01
4.320770800113677979e-01
-6.795938014984130859e-01
-1.119657419621944427e-02
-4.326961338520050049e-01
-3.634634017944335938e-01
-4.030411839485168457e-01
-3.034014105796813965e-01
-3.570763766765594482e-01
-7.283660769462585449e-02
-1.141720265150070190e-01
1.730431988835334778e-02
-2.975793369114398956e-02
-4.771917462348937988e-01
1.975219463929533958e-03
-2.986550331115722656e-01
-5.074586272239685059e-01
-3.954765796661376953e-01
-7.017920613288879395e-01
-8.378735780715942383e-01
-4.746066033840179443e-02
-1.557305902242660522e-01
-2.609011232852935791e-01
3.031731545925140381e-01
-4.726263284683227539e-01
2.926967442035675049e-01
1.189483404159545898e-01
-2.748070359230041504e-01
-1.831918209791183472e-01
-6.123646721243858337e-02
1.227196305990219116e-01
-3.793886303901672363e-01
5.623089075088500977e-01
-2.244733124971389771e-01
-1.382470279932022095e-01
-1.002655774354934692e-01
5.340149402618408203e-01
7.358261942863464355e-02
-4.256232827901840210e-02
-1.279825530946254730e-02
1.482264548540115356e-01
-1.494112312793731689e-01
1.549217104911804199e-01
3.659965470433235168e-02
1.454655360430479050e-02
1.310282945632934570e-01
-4.416054114699363708e-02
6.182397529482841492e-02
1.832248866558074951e-01
1.915847361087799072e-01
1.458896249532699585e-01
8.013365417718887329e-02
3.600473105907440186e-01
-3.250772655010223389e-01
-8.255901187658309937e-02
2.838953770697116852e-02
4.737623035907745361e-01
-3.471621572971343994e-01
4.314280748367309570e-01
-6.617573499679565430e-01
3.390380740165710449e-01
-1.776976436376571655e-01
-4.580238088965415955e-02
2.329173535108566284e-01
1.691944897174835205e-01
-1.510109156370162964e-01
7.630592584609985352e-02
-3.772988915443420410e-01
2.631973922252655029e-01
3.895812034606933594e-01
5.079516172409057617e-01
1.090195253491401672e-01
4.675693064928054810e-02
2.943711876869201660e-01
1.463174354285001755e-02
2.240000218152999878e-01
-1.114039421081542969e-01
-3.288215398788452148e-01
3.923448324203491211e-01
9.483414143323898315e-02
3.227416053414344788e-02
1.882666908204555511e-02
4.513699114322662354e-01
1.060308143496513367e-01
-3.719897866249084473e-01
-1.714937388896942139e-02
7.323671579360961914e-01
-3.646179437637329102e-01
8.536664396524429321e-02
-1.459632813930511475e-01
5.414980277419090271e-02
2.350933402776718140e-01
-2.038891762495040894e-01
1.417271345853805542e-01
-1.072124466300010681e-01
1.330217421054840088e-01
6.677719205617904663e-02
-1.523323208093643188e-01
8.420566469430923462e-02
-5.338514223694801331e-02
-9.712878614664077759e-02
-7.222196459770202637e-02
8.374159783124923706e-02
6.311253458261489868e-02
-2.317856997251510620e-01
-8.515390753746032715e-02
4.035207331180572510e-01
-1.680021286010742188e-01
-1.839731782674789429e-01
1.371033582836389542e-02
9.137844294309616089e-02
-4.799906164407730103e-02
-9.924546629190444946e-02
3.410533666610717773e-01
-1.736822724342346191e-01
-1.340389400720596313e-01
-1.764587610960006714e-01
2.759296447038650513e-02
-2.662331461906433105e-01
5.675505474209785461e-02
-4.118304848670959473e-01
3.360986411571502686e-01
2.948010526597499847e-02
1.936390399932861328e-01
-1.849855855107307434e-02
-3.533457964658737183e-02
3.072057664394378662e-01
-8.295573294162750244e-02
2.497319728136062622e-01
-6.802919507026672363e-02
-1.213001087307929993e-01
6.108807399868965149e-02
2.094783186912536621e-01
-9.008151292800903320e-02
-4.475944489240646362e-02
1.998102813959121704e-01
1.577571779489517212e-01
4.412776827812194824e-01
-5.563987493515014648e-01
2.187732160091400146e-01
-1.613835692405700684e-01
1.697833240032196045e-01
-4.609115123748779297e-01
-8.601665496826171875e-02
2.758206427097320557e-01
-2.375453114509582520e-01
-1.527154594659805298e-01
-1.306256931275129318e-02
3.027468025684356689e-01
-1.901033818721771240e-01
-6.644617766141891479e-02
9.875581413507461548e-02
-1.569920480251312256e-01
-7.872185669839382172e-03
-6.686829775571823120e-02
-1.068178042769432068e-01
-2.536149919033050537e-01
9.121511876583099365e-02
-3.297043740749359131e-01
-1.950939446687698364e-01
-1.743273138999938965e-01
-1.752163767814636230e-01
-2.074975706636905670e-02
2.976091206073760986e-01
-6.448045372962951660e-02
-2.450859174132347107e-02
-4.543518722057342529e-01
-2.065104991197586060e-01
-4.091483950614929199e-01
5.542297661304473877e-02
-7.484446465969085693e-02
-3.485938608646392822e-01
2.092675715684890747e-01
1.402795761823654175e-01
-1.502911001443862915e-01
2.855902314186096191e-01
-3.780564367771148682e-01
4.487302303314208984e-01
1.280307490378618240e-02
2.934327125549316406e-01
-7.436762750148773193e-02
-1.598109602928161621e-01
1.949773728847503662e-01
1.453776210546493530e-01
-4.174752831459045410e-01
1.809599809348583221e-02
1.423892378807067871e-01
1.437080800533294678e-01
2.441264390945434570e-01
-1.484801173210144043e-01
-1.037178188562393188e-01
9.735143929719924927e-02
3.571630269289016724e-02
-1.608905941247940063e-01
-2.487136274576187134e-01
-1.507908254861831665e-01
1.304655224084854126e-01
-2.572026550769805908e-01
-6.033984944224357605e-02
-2.005118131637573242e-01
7.654219865798950195e-02
-1.501008719205856323e-01
6.426956504583358765e-02
-1.003585606813430786e-01
-6.006928533315658569e-02
-3.379102647304534912e-01
-1.854228228330612183e-01
1.231618002057075500e-01
-1.426669508218765259e-01
5.382835492491722107e-02
6.263148784637451172e-02
5.405621230602264404e-02
-2.418883740901947021e-01
2.823447287082672119e-01
-1.224440038204193115e-01
-1.129888296127319336e-01
3.160759806632995605e-01
-4.094819128513336182e-01
2.295127660036087036e-01
7.178812474012374878e-02
-4.275332763791084290e-02
-1.123251840472221375e-01
2.245976775884628296e-01
1.909147202968597412e-01
-1.336405426263809204e-01
1.852666288614273071e-01
1.096506230533123016e-02
-2.095596790313720703e-01
1.638140380382537842e-01
7.349927723407745361e-02
-4.916463792324066162e-02
1.798307746648788452e-01
-1.280748844146728516e-01
-3.550546616315841675e-02
-9.542386978864669800e-02
1.383776664733886719e-01
2.776192128658294678e-01
-2.050639688968658447e-01
-1.124467179179191589e-01
2.341064363718032837e-01
6.447046995162963867e-02
-1.166135817766189575e-01
3.184479102492332458e-02
3.772547841072082520e-02
-2.255386263132095337e-01
5.187256336212158203e-01
-3.144806921482086182e-01
6.258976459503173828e-02
-1.182220689952373505e-02
-7.540524005889892578e-02
2.224530279636383057e-01
-2.117769271135330200e-01
2.161942571401596069e-01
4.180894047021865845e-02
-2.336739152669906616e-01
2.167483866214752197e-01
-4.870618581771850586e-01
-1.738481074571609497e-01
1.439022421836853027e-01
-8.643812686204910278e-02
3.429527953267097473e-02
-3.785202503204345703e-01
1.534567400813102722e-02
2.055563777685165405e-02
5.432474985718727112e-02
4.404151812195777893e-02
-1.789768636226654053e-01
-1.486358195543289185e-01
-8.151235431432723999e-02
-1.405286937952041626e-01
-1.311276853084564209e-01
-6.776761263608932495e-02
-3.051508069038391113e-01
-1.229152604937553406e-01
-4.468030929565429688e-01
2.009581327438354492e-01
-1.906679570674896240e-01
9.521590918302536011e-02
-1.257044225931167603e-01
1.759002804756164551e-01
-2.904145717620849609e-01
-5.084241740405559540e-03
2.275812774896621704e-01
-3.522885441780090332e-01
1.327591985464096069e-01
-8.202870935201644897e-02
8.463183790445327759e-02
2.679165825247764587e-02
-2.069373279809951782e-01
3.552635014057159424e-01
-4.775048792362213135e-01
2.632178738713264465e-02
-3.434990644454956055e-01
2.926669120788574219e-01
-1.412772536277770996e-01
8.620946109294891357e-02
-2.587376534938812256e-01
7.834859192371368408e-02
1.673913300037384033e-01
-2.050512582063674927e-01
-8.689298480749130249e-02
-3.189437463879585266e-02
-7.487972080707550049e-02
2.393317036330699921e-02
3.024232201278209686e-02
1.555373799055814743e-02
3.886985182762145996e-01
-3.735299110412597656e-01
-3.515738621354103088e-02
-1.322828531265258789e-01
-5.138556286692619324e-02
1.310219168663024902e-01
-1.106833741068840027e-01
3.472597002983093262e-01
-4.072779715061187744e-01
1.828904822468757629e-02
1.658722311258316040e-01
-6.643671542406082153e-02
-1.414891332387924194e-01
1.002492830157279968e-01
-1.724690645933151245e-01
-1.483518332242965698e-01
-1.795383542776107788e-01
-1.710883378982543945e-01
1.836053878068923950e-01
3.737054467201232910e-01
-2.019336670637130737e-01
4.161835610866546631e-01
2.441285699605941772e-01
2.081609964370727539e-01
8.494107425212860107e-02
3.249267339706420898e-01
3.233139216899871826e-01
9.688138216733932495e-02
4.201316833496093750e-01
1.215497702360153198e-01
3.682087063789367676e-01
-3.744162991642951965e-02
1.234855055809020996e-01
3.084709346294403076e-01
1.461904942989349365e-01
5.262801051139831543e-01
3.267593681812286377e-02
2.188909053802490234e-01
-4.042991995811462402e-01
3.546100556850433350e-01
-5.767331719398498535e-01
4.168364703655242920e-01
2.527818679809570312e-01
2.888135379180312157e-03
1.243629213422536850e-02
-1.271500587463378906e-01
1.944907382130622864e-02
-1.579464375972747803e-01
1.036607176065444946e-01
-1.608608849346637726e-02
-2.497771978378295898e-01
1.037609949707984924e-01
7.199161052703857422e-01
-1.014748066663742065e-01
-6.160734221339225769e-02
1.472839862108230591e-01
-2.305531501770019531e-01
3.074622750282287598e-01
-3.344417512416839600e-01
2.596777677536010742e-01
-4.878143593668937683e-02
1.111591234803199768e-01
-8.769098669290542603e-02
-1.790346205234527588e-01
5.141207575798034668e-01
-6.356350183486938477e-01
6.913716197013854980e-01
7.063601911067962646e-02
-1.708642989397048950e-01
-9.912817040458321571e-04
3.841548562049865723e-01
-1.386806368827819824e-01
-2.400685250759124756e-01
1.155854836106300354e-01
-1.292984634637832642e-01
-7.051474601030349731e-02
-1.223659664392471313e-01
2.706882357597351074e-01
2.890291213989257812e-01
-9.922044724225997925e-02
-1.287741959095001221e-01
4.427672922611236572e-02
1.745692342519760132e-01
-9.491244703531265259e-02
-1.054679751396179199e-01
2.352050244808197021e-01
-1.228421330451965332e-01
-5.270463824272155762e-01
-6.031206250190734863e-01
3.829923644661903381e-02
-4.850968122482299805e-01
6.536273658275604248e-02
-6.417706608772277832e-01
-6.201321482658386230e-01
-5.618633031845092773e-01
-5.870966315269470215e-01
-2.766137719154357910e-01
-5.633378028869628906e-01
-2.892356812953948975e-01
5.949507951736450195e-01
3.704527616500854492e-01
1.002408564090728760e-01
-2.768250107765197754e-01
-9.141007065773010254e-01
-3.717265427112579346e-01
2.173681929707527161e-02
-1.482077240943908691e-01
-1.098217591643333435e-01
1.084245219826698303e-01
-1.381372660398483276e-01
-8.117075264453887939e-02
2.074648998677730560e-02
7.129456498660147190e-04
-1.614455133676528931e-01
5.559325590729713440e-02
6.077944487333297729e-02
-2.215355783700942993e-01
-1.834740489721298218e-01
8.465427905321121216e-02
-3.276171088218688965e-01
2.984468340873718262e-01
4.053669452667236328e+00
2.693731069564819336e+00
2.357058763504028320e+00
2.128750562667846680e+00
1.576343059539794922e+00
1.460882067680358887e+00
1.836365699768066406e+00
1.116364836692810059e+00
1.346076726913452148e+00
1.927757382392883301e+00
1.972251057624816895e+00
1.307380318641662598e+00
8.335176706314086914e-01
2.502966880798339844e+00
2.699667215347290039e+00
2.960486888885498047e+00
3.203419923782348633e+00
-1.259259730577468872e-01
-4.847388714551925659e-03
3.947977423667907715e-01
-2.519653737545013428e-01
-2.113288044929504395e-01
9.975484758615493774e-02
-1.378231495618820190e-01
1.836987584829330444e-01
2.100232988595962524e-03
-3.435756638646125793e-02
1.684565246105194092e-01
-5.163236856460571289e-01
8.443344384431838989e-02
2.789686024188995361e-01
-3.068352043628692627e-01
3.371662795543670654e-01
-1.138934046030044556e-01
3.689049184322357178e-02
5.558554530143737793e-01
-3.935759961605072021e-01
3.783798217773437500e-01
-9.947350621223449707e-02
2.045485824346542358e-01
-2.143505513668060303e-01
6.209912300109863281e-01
-3.574844598770141602e-01
4.171295836567878723e-02
-7.368782907724380493e-02
-7.735137641429901123e-02
-5.215128511190414429e-02
5.038375258445739746e-01
5.425532162189483643e-02
-3.453981876373291016e-01
3.466726243495941162e-01
4.893805980682373047e-01
-1.997312307357788086e-01
1.524085402488708496e-01
2.408435335382819176e-03
1.020677536725997925e-01
-1.487324833869934082e-01
1.536569446325302124e-01
-3.572945296764373779e-02
5.443117767572402954e-02
2.443251758813858032e-01
1.230650469660758972e-01
9.865829348564147949e-02
7.470160722732543945e-02
-1.138542033731937408e-02
3.291974589228630066e-02
2.202887237071990967e-01
-1.271626949310302734e-01
-2.283381521701812744e-01
-1.176592633128166199e-01
4.344369769096374512e-01
-9.670124948024749756e-02
-2.531905770301818848e-01
3.670632541179656982e-01
2.492349594831466675e-02
-2.266638725996017456e-01
-3.417896851897239685e-02
-2.182402834296226501e-02
-1.218572258949279785e-01
2.132325023412704468e-01
-2.980565428733825684e-01
6.091399118304252625e-02
1.225887760519981384e-01
-1.563938260078430176e-01
1.621156781911849976e-01
9.115683846175670624e-03
-1.619255244731903076e-01
1.696156710386276245e-01
5.333108082413673401e-02
-3.914071619510650635e-02
-5.222434177994728088e-02
3.427197337150573730e-01
-1.335014589130878448e-02
5.577183887362480164e-02
1.570068150758743286e-01
8.716589957475662231e-02
-4.242374002933502197e-02
5.846202969551086426e-01
-4.981225356459617615e-02
7.760949432849884033e-02
2.448379248380661011e-01
-3.008210062980651855e-01
-4.481205344200134277e-01
-1.187325045466423035e-01
-2.509546279907226562e-01
8.456701785326004028e-02
-7.220599055290222168e-02
-2.210360467433929443e-01
8.861368522047996521e-03
-1.292364746332168579e-01
-2.597182691097259521e-01
4.640504717826843262e-02
-1.790031045675277710e-01
1.867600381374359131e-01
-2.656357586383819580e-01
-7.027830183506011963e-02
-9.882825613021850586e-02
1.441976614296436310e-02
-4.338209927082061768e-01
7.642036676406860352e-01
4.282335042953491211e-01
7.475773692131042480e-01
5.885227322578430176e-01
9.115352034568786621e-01
7.005157470703125000e-01
5.755515098571777344e-01
2.708357572555541992e-01
2.450388669967651367e-01
3.008094727993011475e-01
4.151161313056945801e-01
7.166457176208496094e-02
2.587547302246093750e-01
1.425000429153442383e-01
2.321118563413619995e-01
4.698258638381958008e-01
-1.871405690908432007e-01
-5.358652472496032715e-01
-6.775076985359191895e-01
-2.365523725748062134e-01
-1.583171933889389038e-01
-3.998889029026031494e-01
-6.258649826049804688e-01
-1.365128755569458008e-01
3.196844458580017090e-02
-9.400403499603271484e-02
-9.957839548587799072e-02
-2.842155992984771729e-01
-4.137459993362426758e-01
-3.459391742944717407e-02
-3.900473117828369141e-01
-1.114775985479354858e-01
2.557359933853149414e-01
-2.703355252742767334e-01
-3.973293602466583252e-01
5.453178286552429199e-01
-2.139327228069305420e-01
-1.545177400112152100e-02
2.633662521839141846e-01
-2.406380921602249146e-01
3.328873217105865479e-02
-1.298180818557739258e-01
-2.091619372367858887e-02
8.803347498178482056e-02
-4.591035842895507812e-02
-1.174410358071327209e-01
5.282614007592201233e-02
3.758580982685089111e-02
-1.628470718860626221e-01
-2.598862908780574799e-02
4.448863267898559570e-01
1.468388140201568604e-01
-7.861600816249847412e-02
-4.138537049293518066e-01
3.665914833545684814e-01
-1.927619725465774536e-01
3.308023810386657715e-01
-7.009790092706680298e-02
1.498141884803771973e-01
-1.456815004348754883e-01
1.875962615013122559e-01
-2.373986840248107910e-01
4.321317374706268311e-02
5.205200314521789551e-01
-3.556496798992156982e-01
5.421094829216599464e-05
-4.990477561950683594e-01
1.120473295450210571e-01
4.049633443355560303e-02
-1.332946568727493286e-01
1.717665195465087891e-01
2.860944569110870361e-01
-7.563881576061248779e-02
-1.862132996320724487e-01
-1.129502132534980774e-01
-2.580873109400272369e-02
2.068704813718795776e-01
1.556180119514465332e-01
-2.563008964061737061e-01
1.870883554220199585e-01
-8.431642502546310425e-02
-2.635593116283416748e-01
-1.063122972846031189e-01
2.296434640884399414e-01
4.917617738246917725e-01
-4.849272370338439941e-01
-2.825672328472137451e-01
5.834202840924263000e-02
1.065436676144599915e-01
-2.213482046499848366e-03
5.605899915099143982e-02
-9.678597748279571533e-02
2.414073981344699860e-02
5.330149531364440918e-01
-2.830356955528259277e-01
-1.026207134127616882e-01
2.212972640991210938e-01
1.348209232091903687e-01
-3.583964109420776367e-01
2.785863280296325684e-01
-2.289098650217056274e-01
3.312410116195678711e-01
-1.639580279588699341e-01
-4.834671691060066223e-02
-2.946633994579315186e-01
-2.248875498771667480e-01
2.475194483995437622e-01
-4.690700769424438477e-01
6.781158447265625000e-01
-2.772052884101867676e-01
2.266694158315658569e-01
3.280758485198020935e-02
-5.006988048553466797e-01
-1.181330457329750061e-01
-7.144330441951751709e-02
-1.776431500911712646e-01
-1.273323297500610352e-01
-8.206850886344909668e-01
2.870770096778869629e-01
1.701355129480361938e-01
4.017259180545806885e-01
3.457148671150207520e-01
4.516674578189849854e-01
3.052178323268890381e-01
4.466762542724609375e-01
5.461682081222534180e-01
2.233141660690307617e-01
2.256476283073425293e-01
8.602631837129592896e-02
7.331517934799194336e-01
6.056712269783020020e-01
7.943471074104309082e-01
2.390100210905075073e-01
8.683050274848937988e-01
6.616270542144775391e-01
7.449628710746765137e-01
4.239293560385704041e-02
1.544734686613082886e-01
-1.987466365098953247e-01
-1.264983415603637695e-02
2.916259765625000000e-01
-1.113990694284439087e-01
-1.081774532794952393e-01
4.156504273414611816e-01
-1.653015911579132080e-01
2.422603368759155273e-01
-1.005274653434753418e-01
2.076173201203346252e-02
-2.578215114772319794e-02
1.655499190092086792e-01
-8.105599880218505859e-02
1.760422736406326294e-01
-1.766525804996490479e-01
5.309616923332214355e-01
-3.046283423900604248e-01
-1.154809892177581787e-01
8.049725741147994995e-02
-2.424463257193565369e-02
2.789072692394256592e-01
-1.098191663622856140e-01
1.030452772974967957e-01
2.919656336307525635e-01
-1.059137359261512756e-01
-1.793602854013442993e-01
-1.939197033643722534e-01
-1.935619711875915527e-01
2.255986183881759644e-01
3.289554417133331299e-01
-5.016835927963256836e-01
6.101902723312377930e-01
8.873677253723144531e-01
-3.978686034679412842e-01
2.808480896055698395e-02
-1.828943639993667603e-01
-3.643470704555511475e-01
1.334174871444702148e-01
5.203337669372558594e-01
-4.326805472373962402e-01
4.555157199501991272e-02
-2.902837395668029785e-01
2.520178258419036865e-01
1.710146218538284302e-01
-1.548651009798049927e-01
5.993319302797317505e-02
-3.088067471981048584e-01
-3.699396252632141113e-01
5.046715140342712402e-01
8.427661657333374023e-02
4.833489060401916504e-01
-8.166291750967502594e-03
-1.009920239448547363e-01
1.667197644710540771e-01
1.719634085893630981e-01
3.971361219882965088e-01
-3.481604158878326416e-01
5.831152796745300293e-01
1.816760897636413574e-01
1.964710503816604614e-01
2.547503411769866943e-01
8.788968622684478760e-02
2.230708152055740356e-01
2.647783458232879639e-01
3.390177786350250244e-01
4.633051455020904541e-01
2.878650426864624023e-01
7.476574683096259832e-05
-2.560663223266601562e-01
1.016235053539276123e-01
-2.153912186622619629e-01
3.561159074306488037e-01
-1.701314896345138550e-01
3.202845156192779541e-01
-9.167217463254928589e-02
-1.966167539358139038e-01
1.542139146476984024e-02
2.083126604557037354e-01
6.738229840993881226e-02
1.398780196905136108e-01
3.044922947883605957e-01
-1.620785444974899292e-01
-2.822002172470092773e-01
4.208989739418029785e-01
8.074664324522018433e-02
7.470372319221496582e-02
1.850025802850723267e-01
-2.403422892093658447e-01
-5.336242914199829102e-02
-5.223389863967895508e-01
3.986955881118774414e-01
5.864496156573295593e-02
-3.639993667602539062e-01
1.382618099451065063e-01
-2.976190671324729919e-02
7.422148436307907104e-02
-1.268110796809196472e-02
-1.264376044273376465e-01
-3.757086768746376038e-02
1.204537376761436462e-01
-1.481175869703292847e-01
-3.497239649295806885e-01
4.488235712051391602e-01
-1.252668350934982300e-01
1.990542858839035034e-01
3.715711459517478943e-02
3.640618026256561279e-01
4.354904592037200928e-01
-4.799529016017913818e-01
2.252551317214965820e-01
-5.174170732498168945e-01
2.233112603425979614e-01
-8.887711167335510254e-01
-2.483408898115158081e-01
-1.223788931965827942e-01
-1.516644190996885300e-02
-5.663981661200523376e-02
3.630501776933670044e-02
-1.579397767782211304e-01
3.403712511062622070e-01
1.486097872257232666e-01
-2.181145995855331421e-01
2.766823470592498779e-01
9.046029299497604370e-02
3.010043799877166748e-01
8.136669546365737915e-02
2.218597233295440674e-01
-6.027632579207420349e-02
-3.717018291354179382e-02
7.188668847084045410e-02
-9.160701930522918701e-02
7.377532776445150375e-03
1.396255344152450562e-01
2.092604339122772217e-01
5.447703599929809570e-01
-1.013524830341339111e-01
-2.480379492044448853e-01
-2.163742035627365112e-01
1.854963600635528564e-01
1.638809591531753540e-01
7.951431721448898315e-02
1.295649856328964233e-01
-2.957001030445098877e-01
7.857882883399724960e-04
1.569108217954635620e-01
5.199299007654190063e-02
-6.789332628250122070e-02
-3.040793240070343018e-01
3.236151039600372314e-01
-1.562646329402923584e-01
2.226247638463973999e-01
4.011090844869613647e-02
3.059786558151245117e-01
8.518081158399581909e-02
-4.286985993385314941e-01
4.258230030536651611e-01
-2.090610750019550323e-02
-1.096746474504470825e-01
1.979822963476181030e-01
1.868479996919631958e-01
-3.493920266628265381e-01
2.122859507799148560e-01
-2.013969719409942627e-01
2.869743406772613525e-01
-6.570713222026824951e-02
-2.523099482059478760e-01
5.662984773516654968e-02
2.206055968999862671e-01
-1.594469696283340454e-01
1.213895380496978760e-01
-1.093352958559989929e-01
9.567074477672576904e-02
-5.926131084561347961e-02
6.885959953069686890e-02
-1.302148848772048950e-01
9.994526207447052002e-02
-1.356951892375946045e-01
-1.899553984403610229e-01
2.693654224276542664e-02
9.127612411975860596e-02
9.973726421594619751e-02
-2.623876370489597321e-02
1.765601783990859985e-01
1.169743537902832031e-01
-4.743025898933410645e-01
-2.111457288265228271e-01
-1.389570767059922218e-03
-1.070200186222791672e-02
-8.194473385810852051e-02
2.406298369169235229e-02
1.058060452342033386e-01
2.095638215541839600e-02
-2.155597954988479614e-01
2.797063291072845459e-01
-8.197101950645446777e-02
-1.392298191785812378e-01
8.738352917134761810e-03
-3.322077542543411255e-02
-1.382338255643844604e-01
-2.504895068705081940e-02
-1.545721441507339478e-01
-2.380033284425735474e-01
2.603608742356300354e-02
-6.621927767992019653e-02
1.497189849615097046e-01
-5.749476701021194458e-02
-1.580439358949661255e-01
2.159945219755172729e-01
-4.140136390924453735e-02
6.687428802251815796e-02
-3.657381236553192139e-01
1.042347922921180725e-01
2.151692360639572144e-01
-2.607031166553497314e-01
2.420405298471450806e-01
-8.765238523483276367e-02
2.411491274833679199e-01
-4.808419570326805115e-02
6.603858470916748047e-01
4.251264408230781555e-02
9.376432001590728760e-02
6.591495871543884277e-02
-3.452211618423461914e-02
-2.469860017299652100e-01
3.511671423912048340e-01
2.470071613788604736e-01
1.837945133447647095e-01
1.641934923827648163e-02
-1.057071536779403687e-01
-2.561760544776916504e-01
1.166262403130531311e-01
4.857815504074096680e-01
-1.637389510869979858e-01
2.653510570526123047e-01
-5.018084049224853516e-01
4.388930499553680420e-01
9.793045371770858765e-02
1.761996746063232422e-02
2.324359267950057983e-01
1.141511201858520508e-01
1.391337346285581589e-02
3.312705317512154579e-03
-8.173382282257080078e-02
1.832297444343566895e-01
9.180320054292678833e-02
-9.774401783943176270e-02
2.223265916109085083e-02
1.036177873611450195e-01
-2.076981961727142334e-01
7.376200705766677856e-02
2.323487848043441772e-01
8.634690195322036743e-02
-4.468677565455436707e-02
5.225419998168945312e-01
-8.705569803714752197e-02
-3.552494049072265625e-01
6.440546363592147827e-02
-2.826688289642333984e-01
4.584532603621482849e-02
1.433711349964141846e-01
-4.808443039655685425e-02
-3.217827901244163513e-02
4.727528989315032959e-01
-5.784481167793273926e-01
7.466759085655212402e-01
4.771461188793182373e-01
1.116822734475135803e-01
7.288825511932373047e-01
3.444047272205352783e-01
7.815317511558532715e-01
3.234186470508575439e-01
-3.562561273574829102e-01
2.414492219686508179e-01
-2.898978888988494873e-01
2.040570080280303955e-01
-2.663693726062774658e-01
2.412472069263458252e-01
-5.376450344920158386e-02
-1.868050396442413330e-01
3.772524893283843994e-01
-1.673424243927001953e-01
3.015767931938171387e-01
-9.404096007347106934e-02
-1.412282139062881470e-01
2.687246203422546387e-01
-7.035536319017410278e-02
-1.550533175468444824e-01
3.122014403343200684e-01
3.142816424369812012e-01
6.607767194509506226e-02
1.911359578371047974e-01
-1.189591479487717152e-03
1.335555166006088257e-01
1.345805674791336060e-01
3.701139390468597412e-01
-8.076694607734680176e-02
6.642001867294311523e-02
1.675262004137039185e-01
3.754180967807769775e-01
1.167526766657829285e-01
2.697820663452148438e-01
2.811988592147827148e-01
1.337689254432916641e-02
3.391297757625579834e-01
-3.268065452575683594e-01
9.033824503421783447e-02
-1.950502246618270874e-01
1.104003563523292542e-01
-1.674026623368263245e-02
-3.941287100315093994e-02
9.116329252719879150e-02
2.349005546420812607e-03
5.288450047373771667e-04
1.279169023036956787e-01
8.262538909912109375e-02
-6.002591177821159363e-02
-1.400368660688400269e-01
-2.382616549730300903e-01
9.095016866922378540e-02
3.286558985710144043e-01
-5.269860029220581055e-01
-2.297324091196060181e-01
-1.822999715805053711e-01
-3.975319564342498779e-01
-3.795250356197357178e-01
-4.887791275978088379e-01
-3.264303207397460938e-01
-1.895703375339508057e-01
-4.006044864654541016e-01
7.583092898130416870e-02
3.668664395809173584e-02
-1.106550619006156921e-01
-4.012533426284790039e-01
-4.851163923740386963e-01
-2.979812026023864746e-01
-2.863874435424804688e-01
-1.389803141355514526e-01
-2.962419092655181885e-01
1.855551637709140778e-02
-2.389661073684692383e-01
2.606746852397918701e-01
-4.810181260108947754e-02
-1.191900596022605896e-01
2.146563678979873657e-02
2.156386226415634155e-01
-1.663263589143753052e-01
6.688638031482696533e-02
-2.560461498796939850e-02
-4.831732437014579773e-02
8.268344402313232422e-02
-1.621547341346740723e-01
-3.114669024944305420e-02
4.297200143337249756e-01
-8.204555511474609375e-02
-4.641343653202056885e-02
-1.869089454412460327e-01
-1.688900217413902283e-02
-1.992423683404922485e-01
-2.489353418350219727e-01
-9.747408330440521240e-02
2.282578796148300171e-01
-1.428249925374984741e-01
4.594671353697776794e-02
-2.897417843341827393e-01
-1.549528539180755615e-01
1.331428885459899902e-01
-2.745043635368347168e-01
2.377641946077346802e-01
-4.216612279415130615e-01
-7.569675892591476440e-02
-1.832112073898315430e-01
-3.957995772361755371e-01
2.528517842292785645e-01
5.176069214940071106e-02
-1.091536972671747208e-02
-6.998099386692047119e-02
3.584867715835571289e-02
-2.764186561107635498e-01
-1.840008236467838287e-02
2.426479160785675049e-01
-1.164614483714103699e-01
-1.389655619859695435e-01
1.802069395780563354e-01
-9.850099682807922363e-03
5.957547575235366821e-02
-1.038999706506729126e-01
1.472415030002593994e-01
3.067662715911865234e-01
-1.064215674996376038e-01
2.595836222171783447e-01
2.965945750474929810e-02
5.087795667350292206e-03
-1.007058620452880859e-01
-2.341144829988479614e-01
1.966168135404586792e-01
-2.395274043083190918e-01
-9.285966306924819946e-02
-1.166145727038383484e-01
-1.407163590192794800e-02
5.065376870334148407e-03
2.452393025159835815e-01
2.612423002719879150e-01
-4.360854625701904297e-01
-3.861766308546066284e-02
1.663231402635574341e-01
-4.719066023826599121e-01
7.450911998748779297e-01
5.824713967740535736e-03
4.338964521884918213e-01
3.887967765331268311e-01
4.141528010368347168e-01
3.210815191268920898e-01
3.857458233833312988e-01
8.065301179885864258e-02
1.204197257757186890e-01
2.219170518219470978e-02
8.175555616617202759e-02
5.000162124633789062e-01
-5.615885020233690739e-04
3.054667115211486816e-01
5.781397819519042969e-01
4.230248630046844482e-01
7.106950283050537109e-01
8.890009522438049316e-01
3.721060976386070251e-02
1.558593213558197021e-01
2.759512960910797119e-01
-2.601655125617980957e-01
4.712516963481903076e-01
-2.767969071865081787e-01
-9.809464961290359497e-02
2.823426723480224609e-01
1.780171096324920654e-01
2.534514106810092926e-02
-1.504090577363967896e-01
3.487936854362487793e-01
-6.072192192077636719e-01
2.340549081563949585e-01
1.199606284499168396e-01
1.524280011653900146e-01
-5.412786006927490234e-01
-6.258925050497055054e-02
4.087858274579048157e-02
-4.103802610188722610e-03
-1.183030679821968079e-01
1.415475755929946899e-01
-1.111032292246818542e-01
-3.360069822520017624e-03
-2.451755478978157043e-02
-1.346394121646881104e-01
2.891914360225200653e-02
-7.288983464241027832e-02
-1.952855437994003296e-01
-1.727183163166046143e-01
-1.326249241828918457e-01
-4.649660363793373108e-02
-3.811126351356506348e-01
3.462027311325073242e-01
5.093528330326080322e-02
-4.225235804915428162e-02
-5.142804384231567383e-01
3.765324354171752930e-01
-4.600121974945068359e-01
6.722785830497741699e-01
-3.134859502315521240e-01
1.900238841772079468e-01
5.788831412792205811e-02
-2.282719612121582031e-01
-1.759562790393829346e-01
1.323349773883819580e-01
-1.259003728628158569e-01
3.949545919895172119e-01
-2.579512596130371094e-01
-4.072194099426269531e-01
-5.229346752166748047e-01
-1.477916538715362549e-01
-4.535144194960594177e-02
-3.251098990440368652e-01
-1.902778074145317078e-02
-2.625402212142944336e-01
1.490614116191864014e-01
3.549330532550811768e-01
-4.229701161384582520e-01
-1.104854494333267212e-01
-6.452483683824539185e-02
-6.280570477247238159e-02
-4.329594075679779053e-01
-1.461068242788314819e-01
3.503234684467315674e-01
-1.782020740211009979e-02
-7.475244402885437012e-01
3.507487177848815918e-01
-7.440315932035446167e-02
1.408406049013137817e-01
-3.809490799903869629e-02
-1.909846663475036621e-01
1.915442198514938354e-01
-1.092441156506538391e-01
1.276684254407882690e-01
-1.130801588296890259e-01
-7.916516810655593872e-02
1.352595090866088867e-01
-9.951807558536529541e-02
9.727124869823455811e-02
8.282330632209777832e-02
1.151545122265815735e-01
-1.220442131161689758e-01
-7.193981856107711792e-02
2.426790893077850342e-01
1.092421934008598328e-01
-4.495066702365875244e-01
1.725209802389144897e-01
1.953954398632049561e-01
-9.858753765001893044e-04
-9.726248681545257568e-02
5.919026583433151245e-02
8.684077113866806030e-02
-3.616741001605987549e-01
2.174597382545471191e-01
1.341608464717864990e-01
1.794707179069519043e-01
-2.555139549076557159e-02
2.119819670915603638e-01
-1.096521094441413879e-01
4.264424443244934082e-01
-3.814999759197235107e-01
2.782579138875007629e-02
-2.226090133190155029e-01
-3.976843878626823425e-02
2.210606634616851807e-02
-2.928319573402404785e-01
6.258832663297653198e-02
-2.183280289173126221e-01
7.911285012960433960e-02
8.035878092050552368e-02
-1.001960709691047668e-01
-2.247033119201660156e-01
7.049238681793212891e-02
2.951837144792079926e-02
-2.575775384902954102e-01
-1.926054507493972778e-01
-5.092357993125915527e-01
5.574491024017333984e-01
-1.849848628044128418e-01
2.023441493511199951e-01
-1.372826695442199707e-01
4.984577298164367676e-01
9.275852143764495850e-02
-2.417604029178619385e-01
2.524470388889312744e-01
1.393311470746994019e-01
1.538932509720325470e-02
-3.041910231113433838e-01
2.380490154027938843e-01
5.289554595947265625e-02
-1.013122648000717163e-01
1.925374865531921387e-01
8.582382462918758392e-03
5.224057659506797791e-02
1.470259428024291992e-01
3.009575903415679932e-01
-5.402269586920738220e-02
3.543277978897094727e-01
2.533810734748840332e-01
1.842905580997467041e-01
1.789838820695877075e-01
5.121226236224174500e-02
-3.277875185012817383e-01
1.197675764560699463e-01
4.018722847104072571e-02
4.555660486221313477e-01
2.270996272563934326e-01
3.982335627079010010e-01
-1.763391494750976562e-02
1.150645017623901367e-01
3.885957300662994385e-01
-1.986572742462158203e-01
-1.320829689502716064e-01
1.482061296701431274e-01
-2.903133928775787354e-01
4.277673959732055664e-01
-4.768910109996795654e-01
1.872421987354755402e-02
-2.654861807823181152e-01
4.062883183360099792e-02
2.071895748376846313e-01
-1.846055537462234497e-01
-1.738746315240859985e-01
4.195275306701660156e-01
2.688096649944782257e-02
-1.852337867021560669e-01
-1.699888557195663452e-01
-2.788924872875213623e-01
1.604107022285461426e-01
9.778565168380737305e-02
-5.050456151366233826e-02
-5.394546780735254288e-03
1.672777980566024780e-01
2.238548249006271362e-01
1.499863713979721069e-01
-9.249441325664520264e-02
2.551931440830230713e-01
4.830470308661460876e-02
2.416858971118927002e-01
-5.869386345148086548e-02
1.717969477176666260e-01
-3.548891097307205200e-02
1.510718762874603271e-01
4.459710419178009033e-02
3.966158032417297363e-01
2.101043909788131714e-01
-1.128949150443077087e-01
1.459053158760070801e-01
-4.074755683541297913e-02
-6.888253241777420044e-02
-1.328750792890787125e-02
2.564158737659454346e-01
-2.860573232173919678e-01
1.315017938613891602e-01
1.141664385795593262e-01
-3.460217416286468506e-01
3.701147139072418213e-01
-2.431825846433639526e-01
-9.223373234272003174e-02
3.348722681403160095e-02
1.234610751271247864e-01
-2.127052098512649536e-01
-2.047265768051147461e-01
1.323204189538955688e-01
-2.194594889879226685e-01
-1.741522923111915588e-02
1.707099080085754395e-01
-2.207518815994262695e-01
-8.661098033189773560e-02
9.254815056920051575e-03
-1.966953426599502563e-01
1.061283946037292480e-01
2.052800916135311127e-02
1.063806489109992981e-01
-1.767431944608688354e-01
-2.791816890239715576e-01
2.085304111242294312e-01
1.552158743143081665e-01
-2.841408252716064453e-01
-9.045462310314178467e-02
1.325053870677947998e-01
-3.842945024371147156e-02
-4.199931398034095764e-02
2.514688670635223389e-01
-5.654542446136474609e-01
3.119131624698638916e-01
-9.122820943593978882e-02
2.290914766490459442e-02
9.947396814823150635e-02
-2.540614306926727295e-01
2.437712997198104858e-01
-2.485025823116302490e-01
-4.773597046732902527e-02
2.746179103851318359e-01
-2.587671279907226562e-01
4.513776302337646484e-01
1.962046474218368530e-01
-1.943067312240600586e-01
1.210607886314392090e-01
-5.023413151502609253e-02
3.566453754901885986e-01
-1.801027916371822357e-02
-2.977531589567661285e-02
-4.924027994275093079e-02
-7.608806341886520386e-02
1.777845770120620728e-01
1.224651113152503967e-01
3.384763747453689575e-02
1.432729363441467285e-01
1.462971866130828857e-01
2.386868931353092194e-02
2.919926643371582031e-01
1.464661657810211182e-01
4.518395960330963135e-01
-1.719493716955184937e-01
1.748986542224884033e-01
-1.625648736953735352e-01
1.352531611919403076e-01
-1.932256221771240234e-01
2.923036217689514160e-01
9.151351638138294220e-03
-2.305087298154830933e-01
3.511185944080352783e-01
-1.053999066352844238e-01
1.005919948220252991e-01
-1.282402724027633667e-01
-2.215504832565784454e-02
2.162484228610992432e-01
-3.707329332828521729e-01
5.021713376045227051e-01
2.628799993544816971e-03
3.492238521575927734e-01
-2.930931746959686279e-01
1.092079952359199524e-01
-1.274296194314956665e-01
2.512690424919128418e-01
-4.506716132164001465e-02
-1.701796352863311768e-01
1.819577068090438843e-01
1.226609125733375549e-01
1.121640484780073166e-02
5.080631747841835022e-02
-2.099308930337429047e-02
-2.127026207745075226e-02
1.804615743458271027e-02
-3.689811825752258301e-01
4.097147583961486816e-01
3.768854960799217224e-02
1.199720874428749084e-01
-5.899263545870780945e-03
-1.488815546035766602e-01
1.143484190106391907e-01
-3.647231161594390869e-01
4.325944781303405762e-01
1.050060614943504333e-03
-1.851972788572311401e-01
3.532621636986732483e-02
1.708434522151947021e-01
-1.247865110635757446e-01
1.668570041656494141e-01
1.325671821832656860e-01
2.096739262342453003e-01
2.227542996406555176e-01
-1.684527844190597534e-01
-4.408708214759826660e-01
1.664404720067977905e-01
-4.161371886730194092e-01
-2.179503291845321655e-01
-2.406464815139770508e-01
-1.017886549234390259e-01
-3.627227246761322021e-01
-3.538457453250885010e-01
-1.182007193565368652e-01
-4.587500989437103271e-01
-1.183484345674514771e-01
-3.749654889106750488e-01
-1.732754334807395935e-02
-1.377190649509429932e-01
-3.152130544185638428e-01
-2.238432466983795166e-01
-5.818479061126708984e-01
-6.945758312940597534e-02
-2.289142310619354248e-01
3.859064579010009766e-01
-3.754358887672424316e-01
6.171101331710815430e-01
-4.419115483760833740e-01
-2.296256721019744873e-01
4.862559027969837189e-03
-4.336396232247352600e-02
1.006017923355102539e-01
-3.571095317602157593e-02
1.520626991987228394e-01
-1.105694621801376343e-01
4.170033708214759827e-02
2.831161022186279297e-01
-9.053342789411544800e-02
-6.990981101989746094e-01
6.773983687162399292e-02
6.416521221399307251e-02
-1.437983363866806030e-01
1.995064467191696167e-01
-3.087891936302185059e-01
3.564085364341735840e-01
-3.080591857433319092e-01
6.098795309662818909e-02
-8.230825513601303101e-02
7.001742720603942871e-02
1.925147324800491333e-01
-5.386894941329956055e-01
6.450743079185485840e-01
-7.405778169631958008e-01
-9.733297675848007202e-02
1.636002212762832642e-01
9.185266681015491486e-03
-3.613449633121490479e-01
1.449960768222808838e-01
2.321771234273910522e-01
-9.254401922225952148e-02
1.204564347863197327e-01
5.122420936822891235e-02
1.189594715833663940e-01
-2.428378015756607056e-01
-2.932276725769042969e-01
8.040013909339904785e-02
1.209594383835792542e-01
-4.695166647434234619e-02
-2.136053442955017090e-01
1.224477738142013550e-01
1.458741873502731323e-01
-2.520253360271453857e-01
1.265343725681304932e-01
5.313473939895629883e-01
6.610147356986999512e-01
-3.422112017869949341e-02
5.091949701309204102e-01
-2.083903737366199493e-02
6.719554066658020020e-01
6.947048902511596680e-01
5.824822187423706055e-01
6.585239171981811523e-01
3.398717343807220459e-01
5.824943780899047852e-01
3.240443468093872070e-01
-5.861257314682006836e-01
-3.364804387092590332e-01
-6.959020346403121948e-02
3.020861446857452393e-01
9.351795315742492676e-01
3.810933828353881836e-01
1.750593446195125580e-02
1.430025547742843628e-01
1.164289191365242004e-01
-9.334484487771987915e-02
1.924750804901123047e-01
2.627282217144966125e-02
-4.371111746877431870e-03
-1.551022403873503208e-03
1.594863086938858032e-01
-2.713772840797901154e-02
-1.055826768279075623e-01
1.954192966222763062e-01
1.835234612226486206e-01
-1.031784415245056152e-01
3.575940132141113281e-01
-2.685970664024353027e-01
-4.134378433227539062e+00
-2.743592023849487305e+00
-2.441906452178955078e+00
-2.222630739212036133e+00
-1.685332059860229492e+00
-1.472831368446350098e+00
-1.879893064498901367e+00
-1.164461612701416016e+00
-1.390610575675964355e+00
-1.966395974159240723e+00
-2.014765262603759766e+00
-1.337703704833984375e+00
-8.938125967979431152e-01
-2.564788341522216797e+00
-2.754410028457641602e+00
-3.029985904693603516e+00
-3.303667783737182617e+00
1.127087548375129700e-01
-7.414618041366338730e-03
-3.809985816478729248e-01
2.458858042955398560e-01
1.979226469993591309e-01
-1.152759641408920288e-01
1.667839884757995605e-01
-2.202987372875213623e-01
-9.206303395330905914e-03
2.282509021461009979e-02
-1.437587440013885498e-01
5.176754593849182129e-01
-1.099757924675941467e-01
-2.803210318088531494e-01
2.995193302631378174e-01
-3.876256346702575684e-01
1.008671745657920837e-01
1.226749457418918610e-02
-5.751650333404541016e-01
4.280286729335784912e-01
-3.558575809001922607e-01
1.318354457616806030e-01
-1.963025629520416260e-01
2.144049853086471558e-01
-6.172098517417907715e-01
3.737248182296752930e-01
-3.185965493321418762e-02
6.808279454708099365e-02
7.381233572959899902e-02
1.742262952029705048e-02
-5.343656539916992188e-01
-3.650128096342086792e-02
3.415457606315612793e-01
-3.189190924167633057e-01
-5.122996568679809570e-01
2.402344495058059692e-01
-1.782638132572174072e-01
2.762036956846714020e-02
-8.906484395265579224e-02
1.535523682832717896e-01
-1.457672119140625000e-01
9.138882160186767578e-03
-6.070183590054512024e-02
-2.442492842674255371e-01
-1.390424519777297974e-01
-1.097843572497367859e-01
-4.897210001945495605e-02
5.691230669617652893e-02
-7.529290765523910522e-02
-1.688792109489440918e-01
1.464281082153320312e-01
2.005364894866943359e-01
1.119532063603401184e-01
-4.449844360351562500e-01
8.607663214206695557e-02
2.892087399959564209e-01
-3.818893134593963623e-01
-2.495022863149642944e-02
2.692398130893707275e-01
-2.389165945351123810e-02
2.050693333148956299e-02
1.072248294949531555e-01
-1.881013810634613037e-01
2.858246266841888428e-01
-9.960202872753143311e-02
-1.444051861763000488e-01
9.508608281612396240e-02
-1.980975568294525146e-01
-3.102171421051025391e-02
1.635060161352157593e-01
-1.985130310058593750e-01
-4.767122119665145874e-02
3.702199459075927734e-02
4.553738236427307129e-02
-3.140946328639984131e-01
-5.229745991528034210e-03
-2.095936797559261322e-02
-1.746035516262054443e-01
-1.290660053491592407e-01
2.773341350257396698e-02
-5.734540820121765137e-01
4.650624096393585205e-02
-4.963261261582374573e-02
-2.098035961389541626e-01
2.899755239486694336e-01
4.808316528797149658e-01
1.828871518373489380e-01
2.866542339324951172e-01
-7.575066387653350830e-02
1.000433862209320068e-01
2.735946774482727051e-01
5.803777603432536125e-04
1.847512573003768921e-01
3.012152314186096191e-01
1.955852098762989044e-02
2.274186760187149048e-01
-1.983791738748550415e-01
2.780769169330596924e-01
1.158717945218086243e-01
1.535890102386474609e-01
4.712939634919166565e-02
4.938476383686065674e-01
-8.394257426261901855e-01
-4.757982790470123291e-01
-8.029321432113647461e-01
-6.771326661109924316e-01
-9.556007981300354004e-01
-7.818898558616638184e-01
-6.324744224548339844e-01
-2.783608138561248779e-01
-2.730489373207092285e-01
-3.292042315006256104e-01
-3.992956876754760742e-01
-7.834522426128387451e-02
-2.601578235626220703e-01
-1.709452867507934570e-01
-2.585495412349700928e-01
-4.724739491939544678e-01
1.971461474895477295e-01
5.860332846641540527e-01
7.227813005447387695e-01
2.882782518863677979e-01
2.052873969078063965e-01
4.395696520805358887e-01
7.235602736473083496e-01
1.859680414199829102e-01
-7.166937738656997681e-02
1.089458093047142029e-01
7.553847134113311768e-02
3.063258826732635498e-01
4.529401659965515137e-01
8.662132918834686279e-02
3.852396309375762939e-01
1.036847755312919617e-01
-2.551335990428924561e-01
2.701525688171386719e-01
4.521538615226745605e-01
-5.373700857162475586e-01
2.077711671590805054e-01
2.914231643080711365e-02
-2.506318092346191406e-01
2.728860974311828613e-01
-5.022105202078819275e-02
1.402688920497894287e-01
7.114984095096588135e-02
-1.229165345430374146e-01
1.044031232595443726e-01
1.112575978040695190e-01
-2.192422561347484589e-02
-7.656011264771223068e-03
1.539737135171890259e-01
3.722260240465402603e-03
-4.721416831016540527e-01
-1.407175213098526001e-01
1.518912315368652344e-01
4.357990026473999023e-01
-3.957691192626953125e-01
1.832008510828018188e-01
-3.830275237560272217e-01
1.061855033040046692e-01
-1.419977396726608276e-01
1.600611358880996704e-01
-1.731379181146621704e-01
2.725041210651397705e-01
-2.101947180926799774e-02
-4.821638166904449463e-01
3.916182518005371094e-01
-2.627276070415973663e-02
5.648401975631713867e-01
-1.152970567345619202e-01
-5.442604795098304749e-02
1.272899955511093140e-01
-1.488579511642456055e-01
-2.965442836284637451e-01
6.446001678705215454e-02
1.801556348800659180e-01
1.594246774911880493e-01
4.716236144304275513e-02
-2.082575857639312744e-01
-1.951722800731658936e-01
2.627208232879638672e-01
-1.924083232879638672e-01
5.736238136887550354e-02
2.624083459377288818e-01
1.101158037781715393e-01
-2.556971311569213867e-01
-5.532699823379516602e-01
4.745639264583587646e-01
3.162730336189270020e-01
-9.038710594177246094e-02
-1.267947256565093994e-01
1.135710626840591431e-02
-5.204728618264198303e-02
1.241731047630310059e-01
-9.204064495861530304e-03
-5.353932976722717285e-01
2.878461480140686035e-01
1.376185119152069092e-01
-2.055806964635848999e-01
-7.489646226167678833e-02
3.701594471931457520e-01
-2.730275094509124756e-01
2.615830302238464355e-01
-3.688485324382781982e-01
1.477361470460891724e-01
2.649799361824989319e-02
2.507140338420867920e-01
2.582309842109680176e-01
-2.388340532779693604e-01
5.272580385208129883e-01
-6.635670065879821777e-01
3.041014373302459717e-01
-2.683244645595550537e-01
-1.403247285634279251e-02
5.265573263168334961e-01
9.665553271770477295e-02
1.131243035197257996e-01
1.490663290023803711e-01
1.210521385073661804e-01
8.188279867172241211e-01
-2.290867418050765991e-01
-2.136232256889343262e-01
-4.539570808410644531e-01
-3.383317887783050537e-01
-4.612290859222412109e-01
-3.728909790515899658e-01
-4.526116251945495605e-01
-5.658382177352905273e-01
-2.169558405876159668e-01
-2.692193388938903809e-01
-1.192912980914115906e-01
-7.331547737121582031e-01
-6.118754148483276367e-01
-8.537986278533935547e-01
-2.806397080421447754e-01
-9.015390872955322266e-01
-7.298179268836975098e-01
-8.434950113296508789e-01
-8.843645453453063965e-02
-1.673930287361145020e-01
1.589124798774719238e-01
-4.338290914893150330e-02
-3.155370950698852539e-01
1.337581425905227661e-01
1.023826748132705688e-01
-3.993842005729675293e-01
1.321210712194442749e-01
-2.099413722753524780e-01
1.259031444787979126e-01
-2.655770815908908844e-02
3.309646248817443848e-02
-1.835806518793106079e-01
9.780211746692657471e-02
-1.749255806207656860e-01
1.745841354131698608e-01
-5.196044445037841797e-01
3.205705583095550537e-01
1.479109525680541992e-01
-1.050591245293617249e-01
2.086239308118820190e-02
-2.521235942840576172e-01
7.316835969686508179e-02
-8.718482404947280884e-02
-2.843149006366729736e-01
1.302213966846466064e-01
2.181301414966583252e-01
1.752919852733612061e-01
1.549724042415618896e-01
-1.777318567037582397e-01
-3.000426590442657471e-01
5.393283367156982422e-01
-6.321415901184082031e-01
8.652775883674621582e-01
-4.258714318275451660e-01
2.528608590364456177e-02
-1.974046528339385986e-01
-3.854537606239318848e-01
1.635871976613998413e-01
5.123728513717651367e-01
-4.487105906009674072e-01
2.023621089756488800e-02
-2.913715839385986328e-01
2.456499934196472168e-01
1.644619852304458618e-01
-1.712698936462402344e-01
3.219141066074371338e-02
-2.741788029670715332e-01
-3.805162608623504639e-01
5.433494448661804199e-01
1.166347637772560120e-01
4.455069601535797119e-01
-2.588310465216636658e-02
-1.186137571930885315e-01
1.720683574676513672e-01
1.423306018114089966e-01
3.841331303119659424e-01
-3.240418732166290283e-01
5.721782445907592773e-01
1.761996299028396606e-01
1.782781034708023071e-01
2.329035848379135132e-01
8.936391025781631470e-02
2.000622004270553589e-01
2.699980735778808594e-01
3.460689187049865723e-01
4.343469142913818359e-01
2.613720893859863281e-01
6.571507081389427185e-03
-2.526234090328216553e-01
1.148021295666694641e-01
-2.314371764659881592e-01
3.308060765266418457e-01
-2.111859172582626343e-01
3.197240233421325684e-01
-9.270524233579635620e-02
-1.527864933013916016e-01
4.708996042609214783e-02
1.607821136713027954e-01
5.530573427677154541e-02
1.196218281984329224e-01
3.247956335544586182e-01
-1.835652142763137817e-01
-3.156435489654541016e-01
4.172905981540679932e-01
9.079355001449584961e-02
8.699803054332733154e-02
2.002483606338500977e-01
-2.404289394617080688e-01
-3.819276392459869385e-02
-5.284807682037353516e-01
4.062991142272949219e-01
2.231615595519542694e-02
-3.279484212398529053e-01
1.081746518611907959e-01
-7.678017765283584595e-02
5.134231969714164734e-02
-1.084871240891516209e-03
-1.010261029005050659e-01
-1.536962296813726425e-02
1.023853570222854614e-01
-2.083249986171722412e-01
-3.249867856502532959e-01
4.526835978031158447e-01
-1.037026494741439819e-01
2.351521253585815430e-01
2.972809784114360809e-02
3.513237237930297852e-01
4.648894667625427246e-01
-4.230679273605346680e-01
2.729924321174621582e-01
-5.551524162292480469e-01
2.429641932249069214e-01
-8.575071096420288086e-01
-2.277922034263610840e-01
-1.491459012031555176e-01
-3.723162040114402771e-02
-1.944114640355110168e-02
2.246573381125926971e-02
-1.242167577147483826e-01
3.314619660377502441e-01
1.049629375338554382e-01
-1.842385679483413696e-01
2.760359346866607666e-01
5.240002274513244629e-02
3.160926997661590576e-01
4.119816049933433533e-02
2.368236482143402100e-01
-7.159501314163208008e-02
1.810658164322376251e-02
8.163385093212127686e-02
-5.272754281759262085e-02
-3.425192320719361305e-03
1.194620802998542786e-01
2.234735190868377686e-01
5.148689746856689453e-01
-1.321818232536315918e-01
-2.299460470676422119e-01
-2.165270000696182251e-01
2.232154756784439087e-01
2.089267522096633911e-01
1.045774221420288086e-01
1.174981370568275452e-01
-2.670879662036895752e-01
-2.369161695241928101e-03
1.977973729372024536e-01
5.486534535884857178e-02
-7.224816828966140747e-02
-3.394283652305603027e-01
3.459392189979553223e-01
-1.731393486261367798e-01
2.206212580204010010e-01
4.880586639046669006e-02
3.432752192020416260e-01
1.263893395662307739e-01
-4.356217980384826660e-01
3.987979590892791748e-01
1.625831355340778828e-03
-6.777995824813842773e-02
1.896627545356750488e-01
1.703736633062362671e-01
-3.174832761287689209e-01
2.418242543935775757e-01
-2.190605401992797852e-01
3.220588862895965576e-01
-9.567283093929290771e-02
-2.454056292772293091e-01
5.997886136174201965e-02
2.144510000944137573e-01
-1.573744118213653564e-01
1.098554208874702454e-01
-8.649138361215591431e-02
9.003109484910964966e-02
-4.395003989338874817e-02
1.244151778519153595e-02
-1.415740847587585449e-01
1.275649219751358032e-01
-1.579669415950775146e-01
-1.536005139350891113e-01
2.421502023935317993e-02
8.719002455472946167e-02
6.284546107053756714e-02
-5.946789681911468506e-02
1.864082962274551392e-01
9.882760047912597656e-02
-5.006834864616394043e-01
-1.873642504215240479e-01
-4.617947619408369064e-03
-8.799026720225811005e-03
-6.592613458633422852e-02
7.235763967037200928e-02
1.194562166929244995e-01
3.460215777158737183e-02
-1.809045970439910889e-01
2.820525467395782471e-01
-5.119507014751434326e-02
-1.466832309961318970e-01
-3.482378646731376648e-02
-5.407693237066268921e-02
-9.088815748691558838e-02
2.633178373798727989e-03
-1.742742806673049927e-01
-2.024767845869064331e-01
4.364559799432754517e-02
-1.056362837553024292e-01
1.874958276748657227e-01
-1.111404001712799072e-01
-1.675466448068618774e-01
2.522145509719848633e-01
-4.193339496850967407e-02
4.654433205723762512e-02
-3.213083148002624512e-01
1.188800409436225891e-01
2.345989346504211426e-01
-2.744817435741424561e-01
1.812287569046020508e-01
-9.262999147176742554e-02
2.391046136617660522e-01
-4.695458710193634033e-02
6.668216586112976074e-01
3.394084423780441284e-02
9.531386941671371460e-02
7.664916664361953735e-02
-6.986060645431280136e-03
-2.077134549617767334e-01
3.713079988956451416e-01
2.834129631519317627e-01
2.268817722797393799e-01
1.195773202925920486e-02
-8.454038947820663452e-02
-2.542293965816497803e-01
1.303956508636474609e-01
4.821092188358306885e-01
-1.168830767273902893e-01
2.748360931873321533e-01
-4.848118424415588379e-01
4.199927151203155518e-01
7.625517994165420532e-02
-1.055925898253917694e-02
2.152426689863204956e-01
1.096308976411819458e-01
-2.135160751640796661e-02
-3.182348562404513359e-03
-6.665106862783432007e-02
2.023368328809738159e-01
5.139788240194320679e-02
-1.424926966428756714e-01
2.039818093180656433e-02
8.683852106332778931e-02
-2.265793085098266602e-01
7.830709964036941528e-02
1.797775626182556152e-01
8.001637458801269531e-02
-8.775445073843002319e-02
5.400520563125610352e-01
-1.211684793233871460e-01
-3.936835825443267822e-01
2.479754574596881866e-02
-2.583258450031280518e-01
3.533777594566345215e-02
1.283835470676422119e-01
-6.437694281339645386e-02
-1.599693857133388519e-02
4.791833162307739258e-01
-5.727446675300598145e-01
6.978121399879455566e-01
4.736013412475585938e-01
1.022593900561332703e-01
7.307745814323425293e-01
3.610011041164398193e-01
7.505961060523986816e-01
3.168924450874328613e-01
-3.371058404445648193e-01
1.851528435945510864e-01
-2.739050388336181641e-01
1.796521544456481934e-01
-2.636563181877136230e-01
2.185380607843399048e-01
-6.452855467796325684e-02
-1.446805745363235474e-01
3.980770409107208252e-01
-1.528265625238418579e-01
2.896545529365539551e-01
-8.457951247692108154e-02
-1.627056896686553955e-01
2.600025236606597900e-01
-6.111086532473564148e-02
-1.647587716579437256e-01
3.056869804859161377e-01
3.340767025947570801e-01
4.743980616331100464e-02
1.719581782817840576e-01
-1.545900740893557668e-04
1.279497891664505005e-01
1.149910166859626770e-01
3.410421907901763916e-01
-7.342147827148437500e-02
6.747511774301528931e-02
1.568491011857986450e-01
3.242926299571990967e-01
1.300855726003646851e-01
2.835177183151245117e-01
2.648875415325164795e-01
1.732586137950420380e-02
3.746207356452941895e-01
-2.717874050140380859e-01
1.382927447557449341e-01
-1.812942624092102051e-01
7.507681846618652344e-02
2.306286618113517761e-02
-4.159271717071533203e-02
5.834705382585525513e-02
1.328062638640403748e-02
-7.050626911222934723e-03
1.351759135723114014e-01
3.962043672800064087e-02
-1.074554175138473511e-01
-1.031313687562942505e-01
-2.238927632570266724e-01
8.757635205984115601e-02
3.057872056961059570e-01
-5.265120863914489746e-01
-2.299509346485137939e-01
-1.847843676805496216e-01
-4.070112407207489014e-01
-3.492011129856109619e-01
-4.529943168163299561e-01
-3.654974699020385742e-01
-1.803768277168273926e-01
-3.995248079299926758e-01
8.662210404872894287e-02
2.817318029701709747e-02
-1.216908916831016541e-01
-3.507189750671386719e-01
-4.448386430740356445e-01
-2.707519829273223877e-01
-3.104975521564483643e-01
-1.080819666385650635e-01
-2.869882881641387939e-01
2.659411635249853134e-03
-2.393619567155838013e-01
2.668766379356384277e-01
-8.075346052646636963e-02
-1.288277208805084229e-01
5.363120138645172119e-02
2.298791706562042236e-01
-2.122248262166976929e-01
1.600263454020023346e-02
-1.777952350676059723e-02
-4.095088317990303040e-02
5.202728882431983948e-02
-1.457618921995162964e-01
-5.126947164535522461e-02
4.480534493923187256e-01
-5.533867329359054565e-02
-9.941074997186660767e-02
-1.616392880678176880e-01
2.183423750102519989e-02
-1.893524527549743652e-01
-2.342710345983505249e-01
-9.651725739240646362e-02
2.022031992673873901e-01
-1.352317780256271362e-01
6.311151385307312012e-02
-3.124527335166931152e-01
-1.555572748184204102e-01
1.391155868768692017e-01
-2.799303233623504639e-01
2.268476635217666626e-01
-3.759201467037200928e-01
-5.667740106582641602e-02
-1.381205171346664429e-01
-3.545811176300048828e-01
2.187587469816207886e-01
4.825265333056449890e-02
3.528513759374618530e-02
-4.095594212412834167e-02
5.685897171497344971e-02
-2.866274118423461914e-01
1.266504265367984772e-02
2.269511818885803223e-01
-1.117046624422073364e-01
-1.259701997041702271e-01
2.047872245311737061e-01
3.395956754684448242e-02
6.293245404958724976e-02
-1.123414859175682068e-01
1.491492986679077148e-01
3.134139180183410645e-01
-1.157160550355911255e-01
2.911959290504455566e-01
2.768492884933948517e-02
-1.689573563635349274e-02
-8.881986886262893677e-02
-2.380960583686828613e-01
2.125520557165145874e-01
-1.983327567577362061e-01
-1.256575435400009155e-01
-7.033412158489227295e-02
-9.702962823212146759e-03
3.127177804708480835e-02
2.213676422834396362e-01
2.132082283496856689e-01
-3.915750682353973389e-01
-4.620321094989776611e-03
1.428440213203430176e-01
-4.625497162342071533e-01
7.455247640609741211e-01
6.599429063498973846e-03
4.558932483196258545e-01
3.769998252391815186e-01
4.438958466053009033e-01
3.704077303409576416e-01
3.582752645015716553e-01
7.376027852296829224e-02
1.078353896737098694e-01
4.747581854462623596e-02
6.581031531095504761e-02
4.936072826385498047e-01
-2.754372311756014824e-03
3.075080215930938721e-01
5.207556486129760742e-01
4.052546620368957520e-01
7.225106954574584961e-01
8.756171464920043945e-01
1.139324251562356949e-02
1.581175178289413452e-01
2.920498549938201904e-01
-2.828468382358551025e-01
4.472982883453369141e-01
-2.920295298099517822e-01
-1.416012793779373169e-01
2.951965034008026123e-01
1.743905842304229736e-01
6.697893142700195312e-02
-1.323608756065368652e-01
3.546718358993530273e-01
-6.027069091796875000e-01
2.109157145023345947e-01
1.314307153224945068e-01
1.202342957258224487e-01
-5.466637015342712402e-01
-9.715422987937927246e-02
3.421260416507720947e-02
1.853198558092117310e-02
-1.201546788215637207e-01
1.441242545843124390e-01
-1.517887562513351440e-01
-3.002333641052246094e-02
-3.965849429368972778e-02
-1.296802312135696411e-01
7.383430749177932739e-02
-9.294684976339340210e-02
-1.612712740898132324e-01
-1.719732135534286499e-01
-1.691421568393707275e-01
-5.154703930020332336e-02
-3.712346851825714111e-01
3.548690378665924072e-01
4.004701599478721619e-02
-1.990546472370624542e-02
-4.885261952877044678e-01
4.153318703174591064e-01
-4.521811306476593018e-01
6.249001026153564453e-01
-3.199638128280639648e-01
1.920984387397766113e-01
5.134557560086250305e-02
-2.336737513542175293e-01
-2.085440754890441895e-01
1.436378657817840576e-01
-8.447480946779251099e-02
3.953550755977630615e-01
-2.661729753017425537e-01
-4.245164990425109863e-01
-5.593298077583312988e-01
-1.157097816467285156e-01
7.443173322826623917e-03
-3.113215565681457520e-01
-1.856558024883270264e-02
-2.549347281455993652e-01
1.292725503444671631e-01
3.420056998729705811e-01
-3.963590562343597412e-01
-8.945829421281814575e-02
-4.786911234259605408e-02
-7.209704071283340454e-02
-4.140692949295043945e-01
-1.160655319690704346e-01
3.691718578338623047e-01
-3.851004643365740776e-03
-7.761865258216857910e-01
3.507748842239379883e-01
-1.128245592117309570e-01
1.565340310335159302e-01
-7.432923465967178345e-02
-1.999853402376174927e-01
1.654038727283477783e-01
-1.321467012166976929e-01
1.205108538269996643e-01
-1.218408569693565369e-01
-7.154252380132675171e-02
1.868471652269363403e-01
-8.106416463851928711e-02
7.864288985729217529e-02
6.353558599948883057e-02
7.597988843917846680e-02
-1.040183529257774353e-01
-6.276203691959381104e-02
2.097772508859634399e-01
7.951828837394714355e-02
-4.546518623828887939e-01
2.049121260643005371e-01
1.836501657962799072e-01
-1.142560411244630814e-02
-8.836460113525390625e-02
5.392247810959815979e-02
9.975592046976089478e-02
-3.671200573444366455e-01
2.166908085346221924e-01
1.024600565433502197e-01
1.858267784118652344e-01
-3.257927484810352325e-03
2.322366386651992798e-01
-1.062321066856384277e-01
3.968616724014282227e-01
-3.699188530445098877e-01
-9.053496643900871277e-03
-1.926551014184951782e-01
-1.085165049880743027e-02
3.518386185169219971e-02
-2.797810137271881104e-01
9.102806448936462402e-02
-2.351184785366058350e-01
8.873769640922546387e-02
1.064715534448623657e-01
-8.591353148221969604e-02
-1.776234656572341919e-01
6.474959850311279297e-02
5.758915841579437256e-02
-2.499914169311523438e-01
-1.326054483652114868e-01
-4.623863399028778076e-01
5.338133573532104492e-01
-1.695564091205596924e-01
1.926575303077697754e-01
-1.799796521663665771e-01
4.677871465682983398e-01
7.038711756467819214e-02
-2.923532426357269287e-01
2.327017486095428467e-01
9.862907230854034424e-02
5.551779270172119141e-02
-2.710389196872711182e-01
2.068329155445098877e-01
9.608811885118484497e-02
-1.422501653432846069e-01
1.497816741466522217e-01
2.231471240520477295e-02
7.617131620645523071e-02
1.583810746669769287e-01
2.564756274223327637e-01
-4.278752207756042480e-02
3.360719084739685059e-01
2.102251201868057251e-01
1.868804842233657837e-01
1.948847174644470215e-01
4.807532206177711487e-02
-3.551264703273773193e-01
8.637979626655578613e-02
6.105764955282211304e-02
4.916011095046997070e-01
1.880339235067367554e-01
4.004653990268707275e-01
-6.017638370394706726e-02
9.256833046674728394e-02
4.102780818939208984e-01
-2.006345242261886597e-01
-1.340335905551910400e-01
1.115823909640312195e-01
-2.974881529808044434e-01
4.076503515243530273e-01
-4.725006818771362305e-01
1.743573322892189026e-02
-2.893660068511962891e-01
3.976045176386833191e-02
1.896672099828720093e-01
-2.024052739143371582e-01
-1.821682006120681763e-01
4.362680912017822266e-01
-6.326476577669382095e-03
-1.811888217926025391e-01
-1.609249264001846313e-01
-2.357543855905532837e-01
1.545990407466888428e-01
6.622818112373352051e-02
-5.391396209597587585e-02
-2.998058043885976076e-04
1.680757552385330200e-01
2.534827589988708496e-01
1.524827927350997925e-01
-1.056598052382469177e-01
2.744676470756530762e-01
1.811704412102699280e-02
2.068727910518646240e-01
-6.965619325637817383e-02
1.950418055057525635e-01
-5.754248797893524170e-02
1.379550844430923462e-01
5.635730922222137451e-02
3.777845203876495361e-01
1.663336902856826782e-01
-1.511485576629638672e-01
1.483441889286041260e-01
-6.119547784328460693e-02
-2.263670973479747772e-02
-2.950113639235496521e-02
2.593704760074615479e-01
-2.884428203105926514e-01
1.403818875551223755e-01
1.243323609232902527e-01
-3.282985985279083252e-01
3.923049271106719971e-01
-2.402850538492202759e-01
-7.478778064250946045e-02
5.050680413842201233e-02
1.273017227649688721e-01
-2.016748487949371338e-01
-2.222824096679687500e-01
1.267625540494918823e-01
-2.219343930482864380e-01
1.079174317419528961e-02
1.824598610401153564e-01
-2.223847359418869019e-01
-8.553649485111236572e-02
6.394794583320617676e-02
-1.830044388771057129e-01
1.047477424144744873e-01
3.447068855166435242e-03
1.331988424062728882e-01
-1.659912168979644775e-01
-2.930451333522796631e-01
1.878149956464767456e-01
1.688973158597946167e-01
-2.794244289398193359e-01
-4.843344166874885559e-02
1.082349196076393127e-01
-1.846610568463802338e-02
-4.237692803144454956e-02
2.043294757604598999e-01
-5.636938214302062988e-01
3.089302480220794678e-01
-1.003239005804061890e-01
3.566937521100044250e-02
8.207283914089202881e-02
-2.091962248086929321e-01
2.310384511947631836e-01
-2.104008942842483521e-01
-4.306204617023468018e-02
2.753488421440124512e-01
-2.220374941825866699e-01
4.903889894485473633e-01
1.824923157691955566e-01
-1.762860268354415894e-01
1.091521307826042175e-01
-7.754775136709213257e-02
3.753321170806884766e-01
-2.684198133647441864e-02
3.946030337829142809e-04
-4.815328121185302734e-02
-5.390001460909843445e-02
1.681572049856185913e-01
1.600302159786224365e-01
5.569504573941230774e-02
1.212917119264602661e-01
1.392984837293624878e-01
6.696234643459320068e-02
2.592900991439819336e-01
1.262558847665786743e-01
4.562074244022369385e-01
-1.729717403650283813e-01
1.870517283678054810e-01
-1.565974354743957520e-01
1.517971158027648926e-01
-1.968218982219696045e-01
2.574562132358551025e-01
1.086605247110128403e-02
-2.553870379924774170e-01
3.554110527038574219e-01
-1.154992505908012390e-01
4.614397883415222168e-02
-1.060966327786445618e-01
