-1.771842241287231445e-01
3.495497107505798340e-01
-5.305846780538558960e-02
-3.868042826652526855e-01
2.673374116420745850e-01
2.749276161193847656e-01
-4.519341886043548584e-01
-3.797490382567048073e-03
3.390975296497344971e-01
1.105555705726146698e-02
-4.278628230094909668e-01
1.041642725467681885e-01
5.555725097656250000e-01
-5.193040370941162109e-01
-2.036843746900558472e-01
5.674452185630798340e-01
-1.323347240686416626e-01
-3.679951727390289307e-01
2.442108988761901855e-01
2.488384991884231567e-01
-3.936657607555389404e-01
-3.514333814382553101e-02
4.581510126590728760e-01
-2.629852890968322754e-01
-2.878691852092742920e-01
2.949053049087524414e-01
3.002615571022033691e-01
-5.132280588150024414e-01
1.372655630111694336e-01
5.075771361589431763e-02
2.984039783477783203e-01
2.453475594520568848e-01
2.009338736534118652e-01
-3.144085407257080078e-01
-1.981294900178909302e-01
-1.408624649047851562e-02
3.115066587924957275e-01
3.689256310462951660e-01
1.786649376153945923e-01
7.592346519231796265e-02
-1.919894814491271973e-01
2.296700840815901756e-03
9.028593450784683228e-02
4.883005842566490173e-02
7.516872137784957886e-02
-2.336447834968566895e-01
-9.304687380790710449e-02
5.290546105243265629e-04
-1.177440881729125977e-01
-2.203674800693988800e-02
-1.609585732221603394e-01
8.005638420581817627e-02
-1.260090172290802002e-01
-7.294805347919464111e-02
-2.555132806301116943e-01
3.994278237223625183e-02
-1.117022335529327393e-01
-7.848158478736877441e-03
-4.573923349380493164e-02
5.757790058851242065e-02
3.622900545597076416e-01
-3.304491564631462097e-02
9.039158001542091370e-03
-4.247219115495681763e-02
-4.631507396697998047e-02
1.401152312755584717e-01
6.967899948358535767e-02
-9.409002959728240967e-03
-2.209086716175079346e-01
-1.241202428936958313e-01
-1.967330873012542725e-01
6.715979427099227905e-02
2.956489622592926025e-01
2.896904945373535156e-01
-8.261261135339736938e-02
-1.950754374265670776e-01
-3.179123103618621826e-01
-2.220341712236404419e-01
-1.245033890008926392e-01
7.211823016405105591e-02
2.405215650796890259e-01
3.153088390827178955e-01
1.307649463415145874e-01
1.462212880142033100e-03
-2.326146215200424194e-01
-5.174939706921577454e-02
-2.223452329635620117e-01
-2.381596267223358154e-01
-1.621422022581100464e-01
3.171819746494293213e-01
2.968659624457359314e-02
-2.002720832824707031e-01
-2.374477982521057129e-01
-9.899799525737762451e-02
3.605030477046966553e-02
1.959327906370162964e-01
1.936180889606475830e-01
6.042049452662467957e-02
-1.204014942049980164e-01
8.716763556003570557e-02
7.235817611217498779e-02
2.764793634414672852e-01
1.723645068705081940e-02
6.249175220727920532e-02
2.102317661046981812e-01
-2.184676751494407654e-02
-2.447555959224700928e-01
-3.108378350734710693e-01
-3.116112649440765381e-01
2.557884901762008667e-02
7.431481033563613892e-02
2.256907820701599121e-01
7.075338065624237061e-02
3.499479219317436218e-02
1.244022324681282043e-01
2.177548781037330627e-02
1.152313947677612305e-01
2.723464369773864746e-01
-3.073882078751921654e-03
-1.493978649377822876e-01
-1.588137745857238770e-01
1.104333326220512390e-01
2.776568830013275146e-01
8.341999351978302002e-02
-4.632949233055114746e-01
-3.133983612060546875e-01
6.760466098785400391e-02
3.628874719142913818e-01
1.131944805383682251e-01
-1.817365884780883789e-01
-2.748208343982696533e-01
-1.538364738225936890e-01
2.657867372035980225e-01
3.218748867511749268e-01
1.197693794965744019e-01
-2.798355519771575928e-01
-5.034936666488647461e-01
-2.984612248837947845e-02
3.501786291599273682e-01
4.158439338207244873e-01
-1.871420592069625854e-01
-2.449733167886734009e-01
-1.594690233469009399e-01
1.923340111970901489e-01
2.390041500329971313e-01
-9.495825320482254028e-02
-1.239659488201141357e-01
-3.567385300993919373e-02
-1.104796007275581360e-01
2.158839851617813110e-01
-6.701920181512832642e-02
2.479315549135208130e-02
2.221573591232299805e-01
-2.805776000022888184e-01
1.637338250875473022e-01
9.159939736127853394e-02
-2.421434521675109863e-01
5.545562878251075745e-02
1.671115495264530182e-02
1.607482433319091797e-01
-2.200041264295578003e-01
1.753083467483520508e-01
-2.071410650387406349e-03
-2.944340705871582031e-01
-2.307821065187454224e-02
6.269578337669372559e-01
4.535308480262756348e-01
-5.128018856048583984e-01
-3.753972351551055908e-01
-9.225717931985855103e-02
-2.342654317617416382e-01
-3.149961680173873901e-02
4.301355481147766113e-01
1.964275538921356201e-01
-3.108645677566528320e-01
-3.695897059515118599e-03
2.147354185581207275e-01
-1.357081383466720581e-01
-5.985455960035324097e-02
9.565278142690658569e-02
6.704790890216827393e-02
-1.839559525251388550e-01
9.664686024188995361e-02
-1.231512986123561859e-02
-1.495748758316040039e-02
-1.338574588298797607e-01
1.721498519182205200e-01
1.232177689671516418e-01
-3.821145296096801758e-01
2.115314900875091553e-01
4.103594273328781128e-02
7.955127954483032227e-02
1.057327240705490112e-01
-8.815445750951766968e-02
-5.033017992973327637e-01
-5.525500774383544922e-01
6.101351976394653320e-01
4.784184992313385010e-01
3.022187054157257080e-01
-1.434015184640884399e-01
-2.809079587459564209e-01
2.435543760657310486e-02
-7.746490091085433960e-02
1.213042512536048889e-01
9.832576662302017212e-02
-1.468081027269363403e-01
-7.997921854257583618e-02
2.298798412084579468e-01
-7.248120009899139404e-02
-9.511615335941314697e-02
-1.650227010250091553e-01
2.299580425024032593e-01
1.609189659357070923e-01
-4.531638920307159424e-01
3.371254354715347290e-02
5.360136032104492188e-01
-2.610891461372375488e-01
-5.095672607421875000e-01
4.995601475238800049e-01
2.277415841817855835e-01
-4.402942359447479248e-01
2.579922601580619812e-02
2.066510617733001709e-01
-1.194365788251161575e-02
-3.297168016433715820e-01
3.448823690414428711e-01
1.164387315511703491e-01
-4.147327244281768799e-01
7.593492418527603149e-02
3.262968361377716064e-01
-1.476671695709228516e-01
-3.111858963966369629e-01
3.242481946945190430e-01
1.136294826865196228e-01
-3.185102343559265137e-01
-1.960401050746440887e-02
3.537995219230651855e-01
-2.070676088333129883e-01
-1.046257689595222473e-01
9.965036064386367798e-02
2.282594740390777588e-01
-2.851774394512176514e-01
-1.833353191614151001e-01
1.606324501335620880e-02
1.771228909492492676e-01
1.544381529092788696e-01
6.557268649339675903e-02
-6.857898086309432983e-02
-2.584148645401000977e-01
-9.554209560155868530e-02
2.583079934120178223e-01
-4.260990396142005920e-02
-1.547488421201705933e-01
1.960345804691314697e-01
-2.163623571395874023e-01
-3.778808191418647766e-02
-1.328984498977661133e-01
2.422669343650341034e-02
-1.113440990447998047e-01
-1.311045438051223755e-01
7.947618514299392700e-02
-4.278184473514556885e-02
2.486733905971050262e-02
-2.156377583742141724e-02
-2.270782291889190674e-01
-6.749324500560760498e-02
6.082984805107116699e-02
1.510701775550842285e-01
5.960595235228538513e-02
-4.460579752922058105e-01
-2.917169928550720215e-01
-1.052349731326103210e-01
1.990885734558105469e-01
3.125617504119873047e-01
4.721365123987197876e-02
-2.085701078176498413e-01
-5.940148234367370605e-02
1.630757302045822144e-01
1.830473244190216064e-01
1.709973067045211792e-02
-2.636169455945491791e-02
2.050056681036949158e-02
9.579212218523025513e-02
4.937257990241050720e-02
-3.848939388990402222e-02
1.156106144189834595e-01
7.828211784362792969e-02
1.310591399669647217e-01
-2.056898027658462524e-01
4.443644359707832336e-02
2.293140254914760590e-02
5.563714727759361267e-02
-6.503722071647644043e-02
-6.279595196247100830e-02
-2.240055799484252930e-01
1.472088694572448730e-01
8.796641230583190918e-02
-2.452493272721767426e-02
-1.902206242084503174e-01
-1.538889259099960327e-01
-1.428193300962448120e-01
-2.409785538911819458e-01
6.559000164270401001e-02
9.206542372703552246e-02
1.750290393829345703e-01
7.357058674097061157e-02
-3.276695311069488525e-02
-1.257983148097991943e-01
1.664686948060989380e-02
1.247309818863868713e-01
-1.149041652679443359e-01
-1.153248846530914307e-01
-1.542858686298131943e-02
1.053164228796958923e-01
4.100011661648750305e-02
1.933487355709075928e-01
-1.624979674816131592e-01
-9.302175045013427734e-02
1.401278376579284668e-02
2.699653506278991699e-01
1.137673780322074890e-01
8.156570047140121460e-02
-1.582172065973281860e-01
3.586337715387344360e-02
-1.918992996215820312e-01
2.058180719614028931e-01
1.222114264965057373e-01
-1.690005511045455933e-01
-5.194913744926452637e-01
3.157132863998413086e-01
4.842846691608428955e-01
6.400602310895919800e-02
-2.033051336184144020e-03
-4.341001808643341064e-02
-1.766826957464218140e-01
-1.106163337826728821e-01
-7.510087639093399048e-02
-5.470828339457511902e-02
1.261390149593353271e-01
1.912833899259567261e-01
1.806291341781616211e-01
3.446307778358459473e-02
2.924279868602752686e-02
-1.148855164647102356e-01
-2.621598839759826660e-01
-2.641560435295104980e-01
-2.828755229711532593e-02
9.240595996379852295e-02
1.628577560186386108e-01
1.485805511474609375e-01
-6.462427973747253418e-02
-2.508216202259063721e-01
-1.532253110781311989e-03
-2.806806266307830811e-01
-1.737522482872009277e-01
3.467548172920942307e-03
-4.494884982705116272e-02
2.674071490764617920e-01
8.829204738140106201e-02
1.354228109121322632e-01
-5.567175894975662231e-02
2.251807600259780884e-01
8.888484910130500793e-03
-8.171483874320983887e-02
1.005394235253334045e-01
5.602186545729637146e-02
-6.360480934381484985e-02
-8.278701454401016235e-02
7.825546711683273315e-02
1.301252692937850952e-01
-1.593847125768661499e-01
9.432417899370193481e-02
-1.687307059764862061e-01
2.411776222288608551e-02
1.202375963330268860e-01
2.684559524059295654e-01
3.341183811426162720e-02
-4.437534809112548828e-01
-3.611685931682586670e-01
-2.316170334815979004e-01
-7.924191653728485107e-02
-7.946466654539108276e-02
1.669082939624786377e-01
-6.930983811616897583e-02
-1.714576184749603271e-01
2.491782307624816895e-01
2.627582252025604248e-01
1.727941483259201050e-01
1.068061962723731995e-01
1.731087863445281982e-01
1.955200880765914917e-01
-1.180606409907341003e-01
-2.525019943714141846e-01
-2.059543579816818237e-01
-5.548023805022239685e-02
2.590410113334655762e-01
1.975970864295959473e-01
1.044419333338737488e-01
1.604515016078948975e-01
-4.906374961137771606e-03
-2.845810651779174805e-01
-6.493613123893737793e-02
-3.142196238040924072e-01
-1.948870718479156494e-02
1.318179219961166382e-01
2.019756436347961426e-01
7.611007988452911377e-02
7.151106745004653931e-02
5.169183760881423950e-02
-3.726136405020952225e-03
-8.120267838239669800e-02
-2.119796723127365112e-01
-4.264664053916931152e-01
-3.044909536838531494e-01
-8.031367510557174683e-02
3.202059864997863770e-01
1.836642920970916748e-01
2.042444050312042236e-01
2.485453896224498749e-02
1.105805635452270508e-01
1.182742193341255188e-01
1.336556673049926758e-01
4.268865659832954407e-02
4.536561295390129089e-02
9.464929997920989990e-02
1.459460891783237457e-02
-5.583588499575853348e-03
-1.834078878164291382e-02
2.269089221954345703e-02
-1.820296794176101685e-01
-1.206011399626731873e-01
-2.653201520442962646e-01
1.584183722734451294e-01
5.465570092201232910e-02
2.565755546092987061e-01
1.274752020835876465e-01
2.739981934428215027e-02
3.597357869148254395e-02
7.762161642313003540e-02
1.828810432925820351e-03
-1.805586069822311401e-01
-2.143176943063735962e-01
1.426718831062316895e-01
-5.570668727159500122e-02
3.087631613016128540e-02
2.518656104803085327e-02
-9.834460169076919556e-02
1.857420653104782104e-01
-9.050643444061279297e-02
-3.496254682540893555e-01
-1.258142590522766113e-01
-2.002109736204147339e-01
1.073097437620162964e-01
-1.637998521327972412e-01
-1.657855808734893799e-01
9.215590357780456543e-02
-1.234592869877815247e-01
-9.340045601129531860e-02
-1.768383085727691650e-01
2.350485697388648987e-02
1.768787056207656860e-01
1.344994455575942993e-01
-9.962451457977294922e-02
-6.013891100883483887e-02
-1.265860814601182938e-02
-1.437955647706985474e-01
-3.430556505918502808e-02
-1.292666643857955933e-01
9.086839109659194946e-02
1.384662464261054993e-02
-1.167066022753715515e-01
-1.652071923017501831e-01
-4.953474178910255432e-02
8.889122307300567627e-02
-1.679787784814834595e-01
-1.673895120620727539e-01
8.064458519220352173e-02
9.183673560619354248e-02
1.761259585618972778e-01
4.466052353382110596e-02
-5.150630325078964233e-02
8.043447881937026978e-02
-5.408892035484313965e-02
-1.072162389755249023e-01
-2.155274152755737305e-01
-1.112954542040824890e-01
-1.855136826634407043e-02
3.601161837577819824e-01
2.106397300958633423e-01
1.206363737583160400e-02
-3.401426076889038086e-01
-2.934988141059875488e-01
7.680762559175491333e-02
1.838795095682144165e-01
2.260532230138778687e-01
1.764231175184249878e-01
7.592225819826126099e-02
1.032977774739265442e-01
-1.005008295178413391e-01
-1.650397032499313354e-01
3.403175249695777893e-02
-1.093256101012229919e-01
8.084707707166671753e-02
-6.043980270624160767e-02
1.833737343549728394e-01
5.440542101860046387e-02
-2.269537597894668579e-01
-1.097475886344909668e-01
-1.800476312637329102e-01
-2.503296136856079102e-01
-4.562059417366981506e-02
9.270286560058593750e-02
-4.646769538521766663e-02
-1.195880472660064697e-01
3.073805868625640869e-01
-2.356770336627960205e-01
-1.342895627021789551e-01
2.508813440799713135e-01
1.713980287313461304e-01
-1.293706148862838745e-01
-3.452327549457550049e-01
-3.361414372920989990e-02
-2.740803360939025879e-02
3.634735643863677979e-01
2.948365211486816406e-01
4.593637958168983459e-02
-4.596159756183624268e-01
-2.664882540702819824e-01
1.959849148988723755e-01
-5.084503442049026489e-02
8.553744107484817505e-02
1.387532949447631836e-01
1.677111387252807617e-01
-4.522832930088043213e-01
1.787684410810470581e-01
4.963396489620208740e-02
-5.798639729619026184e-02
8.098055608570575714e-03
3.102789632976055145e-02
3.021703287959098816e-02
2.543537616729736328e-01
4.173365305177867413e-04
-1.878253221511840820e-01
5.036068707704544067e-02
2.323260009288787842e-01
1.776204109191894531e-01
1.915988698601722717e-02
2.983509004116058350e-02
1.131200343370437622e-01
1.840781271457672119e-01
-2.752432227134704590e-02
-2.069347649812698364e-01
-7.336539775133132935e-02
-2.645507752895355225e-01
-2.076836675405502319e-01
-6.136621907353401184e-02
-1.311517655849456787e-01
-2.782359123229980469e-01
9.120377898216247559e-02
2.611245773732662201e-02
-5.503556132316589355e-02
-1.272390186786651611e-01
-5.709599331021308899e-02
1.700950711965560913e-01
6.834699213504791260e-02
3.012506663799285889e-01
-4.005795717239379883e-02
-1.832557320594787598e-01
6.900563836097717285e-02
-8.792628347873687744e-02
-2.941893637180328369e-01
6.333623826503753662e-02
-1.102924719452857971e-01
-1.234832555055618286e-01
-8.010187745094299316e-02
-1.137145534157752991e-01
-1.800875067710876465e-01
-1.784178167581558228e-01
-1.965868771076202393e-01
1.217319294810295105e-01
-2.182143032550811768e-01
-1.359675526618957520e-01
-3.627019003033638000e-02
4.828373342752456665e-02
-1.764937788248062134e-01
-9.774567931890487671e-02
-3.936447668820619583e-03
7.021874189376831055e-03
-1.688279211521148682e-01
-2.289775758981704712e-01
-1.109666302800178528e-01
-2.187806665897369385e-01
5.609174445271492004e-02
-8.666634559631347656e-03
-2.458283007144927979e-01
-1.035853847861289978e-02
-1.509694010019302368e-01
-1.060556918382644653e-01
-6.157622113823890686e-02
-9.605792909860610962e-02
-1.321828216314315796e-01
-1.645159274339675903e-01
3.888619244098663330e-01
4.720222353935241699e-01
8.427067101001739502e-02
-2.886275053024291992e-01
-1.647500693798065186e-01
1.483728270977735519e-02
1.461725682020187378e-01
-1.346109360456466675e-01
-2.637947797775268555e-01
-2.027838826179504395e-01
-1.801816374063491821e-01
3.667146712541580200e-02
1.390666067600250244e-01
1.645164377987384796e-02
-1.056395024061203003e-01
-8.914567530155181885e-02
-1.193262077867984772e-02
6.572744995355606079e-02
6.047135218977928162e-02
-1.581508293747901917e-02
1.025319471955299377e-01
-4.103783518075942993e-02
1.143980398774147034e-01
-9.145435690879821777e-02
1.053341403603553772e-01
2.028193697333335876e-02
-7.461282610893249512e-02
4.019707441329956055e-01
-8.329243957996368408e-02
2.338671982288360596e-01
-2.864234149456024170e-01
-3.190297260880470276e-02
2.403354495763778687e-01
-1.246558353304862976e-01
-1.308155059814453125e-01
9.316858649253845215e-02
4.590150713920593262e-01
-7.361678034067153931e-02
1.117828786373138428e-01
-9.839904308319091797e-02
1.601700037717819214e-01
-6.222488731145858765e-02
1.492840945720672607e-01
-9.667630493640899658e-02
-4.865799248218536377e-01
-3.290316760540008545e-01
3.880533874034881592e-01
2.255852967500686646e-01
-4.710080921649932861e-01
8.218244463205337524e-02
3.177545964717864990e-01
9.970934130251407623e-03
-3.001602590084075928e-01
1.142089143395423889e-01
1.787510067224502563e-01
-2.031377106904983521e-01
2.547797858715057373e-01
-1.449882239103317261e-01
1.687685549259185791e-01
-2.273665070533752441e-01
6.756229698657989502e-02
5.272598005831241608e-03
1.181677430868148804e-01
-1.459448486566543579e-01
-2.397235855460166931e-02
1.269722282886505127e-01
4.573289677500724792e-02
-1.640526801347732544e-01
6.474898010492324829e-02
2.248032391071319580e-01
-3.002360165119171143e-01
7.828412950038909912e-02
9.283255785703659058e-02
-2.183340638875961304e-01
1.865104734897613525e-01
3.747970610857009888e-02
-2.325240522623062134e-01
-2.261264920234680176e-01
3.399362564086914062e-01
6.593704223632812500e-01
-3.828598186373710632e-02
-4.387751221656799316e-01
-3.308892846107482910e-01
-4.045941829681396484e-01
-1.106677576899528503e-01
6.642599105834960938e-01
2.763426005840301514e-01
-1.855207979679107666e-01
2.770198136568069458e-02
6.721952464431524277e-03
-2.321824803948402405e-02
-1.766537278890609741e-01
3.778111636638641357e-01
-2.788115292787551880e-02
-5.123118162155151367e-01
3.338699787855148315e-02
1.006492674350738525e-01
4.914124608039855957e-01
4.796821177005767822e-01
-2.117968648672103882e-01
-5.186042189598083496e-01
-4.853737652301788330e-01
5.195051804184913635e-02
1.953659653663635254e-01
1.035735309123992920e-01
1.369909197092056274e-01
7.035955786705017090e-02
4.037126898765563965e-02
-3.252965211868286133e-01
8.861835300922393799e-02
2.502042055130004883e-01
-8.113665133714675903e-02
-1.775957942008972168e-01
9.130937606096267700e-02
1.620786637067794800e-01
-1.766343414783477783e-01
1.672204770147800446e-02
8.202055469155311584e-03
-3.456471264362335205e-01
1.101585254073143005e-01
2.641711831092834473e-01
1.594582200050354004e-01
-2.059879153966903687e-01
-2.487464100122451782e-01
-7.751362770795822144e-02
4.056685566902160645e-01
2.283698320388793945e-01
6.283859908580780029e-02
-7.293572276830673218e-02
-4.152535796165466309e-01
-8.231594413518905640e-02
1.512141227722167969e-01
1.469344049692153931e-01
1.422568708658218384e-01
2.679540589451789856e-02
-2.458799630403518677e-01
-8.159943670034408569e-02
-2.224039286375045776e-01
4.072110727429389954e-02
1.881038248538970947e-01
3.414933681488037109e-01
-8.379429578781127930e-02
-2.494565546512603760e-01
-3.211515545845031738e-01
-1.678358167409896851e-01
9.931866824626922607e-02
2.715292274951934814e-01
2.344011366367340088e-01
3.094319403171539307e-01
3.082256950438022614e-02
-3.541478216648101807e-01
-1.330202966928482056e-01
-1.538489162921905518e-01
7.313010096549987793e-02
2.109539061784744263e-01
-9.672121703624725342e-02
-9.756036847829818726e-02
-5.856887623667716980e-02
6.641457322984933853e-03
-6.298713386058807373e-03
1.726448684930801392e-01
-3.139001876115798950e-02
-6.989217549562454224e-02
-1.606507152318954468e-01
2.538327686488628387e-02
2.391502261161804199e-02
6.615606695413589478e-02
-1.683476269245147705e-01
-1.989724338054656982e-01
-1.489900052547454834e-01
9.288422763347625732e-02
2.834611833095550537e-01
1.518207192420959473e-01
-1.792644113302230835e-01
-2.137136757373809814e-01
-5.282386392354965210e-02
3.344074636697769165e-02
3.423634469509124756e-01
2.970529906451702118e-02
6.991293746978044510e-03
1.409671306610107422e-01
1.801205128431320190e-01
-1.163197830319404602e-01
-9.160169214010238647e-02
2.787223458290100098e-02
-1.181535050272941589e-01
-5.522809177637100220e-02
1.790058165788650513e-01
-1.118576079607009888e-01
1.605199575424194336e-01
2.724717743694782257e-02
-6.824485212564468384e-02
-1.654857546091079712e-01
-9.470299631357192993e-02
-2.795923948287963867e-01
4.819792881608009338e-02
1.273435652256011963e-01
1.563797146081924438e-01
-3.094519674777984619e-01
-1.049500852823257446e-01
5.443089455366134644e-02
4.295250400900840759e-02
1.078505590558052063e-01
-1.451053470373153687e-01
-3.015236854553222656e-01
2.194743454456329346e-01
1.477905213832855225e-01
1.362787932157516479e-01
-2.542507946491241455e-01
-1.222761571407318115e-01
7.732791453599929810e-02
1.001018956303596497e-01
1.194698810577392578e-01
1.359097063541412354e-01
-3.983756992965936661e-03
-3.163968920707702637e-01
-9.810014814138412476e-02
-2.544543445110321045e-01
-1.730661094188690186e-01
-1.682754755020141602e-01
1.237913966178894043e-01
1.049372646957635880e-02
3.240958750247955322e-01
-2.661209739744663239e-02
1.523102819919586182e-01
3.836644813418388367e-02
-7.373492419719696045e-02
-1.650894433259963989e-01
-2.329522371292114258e-01
-6.676929444074630737e-02
-1.745524704456329346e-01
-1.947068125009536743e-01
-1.138465553522109985e-01
2.282327786087989807e-02
-1.652058362960815430e-01
2.194271683692932129e-01
1.274303644895553589e-01
7.961280643939971924e-02
-1.386683583259582520e-01
1.716077774763107300e-01
2.649681568145751953e-01
-1.511324942111968994e-01
3.903788700699806213e-02
2.849583514034748077e-02
-7.643696665763854980e-02
-2.218242734670639038e-02
-9.487437456846237183e-02
-3.412771224975585938e-02
1.439033597707748413e-01
1.688396371901035309e-02
4.505642876029014587e-02
-1.266802549362182617e-01
-1.363300345838069916e-02
2.033113129436969757e-02
2.002135962247848511e-01
3.335932642221450806e-02
-2.176146358251571655e-01
-2.026959210634231567e-01
3.189935535192489624e-02
9.751790016889572144e-02
5.414585396647453308e-02
-3.444133326411247253e-02
4.995238035917282104e-02
-5.828158929944038391e-02
-3.131240904331207275e-01
-1.953053325414657593e-01
-1.764840818941593170e-02
3.421568572521209717e-01
-3.821735680103302002e-01
1.461074203252792358e-01
2.690100073814392090e-01
2.471239715814590454e-01
2.844760715961456299e-01
-1.676428318023681641e-02
-1.652489043772220612e-02
-2.503721714019775391e-01
-1.064211875200271606e-01
2.832155823707580566e-01
2.446151077747344971e-01
1.392331570386886597e-01
-1.234402135014533997e-01
-2.888008356094360352e-01
-2.592770159244537354e-01
8.243136107921600342e-02
1.725217401981353760e-01
2.487343698740005493e-01
1.803608089685440063e-01
-2.628451883792877197e-01
-4.462157487869262695e-01
-1.216763406991958618e-01
-1.016871407628059387e-01
9.077557921409606934e-02
2.435091733932495117e-01
1.202140077948570251e-01
3.541110083460807800e-02
4.300097376108169556e-02
-2.742010951042175293e-01
-2.725439667701721191e-01
8.124326914548873901e-02
2.315140515565872192e-01
8.706650882959365845e-02
-9.440284222364425659e-02
-1.856465488672256470e-01
-2.020379155874252319e-01
-9.236165322363376617e-03
1.488669067621231079e-01
1.155700460076332092e-01
9.442205727100372314e-02
-2.295438796281814575e-01
-3.084760606288909912e-01
-2.026839405298233032e-01
-1.894825696945190430e-02
1.083594709634780884e-01
1.678653359413146973e-01
4.764408618211746216e-02
2.843554019927978516e-01
6.538193672895431519e-02
-2.412521094083786011e-01
-4.170743823051452637e-01
-2.467309087514877319e-01
2.985622361302375793e-02
3.054181933403015137e-01
1.388996094465255737e-01
2.690813541412353516e-01
2.457458525896072388e-01
1.959199458360671997e-01
-2.992824018001556396e-01
-4.584495425224304199e-01
-1.629737466573715210e-01
-1.284748762845993042e-01
-1.141337007284164429e-01
3.840419277548789978e-02
2.827749848365783691e-01
2.170060276985168457e-01
3.850605487823486328e-01
1.748157478868961334e-02
7.368925958871841431e-02
-1.922099478542804718e-02
-2.451359480619430542e-02
2.605063021183013916e-01
4.274439811706542969e-02
2.264210768043994904e-02
-4.749842919409275055e-03
-2.237070500850677490e-01
-1.122942194342613220e-01
4.260670393705368042e-02
-1.565042436122894287e-01
-1.071480810642242432e-01
-4.858154803514480591e-02
-1.958085596561431885e-01
3.894198220223188400e-03
2.282612323760986328e-01
1.833557933568954468e-01
-1.186529994010925293e-01
-3.387593328952789307e-01
-1.575512737035751343e-01
2.862116694450378418e-01
1.652503013610839844e-01
