2.195722796022891998e-02
5.012018978595733643e-02
-1.134865507483482361e-01
4.287493973970413208e-02
8.689457923173904419e-02
1.295819729566574097e-01
-6.370020657777786255e-02
-1.024859696626663208e-01
1.810866892337799072e-01
7.520713657140731812e-02
-1.464222222566604614e-01
1.840393990278244019e-01
8.305566757917404175e-02
-5.187998339533805847e-02
-1.166002266108989716e-02
1.278083324432373047e-01
-1.214248657226562500e+00
-2.267892360687255859e+00
-2.520573616027832031e+00
-2.412440299987792969e+00
-2.200125217437744141e+00
-2.353086709976196289e+00
-1.988137483596801758e+00
-1.632976293563842773e+00
-2.150859832763671875e+00
-1.197542786598205566e+00
-1.702851772308349609e+00
-2.271934986114501953e+00
-2.022408485412597656e+00
-1.917877078056335449e+00
-1.681394219398498535e+00
-2.601838588714599609e+00
-2.467262744903564453e+00
-2.553841829299926758e+00
1.983684152364730835e-01
8.756439387798309326e-02
9.266392886638641357e-02
-5.677008256316184998e-02
1.273256726562976837e-02
4.844222590327262878e-02
1.102657914161682129e-01
1.549119595438241959e-02
-1.236244812607765198e-01
1.213995888829231262e-01
7.047954201698303223e-02
7.561305910348892212e-02
1.227677166461944580e-01
6.033077090978622437e-02
6.735665351152420044e-02
1.452473849058151245e-01
1.856499463319778442e-01
1.703150868415832520e-01
4.556497335433959961e-01
4.957849904894828796e-02
3.012761473655700684e-02
3.779060840606689453e-01
-4.894456565380096436e-01
1.198336854577064514e-01
1.796582490205764771e-01
-1.435356773436069489e-02
-3.333429098129272461e-01
-1.117306053638458252e-01
1.028313115239143372e-01
2.070067822933197021e-01
1.944406032562255859e-01
-2.958547770977020264e-01
-2.195733338594436646e-01
1.991655677556991577e-01
2.613771893084049225e-02
-1.340997368097305298e-01
8.042459189891815186e-02
1.302023380994796753e-01
1.163164749741554260e-01
-2.930999360978603363e-02
-9.800942242145538330e-02
-2.189671397209167480e-01
3.770635649561882019e-02
1.733454912900924683e-01
-2.638338804244995117e-01
2.667163908481597900e-01
-1.629768460988998413e-01
3.168768435716629028e-02
5.291945859789848328e-02
-3.746457993984222412e-01
8.050854206085205078e-01
2.101673930883407593e-01
2.841559648513793945e-01
-8.481087535619735718e-02
-5.577731877565383911e-02
-1.021871939301490784e-01
7.574694603681564331e-02
8.797281980514526367e-02
2.227585464715957642e-01
2.772500216960906982e-01
3.079636581242084503e-02
1.249733418226242065e-01
2.275692522525787354e-01
2.174702286720275879e-01
2.899440824985504150e-01
2.766850888729095459e-01
-1.321442276239395142e-01
3.834491372108459473e-01
-5.859675407409667969e-01
-1.928146779537200928e-01
-1.344431787729263306e-01
-1.581635624170303345e-01
-1.945927441120147705e-01
-2.042122930288314819e-02
-2.261687219142913818e-01
-1.330498158931732178e-01
3.685455024242401123e-02
-1.444675922393798828e-01
-9.384391456842422485e-02
-4.907721281051635742e-02
-1.967925429344177246e-01
8.526410907506942749e-02
-2.777605503797531128e-02
-2.237578779458999634e-01
2.207058854401111603e-02
-4.081032872200012207e-01
-3.176738619804382324e-01
4.392180144786834717e-01
-1.236370429396629333e-01
2.371618524193763733e-03
-1.720949858427047729e-01
1.665691845118999481e-02
-2.590166404843330383e-02
-1.354140937328338623e-01
4.307167138904333115e-03
-2.229052931070327759e-01
7.347995042800903320e-02
9.551881998777389526e-02
-3.739578425884246826e-01
4.339891076087951660e-01
-3.367277681827545166e-01
-2.864165604114532471e-01
3.374048694968223572e-02
-9.482114017009735107e-02
-1.176181957125663757e-01
4.858500510454177856e-02
2.369651943445205688e-02
-1.369693428277969360e-01
6.934645771980285645e-02
8.042164146900177002e-02
-2.723474502563476562e-01
1.236536726355552673e-01
1.800420433282852173e-01
-8.907165378332138062e-03
-3.043758571147918701e-01
4.212781786918640137e-01
-2.322811335325241089e-01
-7.440055906772613525e-02
-2.247088104486465454e-01
5.077416077256202698e-02
8.188649415969848633e-01
6.300255060195922852e-01
3.515547513961791992e-01
5.880613923072814941e-01
4.831211864948272705e-01
3.101859688758850098e-01
3.373232483863830566e-01
9.299735724925994873e-02
-1.420924812555313110e-02
-8.115975558757781982e-02
-4.913946390151977539e-01
1.748448014259338379e-01
-2.172105163335800171e-01
2.303855568170547485e-01
5.378098487854003906e-01
3.342372477054595947e-01
-5.772626996040344238e-01
-4.750537276268005371e-01
-3.004774749279022217e-01
3.960255533456802368e-02
-2.012058645486831665e-01
-1.411643177270889282e-01
3.656794503331184387e-02
-2.003163695335388184e-01
-1.381879746913909912e-01
-7.209341041743755341e-03
-1.274695694446563721e-01
-2.057846635580062866e-01
-1.318030506372451782e-01
-2.415100112557411194e-02
-1.055500805377960205e-01
-4.495863616466522217e-01
-5.080892443656921387e-01
-1.614411473274230957e-01
-2.129738330841064453e-01
-6.250179558992385864e-02
-1.515524089336395264e-01
-1.784071475267410278e-01
-1.592303961515426636e-01
-1.549596041440963745e-01
-2.235763370990753174e-01
1.909033805131912231e-01
-1.117082387208938599e-01
-2.198152244091033936e-01
5.647776275873184204e-02
-1.886715292930603027e-01
-1.121414452791213989e-01
-1.313176900148391724e-01
-1.400237679481506348e-01
-5.551438927650451660e-01
1.286055445671081543e-01
-6.563752889633178711e-02
-3.053471073508262634e-02
-3.640646860003471375e-02
-3.947471827268600464e-02
3.938495740294456482e-02
4.360871389508247375e-02
3.989931568503379822e-02
-7.540728896856307983e-02
6.115244701504707336e-02
-1.614005118608474731e-02
6.586686521768569946e-02
6.276005879044532776e-03
-7.310465443879365921e-03
-1.218320429325103760e-01
2.471357583999633789e-01
-1.719942241907119751e-01
-2.578710913658142090e-01
-3.466114997863769531e-01
-2.694151699542999268e-01
-1.918648332357406616e-01
-1.703539639711380005e-01
-1.083230674266815186e-01
-1.790137588977813721e-01
-1.035263016819953918e-01
-1.230104565620422363e-01
-1.478876471519470215e-01
-9.710445255041122437e-02
-3.297847211360931396e-01
-1.269680410623550415e-01
-1.278891116380691528e-01
-4.260599017143249512e-01
-3.273398578166961670e-01
-2.596810460090637207e-01
1.779859364032745361e-01
-3.217124566435813904e-02
-8.503323048353195190e-02
-2.121098898351192474e-02
6.487790495157241821e-02
-1.162144467234611511e-01
-1.018062829971313477e-01
1.966199725866317749e-01
-1.126426309347152710e-01
2.503496706485748291e-01
-4.721847921609878540e-02
1.700613647699356079e-01
-8.976248651742935181e-02
-2.341025136411190033e-02
1.459973156452178955e-01
1.134909614920616150e-01
-8.857046961784362793e-01
-7.469552159309387207e-01
-8.987336754798889160e-01
-8.788275122642517090e-01
-1.052950143814086914e+00
-6.771977543830871582e-01
-6.253404617309570312e-01
-4.519517719745635986e-01
-5.591419935226440430e-01
-8.940607309341430664e-01
-6.125583648681640625e-01
-3.744903206825256348e-01
-8.593083173036575317e-02
-7.013589739799499512e-01
-8.111106753349304199e-01
-7.679408192634582520e-01
-1.396294951438903809e+00
-9.133152961730957031e-01
3.276125192642211914e-01
-1.485239416360855103e-01
4.763512313365936279e-01
-3.701555728912353516e-02
-1.385051310062408447e-01
3.364438191056251526e-02
-8.608230948448181152e-02
1.199986785650253296e-01
-1.573524624109268188e-01
2.743358016014099121e-01
3.019397854804992676e-01
3.121916353702545166e-01
-7.241827249526977539e-02
-8.437653630971908569e-02
3.395377993583679199e-01
-1.634125113487243652e-01
9.811259806156158447e-02
3.206501016393303871e-03
-4.751406610012054443e-02
-8.301462046802043915e-03
-8.879248984158039093e-03
7.944837957620620728e-02
-1.992100849747657776e-02
2.555981278419494629e-02
-1.699668169021606445e-01
7.421199232339859009e-02
-3.682643547654151917e-02
1.289145797491073608e-01
-9.265141189098358154e-02
7.801786065101623535e-02
1.253471672534942627e-01
6.493275053799152374e-03
1.728511452674865723e-01
-4.435922503471374512e-01
6.643699109554290771e-02
2.511194348335266113e-02
-8.890102617442607880e-03
-5.724370945245027542e-03
1.152005642652511597e-01
6.431870162487030029e-03
-1.468639224767684937e-01
1.163643375039100647e-01
6.151346489787101746e-03
-1.124965772032737732e-01
5.458353459835052490e-02
1.574434787034988403e-01
-8.093435317277908325e-02
-2.094874233007431030e-01
2.618851661682128906e-01
1.052520144730806351e-02
2.801245450973510742e-01
5.421099066734313965e-02
-1.667914725840091705e-02
-7.942713797092437744e-02
7.573799230158329010e-03
-6.026956439018249512e-02
3.261337056756019592e-02
-1.171877980232238770e-01
9.275364875793457031e-02
-5.990553274750709534e-02
-4.932332411408424377e-02
8.872238546609878540e-02
-1.730621904134750366e-01
1.661066561937332153e-01
-7.245015352964401245e-02
-7.849661260843276978e-02
1.474749594926834106e-01
2.373866550624370575e-02
-2.958742678165435791e-01
2.605505883693695068e-01
-1.035997346043586731e-01
-3.086465410888195038e-02
1.118440404534339905e-01
-5.717860534787178040e-02
1.153310760855674744e-01
-1.992805451154708862e-01
2.310120612382888794e-01
-1.259693950414657593e-01
2.488055676221847534e-01
-2.223291397094726562e-01
4.863369837403297424e-02
-3.089413046836853027e-01
4.859992861747741699e-01
-1.748206615447998047e-01
1.508000940084457397e-01
-8.969394862651824951e-02
9.232021868228912354e-02
-1.187603846192359924e-01
9.804655611515045166e-02
-2.229890972375869751e-01
2.063978761434555054e-01
1.477388590574264526e-01
-1.734360009431838989e-01
-2.454187255352735519e-03
-2.773184794932603836e-03
-2.518102899193763733e-02
2.089055329561233521e-01
-4.367672652006149292e-02
-7.479155808687210083e-02
5.544679984450340271e-02
4.251373931765556335e-02
-1.356928795576095581e-01
-1.274646222591400146e-01
4.084929823875427246e-02
-2.547887265682220459e-01
2.807572782039642334e-01
4.421185702085494995e-03
-1.636458188295364380e-02
-1.750785559415817261e-01
7.464263588190078735e-02
2.628313004970550537e-02
2.362311780452728271e-01
-2.276627123355865479e-01
-7.870106026530265808e-03
-5.416708067059516907e-02
-8.379246294498443604e-02
-1.224495619535446167e-01
-5.215436965227127075e-02
3.661894202232360840e-01
2.579396367073059082e-01
1.736240237951278687e-01
1.583179384469985962e-01
1.346196979284286499e-01
6.605458259582519531e-02
5.281318351626396179e-02
2.041825801134109497e-01
9.263242036104202271e-02
-1.423222422599792480e-01
1.623767316341400146e-01
7.590924203395843506e-02
1.859385520219802856e-01
2.274823635816574097e-01
-8.599450439214706421e-02
2.882848083972930908e-01
5.998638644814491272e-02
2.127214968204498291e-01
-3.772816061973571777e-01
7.528541143983602524e-03
1.571682244539260864e-01
-1.307524647563695908e-02
8.629222866147756577e-04
1.221306249499320984e-01
-1.861563175916671753e-01
1.694108359515666962e-02
7.037603855133056641e-02
-3.641092181205749512e-01
3.987824022769927979e-01
-1.797208786010742188e-01
-1.652565449476242065e-01
1.618505269289016724e-01
-1.276130378246307373e-01
1.863732933998107910e-01
-2.010597102344036102e-02
1.703869253396987915e-01
-6.539729237556457520e-02
-1.027480959892272949e-01
-1.061589494347572327e-01
3.719355538487434387e-02
-2.754746675491333008e-01
-6.709766387939453125e-02
2.588299661874771118e-02
-5.039850622415542603e-02
-1.076045855879783630e-01
-4.096939414739608765e-02
-2.208704054355621338e-01
-1.107015833258628845e-02
-1.204821020364761353e-01
-6.528391689062118530e-02
-1.590809226036071777e-01
-9.938586503267288208e-02
-1.151433289051055908e-01
-1.067634299397468567e-01
-8.633781224489212036e-02
-4.746780544519424438e-02
-1.277955919504165649e-01
6.077041476964950562e-02
-9.858296066522598267e-02
-1.706355959177017212e-01
1.695167422294616699e-01
-1.379747390747070312e-01
6.154209747910499573e-02
7.197382301092147827e-02
-1.807488501071929932e-01
-8.395230025053024292e-02
-2.160644531250000000e-01
-4.285738468170166016e-01
-1.521392762660980225e-01
4.304219409823417664e-02
3.339090049266815186e-01
4.604410827159881592e-01
1.026670709252357483e-01
1.393966823816299438e-01
7.762523740530014038e-02
1.996615231037139893e-01
3.503387868404388428e-01
6.366638839244842529e-02
1.282891333103179932e-01
6.925424933433532715e-02
1.753321737051010132e-01
4.240630269050598145e-01
-9.653379023075103760e-02
5.053648352622985840e-01
1.294698268175125122e-01
2.861906588077545166e-01
2.268362492322921753e-01
7.010806798934936523e-01
2.157563418149948120e-01
4.151079356670379639e-01
-2.381827123463153839e-02
2.539052665233612061e-01
1.593896150588989258e-01
-1.274503860622644424e-02
3.092292845249176025e-01
-1.382488757371902466e-01
-3.460820615291595459e-01
2.164044976234436035e-01
-6.702870875597000122e-02
3.503866866230964661e-02
-3.032581508159637451e-01
2.805740833282470703e-01
-3.067444860935211182e-01
5.106361210346221924e-02
1.270354986190795898e-01
1.472670435905456543e-01
5.209064856171607971e-02
-8.233961462974548340e-02
-5.082860216498374939e-02
1.243668347597122192e-01
-3.352295607328414917e-02
-7.864751666784286499e-02
-1.003284901380538940e-01
1.377520710229873657e-01
6.114522367715835571e-02
-1.460519731044769287e-01
4.330112040042877197e-02
1.551439240574836731e-02
7.063965499401092529e-02
2.020553350448608398e-01
-2.764181196689605713e-01
-2.526106834411621094e-01
-1.922816932201385498e-01
-9.881135821342468262e-02
1.492177136242389679e-03
-1.058145686984062195e-01
-5.534866452217102051e-02
3.546564280986785889e-02
-1.197086647152900696e-01
4.438606649637222290e-02
-9.630341082811355591e-03
-5.352172255516052246e-02
-1.673924326896667480e-01
9.176339209079742432e-02
-5.014610290527343750e-02
-2.272800952196121216e-01
-3.272364288568496704e-02
-2.901839017868041992e-01
-3.653518110513687134e-02
3.767499327659606934e-02
-6.010844558477401733e-02
2.052476862445473671e-03
2.062181532382965088e-01
-1.197745278477668762e-01
-1.962535083293914795e-02
1.399123575538396835e-02
-5.359626933932304382e-02
-9.204978495836257935e-02
-8.520358055830001831e-02
6.569057703018188477e-02
1.721721887588500977e-02
-1.251105684787034988e-02
3.778505325317382812e-02
-2.625747583806514740e-03
1.453324556350708008e-01
2.210895270109176636e-01
-5.841030925512313843e-02
1.775183379650115967e-01
3.540997207164764404e-01
2.684631198644638062e-02
1.388866156339645386e-01
2.475986033678054810e-01
5.476059019565582275e-02
-1.572538316249847412e-01
5.683599039912223816e-02
8.478735387325286865e-02
-3.920476883649826050e-02
9.466414898633956909e-02
1.344322971999645233e-02
6.150311604142189026e-02
9.833090007305145264e-02
-8.737411350011825562e-02
4.392629116773605347e-02
-8.873548358678817749e-02
4.282292723655700684e-02
-9.797402471303939819e-02
5.851414054632186890e-02
-7.438904047012329102e-02
2.537380158901214600e-01
4.543377086520195007e-02
1.843184232711791992e-02
-6.919831782579421997e-02
1.781101822853088379e-01
-1.655691564083099365e-01
2.293915487825870514e-02
2.929298579692840576e-01
-2.294421568512916565e-02
1.794140040874481201e-01
1.725147962570190430e-01
4.881566762924194336e-01
6.040985882282257080e-02
6.101671606302261353e-02
4.364341795444488525e-01
4.116309285163879395e-01
6.879155337810516357e-02
3.947504162788391113e-01
9.501665830612182617e-03
-5.343808606266975403e-02
1.531112790107727051e-01
-2.660030126571655273e-01
1.267356872558593750e-01
-2.274211794137954712e-01
3.041306734085083008e-01
-2.302266061305999756e-01
-5.409413576126098633e-01
1.166642457246780396e-02
1.520449668169021606e-02
5.110376980155706406e-03
-9.672343730926513672e-03
-1.038356274366378784e-01
-6.973189115524291992e-02
-1.860108785331249237e-02
1.356612443923950195e-01
2.450257353484630585e-02
-7.702104002237319946e-02
-1.578802801668643951e-02
-1.276190727949142456e-01
8.440181612968444824e-02
7.186623662710189819e-02
-9.194523841142654419e-02
-4.667910188436508179e-02
-1.137970294803380966e-02
-2.125663906335830688e-01
-9.530724026262760162e-03
-1.080001741647720337e-01
1.445379760116338730e-02
4.298001527786254883e-02
1.597124487161636353e-01
1.148669645190238953e-01
-1.857469230890274048e-01
-5.154768005013465881e-02
1.525005847215652466e-01
3.493455424904823303e-02
-1.094175428152084351e-01
-1.708824373781681061e-02
-4.429436475038528442e-02
-1.141494661569595337e-01
-4.789099842309951782e-02
-2.788631618022918701e-01
2.524814605712890625e-01
-1.557307243347167969e-01
-1.055244207382202148e-01
-1.305696740746498108e-02
-9.638106822967529297e-02
4.993429780006408691e-02
8.785004168748855591e-02
9.255661070346832275e-02
-4.352700710296630859e-02
-1.681346744298934937e-01
-1.052539199590682983e-01
-5.148541554808616638e-02
2.280426025390625000e-01
-1.558075398206710815e-01
3.674457594752311707e-02
-1.542690247297286987e-01
1.127959489822387695e-01
1.368871629238128662e-01
-1.129511445760726929e-01
-6.872411072254180908e-02
4.014568403363227844e-03
8.450703322887420654e-02
4.172215461730957031e-01
-2.437280416488647461e-01
4.968307912349700928e-02
-1.226162612438201904e-01
1.623042672872543335e-01
-7.789935916662216187e-02
1.027795970439910889e-01
2.056697756052017212e-02
7.287517935037612915e-02
-1.383108198642730713e-01
2.652031779289245605e-01
-3.825363814830780029e-01
-2.402934879064559937e-01
-8.138541877269744873e-02
-2.560704201459884644e-02
-8.850019425153732300e-03
2.358936890959739685e-02
-5.786587670445442200e-02
-3.437451785430312157e-03
-3.770328313112258911e-02
-1.174017190933227539e-01
-1.013272330164909363e-01
-6.025774776935577393e-02
-8.938226103782653809e-02
-8.661071211099624634e-02
-7.589326798915863037e-02
-1.577771082520484924e-02
-3.277033939957618713e-02
-2.608604431152343750e-01
5.617548227310180664e-01
2.828641422092914581e-02
1.587702184915542603e-01
2.710595540702342987e-02
1.564645022153854370e-01
8.432675898075103760e-02
-9.379348158836364746e-02
-2.345773205161094666e-02
-1.662311404943466187e-01
-7.116314955055713654e-03
1.829838007688522339e-01
-4.684078693389892578e-02
4.544106777757406235e-03
3.347911238670349121e-01
4.286899045109748840e-02
7.144322991371154785e-02
2.305209040641784668e-01
1.156590878963470459e-01
1.687776148319244385e-01
2.022552341222763062e-01
6.573873013257980347e-02
4.503230750560760498e-01
3.403004631400108337e-02
3.633882403373718262e-01
3.267048625275492668e-03
-2.186640501022338867e-01
1.932924389839172363e-01
5.328913778066635132e-02
6.477801203727722168e-01
-3.567303121089935303e-01
1.922879815101623535e-01
-2.817192487418651581e-02
2.509254515171051025e-01
6.264711916446685791e-02
-5.156021118164062500e-01
-1.167711988091468811e-01
-2.080854773521423340e-01
7.164070010185241699e-02
-4.618651419878005981e-02
-4.757093265652656555e-02
-7.068818807601928711e-02
8.711922913789749146e-02
-1.903786659240722656e-01
-9.388422220945358276e-02
2.721080780029296875e-01
-2.209873050451278687e-01
-4.078705310821533203e-01
-3.637420237064361572e-01
1.133875176310539246e-01
-8.279517292976379395e-02
-4.479762017726898193e-01
-1.549724638462066650e-01
3.905690908432006836e-01
-3.004791140556335449e-01
-4.200388863682746887e-02
8.328473567962646484e-02
2.320605367422103882e-01
-3.098707497119903564e-01
-3.564589098095893860e-02
9.971527010202407837e-02
6.954739987850189209e-02
1.246950626373291016e-01
-1.837410181760787964e-01
2.345844954252243042e-01
-1.548828184604644775e-01
2.121236547827720642e-02
2.260587662458419800e-01
-4.182710945606231689e-01
-8.574065752327442169e-03
-6.390038132667541504e-02
-5.452426150441169739e-02
-1.863714307546615601e-01
-3.260799869894981384e-02
-1.730995029211044312e-01
3.950403630733489990e-02
1.883295029401779175e-01
-2.503337860107421875e-01
1.140367165207862854e-01
-1.541275233030319214e-01
1.037956774234771729e-01
2.991710416972637177e-02
-9.890674799680709839e-02
2.169288396835327148e-01
-1.296401172876358032e-01
-3.489925861358642578e-01
-3.199674487113952637e-01
-3.918759524822235107e-01
-2.107705175876617432e-01
-1.860305070877075195e-01
-2.273641377687454224e-01
-1.912975460290908813e-01
-1.774044036865234375e-01
-2.200485467910766602e-01
-1.130355745553970337e-01
-1.320783644914627075e-01
7.835377007722854614e-03
-1.249603554606437683e-01
-1.929893493652343750e-01
-5.593531206250190735e-02
-5.431009531021118164e-01
-4.561695158481597900e-01
-5.306955575942993164e-01
-3.451200202107429504e-02
1.693845838308334351e-01
-3.551151156425476074e-01
5.183486640453338623e-02
8.361388742923736572e-02
-3.677480816841125488e-01
1.093654483556747437e-01
-3.869123384356498718e-02
2.074014581739902496e-02
5.065597966313362122e-02
-9.679044038057327271e-02
-1.012606099247932434e-01
-6.178036332130432129e-02
-3.213775455951690674e-01
5.568474531173706055e-02
3.333608210086822510e-01
-7.423746585845947266e-01
-3.819431364536285400e-01
-2.367397695779800415e-01
-8.360424637794494629e-02
-1.461090445518493652e-01
2.718430571258068085e-02
-1.008649766445159912e-01
-9.257935732603073120e-02
-2.129436470568180084e-02
2.828133851289749146e-02
-6.990896910429000854e-02
-2.557444274425506592e-01
-5.299827829003334045e-02
1.113682389259338379e-01
-2.548467218875885010e-01
1.268788874149322510e-01
-1.010719388723373413e-01
-3.414213061332702637e-01
-3.752526268362998962e-02
-1.264682263135910034e-01
-2.273965924978256226e-01
3.989684954285621643e-02
-5.390033498406410217e-02
-8.018803596496582031e-02
-2.139843441545963287e-02
5.810530483722686768e-02
9.708310663700103760e-02
-1.069160401821136475e-01
6.036334112286567688e-02
-5.127008631825447083e-02
-8.033172041177749634e-02
-9.176835417747497559e-03
1.017926409840583801e-01
-1.345025748014450073e-01
1.177541390061378479e-01
1.184847652912139893e-01
1.265365481376647949e-01
-8.080542832612991333e-02
2.522262334823608398e-01
8.087337762117385864e-02
2.170708477497100830e-01
1.966470852494239807e-02
-4.601426422595977783e-02
2.932978048920631409e-02
-1.032691597938537598e-01
-1.358831077814102173e-01
3.300730288028717041e-01
1.657477915287017822e-01
2.267055585980415344e-02
3.512190282344818115e-01
7.601723670959472656e-01
3.804002404212951660e-01
2.910696864128112793e-01
-1.324042975902557373e-01
1.443765610456466675e-01
8.739355951547622681e-02
2.127824425697326660e-01
7.360120117664337158e-02
3.086732886731624603e-02
4.686436355113983154e-01
2.770583927631378174e-01
7.507257908582687378e-02
-5.123417824506759644e-02
2.169578224420547485e-01
-4.885223507881164551e-02
1.527694165706634521e-01
3.095948696136474609e-02
3.832189142704010010e-01
2.072774916887283325e-01
-1.052210181951522827e-01
-1.513463445007801056e-02
1.007803380489349365e-01
-1.369637995958328247e-01
2.068725414574146271e-02
7.584659755229949951e-02
-8.586446940898895264e-02
-4.962893202900886536e-02
2.331176539883017540e-03
-2.500516548752784729e-02
-2.819477953016757965e-02
7.697891443967819214e-02
1.749367415904998779e-01
-1.463449746370315552e-01
-1.489034201949834824e-02
7.352195680141448975e-02
1.514501273632049561e-01
3.022794127464294434e-01
2.833416759967803955e-01
8.444475382566452026e-02
2.621712088584899902e-01
-2.614675275981426239e-02
1.986614465713500977e-01
2.540838345885276794e-02
-1.718146353960037231e-02
-8.216102421283721924e-02
7.215408235788345337e-02
2.314788401126861572e-01
2.180488258600234985e-01
-5.056595429778099060e-02
2.130743116140365601e-01
8.181151002645492554e-02
-1.058607622981071472e-01
2.641423642635345459e-01
-1.238235086202621460e-01
3.057825192809104919e-02
-8.630165830254554749e-03
1.033889427781105042e-01
-4.386897757649421692e-02
-1.206493005156517029e-01
3.884616121649742126e-02
2.896903753280639648e-01
-1.544485241174697876e-01
-6.972432136535644531e-02
2.063516378402709961e-01
-1.776684522628784180e-01
6.190178915858268738e-02
6.307405233383178711e-02
-1.053296998143196106e-01
2.646022289991378784e-02
1.469957083463668823e-01
-1.069074720144271851e-01
1.386446654796600342e-01
1.655455529689788818e-01
-2.524910261854529381e-03
-1.090125963091850281e-01
-1.898433268070220947e-01
1.506339758634567261e-01
-1.540794968605041504e-01
-1.201155129820108414e-02
8.564720302820205688e-02
7.229652255773544312e-02
1.231546998023986816e-01
-2.924927175045013428e-01
-1.680053956806659698e-02
1.377330627292394638e-02
3.142430260777473450e-02
2.675308287143707275e-01
7.408845424652099609e-02
6.025753170251846313e-02
4.051704704761505127e-02
1.329247057437896729e-01
-5.545992404222488403e-02
5.499198101460933685e-03
9.117648005485534668e-02
1.331136468797922134e-02
3.080046176910400391e-02
1.498038619756698608e-01
8.224372565746307373e-02
8.890367299318313599e-02
1.223685964941978455e-01
-5.386176705360412598e-02
1.004687175154685974e-01
5.372817814350128174e-02
1.980754435062408447e-01
2.710305452346801758e-01
-3.554354906082153320e-01
9.650121629238128662e-02
1.981625556945800781e-01
1.144856810569763184e-01
-2.146804779767990112e-01
-1.090573444962501526e-01
-1.982874423265457153e-02
1.016978770494461060e-01
4.280353337526321411e-02
9.049198776483535767e-02
-4.447295144200325012e-02
-1.228305324912071228e-01
1.377110183238983154e-01
-6.999075412750244141e-02
2.041860222816467285e-01
-1.306419074535369873e-01
1.514778733253479004e-01
-8.838708698749542236e-02
1.103305071592330933e-01
1.123543456196784973e-01
-6.671632826328277588e-02
-1.616700924932956696e-02
9.903277456760406494e-02
2.740694582462310791e-01
-3.673825040459632874e-02
1.402878314256668091e-01
-2.759508490562438965e-01
8.079825341701507568e-02
4.684195667505264282e-02
1.417174339294433594e-01
2.583783492445945740e-02
-1.392720639705657959e-01
1.619807332754135132e-01
3.977115452289581299e-01
-1.072224043309688568e-02
-6.457105278968811035e-02
-2.832582406699657440e-02
5.721726268529891968e-02
3.248704224824905396e-02
1.380500048398971558e-01
-9.763520956039428711e-02
-2.399508655071258545e-02
1.375339627265930176e-01
-1.133277118206024170e-01
1.409960072487592697e-02
1.128126382827758789e-01
1.103289425373077393e-01
2.313283085823059082e-02
8.621497452259063721e-02
2.649069577455520630e-02
1.673019677400588989e-01
9.078560024499893188e-02
2.045547366142272949e-01
-2.297610044479370117e-02
4.927922189235687256e-01
4.667004197835922241e-02
3.995998799800872803e-01
-9.384148567914962769e-02
1.070127785205841064e-01
3.230765759944915771e-01
-2.031886577606201172e-01
9.832293540239334106e-02
-1.213053837418556213e-01
2.326853424310684204e-01
-1.612546294927597046e-01
3.913308680057525635e-02
5.544207096099853516e-01
-3.021689355373382568e-01
-1.165575012564659119e-01
-7.761298120021820068e-02
1.398318856954574585e-01
-2.435774505138397217e-01
1.164768449962139130e-02
-4.294544085860252380e-02
-2.809389233589172363e-01
8.836074732244014740e-03
4.881171882152557373e-02
-8.078448474407196045e-02
2.773655205965042114e-02
-3.893667086958885193e-02
-7.142323255538940430e-02
-2.169074118137359619e-02
-9.685222804546356201e-02
1.138075217604637146e-01
4.768171608448028564e-01
1.982467062771320343e-02
-4.016729816794395447e-02
3.810254484415054321e-02
5.270298197865486145e-02
-2.574761509895324707e-01
3.462928533554077148e-01
3.885703533887863159e-02
1.320490390062332153e-01
1.146461144089698792e-01
-2.449470013380050659e-01
1.862524002790451050e-01
4.411314725875854492e-01
1.932789087295532227e-01
1.910182684659957886e-01
2.643696963787078857e-01
6.107766032218933105e-01
-2.036354988813400269e-01
1.232310831546783447e-01
-2.077254094183444977e-02
6.836102902889251709e-02
8.607765287160873413e-02
-1.607593744993209839e-01
1.800540536642074585e-01
1.682244241237640381e-01
-1.528506577014923096e-01
2.564308047294616699e-01
-2.210660874843597412e-01
9.718180447816848755e-02
5.285531282424926758e-02
-3.383035957813262939e-01
4.822533205151557922e-02
-7.416330277919769287e-03
-2.607004344463348389e-01
4.108026623725891113e-01
-2.496598511934280396e-01
7.551655918359756470e-02
-7.617721706628799438e-02
-2.813961207866668701e-01
9.071970731019973755e-02
1.531853079795837402e-01
-1.079324353486299515e-02
4.197372496128082275e-01
1.496962178498506546e-02
-2.437959462404251099e-01
-1.841498613357543945e-01
1.531392782926559448e-01
-1.031616404652595520e-01
-2.510656714439392090e-01
1.588220745325088501e-01
-2.473739832639694214e-01
6.046989560127258301e-02
1.591485738754272461e-02
-8.999100327491760254e-02
-5.684718489646911621e-03
5.054016411304473877e-02
1.219794750213623047e-01
-2.135726436972618103e-02
-6.594295054674148560e-02
2.129268646240234375e-01
1.346585452556610107e-01
-1.575002968311309814e-01
2.167259603738784790e-01
1.158839613199234009e-01
-5.577687919139862061e-02
-3.981964290142059326e-02
1.683089137077331543e-01
-1.220201730728149414e+00
-2.323672294616699219e+00
-2.529777526855468750e+00
-2.451005935668945312e+00
-2.211826324462890625e+00
-2.358353137969970703e+00
-1.996624112129211426e+00
-1.608934760093688965e+00
-2.170220136642456055e+00
-1.231010317802429199e+00
-1.751369237899780273e+00
-2.314573287963867188e+00
-2.028187274932861328e+00
-1.907622098922729492e+00
-1.719081521034240723e+00
-2.646594762802124023e+00
-2.527815818786621094e+00
-2.607640981674194336e+00
1.606178581714630127e-01
8.741586655378341675e-02
7.415113598108291626e-02
-2.428578026592731476e-02
-2.866248600184917450e-02
5.265775322914123535e-02
7.885078340768814087e-02
2.120686927810311317e-03
-1.068190112709999084e-01
1.530629098415374756e-01
1.158009991049766541e-01
9.090156108140945435e-02
1.110514551401138306e-01
7.704001665115356445e-02
8.173035085201263428e-02
1.211020350456237793e-01
1.308838874101638794e-01
1.510425657033920288e-01
4.704197645187377930e-01
1.243824232369661331e-02
2.381729148328304291e-02
3.990589380264282227e-01
-4.711129367351531982e-01
1.268703192472457886e-01
1.865900158882141113e-01
-3.607591241598129272e-02
-3.332343995571136475e-01
-9.374219924211502075e-02
6.390741467475891113e-02
1.716958582401275635e-01
2.198354303836822510e-01
-2.961510717868804932e-01
-2.059657275676727295e-01
1.932838708162307739e-01
2.046939358115196228e-02
-1.096598729491233826e-01
1.395688205957412720e-01
9.887894243001937866e-02
1.577316969633102417e-01
-1.524951402097940445e-02
-5.183367803692817688e-02
-2.141942232847213745e-01
5.706338956952095032e-02
1.849346458911895752e-01
-3.158892989158630371e-01
2.804883718490600586e-01
-1.822461336851119995e-01
3.900443390011787415e-02
6.903018802404403687e-02
-3.893579542636871338e-01
8.411345481872558594e-01
2.321746945381164551e-01
3.053534328937530518e-01
-4.328197240829467773e-02
-6.166070327162742615e-02
-8.915247768163681030e-02
4.229913279414176941e-02
1.009196266531944275e-01
2.202848345041275024e-01
2.986308634281158447e-01
6.592547148466110229e-02
1.127227321267127991e-01
2.043322324752807617e-01
2.596859931945800781e-01
2.989175915718078613e-01
3.228694200515747070e-01
-1.480433344841003418e-01
4.287458658218383789e-01
-5.800864696502685547e-01
-2.238731533288955688e-01
-1.774908155202865601e-01
-1.549250781536102295e-01
-1.808584332466125488e-01
-2.770844101905822754e-02
-2.445584684610366821e-01
-1.588538736104965210e-01
4.730939120054244995e-02
-1.380474716424942017e-01
-1.378158926963806152e-01
-5.630291253328323364e-02
-1.607886850833892822e-01
7.639155536890029907e-02
-7.612169533967971802e-02
-2.308407872915267944e-01
3.627808764576911926e-02
-4.243876039981842041e-01
-3.603579998016357422e-01
4.651405513286590576e-01
-9.913437813520431519e-02
-3.333520144224166870e-02
-1.930463165044784546e-01
3.056759014725685120e-02
2.000197768211364746e-02
-1.162886098027229309e-01
4.898982122540473938e-02
-2.610007524490356445e-01
2.252253703773021698e-02
5.942505970597267151e-02
-3.883558809757232666e-01
4.262230992317199707e-01
-3.024250566959381104e-01
-3.011074662208557129e-01
-1.859482191503047943e-02
-4.640768468379974365e-02
-1.190162375569343567e-01
1.042340882122516632e-02
1.649021916091442108e-02
-1.253661364316940308e-01
6.106359139084815979e-02
5.146638303995132446e-02
-2.662395238876342773e-01
1.517257541418075562e-01
1.527147442102432251e-01
1.960012689232826233e-02
-3.668930530548095703e-01
4.652764797210693359e-01
-2.105764597654342651e-01
-5.500189960002899170e-02
-1.773821115493774414e-01
6.664867699146270752e-02
8.433475494384765625e-01
6.559329032897949219e-01
3.605523407459259033e-01
5.474967360496520996e-01
4.709837436676025391e-01
3.515878617763519287e-01
3.313687145709991455e-01
7.457108050584793091e-02
-2.310992591083049774e-02
-4.756595194339752197e-02
-4.606438577175140381e-01
1.586181372404098511e-01
-2.665027976036071777e-01
1.950180530548095703e-01
5.418042540550231934e-01
3.186065554618835449e-01
-5.911800861358642578e-01
-5.364992022514343262e-01
-2.720631659030914307e-01
8.770510554313659668e-02
-2.141866385936737061e-01
-1.128108724951744080e-01
1.834487169981002808e-02
-1.608304530382156372e-01
-1.969895362854003906e-01
2.351373620331287384e-02
-1.365330517292022705e-01
-2.330427169799804688e-01
-1.656162142753601074e-01
-2.671307884156703949e-02
-1.263678371906280518e-01
-5.065892338752746582e-01
-4.796045124530792236e-01
-1.956892460584640503e-01
-2.287835776805877686e-01
-9.214546531438827515e-02
-1.362471878528594971e-01
-1.769558340311050415e-01
-1.293367743492126465e-01
-1.563141793012619019e-01
-2.036102265119552612e-01
2.089204937219619751e-01
-8.064014464616775513e-02
-2.509042620658874512e-01
4.912310466170310974e-02
-1.962390094995498657e-01
-1.009805873036384583e-01
-1.394976973533630371e-01
-1.456481218338012695e-01
-5.631802082061767578e-01
1.116791069507598877e-01
-3.192688897252082825e-02
-3.303875401616096497e-02
-5.683059990406036377e-02
-3.861730173230171204e-02
4.940898716449737549e-02
6.068463250994682312e-02
4.455413296818733215e-02
-8.406425267457962036e-02
4.122065380215644836e-02
-4.080053046345710754e-02
5.025982111692428589e-02
-2.511805389076471329e-03
-5.022737011313438416e-02
-8.816444128751754761e-02
2.843652069568634033e-01
-1.685536950826644897e-01
-3.098159432411193848e-01
-3.999082446098327637e-01
-2.642977833747863770e-01
-1.793015599250793457e-01
-1.699694544076919556e-01
-8.079283684492111206e-02
-1.743994355201721191e-01
-8.787079155445098877e-02
-1.368120759725570679e-01
-1.468030512332916260e-01
-1.148568093776702881e-01
-3.116160929203033447e-01
-1.164768636226654053e-01
-1.548544019460678101e-01
-4.513742327690124512e-01
-3.395688235759735107e-01
-2.925317883491516113e-01
1.427824050188064575e-01
-1.841257512569427490e-02
-8.084946125745773315e-02
3.798615885898470879e-03
4.639908298850059509e-02
-1.135625466704368591e-01
-8.979355543851852417e-02
1.556416600942611694e-01
-1.141133755445480347e-01
2.357221990823745728e-01
-3.151111304759979248e-02
1.560045629739761353e-01
-9.385722875595092773e-02
-5.504776537418365479e-02
1.277713626623153687e-01
1.357646733522415161e-01
-9.269058704376220703e-01
-7.528204321861267090e-01
-8.897290825843811035e-01
-9.008436799049377441e-01
-1.051418900489807129e+00
-7.171816229820251465e-01
-5.940083861351013184e-01
-4.820340871810913086e-01
-6.105273365974426270e-01
-9.200491309165954590e-01
-6.275258660316467285e-01
-4.308704733848571777e-01
-1.249959692358970642e-01
-7.487559914588928223e-01
-8.035832643508911133e-01
-7.723391056060791016e-01
-1.417064666748046875e+00
-8.980141878128051758e-01
3.266523778438568115e-01
-1.361374855041503906e-01
5.010831952095031738e-01
-4.093211889266967773e-02
-9.753436595201492310e-02
9.313005954027175903e-02
-1.098578944802284241e-01
1.069151759147644043e-01
-1.465690433979034424e-01
3.054875433444976807e-01
3.258980512619018555e-01
3.009110391139984131e-01
-8.152025192975997925e-02
-8.838192373514175415e-02
3.199518322944641113e-01
-1.518527567386627197e-01
7.965829968452453613e-02
4.972114786505699158e-02
-8.371540904045104980e-02
-1.215470675379037857e-02
-4.401737451553344727e-02
4.280012100934982300e-02
-4.477919638156890869e-02
1.250921469181776047e-02
-2.065784484148025513e-01
1.209043115377426147e-01
-1.062506809830665588e-03
1.233888417482376099e-01
-1.098695695400238037e-01
8.196321874856948853e-02
9.274007380008697510e-02
2.838735841214656830e-02
1.734879314899444580e-01
-4.577393531799316406e-01
1.056991592049598694e-01
5.697376281023025513e-02
4.463220015168190002e-03
1.650738529860973358e-03
1.450410783290863037e-01
6.041750311851501465e-03
-1.108158230781555176e-01
1.254058033227920532e-01
5.097905918955802917e-02
-9.767232835292816162e-02
-1.081234513549134135e-04
1.746015548706054688e-01
-7.217083871364593506e-02
-2.114256471395492554e-01
2.489460110664367676e-01
2.767180837690830231e-02
2.640241980552673340e-01
5.131728947162628174e-02
-9.479200467467308044e-03
-4.535487666726112366e-02
1.403931993991136551e-02
-7.699052989482879639e-02
4.648130387067794800e-02
-1.047723889350891113e-01
1.096217706799507141e-01
-5.416413769125938416e-02
-5.315396562218666077e-02
1.426398307085037231e-01
-1.896804422140121460e-01
1.355431079864501953e-01
-1.058149561285972595e-01
-6.963706761598587036e-02
1.080118715763092041e-01
4.550244286656379700e-02
-3.085550665855407715e-01
2.226135432720184326e-01
-5.084118247032165527e-02
-3.228437155485153198e-02
8.155161887407302856e-02
-8.783080428838729858e-02
8.468425273895263672e-02
-1.996169984340667725e-01
2.365732192993164062e-01
-1.561961919069290161e-01
2.375252991914749146e-01
-2.093438953161239624e-01
5.373093858361244202e-02
-3.355450034141540527e-01
4.506241083145141602e-01
-1.985987871885299683e-01
2.061149477958679199e-01
-5.179085955023765564e-02
8.778926730155944824e-02
-9.143225103616714478e-02
1.037365794181823730e-01
-2.140539139509201050e-01
1.849420666694641113e-01
1.744387894868850708e-01
-1.783053129911422729e-01
-3.603888675570487976e-02
-8.833738975226879120e-03
-1.666251686401665211e-03
2.070357352495193481e-01
-6.892477720975875854e-02
-1.265488117933273315e-01
9.073033183813095093e-02
5.196379497647285461e-02
-1.623374670743942261e-01
-1.326089650392532349e-01
1.043536216020584106e-01
-2.564299106597900391e-01
2.892768681049346924e-01
-6.043814122676849365e-03
-2.340501872822642326e-03
-1.971891671419143677e-01
1.170086339116096497e-01
1.090995967388153076e-02
2.431807070970535278e-01
-2.564651966094970703e-01
2.109842374920845032e-02
-5.612815544009208679e-02
-8.441022038459777832e-02
-9.885821491479873657e-02
6.649019778706133366e-04
3.697078526020050049e-01
2.544613480567932129e-01
1.443386226892471313e-01
1.358383446931838989e-01
1.598448306322097778e-01
4.506003856658935547e-02
9.318309277296066284e-02
1.699810922145843506e-01
1.090900227427482605e-01
-1.194584965705871582e-01
1.287561655044555664e-01
9.865154325962066650e-02
1.934855133295059204e-01
2.394455075263977051e-01
-2.595598809421062469e-02
2.758862972259521484e-01
1.010454595088958740e-01
2.036368399858474731e-01
-3.961874246597290039e-01
1.351911202073097229e-02
1.815953552722930908e-01
-5.758941639214754105e-03
-2.752369083464145660e-02
9.335441887378692627e-02
-1.238814517855644226e-01
2.701299823820590973e-02
1.091712415218353271e-01
-3.325072824954986572e-01
4.441284835338592529e-01
-2.004241645336151123e-01
-1.929958164691925049e-01
1.957486867904663086e-01
-1.487659811973571777e-01
1.884862035512924194e-01
1.992496289312839508e-02
1.852236837148666382e-01
-4.353105276823043823e-02
-9.277418255805969238e-02
-9.935729205608367920e-02
5.245973542332649231e-02
-2.863024473190307617e-01
-6.935347616672515869e-02
1.308295223861932755e-02
-9.814325720071792603e-02
-1.107142716646194458e-01
3.818162076640874147e-04
-2.684247195720672607e-01
-3.813723847270011902e-02
-1.511376649141311646e-01
-5.524063110351562500e-02
-1.492743045091629028e-01
-9.332907199859619141e-02
-1.073523387312889099e-01
-1.441467404365539551e-01
-8.505197614431381226e-02
-6.415605545043945312e-02
-1.489754319190979004e-01
5.963106080889701843e-02
-1.052491441369056702e-01
-1.679014563560485840e-01
1.477006077766418457e-01
-1.804172843694686890e-01
2.647356875240802765e-02
2.939753793179988861e-02
-2.326655536890029907e-01
-5.588782206177711487e-02
-2.442872226238250732e-01
-4.471729397773742676e-01
-1.205307692289352417e-01
3.700465708971023560e-02
3.157302737236022949e-01
4.333853125572204590e-01
1.433122754096984863e-01
1.492730528116226196e-01
1.107992008328437805e-01
2.153422534465789795e-01
3.649840652942657471e-01
6.833858788013458252e-02
1.300869286060333252e-01
5.441487580537796021e-02
1.764067411422729492e-01
4.220821261405944824e-01
-1.125292927026748657e-01
5.503467917442321777e-01
1.600519418716430664e-01
2.647173404693603516e-01
2.290639728307723999e-01
7.230150699615478516e-01
2.405781447887420654e-01
4.617640972137451172e-01
4.850719124078750610e-03
2.857587635517120361e-01
1.753949970006942749e-01
-8.952851407229900360e-03
3.222748339176177979e-01
-1.040144413709640503e-01
-3.315542936325073242e-01
2.338729649782180786e-01
-8.267758786678314209e-02
3.877650201320648193e-02
-2.915007174015045166e-01
2.608262300491333008e-01
-3.534213006496429443e-01
1.000159531831741333e-01
1.252358704805374146e-01
1.155105084180831909e-01
6.073850765824317932e-02
-8.594988286495208740e-02
-7.264759391546249390e-02
1.042357385158538818e-01
-4.047524556517601013e-02
-7.503329217433929443e-02
-1.084145009517669678e-01
1.031451597809791565e-01
6.296329200267791748e-02
-1.422333717346191406e-01
1.532524591311812401e-03
-3.022504597902297974e-02
1.431574765592813492e-02
2.419756203889846802e-01
-2.789522111415863037e-01
-2.698823809623718262e-01
-2.088840305805206299e-01
-6.201167032122612000e-02
3.033112548291683197e-02
-9.651993960142135620e-02
-7.304421812295913696e-02
7.294242829084396362e-02
-1.534590870141983032e-01
3.469374403357505798e-02
-5.273730307817459106e-02
-1.882272586226463318e-02
-2.033725678920745850e-01
1.203027814626693726e-01
-7.458017766475677490e-02
-2.166231721639633179e-01
-7.005979865789413452e-02
-2.857696712017059326e-01
-6.750147789716720581e-02
8.538796566426753998e-03
-4.678550735116004944e-02
1.148069370537996292e-02
1.908922344446182251e-01
-1.211515292525291443e-01
-3.722320124506950378e-02
-2.060838788747787476e-02
-2.126572281122207642e-02
-6.610074639320373535e-02
-9.386096894741058350e-02
7.079706341028213501e-02
2.753927744925022125e-02
-5.725050345063209534e-03
6.615787278860807419e-03
-2.504121698439121246e-02
1.608429998159408569e-01
1.956363171339035034e-01
-9.857293218374252319e-02
1.854301840066909790e-01
3.570368885993957520e-01
2.719205804169178009e-02
1.028709560632705688e-01
2.403085976839065552e-01
7.112818211317062378e-02
-1.810890585184097290e-01
5.606180429458618164e-02
7.017809152603149414e-02
-1.601238362491130829e-02
1.121758595108985901e-01
3.277891129255294800e-02
9.821506217122077942e-03
4.739749059081077576e-02
-5.144064128398895264e-02
4.653390869498252869e-02
-7.033161073923110962e-02
7.103180885314941406e-02
-1.410194337368011475e-01
7.340653985738754272e-02
-2.576508000493049622e-02
2.673752009868621826e-01
6.346811354160308838e-02
-3.364630974829196930e-03
-8.690588176250457764e-02
1.635072827339172363e-01
-1.177419424057006836e-01
9.396468289196491241e-03
2.686615288257598877e-01
1.374120474793016911e-04
2.212857007980346680e-01
1.383609324693679810e-01
5.118665099143981934e-01
7.346596568822860718e-02
4.036435484886169434e-02
4.457251429557800293e-01
4.095019996166229248e-01
5.234663188457489014e-02
4.057206809520721436e-01
3.643751144409179688e-02
-5.369656160473823547e-02
1.491565108299255371e-01
-2.321350127458572388e-01
9.810958057641983032e-02
-2.150536030530929565e-01
2.940236330032348633e-01
-2.225852459669113159e-01
-5.511385202407836914e-01
-1.841566152870655060e-02
4.994922503829002380e-02
-1.795249059796333313e-02
2.388481050729751587e-03
-1.482284218072891235e-01
-5.094265192747116089e-02
-6.402764935046434402e-03
1.351194232702255249e-01
3.761458769440650940e-02
-4.358994588255882263e-02
-1.666291058063507080e-02
-1.494293808937072754e-01
9.517229348421096802e-02
4.708918184041976929e-02
-8.459034562110900879e-02
-6.334546953439712524e-02
-3.757079318165779114e-02
-1.655287742614746094e-01
-2.637205272912979126e-02
-9.631697088479995728e-02
-4.100155550986528397e-03
2.085648663341999054e-02
1.711947023868560791e-01
1.317165493965148926e-01
-1.855322718620300293e-01
-5.287706106901168823e-02
2.115229517221450806e-01
2.613015472888946533e-02
-9.962558746337890625e-02
-2.789113298058509827e-02
-5.500248447060585022e-02
-1.080931648612022400e-01
-7.251433283090591431e-02
-2.709573209285736084e-01
2.972269952297210693e-01
-1.437021046876907349e-01
-1.001290231943130493e-01
-3.097553737461566925e-02
-1.099535897374153137e-01
6.210752949118614197e-02
2.774162776768207550e-02
6.684498488903045654e-02
-4.277561232447624207e-02
-1.321863830089569092e-01
-1.480771750211715698e-01
-5.331977456808090210e-02
2.381424903869628906e-01
-1.527839750051498413e-01
2.300457470118999481e-02
-1.881011873483657837e-01
1.125808432698249817e-01
1.391257345676422119e-01
-1.159346774220466614e-01
-1.181368455290794373e-01
-4.453106597065925598e-02
6.600528210401535034e-02
4.317842721939086914e-01
-2.115103304386138916e-01
4.092188924551010132e-02
-1.544983088970184326e-01
1.703673899173736572e-01
-6.676264852285385132e-02
1.322816759347915649e-01
-8.714989759027957916e-03
9.286563098430633545e-02
-1.420933008193969727e-01
2.962393462657928467e-01
-4.087895750999450684e-01
-2.201784551143646240e-01
-8.779572695493698120e-02
5.479875253513455391e-04
7.417084649205207825e-03
1.567890681326389313e-02
-2.423389256000518799e-02
-1.364422589540481567e-02
-6.357179488986730576e-03
-7.339939475059509277e-02
-1.177683621644973755e-01
-4.626870155334472656e-02
-8.014222979545593262e-02
-8.364517986774444580e-02
-1.016788035631179810e-01
1.786481402814388275e-02
-6.735159456729888916e-02
-2.539045810699462891e-01
5.437413454055786133e-01
7.801356911659240723e-02
2.143544703722000122e-01
1.782973483204841614e-02
1.523696333169937134e-01
1.107629612088203430e-01
-1.210676282644271851e-01
-2.734199352562427521e-02
-1.944261789321899414e-01
2.129430323839187622e-02
1.549589633941650391e-01
-6.768865883350372314e-02
-3.232098743319511414e-02
3.556698262691497803e-01
2.281311526894569397e-02
7.226417958736419678e-02
2.430845648050308228e-01
9.801205992698669434e-02
2.018358856439590454e-01
1.966191828250885010e-01
9.260921180248260498e-02
4.436642229557037354e-01
3.891429677605628967e-02
3.520061969757080078e-01
-1.417953614145517349e-02
-2.466422170400619507e-01
1.703968495130538940e-01
-7.752024102956056595e-03
6.076840758323669434e-01
-3.444463312625885010e-01
1.552351713180541992e-01
-2.960425429046154022e-02
2.591858506202697754e-01
4.927892982959747314e-02
-5.171188116073608398e-01
-1.181754767894744873e-01
-2.130439430475234985e-01
4.279851540923118591e-02
-2.677679061889648438e-02
-7.082993537187576294e-02
-2.783862128853797913e-02
1.170263960957527161e-01
-2.226590961217880249e-01
-1.403571367263793945e-01
2.737922668457031250e-01
-2.137331962585449219e-01
-4.247634112834930420e-01
-3.724543452262878418e-01
1.282001882791519165e-01
-1.234041601419448853e-01
-4.728496968746185303e-01
-1.388155817985534668e-01
3.858506083488464355e-01
-3.294708430767059326e-01
-1.806204020977020264e-02
1.190760880708694458e-01
2.236047983169555664e-01
-3.106469213962554932e-01
-2.161091566085815430e-02
5.374046415090560913e-02
9.726210683584213257e-02
8.077013492584228516e-02
-1.723358780145645142e-01
2.329253256320953369e-01
-1.830390989780426025e-01
2.525302581489086151e-02
2.257745862007141113e-01
-4.597837626934051514e-01
-2.146288752555847168e-03
-3.911009430885314941e-02
-8.831206709146499634e-02
-2.063163220882415771e-01
-4.698139429092407227e-02
-1.817307174205780029e-01
5.527154728770256042e-02
1.948022991418838501e-01
-2.670747935771942139e-01
1.114614009857177734e-01
-1.105650141835212708e-01
1.237017363309860229e-01
1.012541167438030243e-02
-9.464073926210403442e-02
2.381097823381423950e-01
-1.249976605176925659e-01
-3.853846490383148193e-01
-3.244228065013885498e-01
-4.312001466751098633e-01
-2.312491536140441895e-01
-1.813233941793441772e-01
-2.441565096378326416e-01
-2.060017436742782593e-01
-1.823395639657974243e-01
-2.764513194561004639e-01
-1.001205816864967346e-01
-1.387764215469360352e-01
7.659236434847116470e-03
-1.535095870494842529e-01
-1.943060904741287231e-01
-3.955955058336257935e-02
-5.636816620826721191e-01
-5.098389387130737305e-01
-5.751439332962036133e-01
-2.790836431086063385e-02
2.219782173633575439e-01
-3.552298545837402344e-01
5.329146608710289001e-02
9.051045030355453491e-02
-3.553199172019958496e-01
8.596588671207427979e-02
-3.029085882008075714e-02
1.631991937756538391e-02
6.224458664655685425e-02
-6.092728674411773682e-02
-1.160882562398910522e-01
-7.984969764947891235e-02
-3.232496678829193115e-01
7.002518326044082642e-02
2.989666461944580078e-01
-7.699943184852600098e-01
-3.775261342525482178e-01
-2.405026555061340332e-01
-8.057179301977157593e-02
-1.454599052667617798e-01
3.572954982519149780e-02
-1.469402015209197998e-01
-1.415807008743286133e-01
1.753309275954961777e-03
3.633457422256469727e-02
-1.031596735119819641e-01
-2.851761579513549805e-01
-8.750887215137481689e-02
1.016182303428649902e-01
-2.448506802320480347e-01
9.435192495584487915e-02
-8.159778267145156860e-02
-3.237304687500000000e-01
-3.943356126546859741e-02
-1.523222923278808594e-01
-2.770817279815673828e-01
8.159175515174865723e-02
-6.441088765859603882e-02
-6.339888274669647217e-02
-2.928919345140457153e-02
2.761482261121273041e-02
9.159474819898605347e-02
-1.264408528804779053e-01
2.805760689079761505e-02
-1.688485965132713318e-02
-7.715097814798355103e-02
-2.344221621751785278e-02
7.341741770505905151e-02
-1.879474222660064697e-01
8.401715010404586792e-02
1.455052793025970459e-01
1.708467304706573486e-01
-9.377226233482360840e-02
2.616988718509674072e-01
1.092744767665863037e-01
2.153284698724746704e-01
5.705534946173429489e-03
-4.807186499238014221e-02
6.440149992704391479e-02
-1.151162534952163696e-01
-8.642552793025970459e-02
3.158158957958221436e-01
1.954741030931472778e-01
4.277715831995010376e-02
3.670644164085388184e-01
8.307250142097473145e-01
3.707554340362548828e-01
2.602325677871704102e-01
-1.399136930704116821e-01
1.544436365365982056e-01
8.885479718446731567e-02
1.940563619136810303e-01
4.146106913685798645e-02
2.138023078441619873e-02
4.541494846343994141e-01
3.326228857040405273e-01
4.863814264535903931e-02
-4.974004253745079041e-02
2.578057944774627686e-01
-1.448723580688238144e-02
1.769427359104156494e-01
6.666906177997589111e-02
3.463892638683319092e-01
2.258591353893280029e-01
-8.504944294691085815e-02
2.754826657474040985e-02
9.300435334444046021e-02
-1.459535658359527588e-01
5.489249899983406067e-02
1.084835305809974670e-01
-8.316417038440704346e-02
-2.186689153313636780e-02
-2.919977298006415367e-03
-2.310839667916297913e-02
-5.273444950580596924e-02
9.042422473430633545e-02
1.731236577033996582e-01
-1.960500031709671021e-01
-2.480626665055751801e-02
8.420739322900772095e-02
1.488750874996185303e-01
2.747525274753570557e-01
2.650752067565917969e-01
7.917006313800811768e-02
2.672111392021179199e-01
-2.271199971437454224e-02
2.356492727994918823e-01
5.851597338914871216e-02
-2.980674244463443756e-02
-7.035575807094573975e-02
7.569078356027603149e-02
2.472272068262100220e-01
2.287824451923370361e-01
-1.696330308914184570e-02
2.439076155424118042e-01
1.277663558721542358e-01
-1.467290222644805908e-01
3.043856024742126465e-01
-1.557943224906921387e-01
1.586719788610935211e-02
-1.695606298744678497e-02
9.452629834413528442e-02
-6.877786666154861450e-02
-9.731943160295486450e-02
1.128225121647119522e-02
2.974192798137664795e-01
-1.861649155616760254e-01
-8.012939989566802979e-02
1.930302828550338745e-01
-2.097225785255432129e-01
7.579234987497329712e-02
1.344409026205539703e-02
-9.625480324029922485e-02
8.198111504316329956e-02
1.112957820296287537e-01
-1.392946243286132812e-01
1.737752556800842285e-01
1.819158047437667847e-01
-6.654594093561172485e-03
-1.295920461416244507e-01
-1.587908864021301270e-01
1.906530410051345825e-01
-1.523731499910354614e-01
-2.077361941337585449e-02
1.237940564751625061e-01
2.536602318286895752e-02
1.612976640462875366e-01
-3.005515336990356445e-01
3.879569843411445618e-02
-1.798241958022117615e-02
3.151646628975868225e-02
2.676269412040710449e-01
7.944113761186599731e-02
6.630636006593704224e-02
8.532411605119705200e-02
1.301415860652923584e-01
-5.041934177279472351e-02
-9.157003834843635559e-03
1.259183138608932495e-01
6.421236693859100342e-02
4.942165687680244446e-03
1.752479374408721924e-01
1.103694066405296326e-01
7.119686901569366455e-02
1.319329440593719482e-01
-1.852464117109775543e-02
8.383443951606750488e-02
3.103673458099365234e-02
2.364432960748672485e-01
2.842882573604583740e-01
-3.432523310184478760e-01
1.142630651593208313e-01
1.939543485641479492e-01
1.096583530306816101e-01
-1.973158419132232666e-01
-1.186207383871078491e-01
-1.184632908552885056e-02
9.624395519495010376e-02
6.481198221445083618e-02
1.036578863859176636e-01
-6.429103016853332520e-02
-1.244014129042625427e-01
1.392145603895187378e-01
-1.000776216387748718e-01
2.401664704084396362e-01
-1.268615126609802246e-01
1.083495244383811951e-01
-7.540009170770645142e-02
1.206224858760833740e-01
1.412916928529739380e-01
-1.042778566479682922e-01
5.756910541094839573e-04
1.146639436483383179e-01
2.478631287813186646e-01
-5.972459167242050171e-02
1.833669841289520264e-01
-2.335967719554901123e-01
8.133506029844284058e-02
1.328840013593435287e-02
1.162030771374702454e-01
5.038536339998245239e-02
-1.316244602203369141e-01
1.435184925794601440e-01
4.269343912601470947e-01
-2.881026454269886017e-02
-6.596530228853225708e-02
2.168544940650463104e-02
7.248210255056619644e-03
2.898682467639446259e-02
1.070249378681182861e-01
-1.134579703211784363e-01
-1.820466853678226471e-02
1.676807254552841187e-01
-1.345425397157669067e-01
-2.468435466289520264e-02
1.032595038414001465e-01
6.814665347337722778e-02
-3.198136761784553528e-02
1.050835251808166504e-01
3.077799081802368164e-02
1.705762147903442383e-01
1.267068237066268921e-01
2.140383273363113403e-01
4.605436231940984726e-03
4.638289511203765869e-01
3.097135759890079498e-02
4.293340146541595459e-01
-9.237456321716308594e-02
7.809759676456451416e-02
3.135129809379577637e-01
-2.182232588529586792e-01
1.169020533561706543e-01
-1.128876805305480957e-01
3.044628500938415527e-01
-1.764172911643981934e-01
8.123588562011718750e-02
5.980640649795532227e-01
-3.450443744659423828e-01
-1.053876876831054688e-01
-5.972903594374656677e-02
1.028824895620346069e-01
-2.550425827503204346e-01
3.282806277275085449e-02
-6.536875665187835693e-02
-2.623226940631866455e-01
1.708249934017658234e-02
4.105200991034507751e-02
-8.447733521461486816e-02
-1.034087687730789185e-02
-4.678156226873397827e-02
-3.754893317818641663e-02
-1.876524277031421661e-02
-1.582857966423034668e-01
9.098429977893829346e-02
4.848638474941253662e-01
3.201815858483314514e-02
-5.556738749146461487e-02
4.359080642461776733e-02
7.595565915107727051e-02
-2.274041622877120972e-01
4.029813110828399658e-01
4.810394346714019775e-02
1.356598734855651855e-01
9.126599133014678955e-02
-2.163623422384262085e-01
1.981783807277679443e-01
4.853025376796722412e-01
2.210386395454406738e-01
2.139955461025238037e-01
2.529694437980651855e-01
6.681594252586364746e-01
-2.142112702131271362e-01
1.057221442461013794e-01
-3.616619482636451721e-02
8.192098885774612427e-02
6.858429312705993652e-02
-2.077092230319976807e-01
1.863301396369934082e-01
1.586227118968963623e-01
-1.688204705715179443e-01
2.057211697101593018e-01
-2.198589444160461426e-01
6.803944706916809082e-02
5.040923878550529480e-02
-3.028403818607330322e-01
6.603786349296569824e-02
2.147708786651492119e-03
-2.733722925186157227e-01
3.892560005187988281e-01
-2.228327989578247070e-01
8.351314812898635864e-02
-7.140383869409561157e-02
-2.759572267532348633e-01
7.870721071958541870e-02
1.945558637380599976e-01
2.695122547447681427e-02
4.594058692455291748e-01
-3.524899482727050781e-02
-2.905412614345550537e-01
-1.613067537546157837e-01
1.091701835393905640e-01
-8.288592100143432617e-02
-2.874974906444549561e-01
1.920086741447448730e-01
-2.390191704034805298e-01
5.098836030811071396e-03
4.839918389916419983e-02
-1.202015131711959839e-01
-3.871993627399206161e-03
9.145774692296981812e-02
1.308120936155319214e-01
-5.159468576312065125e-02
-7.116679102182388306e-02
1.841035932302474976e-01
1.264780312776565552e-01
-1.819906234741210938e-01
2.003046125173568726e-01
1.039946675300598145e-01
-8.132593333721160889e-02
-5.512958392500877380e-02
1.518377959728240967e-01
-1.189436435699462891e+00
-2.260170221328735352e+00
-2.487076997756958008e+00
-2.412248849868774414e+00
-2.216058969497680664e+00
-2.338118553161621094e+00
-1.974465012550354004e+00
-1.607800960540771484e+00
-2.169171810150146484e+00
-1.203346014022827148e+00
-1.745718002319335938e+00
-2.283902645111083984e+00
-2.000630140304565430e+00
-1.924637913703918457e+00
-1.678002834320068359e+00
-2.585787773132324219e+00
-2.506133556365966797e+00
-2.600919485092163086e+00
1.857059597969055176e-01
1.105732917785644531e-01
9.066732972860336304e-02
-4.889520257711410522e-02
-1.472528744488954544e-02
1.459511090070009232e-02
9.833518415689468384e-02
8.160939323715865612e-04
-1.292638778686523438e-01
1.327936202287673950e-01
8.367103338241577148e-02
5.991231650114059448e-02
7.914329320192337036e-02
5.058611556887626648e-02
9.115140885114669800e-02
1.395518630743026733e-01
1.659874022006988525e-01
1.662100404500961304e-01
4.220927953720092773e-01
4.345662146806716919e-02
1.266015227884054184e-02
3.586972057819366455e-01
-4.741769433021545410e-01
1.577235162258148193e-01
1.808584332466125488e-01
-4.109141975641250610e-02
-3.294154405593872070e-01
-1.347645819187164307e-01
1.082298904657363892e-01
1.683890372514724731e-01
2.092854082584381104e-01
-3.152090907096862793e-01
-2.213360667228698730e-01
1.780761182308197021e-01
1.775390841066837311e-02
-1.072224080562591553e-01
1.202116236090660095e-01
1.209257841110229492e-01
1.164142787456512451e-01
-5.458600819110870361e-02
-5.202309787273406982e-02
-1.978425979614257812e-01
6.589226424694061279e-02
1.844248771667480469e-01
-3.133507072925567627e-01
2.854992747306823730e-01
-1.437478065490722656e-01
2.290429174900054932e-02
3.962803259491920471e-02
-3.467828333377838135e-01
8.287197351455688477e-01
1.953965276479721069e-01
3.164589405059814453e-01
-6.657129526138305664e-02
-8.295560628175735474e-02
-1.214314848184585571e-01
2.536411955952644348e-02
4.636467620730400085e-02
2.187242209911346436e-01
2.593227624893188477e-01
7.137301564216613770e-02
9.908789396286010742e-02
1.948005259037017822e-01
2.626941800117492676e-01
2.941976189613342285e-01
2.750011086463928223e-01
-1.664188951253890991e-01
4.015692472457885742e-01
-5.669132471084594727e-01
-2.184976190328598022e-01
-1.391640454530715942e-01
-1.294007152318954468e-01
-1.677156239748001099e-01
-2.263128571212291718e-02
-2.178226262331008911e-01
-1.194360330700874329e-01
3.401161357760429382e-02
-1.447732746601104736e-01
-1.075449734926223755e-01
-8.739059790968894958e-03
-1.968436688184738159e-01
9.470640122890472412e-02
-4.449940472841262817e-02
-2.335483878850936890e-01
7.871154695749282837e-03
-4.388464689254760742e-01
-3.603515923023223877e-01
4.181577861309051514e-01
-1.406517922878265381e-01
-2.223097719252109528e-02
-1.794505566358566284e-01
-2.419062517583370209e-02
-6.769593805074691772e-03
-1.191060543060302734e-01
3.000338375568389893e-02
-2.345385551452636719e-01
2.479601465165615082e-02
7.224085181951522827e-02
-3.954707086086273193e-01
4.537432491779327393e-01
-3.104103803634643555e-01
-2.914384603500366211e-01
1.664828136563301086e-02
-9.480091184377670288e-02
-1.201186329126358032e-01
3.151547536253929138e-02
5.136562511324882507e-02
-1.323014497756958008e-01
3.898463770747184753e-02
6.605820357799530029e-02
-2.612097561359405518e-01
1.548389345407485962e-01
1.894465982913970947e-01
2.920856326818466187e-02
-3.108888566493988037e-01
4.427548348903656006e-01
-2.523721158504486084e-01
-5.051493272185325623e-02
-1.879903823137283325e-01
4.723512381315231323e-02
8.167805075645446777e-01
6.410832405090332031e-01
3.412106931209564209e-01
5.613323450088500977e-01
4.733802676200866699e-01
2.919074594974517822e-01
3.114737570285797119e-01
7.332641631364822388e-02
-6.603044271469116211e-02
-3.622633963823318481e-02
-4.616915881633758545e-01
1.418600529432296753e-01
-2.228593528270721436e-01
2.335459589958190918e-01
5.785359144210815430e-01
3.506194949150085449e-01
-5.562336444854736328e-01
-4.626026451587677002e-01
-2.961305975914001465e-01
7.656425982713699341e-02
-2.353986054658889771e-01
-1.332694590091705322e-01
3.473132103681564331e-02
-1.807568967342376709e-01
-1.889980584383010864e-01
3.765595704317092896e-02
-7.614801824092864990e-02
-2.512241601943969727e-01
-1.554757058620452881e-01
-1.428042259067296982e-02
-1.281604170799255371e-01
-5.010400414466857910e-01
-4.933280348777770996e-01
-1.710444688796997070e-01
-1.824113726615905762e-01
-9.602158516645431519e-02
-1.164072006940841675e-01
-1.518165171146392822e-01
-1.444510072469711304e-01
-1.581976264715194702e-01
-1.968682110309600830e-01
1.736620217561721802e-01
-1.045780628919601440e-01
-2.229055464267730713e-01
6.289117783308029175e-02
-1.942032277584075928e-01
-1.347219198942184448e-01
-1.361005902290344238e-01
-1.381057798862457275e-01
-5.237837433815002441e-01
1.259137243032455444e-01
-6.913178414106369019e-02
-2.603029459714889526e-02
-2.512909471988677979e-02
-5.317219346761703491e-02
4.038285464048385620e-02
4.165470972657203674e-02
6.557276844978332520e-02
-1.070576161146163940e-01
3.826697170734405518e-02
-2.863382920622825623e-02
7.084462046623229980e-02
-4.182037431746721268e-03
-3.289391472935676575e-02
-1.127546951174736023e-01
2.790358364582061768e-01
-1.734824776649475098e-01
-2.963628172874450684e-01
-3.922480642795562744e-01
-2.795939147472381592e-01
-1.909060329198837280e-01
-1.482155323028564453e-01
-6.979905813932418823e-02
-2.055089473724365234e-01
-1.136598587036132812e-01
-1.302038878202438354e-01
-1.028738766908645630e-01
-1.024950295686721802e-01
-3.145000636577606201e-01
-1.081885620951652527e-01
-1.171794012188911438e-01
-4.711850881576538086e-01
-3.361534476280212402e-01
-2.809468805789947510e-01
1.892848312854766846e-01
-1.279187155887484550e-03
-8.913650363683700562e-02
-4.291038960218429565e-03
5.185191705822944641e-02
-1.196844726800918579e-01
-6.894440948963165283e-02
1.739252507686614990e-01
-1.143107339739799500e-01
2.669702470302581787e-01
-4.973580315709114075e-02
1.774105429649353027e-01
-6.102312356233596802e-02
4.018606850877404213e-04
1.105035394430160522e-01
1.313121169805526733e-01
-9.178457260131835938e-01
-7.093688845634460449e-01
-9.026876091957092285e-01
-8.801013231277465820e-01
-1.069282293319702148e+00
-6.603977680206298828e-01
-5.850836038589477539e-01
-4.864877164363861084e-01
-5.772797465324401855e-01
-9.134445190429687500e-01
-5.997014641761779785e-01
-3.998065888881683350e-01
-1.009701043367385864e-01
-7.092770338058471680e-01
-7.739223241806030273e-01
-7.531707882881164551e-01
-1.353208899497985840e+00
-9.219320416450500488e-01
3.297692835330963135e-01
-1.160102412104606628e-01
4.890432953834533691e-01
-5.000958219170570374e-02
-1.384733170270919800e-01
8.003707975149154663e-02
-9.670223295688629150e-02
9.564875066280364990e-02
-1.373280137777328491e-01
3.269962966442108154e-01
3.056116998195648193e-01
3.151374459266662598e-01
-7.780513167381286621e-02
-8.187697827816009521e-02
3.199170231819152832e-01
-1.702540367841720581e-01
1.100795939564704895e-01
-4.978703800588846207e-03
-6.158458068966865540e-02
-7.707498501986265182e-03
-6.572265177965164185e-02
5.604528635740280151e-02
-1.369868963956832886e-02
1.942956261336803436e-02
-2.200104594230651855e-01
8.200050890445709229e-02
-4.469705373048782349e-02
1.304136663675308228e-01
-1.219649463891983032e-01
4.877771809697151184e-02
8.005707710981369019e-02
6.399388611316680908e-02
1.597472727298736572e-01
-4.632796943187713623e-01
8.691411465406417847e-02
6.309931725263595581e-02
-4.447085037827491760e-02
1.088586449623107910e-02
1.750735491514205933e-01
-9.849131107330322266e-03
-1.246353238821029663e-01
1.216780394315719604e-01
3.904899582266807556e-02
-1.183132007718086243e-01
5.078388005495071411e-02
1.380847543478012085e-01
-5.412656441330909729e-02
-2.010281085968017578e-01
2.477158606052398682e-01
2.569370530545711517e-02
2.746933102607727051e-01
6.197031959891319275e-02
-2.323237806558609009e-02
-4.169491305947303772e-02
5.189494788646697998e-02
-3.289280086755752563e-02
4.110476747155189514e-02
-9.024207293987274170e-02
1.050359234213829041e-01
-1.647915318608283997e-02
-8.108478505164384842e-04
1.079492941498756409e-01
-1.660775095224380493e-01
1.799174547195434570e-01
-9.226884692907333374e-02
-3.019815124571323395e-02
1.250780373811721802e-01
2.934260293841362000e-02
-3.122570514678955078e-01
2.289279550313949585e-01
-1.041095703840255737e-01
-3.227264061570167542e-02
1.051456555724143982e-01
-5.355495586991310120e-02
1.048200204968452454e-01
-1.922092586755752563e-01
2.369716763496398926e-01
-1.210137531161308289e-01
2.168475091457366943e-01
-2.077878415584564209e-01
5.324630066752433777e-02
-3.215796947479248047e-01
4.572515487670898438e-01
-1.721781045198440552e-01
1.795419901609420776e-01
-8.028108626604080200e-02
8.740877360105514526e-02
-1.310127973556518555e-01
1.077105626463890076e-01
-2.238930761814117432e-01
1.868587732315063477e-01
1.672042757272720337e-01
-1.815524846315383911e-01
-1.695139519870281219e-02
1.424630172550678253e-02
-3.978469595313072205e-02
2.035188972949981689e-01
-7.514415681362152100e-02
-1.276191323995590210e-01
8.757933974266052246e-02
4.176059365272521973e-02
-1.377338916063308716e-01
-1.108122542500495911e-01
8.394274860620498657e-02
-2.645658552646636963e-01
3.063803315162658691e-01
-1.659688912332057953e-02
-2.832384780049324036e-02
-2.023462057113647461e-01
6.175184249877929688e-02
3.125179558992385864e-02
2.296937406063079834e-01
-2.495348453521728516e-01
2.942903712391853333e-02
-4.951117932796478271e-02
-7.953062653541564941e-02
-7.998522371053695679e-02
-4.507006332278251648e-02
3.482980728149414062e-01
2.537045478820800781e-01
1.768204718828201294e-01
1.730539053678512573e-01
1.655051708221435547e-01
5.777516961097717285e-02
7.765402644872665405e-02
1.566498279571533203e-01
7.941386848688125610e-02
-1.526601612567901611e-01
1.314017772674560547e-01
9.697729349136352539e-02
1.597521454095840454e-01
2.446883767843246460e-01
-4.724669456481933594e-02
3.196830153465270996e-01
9.042624384164810181e-02
2.208001464605331421e-01
-3.635045588016510010e-01
-8.291744627058506012e-03
1.405347585678100586e-01
2.011389099061489105e-02
-2.954183146357536316e-02
1.042207330465316772e-01
-1.730824112892150879e-01
2.296566776931285858e-02
1.225708723068237305e-01
-3.474767506122589111e-01
4.131138920783996582e-01
-1.951232254505157471e-01
-1.689486950635910034e-01
1.713091582059860229e-01
-1.299993544816970825e-01
2.060558199882507324e-01
-2.092557959258556366e-03
2.049307227134704590e-01
-7.529664784669876099e-02
-8.791135996580123901e-02
-1.070759594440460205e-01
6.434539705514907837e-02
-2.854987382888793945e-01
-5.849402770400047302e-02
2.642031013965606689e-02
-8.368604630231857300e-02
-1.095413789153099060e-01
-1.728456467390060425e-02
-2.219666838645935059e-01
-6.030652299523353577e-02
-1.190653815865516663e-01
-6.328380852937698364e-02
-1.339331418275833130e-01
-1.187803000211715698e-01
-8.207690715789794922e-02
-1.117216125130653381e-01
-5.042587965726852417e-02
-2.020309306681156158e-02
-1.182085573673248291e-01
4.113194346427917480e-02
-1.140759736299514771e-01
-1.847006231546401978e-01
1.483834832906723022e-01
-1.647394299507141113e-01
6.127661839127540588e-02
8.370005339384078979e-02
-2.268109619617462158e-01
-8.318804949522018433e-02
-2.086124122142791748e-01
-4.141457378864288330e-01
-1.400106847286224365e-01
5.207770317792892456e-02
3.260084092617034912e-01
4.635181128978729248e-01
1.015224605798721313e-01
1.501734554767608643e-01
8.249107003211975098e-02
2.085891664028167725e-01
3.357651233673095703e-01
5.946476384997367859e-02
1.052051633596420288e-01
2.237376198172569275e-02
1.772418767213821411e-01
4.367370605468750000e-01
-9.922911226749420166e-02
5.072789192199707031e-01
1.380774974822998047e-01
2.808422744274139404e-01
2.199231982231140137e-01
6.883127093315124512e-01
2.329984903335571289e-01
4.676331877708435059e-01
1.155234500765800476e-02
2.862801253795623779e-01
1.867458671331405640e-01
3.568030893802642822e-02
3.238570094108581543e-01
-9.661427885293960571e-02
-3.212768733501434326e-01
2.237394899129867554e-01
-1.110152378678321838e-01
7.306987792253494263e-02
-2.904628813266754150e-01
2.579014599323272705e-01
-3.446944057941436768e-01
5.383402109146118164e-02
7.732544839382171631e-02
1.612351238727569580e-01
5.643218010663986206e-02
-8.838116377592086792e-02
-5.309630930423736572e-02
8.509987592697143555e-02
-4.064109548926353455e-02
-6.486829370260238647e-02
-5.611277744174003601e-02
8.681178838014602661e-02
7.835292071104049683e-02
-1.586082577705383301e-01
3.122454881668090820e-02
-3.643147880211472511e-03
4.226688295602798462e-02
2.293761670589447021e-01
-2.975293993949890137e-01
-2.333984673023223877e-01
-1.797377467155456543e-01
-5.853674560785293579e-02
1.367220375686883926e-02
-6.480342149734497070e-02
-7.099939137697219849e-02
7.658886164426803589e-02
-1.447090804576873779e-01
4.765721783041954041e-02
-3.425337374210357666e-02
-5.398733913898468018e-02
-1.542847454547882080e-01
1.332183033227920532e-01
-5.539464205503463745e-02
-2.666203677654266357e-01
-4.959368333220481873e-02
-2.823520600795745850e-01
-9.779946878552436829e-03
8.402408100664615631e-03
-4.160233587026596069e-02
3.250544518232345581e-02
1.943453699350357056e-01
-1.671675145626068115e-01
-1.933652535080909729e-02
-2.562032546848058701e-03
-2.984357066452503204e-02
-6.048163771629333496e-02
-9.758788347244262695e-02
6.591666489839553833e-02
2.460575103759765625e-02
2.179796248674392700e-02
4.517615772783756256e-03
-7.753971964120864868e-03
1.002089232206344604e-01
2.151032388210296631e-01
-8.431460708379745483e-02
1.499986648559570312e-01
3.120886087417602539e-01
4.194231703877449036e-02
9.442600607872009277e-02
2.450851947069168091e-01
5.696495249867439270e-02
-1.706171631813049316e-01
3.251268714666366577e-02
7.037454098463058472e-02
-3.046051971614360809e-02
9.445227682590484619e-02
1.981752552092075348e-02
5.141693726181983948e-02
7.313806563615798950e-02
-7.942328602075576782e-02
1.714261062443256378e-02
-8.140950649976730347e-02
5.022780969738960266e-02
-8.254852890968322754e-02
4.760711640119552612e-02
-7.396881282329559326e-02
2.701554596424102783e-01
4.952297732234001160e-02
4.033017437905073166e-03
-6.226691976189613342e-02
1.810363382101058960e-01
-1.672044098377227783e-01
8.610297925770282745e-03
2.612006068229675293e-01
-4.261232540011405945e-02
1.957768052816390991e-01
1.275417655706405640e-01
4.761051237583160400e-01
4.909701272845268250e-02
6.952515244483947754e-02
4.182276725769042969e-01
3.753129243850708008e-01
6.118360906839370728e-02
3.808057308197021484e-01
2.077406458556652069e-02
-9.344249963760375977e-03
1.605353802442550659e-01
-2.461044639348983765e-01
1.080451980233192444e-01
-2.210029512643814087e-01
2.825913429260253906e-01
-1.953103542327880859e-01
-5.541260838508605957e-01
-9.267378598451614380e-03
4.115147888660430908e-02
-3.081583417952060699e-02
2.204846963286399841e-02
-1.348799616098403931e-01
-6.062823161482810974e-02
-2.480334788560867310e-02
1.547493487596511841e-01
2.931860089302062988e-02
-6.326623260974884033e-02
-2.017510309815406799e-02
-9.680381417274475098e-02
1.005104705691337585e-01
9.337875992059707642e-02
-6.643602252006530762e-02
-1.323185302317142487e-02
-5.448778159916400909e-03
-1.874623447656631470e-01
-5.834531621076166630e-04
-1.276674419641494751e-01
-2.319857478141784668e-03
3.367584571242332458e-02
1.387913227081298828e-01
1.237243786454200745e-01
-1.402903497219085693e-01
-1.934873498976230621e-02
1.676964759826660156e-01
6.021318491548299789e-03
-1.151829063892364502e-01
-5.679688882082700729e-03
-6.566264480352401733e-02
-8.517968654632568359e-02
-7.693848013877868652e-02
-2.750886380672454834e-01
2.918105423450469971e-01
-1.291426867246627808e-01
-1.152690351009368896e-01
-2.057329751551151276e-02
-1.383536309003829956e-01
6.594299525022506714e-02
4.738562926650047302e-02
9.380146116018295288e-02
-6.532805506139993668e-03
-1.657121330499649048e-01
-1.215261295437812805e-01
-1.509809587150812149e-02
2.400686144828796387e-01
-1.581486165523529053e-01
1.822878792881965637e-02
-1.962150335311889648e-01
8.042880892753601074e-02
1.408259421586990356e-01
-1.002851501107215881e-01
-9.584230929613113403e-02
-5.133186280727386475e-02
9.936283528804779053e-02
4.164794087409973145e-01
-2.322745770215988159e-01
3.207459300756454468e-02
-1.290650218725204468e-01
1.805315166711807251e-01
-8.159433305263519287e-02
1.073213964700698853e-01
3.415839001536369324e-02
6.604900211095809937e-02
-1.584624052047729492e-01
2.856001555919647217e-01
-4.196247160434722900e-01
-2.014969438314437866e-01
-6.765658408403396606e-02
-2.187190810218453407e-03
-2.623648382723331451e-02
1.469364296644926071e-02
-2.548277936875820160e-02
-3.874284401535987854e-02
-5.854738503694534302e-02
-9.965798258781433105e-02
-1.396618038415908813e-01
-5.785321816802024841e-02
-9.448117762804031372e-02
-9.111167490482330322e-02
-4.737238213419914246e-02
2.483755536377429962e-02
-4.654013365507125854e-02
-2.232050597667694092e-01
5.545001029968261719e-01
6.431296467781066895e-02
1.795964241027832031e-01
-4.478137940168380737e-03
1.484895199537277222e-01
9.865445643663406372e-02
-1.138200089335441589e-01
-2.839694265276193619e-03
-1.771778911352157593e-01
3.363001346588134766e-02
1.541630178689956665e-01
-6.392443180084228516e-02
2.971598878502845764e-03
3.239811062812805176e-01
2.914166450500488281e-02
1.080478876829147339e-01
2.561884522438049316e-01
8.297605812549591064e-02
1.776125878095626831e-01
2.149158567190170288e-01
7.558513432741165161e-02
4.577421844005584717e-01
4.538577795028686523e-02
3.516098856925964355e-01
7.848395034670829773e-03
-2.206340879201889038e-01
1.890253573656082153e-01
2.589875645935535431e-02
6.083239316940307617e-01
-3.527203798294067383e-01
1.602809280157089233e-01
-4.282939061522483826e-02
2.271535992622375488e-01
2.819562330842018127e-02
-5.159060955047607422e-01
-1.107609197497367859e-01
-1.846990287303924561e-01
9.839498251676559448e-02
-1.947050914168357849e-02
-5.700369924306869507e-02
-6.374435871839523315e-02
1.067082434892654419e-01
-2.155815958976745605e-01
-1.013143509626388550e-01
2.864823639392852783e-01
-2.008922994136810303e-01
-4.354760348796844482e-01
-3.877607882022857666e-01
1.018879041075706482e-01
-8.550796657800674438e-02
-4.222775697708129883e-01
-1.420625150203704834e-01
3.735510408878326416e-01
-3.271172940731048584e-01
-1.233158539980649948e-02
1.016056612133979797e-01
2.433536350727081299e-01
-2.764548659324645996e-01
-5.223027616739273071e-02
6.491294503211975098e-02
4.855877161026000977e-02
1.371653974056243896e-01
-1.728991717100143433e-01
2.395324558019638062e-01
-1.823796629905700684e-01
-3.858607029542326927e-03
1.922359019517898560e-01
-4.275352954864501953e-01
1.263592764735221863e-02
-3.488952666521072388e-02
-7.569529116153717041e-02
-2.024288028478622437e-01
-6.047800555825233459e-02
-1.845598667860031128e-01
3.414433449506759644e-02
1.962701082229614258e-01
-2.622183561325073242e-01
1.116321980953216553e-01
-9.894047677516937256e-02
7.787658274173736572e-02
-1.107581891119480133e-02
-1.077395305037498474e-01
2.342908829450607300e-01
-1.036032214760780334e-01
-3.426768183708190918e-01
-3.087713122367858887e-01
-3.884266614913940430e-01
-1.929560303688049316e-01
-1.514196693897247314e-01
-2.367093712091445923e-01
-2.205384224653244019e-01
-1.738770008087158203e-01
-2.575987875461578369e-01
-1.310474574565887451e-01
-1.282248198986053467e-01
1.036177296191453934e-02
-1.337211430072784424e-01
-1.640921086072921753e-01
-4.812571778893470764e-02
-5.402851700782775879e-01
-4.809393286705017090e-01
-5.378339290618896484e-01
-3.712375834584236145e-02
1.799826025962829590e-01
-3.714166581630706787e-01
6.892033666372299194e-02
8.995074033737182617e-02
-3.269897103309631348e-01
5.908304825425148010e-02
-5.682291835546493530e-02
5.631081759929656982e-03
4.482278972864151001e-02
-7.459195703268051147e-02
-8.986998349428176880e-02
-5.787154287099838257e-02
-3.186295926570892334e-01
7.814379036426544189e-02
3.271079361438751221e-01
-8.061317205429077148e-01
-4.106363356113433838e-01
-2.618730664253234863e-01
-1.165586709976196289e-01
-1.335507482290267944e-01
2.980905026197433472e-02
-1.197472289204597473e-01
-1.049625799059867859e-01
1.444777846336364746e-02
6.716457009315490723e-02
-4.103010892868041992e-02
-2.843073010444641113e-01
-8.112076669931411743e-02
1.046786159276962280e-01
-2.479960322380065918e-01
1.140161752700805664e-01
-9.811976552009582520e-02
-3.243237733840942383e-01
-2.321498841047286987e-02
-1.495960056781768799e-01
-2.483202517032623291e-01
8.241428434848785400e-02
-8.287417143583297729e-02
-4.056608676910400391e-02
-4.240609332919120789e-02
3.976540267467498779e-02
1.190350279211997986e-01
-1.219200640916824341e-01
2.777214907109737396e-02
-3.907094895839691162e-02
-3.485156595706939697e-02
-5.615676566958427429e-02
7.532628625631332397e-02
-1.398315280675888062e-01
9.354167431592941284e-02
1.148904785513877869e-01
1.247908473014831543e-01
-7.809744030237197876e-02
2.337400615215301514e-01
8.390945196151733398e-02
1.948534995317459106e-01
-1.081097591668367386e-02
-3.759584203362464905e-02
6.341468542814254761e-02
-6.714538484811782837e-02
-9.108590334653854370e-02
3.163346946239471436e-01
1.713009923696517944e-01
1.652145944535732269e-02
3.189236521720886230e-01
7.498707175254821777e-01
4.050540328025817871e-01
2.676367461681365967e-01
-1.254740059375762939e-01
1.434358507394790649e-01
1.302150785923004150e-01
1.937019079923629761e-01
8.237441629171371460e-02
3.193306177854537964e-02
4.511444568634033203e-01
3.336672186851501465e-01
7.067804038524627686e-02
-6.300476938486099243e-02
2.386877834796905518e-01
-5.619932711124420166e-02
1.770830154418945312e-01
4.419552162289619446e-02
3.605361878871917725e-01
2.020356804132461548e-01
-1.048862040042877197e-01
-7.329853251576423645e-03
1.065358221530914307e-01
-1.248432993888854980e-01
3.063996136188507080e-02
7.132495939731597900e-02
-4.683764278888702393e-02
-2.370300143957138062e-02
5.351178720593452454e-02
-1.999148912727832794e-02
-7.278730720281600952e-02
1.247703284025192261e-01
2.062284350395202637e-01
-1.595069617033004761e-01
-3.530306369066238403e-02
3.250338137149810791e-02
1.604503989219665527e-01
2.899175882339477539e-01
2.659056484699249268e-01
8.056285232305526733e-02
2.786774039268493652e-01
-7.593329995870590210e-02
1.865824162960052490e-01
3.892507031559944153e-02
-5.132482945919036865e-02
-1.194588392972946167e-01
9.687178581953048706e-02
2.516060173511505127e-01
2.245471924543380737e-01
-4.784197360277175903e-02
2.218995541334152222e-01
1.238501593470573425e-01
-1.145365536212921143e-01
2.736203670501708984e-01
-1.329502910375595093e-01
1.289151050150394440e-02
-5.169522762298583984e-02
9.123148769140243530e-02
-5.349421873688697815e-02
-7.783219218254089355e-02
2.671501785516738892e-02
2.787978351116180420e-01
-1.642346829175949097e-01
-5.709985271096229553e-02
1.630096584558486938e-01
-2.231638282537460327e-01
1.029394194483757019e-01
4.465483129024505615e-02
-1.437148898839950562e-01
3.429104760289192200e-02
1.138411387801170349e-01
-1.277871131896972656e-01
1.774176806211471558e-01
1.632175594568252563e-01
-4.126437008380889893e-02
-1.172062009572982788e-01
-1.441563665866851807e-01
1.822533160448074341e-01
-1.356047987937927246e-01
-1.303251250647008419e-03
1.013844236731529236e-01
5.473749339580535889e-02
1.172564327716827393e-01
-3.266138136386871338e-01
3.390312567353248596e-02
-4.445006139576435089e-03
5.285009276121854782e-03
2.396984994411468506e-01
8.359472453594207764e-02
9.964288026094436646e-02
6.727577745914459229e-02
1.714877933263778687e-01
-9.139747172594070435e-02
-3.180151060223579407e-02
1.123890653252601624e-01
3.135040774941444397e-02
9.993343614041805267e-03
1.742454916238784790e-01
1.183772012591362000e-01
1.100904867053031921e-01
1.232169419527053833e-01
-3.603510931134223938e-02
9.109146893024444580e-02
6.031825765967369080e-02
1.763476431369781494e-01
2.802191078662872314e-01
-3.848693966865539551e-01
1.111323833465576172e-01
2.226419150829315186e-01
1.227492466568946838e-01
-1.685391217470169067e-01
-8.753455430269241333e-02
1.708171516656875610e-02
7.353396713733673096e-02
7.590977847576141357e-02
1.096729636192321777e-01
-5.504146590828895569e-02
-1.175684034824371338e-01
1.372648179531097412e-01
-7.715628296136856079e-02
2.032945752143859863e-01
-1.143811568617820740e-01
1.021226420998573303e-01
-8.586238324642181396e-02
1.098039150238037109e-01
1.538705378770828247e-01
-8.783391863107681274e-02
2.503993548452854156e-02
9.077827632427215576e-02
2.754234075546264648e-01
-4.344039782881736755e-02
1.680221408605575562e-01
-2.502256035804748535e-01
3.108161874115467072e-02
1.875821501016616821e-02
1.181128248572349548e-01
2.287581330165266991e-03
-1.501809358596801758e-01
1.479734778404235840e-01
4.284302890300750732e-01
-5.204907059669494629e-02
-1.151562407612800598e-01
3.019307041540741920e-04
2.847005054354667664e-02
5.014549940824508667e-03
1.111965551972389221e-01
-1.115086153149604797e-01
-5.108762905001640320e-02
1.191136166453361511e-01
-8.385450392961502075e-02
-1.756655611097812653e-02
7.308632135391235352e-02
1.049193665385246277e-01
1.166898570954799652e-02
7.605973631143569946e-02
3.067356161773204803e-02
1.653931438922882080e-01
1.017526537179946899e-01
2.500286698341369629e-01
-4.955209791660308838e-03
4.732755720615386963e-01
-2.488618250936269760e-03
3.907605111598968506e-01
-1.323922425508499146e-01
7.539428025484085083e-02
2.889083623886108398e-01
-2.011483460664749146e-01
7.196583598852157593e-02
-1.190638542175292969e-01
2.618495523929595947e-01
-1.701171100139617920e-01
4.164110869169235229e-02
5.235489010810852051e-01
-3.046720623970031738e-01
-1.124146506190299988e-01
-4.864782467484474182e-02
1.031394749879837036e-01
-2.070072144269943237e-01
1.423544995486736298e-02
-4.786846786737442017e-02
-2.833498716354370117e-01
4.155076667666435242e-02
2.766188047826290131e-02
-5.209307372570037842e-02
1.873940229415893555e-02
-2.583708800375461578e-02
-6.873180717229843140e-02
2.414133027195930481e-02
-1.537225693464279175e-01
8.527964353561401367e-02
4.294373989105224609e-01
-3.508079797029495239e-03
-7.569161802530288696e-02
3.283772245049476624e-02
5.505818128585815430e-02
-2.450019419193267822e-01
3.810972571372985840e-01
5.320182442665100098e-02
1.673481464385986328e-01
9.364651143550872803e-02
-2.187166064977645874e-01
1.476038992404937744e-01
4.429092705249786377e-01
2.123885899782180786e-01
1.824066191911697388e-01
2.867579460144042969e-01
6.277455687522888184e-01
-2.146010845899581909e-01
9.032569825649261475e-02
-2.820672094821929932e-02
9.497389197349548340e-02
9.128637611865997314e-02
-1.842446774244308472e-01
1.843268722295761108e-01
1.686379611492156982e-01
-1.738253980875015259e-01
2.311185151338577271e-01
-2.058338969945907593e-01
1.100919693708419800e-01
2.549932338297367096e-02
-3.181298077106475830e-01
4.753308370709419250e-02
1.416012737900018692e-02
-2.603678405284881592e-01
3.905870914459228516e-01
-2.147785127162933350e-01
6.956099718809127808e-02
-7.283065468072891235e-02
-2.978841066360473633e-01
8.115462213754653931e-02
1.779777854681015015e-01
-1.553124655038118362e-02
4.485808908939361572e-01
9.250358678400516510e-03
-2.542582154273986816e-01
-1.701753139495849609e-01
1.603691875934600830e-01
-7.528407126665115356e-02
-2.769846022129058838e-01
1.834595799446105957e-01
-2.625392973423004150e-01
-4.956815391778945923e-02
-2.615249902009963989e-02
1.229621246457099915e-01
-3.012668527662754059e-02
-8.904090523719787598e-02
-1.404730230569839478e-01
5.225510895252227783e-02
7.897247374057769775e-02
-1.616372913122177124e-01
-9.632621705532073975e-02
1.855547428131103516e-01
-2.020429670810699463e-01
-1.087962463498115540e-01
5.312296375632286072e-02
4.317596554756164551e-02
-1.190546527504920959e-01
1.230499029159545898e+00
2.279894351959228516e+00
2.480915307998657227e+00
2.430495023727416992e+00
2.189718008041381836e+00
2.359657764434814453e+00
1.992724299430847168e+00
1.655465483665466309e+00
2.211816787719726562e+00
1.167113184928894043e+00
1.709766030311584473e+00
2.322731018066406250e+00
2.029072999954223633e+00
1.913987874984741211e+00
1.678053736686706543e+00
2.613866329193115234e+00
2.496766328811645508e+00
2.575329780578613281e+00
-1.619912385940551758e-01
-1.057514026761054993e-01
-8.751349896192550659e-02
3.787396941334009171e-03
2.011601626873016357e-02
-5.463186651468276978e-02
-8.384217321872711182e-02
-1.806057244539260864e-02
1.246404722332954407e-01
-1.655611693859100342e-01
-7.447041571140289307e-02
-4.247271642088890076e-02
-7.805234193801879883e-02
-7.624589651823043823e-02
-8.289348334074020386e-02
-1.619134694337844849e-01
-1.806865930557250977e-01
-1.539976447820663452e-01
-4.666607081890106201e-01
-2.449608640745282173e-03
-1.633573882281780243e-02
-3.700591921806335449e-01
4.928791224956512451e-01
-1.160538792610168457e-01
-2.202817499637603760e-01
3.277049586176872253e-02
3.245379924774169922e-01
1.342016905546188354e-01
-6.144726648926734924e-02
-1.850806176662445068e-01
-1.825834810733795166e-01
3.426924049854278564e-01
2.326433509588241577e-01
-1.862996816635131836e-01
-1.758007705211639404e-02
1.192676350474357605e-01
-1.267137229442596436e-01
-1.052136421203613281e-01
-1.130629703402519226e-01
6.750920414924621582e-02
5.042972415685653687e-02
1.924862116575241089e-01
-3.271753713488578796e-02
-1.968929916620254517e-01
2.867488861083984375e-01
-3.042192757129669189e-01
1.870231330394744873e-01
-4.210447892546653748e-02
-7.688183337450027466e-02
3.546467721462249756e-01
-8.291632533073425293e-01
-2.352179139852523804e-01
-2.800836265087127686e-01
3.226057067513465881e-02
8.778210729360580444e-02
1.011368781328201294e-01
-5.670533701777458191e-02
-3.469477221369743347e-02
-2.335077077150344849e-01
-2.748241424560546875e-01
-6.512335687875747681e-02
-1.361455619335174561e-01
-2.113604396581649780e-01
-2.248141765594482422e-01
-2.771280705928802490e-01
-3.011716008186340332e-01
1.171567142009735107e-01
-4.309331476688385010e-01
5.623152852058410645e-01
2.009377330541610718e-01
1.757807582616806030e-01
1.525280475616455078e-01
1.842139214277267456e-01
1.347630470991134644e-02
2.596396803855895996e-01
1.173700615763664246e-01
-3.966886550188064575e-02
1.539374142885208130e-01
1.285816133022308350e-01
2.891361340880393982e-02
1.528548300266265869e-01
-6.625703722238540649e-02
5.470211803913116455e-02
2.181017249822616577e-01
-6.765123922377824783e-03
4.267831444740295410e-01
3.455306589603424072e-01
-4.185303151607513428e-01
1.281850785017013550e-01
2.514454349875450134e-02
2.273440957069396973e-01
-7.045123260468244553e-03
-1.311400812119245529e-02
1.407392621040344238e-01
-4.738096147775650024e-02
2.466577142477035522e-01
-4.225803166627883911e-02
-1.112847551703453064e-01
3.950133025646209717e-01
-4.303214251995086670e-01
2.917226552963256836e-01
3.347873091697692871e-01
-8.441650308668613434e-03
5.204582586884498596e-02
1.273523718118667603e-01
-4.762933403253555298e-02
-6.158231571316719055e-02
1.651992499828338623e-01
-5.739383399486541748e-02
-6.147572025656700134e-02
2.239320576190948486e-01
-1.248317956924438477e-01
-1.617673039436340332e-01
1.842098496854305267e-02
3.486767709255218506e-01
-4.210068583488464355e-01
2.463718354701995850e-01
8.264453709125518799e-02
1.967560052871704102e-01
-5.059398710727691650e-02
-8.636610507965087891e-01
-6.537732481956481934e-01
-3.822944760322570801e-01
-5.901323556900024414e-01
-4.853304028511047363e-01
-3.338365852832794189e-01
-3.179031908512115479e-01
-8.891301602125167847e-02
6.379637122154235840e-02
2.967962250113487244e-02
4.810704588890075684e-01
-1.406971961259841919e-01
2.304337322711944580e-01
-2.359962165355682373e-01
-5.443511009216308594e-01
-3.340569436550140381e-01
5.479435920715332031e-01
5.070978999137878418e-01
3.007916808128356934e-01
-8.211499452590942383e-02
2.080221027135848999e-01
1.251813322305679321e-01
-5.117910727858543396e-02
1.858202815055847168e-01
1.641110628843307495e-01
-7.077442947775125504e-03
1.147725209593772888e-01
2.623484134674072266e-01
1.515744477510452271e-01
2.142457664012908936e-02
1.025823876261711121e-01
4.791056811809539795e-01
4.841348528861999512e-01
1.973856240510940552e-01
1.954902857542037964e-01
7.852706313133239746e-02
1.171160414814949036e-01
1.813843548297882080e-01
1.485728770494461060e-01
1.219199299812316895e-01
2.293746918439865112e-01
-1.897036284208297729e-01
8.205299824476242065e-02
2.278287261724472046e-01
-9.553828835487365723e-02
1.699237674474716187e-01
8.208012580871582031e-02
1.453326344490051270e-01
1.750544756650924683e-01
5.365771055221557617e-01
-1.253857910633087158e-01
7.327375560998916626e-02
1.175932193291373551e-04
1.933043077588081360e-02
5.920273065567016602e-02
-5.079443380236625671e-02
-4.690716043114662170e-02
-6.832917779684066772e-02
1.158516779541969299e-01
-2.310379222035408020e-02
1.425842847675085068e-02
-6.569950282573699951e-02
-1.162522658705711365e-02
3.809631988406181335e-02
8.366213738918304443e-02
-2.572750151157379150e-01
1.688571572303771973e-01
3.027923405170440674e-01
4.018398523330688477e-01
2.530918121337890625e-01
1.939088851213455200e-01
1.828832179307937622e-01
9.956914186477661133e-02
2.110916674137115479e-01
8.230375498533248901e-02
1.278856247663497925e-01
1.299972832202911377e-01
8.832991123199462891e-02
3.173707425594329834e-01
1.339371204376220703e-01
1.563201248645782471e-01
4.793277680873870850e-01
3.379267454147338867e-01
2.427309006452560425e-01
-1.829608827829360962e-01
2.595161832869052887e-02
8.505692332983016968e-02
2.015892975032329559e-02
-4.940332099795341492e-02
1.156078204512596130e-01
1.050485149025917053e-01
-1.818996220827102661e-01
1.141987591981887817e-01
-2.593056261539459229e-01
3.172375634312629700e-02
-1.853658854961395264e-01
8.052320033311843872e-02
4.028766974806785583e-02
-1.575422734022140503e-01
-9.481805562973022461e-02
8.852187991142272949e-01
7.054846286773681641e-01
8.694969415664672852e-01
9.092261791229248047e-01
1.034077525138854980e+00
7.095550894737243652e-01
6.286340355873107910e-01
4.635697305202484131e-01
5.871428251266479492e-01
9.144853353500366211e-01
6.279785633087158203e-01
4.271273016929626465e-01
1.032395735383033752e-01
7.069234848022460938e-01
7.701614499092102051e-01
7.578386664390563965e-01
1.378510832786560059e+00
9.324359893798828125e-01
-3.107779622077941895e-01
1.328701376914978027e-01
-5.116029977798461914e-01
6.019563972949981689e-02
1.032233759760856628e-01
-5.908787623047828674e-02
6.957047432661056519e-02
-1.107810214161872864e-01
1.240108907222747803e-01
-2.787506878376007080e-01
-3.086055815219879150e-01
-3.334178924560546875e-01
4.468702897429466248e-02
1.145490035414695740e-01
-3.360459208488464355e-01
1.636228859424591064e-01
-1.014369800686836243e-01
-2.015754953026771545e-02
5.229216441512107849e-02
-7.705266121774911880e-03
6.423778831958770752e-02
-7.390917092561721802e-02
6.568183656781911850e-03
-5.523781478404998779e-02
1.660073697566986084e-01
-1.067508012056350708e-01
5.384777113795280457e-02
-1.545268595218658447e-01
1.149570271372795105e-01
-2.558524534106254578e-02
-1.338436007499694824e-01
-6.275483965873718262e-02
-1.684185415506362915e-01
4.799779951572418213e-01
-9.989064931869506836e-02
-6.027643010020256042e-02
-1.344539108686149120e-03
-2.448919788002967834e-02
-1.660855412483215332e-01
-7.645775098353624344e-03
1.047818064689636230e-01
-1.199893578886985779e-01
-2.028860524296760559e-02
9.254310280084609985e-02
-1.272040535695850849e-04
-1.677873283624649048e-01
9.843025356531143188e-02
2.389703392982482910e-01
-2.457503229379653931e-01
-2.957474207505583763e-03
-2.942920029163360596e-01
-5.187223479151725769e-02
2.344876900315284729e-02
4.347462952136993408e-02
-6.364059448242187500e-02
7.432378828525543213e-02
-2.880751714110374451e-02
1.040419712662696838e-01
-9.017237275838851929e-02
2.574826218187808990e-02
-1.972246536752209067e-04
-1.085712462663650513e-01
2.179954200983047485e-01
-1.419022828340530396e-01
7.049333304166793823e-02
2.985555119812488556e-02
-1.298670023679733276e-01
-4.854604974389076233e-02
3.054288327693939209e-01
-2.360381484031677246e-01
1.024385169148445129e-01
5.855540931224822998e-02
-8.634879440069198608e-02
7.559064030647277832e-02
-9.140999615192413330e-02
1.577098071575164795e-01
-2.213938981294631958e-01
1.306689828634262085e-01
-2.152332067489624023e-01
2.189135849475860596e-01
-1.833385042846202850e-02
2.836992740631103516e-01
-4.602843523025512695e-01
2.159343361854553223e-01
-2.019851654767990112e-01
5.159223824739456177e-02
-9.551948308944702148e-02
1.001162379980087280e-01
-1.488554477691650391e-01
1.908612698316574097e-01
-2.012358158826828003e-01
-1.313921362161636353e-01
1.849997639656066895e-01
2.345208823680877686e-02
-3.959618136286735535e-02
-7.766487542539834976e-04
-1.732665449380874634e-01
3.958437591791152954e-02
9.158577769994735718e-02
-8.070793002843856812e-02
-4.936035722494125366e-02
1.505773067474365234e-01
1.206501945853233337e-01
-4.327406734228134155e-02
2.209944128990173340e-01
-2.688604593276977539e-01
-2.768663922324776649e-03
-1.183741074055433273e-02
1.966873109340667725e-01
-1.178705245256423950e-01
1.363720861263573170e-03
-2.276668548583984375e-01
2.119611054658889771e-01
-1.300658471882343292e-02
7.589588314294815063e-02
4.400974139571189880e-02
8.971967548131942749e-02
2.439237432554364204e-03
-3.891936242580413818e-01
-2.436561435461044312e-01
-1.538718044757843018e-01
-1.543645858764648438e-01
-1.388270407915115356e-01
-4.740685224533081055e-02
-4.331552982330322266e-02
-1.562623232603073120e-01
-8.427246659994125366e-02
1.652257740497589111e-01
-1.452971547842025757e-01
-8.288733661174774170e-02
-1.709367781877517700e-01
-2.237139642238616943e-01
6.485423445701599121e-02
-2.723565399646759033e-01
-9.841182082891464233e-02
-2.334889471530914307e-01
3.836440443992614746e-01
2.101182471960783005e-03
-1.421194374561309814e-01
-6.052046082913875580e-03
-9.653808549046516418e-03
-1.105990633368492126e-01
1.508572846651077271e-01
-2.286843955516815186e-02
-1.071642190217971802e-01
3.146668076515197754e-01
-4.570927321910858154e-01
1.654824316501617432e-01
1.902507394552230835e-01
-1.690013557672500610e-01
1.323640793561935425e-01
-1.996079236268997192e-01
5.154514685273170471e-03
-1.555004119873046875e-01
4.210843518376350403e-02
9.489244222640991211e-02
6.782457232475280762e-02
-6.941191852092742920e-02
2.797211706638336182e-01
5.265894159674644470e-02
-4.550158232450485229e-02
3.670790418982505798e-02
1.432866305112838745e-01
5.936834961175918579e-03
2.206509858369827271e-01
9.540431201457977295e-03
1.521578580141067505e-01
8.906471729278564453e-02
1.320798397064208984e-01
1.085843294858932495e-01
1.290947645902633667e-01
9.354516118764877319e-02
9.272217750549316406e-02
6.408590078353881836e-02
1.154658794403076172e-01
-5.925508588552474976e-02
1.145101562142372131e-01
1.717484742403030396e-01
-1.513322144746780396e-01
1.522099077701568604e-01
-7.288498431444168091e-02
-9.137129038572311401e-02
2.029079347848892212e-01
4.274181276559829712e-02
1.988981068134307861e-01
4.227236211299896240e-01
1.617903262376785278e-01
-4.556715488433837891e-02
-3.486353456974029541e-01
-4.369437098503112793e-01
-1.319049298763275146e-01
-1.571886986494064331e-01
-8.581236004829406738e-02
-2.514012455940246582e-01
-3.284585475921630859e-01
-6.031705811619758606e-02
-1.374757140874862671e-01
-2.459831722080707550e-02
-1.723483651876449585e-01
-4.255281388759613037e-01
1.196012645959854126e-01
-5.133287906646728516e-01
-1.016011983156204224e-01
-2.923232614994049072e-01
-2.016853988170623779e-01
-6.942222118377685547e-01
-2.508935034275054932e-01
-4.572592079639434814e-01
-1.038833428174257278e-02
-2.776465117931365967e-01
-1.720477193593978882e-01
-2.186611527577042580e-03
-3.156218230724334717e-01
1.373475193977355957e-01
3.630750477313995361e-01
-2.210238277912139893e-01
1.117910742759704590e-01
-4.502737894654273987e-02
2.810209095478057861e-01
-2.640668451786041260e-01
3.153541684150695801e-01
-7.340273261070251465e-02
-1.268156766891479492e-01
-1.173105165362358093e-01
-6.402030587196350098e-02
6.990519911050796509e-02
6.267114728689193726e-02
-1.023887470364570618e-01
-2.943324623629450798e-03
4.153947904706001282e-02
7.166767120361328125e-02
-1.270772367715835571e-01
-3.944993019104003906e-02
1.343232393264770508e-01
-1.648133434355258942e-02
-9.852451272308826447e-03
-5.124589055776596069e-02
-2.501801848411560059e-01
2.684047520160675049e-01
2.507806718349456787e-01
2.141035497188568115e-01
6.830601394176483154e-02
3.482545260339975357e-03
7.059315592050552368e-02
5.771810561418533325e-02
-9.055162221193313599e-02
1.177745684981346130e-01
-4.302755743265151978e-02
4.465369880199432373e-02
8.530855178833007812e-03
2.068789154291152954e-01
-1.223702728748321533e-01
9.765283763408660889e-02
2.279453873634338379e-01
7.644208520650863647e-02
2.814590036869049072e-01
1.324379816651344299e-02
6.345576141029596329e-03
5.644307658076286316e-02
-2.000116370618343353e-02
-1.781400889158248901e-01
1.342325657606124878e-01
-1.325122918933629990e-02
3.657178953289985657e-02
4.328775033354759216e-02
1.086935549974441528e-01
7.311014831066131592e-02
-8.609607815742492676e-02
2.226905897259712219e-03
3.716004081070423126e-03
-4.556685313582420349e-02
-1.110638398677110672e-02
-1.513547152280807495e-01
-1.915824562311172485e-01
5.090330541133880615e-02
-1.701085567474365234e-01
-3.130601644515991211e-01
-5.355171114206314087e-02
-8.687482029199600220e-02
-2.446563094854354858e-01
-6.769562512636184692e-02
1.562300026416778564e-01
-8.158037811517715454e-02
-9.318628162145614624e-02
1.100120507180690765e-02
-7.207831740379333496e-02
-3.694890439510345459e-02
-5.967417731881141663e-02
-4.216860607266426086e-02
7.409328967332839966e-02
-2.295543253421783447e-02
7.993751764297485352e-02
-8.041127026081085205e-02
1.337725073099136353e-01
-4.480272904038429260e-02
6.468991190195083618e-02
-2.268575727939605713e-01
-7.968321442604064941e-02
2.852081693708896637e-02
3.339189291000366211e-02
-1.928336620330810547e-01
1.379608064889907837e-01
-2.356022410094738007e-02
-2.832616567611694336e-01
3.454631194472312927e-02
-1.692799180746078491e-01
-1.243983656167984009e-01
-4.574208259582519531e-01
-9.624149650335311890e-02
-7.836934924125671387e-02
-3.917405903339385986e-01
-3.948135077953338623e-01
-6.874203681945800781e-02
-4.027944207191467285e-01
-1.756994612514972687e-02
5.076906830072402954e-02
-1.596951484680175781e-01
2.707314789295196533e-01
-9.351667016744613647e-02
2.037395685911178589e-01
-2.971917986869812012e-01
2.155581116676330566e-01
5.290367603302001953e-01
-4.568424541503190994e-03
-3.487099660560488701e-03
2.044613845646381378e-02
1.171849854290485382e-02
1.529946774244308472e-01
2.659567631781101227e-02
4.634901508688926697e-02
-1.331577599048614502e-01
-2.431184239685535431e-02
7.589747756719589233e-02
2.975040581077337265e-03
1.021575033664703369e-01
-9.089771658182144165e-02
-8.492408692836761475e-02
3.935313224792480469e-02
3.036519885063171387e-02
1.806246116757392883e-02
1.751316934823989868e-01
-1.025482919067144394e-02
1.337484568357467651e-01
-1.559933088719844818e-02
-4.759408161044120789e-02
-1.267897188663482666e-01
-8.935932070016860962e-02
1.588157564401626587e-01
5.829817429184913635e-02
-1.695489287376403809e-01
7.728637196123600006e-03
1.387969106435775757e-01
5.374546162784099579e-03
2.462217584252357483e-02
1.021136641502380371e-01
7.064951956272125244e-02
2.799210548400878906e-01
-2.954392731189727783e-01
1.593073606491088867e-01
9.446123987436294556e-02
1.289516873657703400e-02
1.027779951691627502e-01
-7.225062698125839233e-02
-2.923431806266307831e-02
-3.965197131037712097e-02
6.026018410921096802e-02
1.518697291612625122e-01
1.379449814558029175e-01
4.170532897114753723e-02
-2.476192265748977661e-01
1.632370054721832275e-01
-4.253493994474411011e-02
1.699487566947937012e-01
-1.118582636117935181e-01
-1.560219526290893555e-01
9.997761994600296021e-02
8.900472521781921387e-02
1.458919979631900787e-02
-5.274959653615951538e-02
-3.848927021026611328e-01
2.132839113473892212e-01
1.160418614745140076e-03
1.492566019296646118e-01
-1.715951263904571533e-01
7.777637243270874023e-02
