2.812352776527404785e-01
-1.105873435735702515e-01
4.456094652414321899e-02
-2.676109410822391510e-02
-2.272327393293380737e-01
-1.480239927768707275e-01
2.137072980403900146e-01
9.399909526109695435e-02
-1.684041880071163177e-02
-3.337606415152549744e-02
1.693560034036636353e-01
-7.981089502573013306e-02
-2.408712059259414673e-01
-2.928233006969094276e-03
1.224812418222427368e-01
-1.239707991480827332e-01
1.499723792076110840e-01
2.675905525684356689e-01
-5.332328844815492630e-03
-7.487152516841888428e-02
-3.615879267454147339e-02
6.986765563488006592e-02
-1.921549141407012939e-01
-3.200792968273162842e-01
6.810163706541061401e-02
2.788496315479278564e-01
1.086969673633575439e-01
-5.453324690461158752e-02
-3.352565467357635498e-01
-3.360991775989532471e-01
3.373318016529083252e-01
5.178982019424438477e-01
-3.307340145111083984e-01
-2.882261276245117188e-01
1.650742590427398682e-01
3.802829682826995850e-01
7.393262535333633423e-02
-5.349661037325859070e-02
-2.452303916215896606e-01
-1.159955039620399475e-01
-2.652069330215454102e-01
5.730912834405899048e-02
-1.917173862457275391e-01
-4.818673059344291687e-02
-1.283339709043502808e-01
-2.227130904793739319e-02
-1.366262882947921753e-01
1.264702081680297852e-01
-5.795177444815635681e-02
-9.870700538158416748e-02
1.425353288650512695e-01
7.758701685816049576e-03
-1.008195877075195312e-01
1.413470059633255005e-01
1.042537540197372437e-01
3.946574777364730835e-02
-7.334342598915100098e-02
1.735187508165836334e-02
1.828556209802627563e-01
2.981177568435668945e-01
2.349681109189987183e-01
1.511498354375362396e-02
-1.648887842893600464e-01
-1.157824471592903137e-01
3.988132998347282410e-02
-5.675504356622695923e-02
-8.455843664705753326e-03
-4.602228477597236633e-02
-3.154988884925842285e-01
-2.104120552539825439e-01
7.672982662916183472e-02
3.154199123382568359e-01
1.013738960027694702e-01
2.760219275951385498e-01
1.051023453474044800e-01
-1.113747656345367432e-01
-1.059686616063117981e-01
7.150145620107650757e-02
-6.543360650539398193e-02
1.766869984567165375e-02
-2.715752124786376953e-01
1.746639907360076904e-01
6.107131764292716980e-02
7.844705134630203247e-02
-1.736360937356948853e-01
-7.002513110637664795e-02
-1.909848153591156006e-01
2.476743757724761963e-01
9.443292766809463501e-02
1.262952573597431183e-02
-2.474401295185089111e-01
-6.766249984502792358e-02
3.223291635513305664e-01
4.339491128921508789e-01
2.556039579212665558e-02
-5.210861563682556152e-01
-1.808709651231765747e-01
-1.049011498689651489e-01
2.309598922729492188e-01
5.274916291236877441e-01
3.411968648433685303e-01
1.640392988920211792e-01
-3.680051565170288086e-01
-7.320677638053894043e-01
-3.689965605735778809e-01
8.981981873512268066e-02
3.049245178699493408e-01
9.302341379225254059e-03
2.858759276568889618e-02
1.013020705431699753e-02
-1.355915814638137817e-01
4.719729721546173096e-02
8.259763568639755249e-02
-1.880346387624740601e-01
4.801612719893455505e-02
7.075302302837371826e-02
7.297221571207046509e-02
-2.433364689350128174e-01
5.865852162241935730e-02
8.491898328065872192e-02
-4.738399758934974670e-02
4.338573664426803589e-02
2.559226006269454956e-02
7.896426320075988770e-02
-1.638968735933303833e-01
-5.688848346471786499e-02
1.526190191507339478e-01
-5.720230937004089355e-02
-2.608501017093658447e-01
-6.275137513875961304e-02
-2.465352714061737061e-01
-1.584967374801635742e-01
1.129311993718147278e-01
-1.022872775793075562e-01
-7.477793842554092407e-02
8.017595857381820679e-02
7.415243238210678101e-02
-7.134590297937393188e-02
-1.852629929780960083e-01
-2.450228184461593628e-01
-2.228448688983917236e-01
-1.166985854506492615e-01
7.213979959487915039e-02
-3.459076881408691406e-01
1.361676305532455444e-01
1.152457147836685181e-01
1.493146419525146484e-01
-1.607531607151031494e-01
-2.822861373424530029e-01
3.961130976676940918e-02
-2.089237421751022339e-02
-1.038478761911392212e-01
2.506810128688812256e-01
3.268189132213592529e-01
1.227714717388153076e-01
-5.648147687315940857e-02
-2.601571381092071533e-01
-7.266857475042343140e-02
2.349027618765830994e-02
1.341017633676528931e-01
9.026522934436798096e-02
-1.284816651605069637e-03
-3.468103408813476562e-01
1.412580460309982300e-01
4.808564186096191406e-01
-6.217320263385772705e-02
-3.112318813800811768e-01
-3.752864301204681396e-01
-2.415861338376998901e-01
2.704139351844787598e-01
6.057175397872924805e-01
2.470070868730545044e-01
-4.653276503086090088e-01
-2.046067863702774048e-01
3.741145730018615723e-01
-1.445284187793731689e-01
-1.029535681009292603e-01
5.249329842627048492e-03
1.806785166263580322e-01
-1.278439313173294067e-01
-1.615630537271499634e-01
2.133883386850357056e-01
-2.144254185259342194e-02
-2.566830217838287354e-01
2.023197412490844727e-01
6.838611513376235962e-02
-1.905120164155960083e-01
-4.886280000209808350e-02
2.815910279750823975e-01
-1.362402886152267456e-01
-8.331333845853805542e-02
8.541145175695419312e-02
-2.561906576156616211e-01
-7.441599667072296143e-02
2.659785747528076172e-01
2.621507644653320312e-01
4.944201186299324036e-02
-1.195686012506484985e-01
4.895332828164100647e-02
-1.679335236549377441e-01
1.161509007215499878e-01
6.509251426905393600e-03
-1.202818229794502258e-01
-1.510367095470428467e-01
1.278617046773433685e-02
1.841463744640350342e-01
2.968002259731292725e-01
3.769123181700706482e-02
-1.379845887422561646e-01
-4.972428083419799805e-02
4.999154433608055115e-02
-1.069780513644218445e-01
-3.372576087713241577e-02
1.018369868397712708e-01
2.558477036654949188e-02
2.380485534667968750e-01
1.628224849700927734e-01
3.482532873749732971e-02
-6.040771305561065674e-02
-1.544720977544784546e-01
1.567711681127548218e-01
6.292443722486495972e-02
-6.104212999343872070e-02
1.946459710597991943e-02
2.864626944065093994e-01
-9.163755923509597778e-02
-5.733280628919601440e-02
4.476494714617729187e-02
3.688505887985229492e-01
-7.122896611690521240e-02
-1.385254263877868652e-01
-3.571217954158782959e-01
1.633456200361251831e-01
2.526564002037048340e-01
-1.572991311550140381e-01
-3.828027546405792236e-01
3.629423305392265320e-02
1.144181191921234131e-01
1.014428287744522095e-01
-2.342924028635025024e-01
-2.129280567169189453e-01
-2.726820707321166992e-01
-3.366448357701301575e-02
1.608804464340209961e-01
5.533429235219955444e-02
1.136222183704376221e-01
-2.400895357131958008e-01
1.338173896074295044e-01
-5.611084029078483582e-02
1.408545821905136108e-01
-6.237490102648735046e-03
-1.799220442771911621e-01
-1.283723581582307816e-02
1.032383218407630920e-01
-1.779574006795883179e-01
-3.073906898498535156e-01
1.863795146346092224e-02
1.163917034864425659e-01
3.382490575313568115e-01
-1.053907051682472229e-01
-2.462176978588104248e-01
-1.510288417339324951e-01
-3.566194474697113037e-01
6.138676777482032776e-02
4.157618060708045959e-02
3.316812813282012939e-01
2.184930592775344849e-01
-1.139125898480415344e-01
-2.046467661857604980e-01
-3.431134521961212158e-01
-3.719412907958030701e-02
6.137729436159133911e-02
1.720393449068069458e-01
2.354184091091156006e-01
1.591461300849914551e-01
-3.047120869159698486e-01
-3.987934291362762451e-01
-1.686381846666336060e-01
-6.773935165256261826e-03
6.775205582380294800e-02
1.360493004322052002e-01
1.271190643310546875e-01
1.127674058079719543e-01
-1.174447126686573029e-02
-1.396954506635665894e-01
-2.491068840026855469e-01
-6.681673228740692139e-02
4.423473775386810303e-01
-7.562248408794403076e-02
-2.845590002834796906e-02
-7.810527831315994263e-02
-2.744891643524169922e-01
1.502515673637390137e-01
2.992948293685913086e-01
2.802785336971282959e-01
1.396273076534271240e-02
-2.199934981763362885e-02
-1.711806207895278931e-01
-1.055818125605583191e-01
-1.516046971082687378e-01
5.397544801235198975e-02
-8.922063559293746948e-02
6.981715559959411621e-02
-1.703304424881935120e-02
-1.573628038167953491e-01
1.636004261672496796e-02
-2.206138223409652710e-01
-1.206712499260902405e-01
-1.260000616312026978e-01
-9.383227676153182983e-02
9.952515363693237305e-02
2.565447390079498291e-01
2.195266932249069214e-01
1.457422412931919098e-02
-1.458234339952468872e-01
-5.016453098505735397e-03
-3.957061469554901123e-02
1.009318530559539795e-01
2.212656140327453613e-01
2.653816342353820801e-01
5.257102847099304199e-01
-2.040473520755767822e-01
-4.798587858676910400e-01
2.511577010154724121e-01
3.537758588790893555e-01
-1.120032370090484619e-01
-1.810332573950290680e-02
-1.945696175098419189e-01
5.296683311462402344e-02
-1.268223822116851807e-01
-1.973525388166308403e-03
5.302816033363342285e-01
2.374333590269088745e-01
3.565675020217895508e-01
-9.398004412651062012e-02
-3.608527779579162598e-01
1.222852244973182678e-01
3.616128265857696533e-01
2.167640626430511475e-02
-1.490799039602279663e-01
2.274040430784225464e-01
1.367815732955932617e-01
-2.314012199640274048e-01
1.474300399422645569e-02
-2.120978832244873047e-01
1.220190152525901794e-01
1.468991637229919434e-01
-1.131508499383926392e-01
8.293993026018142700e-02
-1.828082054853439331e-01
-8.983283489942550659e-02
5.153071880340576172e-02
1.647229045629501343e-01
-6.185207888484001160e-02
3.586466312408447266e-01
4.717896506190299988e-02
1.720660924911499023e-01
-7.463041692972183228e-02
-1.180645003914833069e-01
1.220398321747779846e-01
-3.127447143197059631e-02
-1.662815511226654053e-01
-1.093498468399047852e-01
2.304115593433380127e-01
1.621024496853351593e-02
3.265989422798156738e-01
6.755167990922927856e-02
3.938247263431549072e-02
-1.594206877052783966e-02
-1.376617401838302612e-01
-1.932588070631027222e-01
-1.973439007997512817e-02
1.365076452493667603e-01
1.079349964857101440e-01
4.181770235300064087e-02
2.417889796197414398e-02
-1.288852375000715256e-02
-2.544214427471160889e-01
1.820904463529586792e-01
2.066758722066879272e-01
1.924467384815216064e-01
5.460359156131744385e-02
1.144238281995058060e-02
-1.837916821241378784e-01
4.970581829547882080e-01
-1.674155890941619873e-02
-1.331932842731475830e-01
-1.107452958822250366e-01
-1.814540289342403412e-02
-2.025615656748414040e-03
-3.356736898422241211e-02
-3.181877136230468750e-01
-5.843255668878555298e-02
1.313588917255401611e-01
-1.218126341700553894e-01
3.385983109474182129e-01
4.392209053039550781e-01
-2.133636921644210815e-01
-4.083461686968803406e-02
2.851491607725620270e-02
2.242275141179561615e-02
-4.545261710882186890e-02
-5.771678313612937927e-02
1.757244914770126343e-01
1.822693794965744019e-01
3.977668285369873047e-01
1.754304617643356323e-01
-2.613058686256408691e-01
-9.244594722986221313e-02
2.351086027920246124e-02
4.089734703302383423e-02
1.119543612003326416e-01
-2.310433797538280487e-02
1.330004483461380005e-01
4.817432537674903870e-02
-3.972982168197631836e-01
-3.577857837080955505e-02
-4.026824142783880234e-03
1.038171872496604919e-01
-6.270163506269454956e-02
-1.691743135452270508e-01
1.704083830118179321e-01
-1.543166767805814743e-02
-2.258914709091186523e-01
9.842529147863388062e-02
1.301500499248504639e-01
-3.100477717816829681e-02
-2.487724125385284424e-01
1.569873392581939697e-01
1.353717595338821411e-01
-1.725899130105972290e-01
-8.186665922403335571e-02
1.640316396951675415e-01
9.354278445243835449e-03
-6.605664268136024475e-03
-7.134329527616500854e-02
-8.023520559072494507e-02
8.287598378956317902e-03
3.251117169857025146e-01
2.590031921863555908e-01
-4.726551175117492676e-01
-5.047774314880371094e-01
-2.065934389829635620e-01
4.306995570659637451e-01
4.868519306182861328e-01
1.770070344209671021e-01
-3.283899649977684021e-02
-3.525624573230743408e-01
-7.596965134143829346e-02
8.093481510877609253e-02
-2.543283104896545410e-01
-5.310855507850646973e-01
-2.310781329870223999e-01
3.515265416353940964e-03
2.940532984212040901e-03
1.163982003927230835e-01
7.237941771745681763e-02
1.436458975076675415e-01
1.295360773801803589e-01
3.104590475559234619e-01
-3.726423159241676331e-02
-2.977152466773986816e-01
-3.190340399742126465e-01
1.961395591497421265e-01
9.041793644428253174e-03
3.134766519069671631e-01
1.946746744215488434e-02
-9.701733291149139404e-02
2.595118619501590729e-02
4.877875745296478271e-02
2.283356487751007080e-01
-9.762645512819290161e-02
-8.211979269981384277e-02
-8.606959134340286255e-02
1.804272085428237915e-01
1.331175565719604492e-01
-2.769464552402496338e-01
-1.677310615777969360e-01
1.237436532974243164e-01
1.372265517711639404e-01
-1.257405430078506470e-02
1.860054135322570801e-01
-7.847784459590911865e-02
6.840578280389308929e-04
-3.983074426651000977e-01
1.345936357975006104e-01
4.821456968784332275e-01
4.979240894317626953e-01
-1.380267888307571411e-01
-5.871767401695251465e-01
-4.067538976669311523e-01
-2.131938338279724121e-01
1.357916146516799927e-01
8.125397562980651855e-02
3.412706553936004639e-01
1.352478712797164917e-01
-1.605170965194702148e-01
-4.524705186486244202e-02
1.287271850742399693e-03
-5.073580890893936157e-02
1.092504784464836121e-01
1.081159636378288269e-01
-2.162490785121917725e-01
9.956084936857223511e-02
1.178537681698799133e-01
-1.456495672464370728e-01
-5.858434736728668213e-02
6.469522416591644287e-02
3.033513389527797699e-02
-1.093025431036949158e-01
6.974247097969055176e-02
-5.399808660149574280e-02
-4.123432040214538574e-01
-2.255751341581344604e-01
-2.209543287754058838e-01
1.380072832107543945e-01
2.012347131967544556e-01
4.020921289920806885e-01
5.409999936819076538e-02
-2.348291128873825073e-01
-2.364415675401687622e-01
-1.937706470489501953e-01
-2.738629281520843506e-02
6.662794202566146851e-02
3.066754201427102089e-03
2.407303303480148315e-01
3.300018906593322754e-01
1.150116994976997375e-01
-1.559482067823410034e-01
-6.758395582437515259e-02
-2.646068930625915527e-01
-3.468813896179199219e-01
-1.896668374538421631e-01
-1.144791319966316223e-01
-1.896031387150287628e-02
4.416959360241889954e-02
1.440214342437684536e-03
-5.006741359829902649e-02
3.466328233480453491e-02
1.823962479829788208e-02
-3.021819330751895905e-02
5.428947508335113525e-02
2.093027830123901367e-01
2.885694503784179688e-01
4.866101145744323730e-01
2.911445796489715576e-01
1.209245892823673785e-04
-4.518317878246307373e-01
-5.087322592735290527e-01
-2.095013707876205444e-01
1.025104448199272156e-01
2.474725544452667236e-01
3.794578462839126587e-02
4.536978155374526978e-02
-1.961000710725784302e-01
-3.950818628072738647e-02
2.715285420417785645e-01
-1.085329502820968628e-01
-2.455405592918395996e-01
3.211975470185279846e-02
1.598627269268035889e-01
3.452692627906799316e-01
2.219833806157112122e-02
-1.173554137349128723e-01
-2.088724970817565918e-01
-1.235952079296112061e-01
2.477450817823410034e-01
2.068489044904708862e-01
-5.032942816615104675e-02
-7.717160880565643311e-02
4.160501062870025635e-02
5.891966633498668671e-03
1.342752426862716675e-01
-2.112924009561538696e-01
-3.329730629920959473e-01
1.391817629337310791e-01
2.225385606288909912e-01
2.540127336978912354e-01
1.185664311051368713e-01
-1.770250871777534485e-02
-1.975400149822235107e-01
1.086011994630098343e-02
5.762929096817970276e-02
6.912960857152938843e-02
2.447421252727508545e-01
-2.938314154744148254e-02
-5.960398353636264801e-03
-5.235290899872779846e-02
1.378430724143981934e-01
6.211356818675994873e-02
1.175930351018905640e-01
-2.811124362051486969e-02
7.709297537803649902e-02
1.367631852626800537e-01
-1.411070376634597778e-01
1.866548955440521240e-01
1.031439565122127533e-02
-7.416152395308017731e-03
4.394296929240226746e-02
5.033976864069700241e-03
8.195018768310546875e-02
8.880428969860076904e-02
1.628980189561843872e-01
-9.522608667612075806e-02
8.683907240629196167e-02
-4.594128951430320740e-02
-3.560208017006516457e-03
2.121251225471496582e-01
1.129473894834518433e-01
1.693719923496246338e-01
1.505280435085296631e-01
9.439212828874588013e-02
1.548444926738739014e-01
1.914052963256835938e-01
-3.919283673167228699e-02
-2.296680063009262085e-01
-1.181996706873178482e-02
4.106452167034149170e-01
1.078135743737220764e-01
2.428697887808084488e-03
-2.061010599136352539e-01
-2.170709520578384399e-01
-1.912690140306949615e-02
-2.695390209555625916e-02
1.371246669441461563e-02
9.323766827583312988e-02
-3.175846114754676819e-02
1.424753963947296143e-01
1.280717402696609497e-01
-1.916451454162597656e-01
-6.396135687828063965e-02
1.650829426944255829e-02
4.166623577475547791e-02
-5.323001369833946228e-02
1.919135898351669312e-01
-3.760905237868428230e-03
5.284862220287322998e-02
-3.026397824287414551e-01
-3.406694158911705017e-02
-3.969642817974090576e-01
1.147563979029655457e-01
-1.940866857767105103e-01
-2.242351472377777100e-01
-1.357876211404800415e-01
-4.576035588979721069e-02
2.541377544403076172e-01
2.562940865755081177e-02
-6.684093968942761421e-04
1.922221183776855469e-01
3.115705028176307678e-02
6.550770252943038940e-02
-2.926546633243560791e-01
-2.108503878116607666e-01
-2.229236364364624023e-01
1.393037289381027222e-01
2.130974531173706055e-01
2.107651382684707642e-01
1.384549736976623535e-01
2.274081483483314514e-02
-4.497262462973594666e-02
1.730698198080062866e-01
1.131948307156562805e-01
-2.017387300729751587e-01
-2.285922914743423462e-01
-3.897441923618316650e-02
-1.070510223507881165e-01
-5.963160842657089233e-02
2.677266001701354980e-01
1.742358803749084473e-01
1.483453512191772461e-01
-1.352896392345428467e-01
-3.408993482589721680e-01
-8.806166052818298340e-02
-5.482250824570655823e-02
-1.635233163833618164e-01
-2.858565561473369598e-02
-2.711593918502330780e-02
-2.593477442860603333e-02
1.376561969518661499e-01
1.604020297527313232e-01
-9.722118824720382690e-02
-1.861429214477539062e-01
1.952157467603683472e-01
-2.022226154804229736e-02
-1.104506850242614746e-01
-2.921438077464699745e-03
-1.982547575607895851e-03
-2.264001220464706421e-02
-1.419773697853088379e-01
-1.729319840669631958e-01
-1.143689304590225220e-01
-7.218600809574127197e-02
2.725188434123992920e-01
-2.624557353556156158e-02
-1.945607364177703857e-01
1.423757970333099365e-01
2.612352669239044189e-01
-1.207287311553955078e-01
-6.411846727132797241e-02
3.644596040248870850e-02
7.812128216028213501e-02
-3.034443557262420654e-01
-9.048962593078613281e-02
-4.242798686027526855e-01
-4.318467378616333008e-01
-2.137665450572967529e-01
-1.572948098182678223e-01
1.052215397357940674e-01
1.554412990808486938e-01
3.386944904923439026e-02
-1.910519003868103027e-01
-1.651189327239990234e-01
-1.107210516929626465e-01
1.169255096465349197e-02
5.241701006889343262e-02
1.167030166834592819e-02
1.655004620552062988e-01
-3.633889555931091309e-02
-7.726952899247407913e-03
5.458744615316390991e-02
-1.693502217531204224e-01
4.636735841631889343e-02
-1.340400576591491699e-01
-4.303096607327461243e-02
1.503193676471710205e-01
1.147136986255645752e-01
-6.926365196704864502e-02
-2.035564035177230835e-01
8.147654682397842407e-02
2.618201971054077148e-01
-4.186797887086868286e-02
-1.006781384348869324e-01
-1.038647256791591644e-02
3.516574576497077942e-02
-2.122112363576889038e-01
-4.060178101062774658e-01
-6.251996755599975586e-01
2.059505730867385864e-01
-1.182433888316154480e-01
2.141719870269298553e-02
-2.099666148424148560e-01
-1.115904971957206726e-01
1.564123779535293579e-01
-1.264513134956359863e-01
1.197663396596908569e-01
-1.767225563526153564e-02
8.848457038402557373e-02
2.339567989110946655e-01
3.075338304042816162e-01
-1.707535050809383392e-02
-8.571250736713409424e-02
-1.303803920745849609e-01
7.903335243463516235e-02
-2.455683983862400055e-02
6.514099240303039551e-02
-3.142593801021575928e-01
-2.364215701818466187e-01
-2.243867814540863037e-01
2.113807350397109985e-01
1.202997472137212753e-02
1.568726301193237305e-01
-1.199131906032562256e-01
-1.101376339793205261e-01
-2.829734683036804199e-01
2.366581112146377563e-01
6.017493009567260742e-01
1.304050236940383911e-01
-3.736766874790191650e-01
8.842675387859344482e-02
1.250110268592834473e-01
-1.406503617763519287e-01
-2.049656510353088379e-01
1.612144708633422852e-01
-1.027083992958068848e-01
-3.086887486279010773e-02
2.539234468713402748e-03
3.072751462459564209e-01
-2.188395410776138306e-01
-6.622883677482604980e-02
8.831208199262619019e-02
1.118517816066741943e-01
1.215297281742095947e-01
5.300031602382659912e-02
-3.767422214150428772e-02
-3.660831451416015625e-01
-3.610254228115081787e-01
-1.723974570631980896e-02
3.556835651397705078e-01
2.395712435245513916e-01
2.450412958860397339e-01
6.260283291339874268e-02
-3.402117192745208740e-01
-7.721003890037536621e-02
6.878209766000509262e-03
2.836606502532958984e-01
-2.970997691154479980e-01
-5.460182577371597290e-02
2.658218443393707275e-01
-5.567699298262596130e-02
-1.740031987428665161e-01
-1.687871962785720825e-01
-7.873992621898651123e-02
1.725275651551783085e-03
-5.501117929816246033e-02
1.417878717184066772e-01
3.036077916622161865e-01
3.011712729930877686e-01
-1.931662708520889282e-01
-2.028185874223709106e-01
-4.112314581871032715e-01
1.468971967697143555e-01
1.947740316390991211e-01
3.129962682723999023e-01
-4.947944730520248413e-02
-1.572908014059066772e-01
-2.565575242042541504e-01
1.268888264894485474e-01
1.876623928546905518e-01
2.077749818563461304e-01
-2.509805262088775635e-01
-2.958051562309265137e-01
-2.833225429058074951e-01
-6.075802445411682129e-02
1.886567473411560059e-01
2.161522656679153442e-01
9.520537406206130981e-02
-1.590408980846405029e-01
-2.094560861587524414e-01
-1.986724138259887695e-01
1.612968556582927704e-02
1.059427857398986816e-01
4.189955890178680420e-01
2.151665985584259033e-01
-4.555593058466911316e-02
-3.140666484832763672e-01
-2.813912332057952881e-01
-5.729462578892707825e-02
8.639653772115707397e-02
3.666354417800903320e-01
3.397352993488311768e-01
1.735355854034423828e-01
-1.092645246535539627e-02
-2.086894661188125610e-01
-2.183475345373153687e-01
-5.669134482741355896e-02
-1.376720219850540161e-01
-1.147646009922027588e-01
-1.152540296316146851e-01
-1.410723030567169189e-01
9.423708170652389526e-02
1.487304717302322388e-01
6.030093878507614136e-02
2.977946996688842773e-01
1.633783578872680664e-01
2.144633531570434570e-01
-8.298184722661972046e-02
1.554173380136489868e-01
-1.599953770637512207e-01
-2.718263864517211914e-01
-1.673021763563156128e-01
-1.094181388616561890e-01
-1.320170015096664429e-01
1.203709766268730164e-01
1.358526945114135742e-01
8.402389287948608398e-02
1.083796918392181396e-01
2.856969237327575684e-01
2.106379270553588867e-01
-3.917493671178817749e-02
-5.644390732049942017e-02
7.610128819942474365e-02
-1.636882722377777100e-01
-1.990168392658233643e-01
4.541863873600959778e-02
5.260009318590164185e-02
3.368739187717437744e-01
1.547863334417343140e-01
-2.807600656524300575e-03
-1.437475681304931641e-01
-5.295363441109657288e-02
1.702070981264114380e-02
8.520566858351230621e-03
-1.023329421877861023e-01
-1.983992904424667358e-01
-2.279285341501235962e-01
5.887814238667488098e-02
2.197965234518051147e-01
2.294881641864776611e-01
9.225705265998840332e-02
-4.970112815499305725e-02
-8.378369361162185669e-02
-4.779450595378875732e-02
-2.316631376743316650e-01
3.299617022275924683e-02
1.627263426780700684e-01
-1.505796760320663452e-01
2.502631545066833496e-01
-2.235308289527893066e-01
-2.214888781309127808e-01
1.519384533166885376e-01
1.344763934612274170e-01
-8.679552376270294189e-02
-2.724371254444122314e-01
-1.575376838445663452e-01
-1.011099014431238174e-02
-2.611127123236656189e-02
-8.082305639982223511e-02
-2.602096796035766602e-01
-1.114009544253349304e-01
-5.421933159232139587e-02
-3.138565272092819214e-02
8.372116088867187500e-02
-7.949307560920715332e-02
-1.188317462801933289e-01
2.235066741704940796e-01
1.318243592977523804e-01
3.724125400185585022e-02
-2.405133843421936035e-01
-5.611500889062881470e-02
2.092377394437789917e-01
1.067203879356384277e-01
-6.082030758261680603e-02
6.493274122476577759e-02
7.447046041488647461e-02
5.259776115417480469e-02
9.270554780960083008e-02
1.221893280744552612e-01
1.567636579275131226e-01
-3.092852830886840820e-01
-2.106287479400634766e-01
-7.532768696546554565e-02
-9.610479325056076050e-02
-6.073473021388053894e-02
-1.298625469207763672e-01
4.544833209365606308e-03
1.755397580564022064e-02
9.000720828771591187e-02
9.576030075550079346e-02
-9.364401549100875854e-02
1.269352436065673828e-01
1.138593479990959167e-01
6.552826613187789917e-02
-4.059858992695808411e-02
-8.808751404285430908e-02
5.605617165565490723e-02
1.454329639673233032e-01
2.439951449632644653e-01
2.086807936429977417e-01
-1.562429964542388916e-01
-1.894713938236236572e-01
1.941617727279663086e-01
2.236434668302536011e-01
2.992424964904785156e-01
1.461343169212341309e-01
-2.019912600517272949e-01
-7.284322381019592285e-02
1.324354559183120728e-01
4.138094559311866760e-02
-5.717803537845611572e-02
-2.205985486507415771e-01
-1.365751773118972778e-01
-1.580470949411392212e-01
1.108332797884941101e-01
1.851842403411865234e-01
1.694495379924774170e-01
4.937658086419105530e-02
8.913002908229827881e-02
3.926150500774383545e-01
3.807689547538757324e-01
1.353639960289001465e-01
-3.370557129383087158e-01
-4.047540128231048584e-01
-3.590505719184875488e-01
-1.704495102167129517e-01
5.005265399813652039e-02
2.043234184384346008e-02
6.660751253366470337e-02
5.685426667332649231e-02
-3.075709566473960876e-02
-2.501763105392456055e-01
1.763741075992584229e-01
-5.545758828520774841e-02
6.417147815227508545e-03
1.336575392633676529e-02
-7.420559972524642944e-02
1.534268539398908615e-02
1.038250923156738281e-01
8.806108683347702026e-02
-3.692478314042091370e-02
5.283306911587715149e-02
-1.093381643295288086e-01
7.410944998264312744e-02
1.376952528953552246e-01
3.765511810779571533e-01
1.836283802986145020e-01
-2.588630318641662598e-01
-5.137892961502075195e-01
-2.627886235713958740e-01
-7.545093540102243423e-03
2.467595040798187256e-01
-2.229585312306880951e-03
8.532485365867614746e-02
8.757109753787517548e-03
-5.143883824348449707e-02
-2.028252370655536652e-02
1.613566279411315918e-01
2.110803425312042236e-01
-9.251333773136138916e-02
-1.179775223135948181e-01
1.000287085771560669e-01
1.134694367647171021e-01
-2.079020589590072632e-01
2.255120128393173218e-01
-7.179027888923883438e-03
3.165796771645545959e-02
2.167442254722118378e-02
9.244014322757720947e-02
-6.290538609027862549e-02
-1.540730744600296021e-01
1.288557201623916626e-01
2.122661173343658447e-01
1.216747984290122986e-01
-1.303568780422210693e-01
1.878806501626968384e-01
