3.138605058193206787e-01
-8.748888969421386719e-02
-2.199277281761169434e-01
-3.497536182403564453e-01
-4.658376052975654602e-02
9.073968976736068726e-02
3.118564486503601074e-01
9.054508805274963379e-02
8.173508197069168091e-02
1.686838082969188690e-02
2.205908894538879395e-01
-5.275386571884155273e-02
-9.213715046644210815e-02
-5.516067519783973694e-02
-3.254851400852203369e-01
-1.894100308418273926e-01
2.471254467964172363e-01
2.310324311256408691e-01
7.020191103219985962e-02
3.453605994582176208e-02
-1.806588172912597656e-01
-2.614204958081245422e-02
-1.093514785170555115e-01
-4.364219009876251221e-01
-3.779718577861785889e-01
-2.902454137802124023e-01
2.210604399442672729e-01
2.575662545859813690e-02
3.288456201553344727e-01
3.368804752826690674e-01
-3.382632434368133545e-01
-3.217134624719619751e-02
-4.291292428970336914e-01
-9.673527628183364868e-02
-1.567724198102951050e-01
1.842463165521621704e-01
8.415637910366058350e-02
-8.510551601648330688e-02
-1.177464574575424194e-01
3.859865367412567139e-01
4.016206562519073486e-01
3.976896107196807861e-01
-3.901314735412597656e-02
-2.994610965251922607e-01
-1.801364868879318237e-01
-2.145114243030548096e-01
-2.069663554430007935e-01
-2.563574612140655518e-01
-9.580095112323760986e-02
-1.756621450185775757e-01
-8.969227783381938934e-03
3.041529953479766846e-01
2.900520525872707367e-02
-1.027892827987670898e-01
1.756401918828487396e-02
2.044622749090194702e-01
9.313673712313175201e-03
-1.663950830698013306e-01
2.372715920209884644e-01
3.186247050762176514e-01
-3.973794281482696533e-01
-1.908680200576782227e-01
-2.129716575145721436e-01
-7.618454098701477051e-02
-5.286324024200439453e-02
1.506794393062591553e-01
1.027811765670776367e-01
4.087009653449058533e-02
2.108013182878494263e-01
2.297494560480117798e-01
8.220401406288146973e-02
-1.551297754049301147e-01
-2.505549490451812744e-01
-3.693103790283203125e-01
-1.349547803401947021e-01
1.152477785944938660e-01
4.708606749773025513e-02
1.953398287296295166e-01
1.352073550224304199e-01
-6.918136030435562134e-02
-2.786639332771301270e-01
-4.732936024665832520e-01
-2.116842120885848999e-01
-6.069860234856605530e-02
-7.706678658723831177e-02
1.796730011701583862e-01
-5.960048362612724304e-02
-1.212086062878370285e-02
-2.755915932357311249e-02
9.932567924261093140e-02
3.171788156032562256e-02
1.249040197581052780e-02
-4.570707678794860840e-01
-1.961092501878738403e-01
-3.271594345569610596e-01
-2.469869107007980347e-01
1.771190911531448364e-01
3.804724216461181641e-01
2.132794559001922607e-01
-1.185583919286727905e-01
-2.837540023028850555e-02
1.352787613868713379e-01
-8.095166087150573730e-02
-4.829132184386253357e-02
1.974263340234756470e-01
4.459124505519866943e-01
-1.223514229059219360e-01
-9.674846380949020386e-02
6.963608413934707642e-02
2.036400139331817627e-03
7.073882967233657837e-02
3.595485389232635498e-01
1.610638573765754700e-02
1.904695928096771240e-01
-1.457597613334655762e-01
-1.440814584493637085e-01
-1.606471240520477295e-01
-3.626521229743957520e-01
-1.774817258119583130e-01
-1.875164173543453217e-02
-6.860856711864471436e-02
7.165972143411636353e-02
8.156720548868179321e-02
2.045707078650593758e-03
-9.354695677757263184e-02
5.641072243452072144e-02
9.345372021198272705e-02
-2.198194526135921478e-02
-9.211980551481246948e-02
1.249849237501621246e-02
1.304797977209091187e-01
-5.697957426309585571e-02
-5.129370838403701782e-02
8.603601902723312378e-02
-4.204190522432327271e-02
-9.653640538454055786e-02
1.537173688411712646e-01
-1.648505963385105133e-02
-3.318013548851013184e-01
-6.673657149076461792e-02
9.601736068725585938e-02
5.214642286300659180e-01
5.510109663009643555e-01
3.733003512024879456e-02
-6.186677813529968262e-01
-4.439756870269775391e-01
-2.513993382453918457e-01
9.773435443639755249e-02
2.120441794395446777e-01
2.233878970146179199e-01
5.629175305366516113e-01
2.091135829687118530e-01
-2.802389264106750488e-01
-1.936752796173095703e-01
1.499719470739364624e-01
3.389356732368469238e-01
3.675520122051239014e-01
8.429592847824096680e-02
1.679757684469223022e-01
3.439347073435783386e-02
4.329776391386985779e-02
-2.845495641231536865e-01
-2.970938682556152344e-01
-3.382702171802520752e-02
3.504149615764617920e-03
2.726911306381225586e-01
1.426737755537033081e-01
-1.906034201383590698e-01
-4.830990433692932129e-01
-1.898171007633209229e-01
9.906905889511108398e-02
2.071441262960433960e-01
-6.026202067732810974e-02
1.767795979976654053e-01
3.134268820285797119e-01
-7.479520142078399658e-02
-2.871153652667999268e-01
-4.189776182174682617e-01
-1.754518002271652222e-01
2.517575025558471680e-01
2.284875065088272095e-01
-7.983389496803283691e-02
1.284004449844360352e-01
2.386692166328430176e-02
-6.338889151811599731e-02
-1.001977324485778809e-01
-1.218017842620611191e-02
3.052406013011932373e-01
8.101036399602890015e-02
-2.296145409345626831e-01
-1.407847404479980469e-01
2.078142389655113220e-02
-1.747988611459732056e-01
-1.246907636523246765e-01
3.637461736798286438e-02
-5.128088593482971191e-02
2.369891256093978882e-01
2.541844546794891357e-01
3.278811275959014893e-01
-1.560384184122085571e-01
-4.752438664436340332e-01
-5.958520174026489258e-01
-1.111969202756881714e-01
3.824054896831512451e-01
2.028277665376663208e-01
4.177070856094360352e-01
3.253279626369476318e-01
1.840901076793670654e-01
-6.752845644950866699e-02
-7.299551367759704590e-01
-2.710866034030914307e-01
-4.680169224739074707e-01
-3.173997104167938232e-01
8.155804872512817383e-02
1.415048539638519287e-01
1.915731281042098999e-01
3.442497849464416504e-01
3.794788718223571777e-01
2.382625788450241089e-01
-1.627765595912933350e-01
-2.146332859992980957e-01
-3.011342287063598633e-01
-2.969059944152832031e-01
-2.690678238868713379e-01
-2.691104412078857422e-01
8.422955870628356934e-02
-1.223632786422967911e-02
-2.514514327049255371e-01
9.438911452889442444e-03
-1.039459109306335449e-01
3.742149174213409424e-01
4.091588854789733887e-01
2.001336812973022461e-01
8.553674817085266113e-02
-2.312994003295898438e-01
-3.584029078483581543e-01
-1.436300724744796753e-01
-3.270621299743652344e-01
-1.335310637950897217e-01
-3.216285258531570435e-02
-1.381920874118804932e-01
-1.092064008116722107e-01
1.356016248464584351e-01
5.534034594893455505e-02
-1.622669398784637451e-01
4.916795715689659119e-02
1.537850946187973022e-01
-1.966638267040252686e-01
-5.805153865367174149e-03
2.574630081653594971e-01
1.215951517224311829e-01
-1.654369384050369263e-02
-4.705973565578460693e-01
-7.007998824119567871e-01
-2.491219490766525269e-01
5.762210488319396973e-01
9.956316351890563965e-01
4.711836278438568115e-01
-2.513434365391731262e-02
-2.926823794841766357e-01
-2.584106922149658203e-01
-1.932074874639511108e-01
4.897144436836242676e-02
1.123035401105880737e-01
-1.066503301262855530e-01
-6.623558700084686279e-02
-8.814194053411483765e-02
9.670796245336532593e-02
-5.699378624558448792e-02
-3.754073753952980042e-02
8.336717262864112854e-03
4.026512801647186279e-02
-2.262773215770721436e-01
9.990438818931579590e-02
1.934457719326019287e-01
-2.202569097280502319e-01
2.485265582799911499e-02
1.291709840297698975e-01
7.456053048372268677e-02
-8.594454824924468994e-02
-6.676995754241943359e-02
-9.868232905864715576e-02
3.279043734073638916e-02
1.165827363729476929e-01
3.030394315719604492e-01
-1.862193793058395386e-01
-5.180489420890808105e-01
-2.189371883869171143e-01
9.326915442943572998e-02
3.842063248157501221e-01
6.087963581085205078e-01
4.072995781898498535e-01
-4.800149798393249512e-01
-6.130212545394897461e-01
-3.444549441337585449e-01
2.983489930629730225e-01
3.180727660655975342e-01
-2.481350153684616089e-01
-4.094532050658017397e-04
6.664086878299713135e-02
-2.736114859580993652e-01
2.832807302474975586e-01
1.335604041814804077e-01
7.760281115770339966e-02
-2.141989618539810181e-01
-3.333437070250511169e-02
-1.665893197059631348e-01
-1.494792699813842773e-01
1.840191930532455444e-01
-2.342376410961151123e-01
-2.196787744760513306e-01
1.245707720518112183e-01
-6.590624153614044189e-02
-9.860788285732269287e-02
-3.439038693904876709e-01
-1.289736479520797729e-01
-7.642952725291252136e-03
8.522301167249679565e-02
-1.996874213218688965e-01
1.226770924404263496e-03
-2.818841636180877686e-01
2.709490656852722168e-01
2.731809020042419434e-01
4.595660418272018433e-02
-3.961578905582427979e-01
-3.183120489120483398e-01
4.906002432107925415e-03
1.247639060020446777e-01
-1.641265004873275757e-01
-5.943865776062011719e-01
-3.182645440101623535e-01
-2.227300778031349182e-02
3.230784833431243896e-01
3.045007288455963135e-01
3.506246507167816162e-01
-1.632216881262138486e-04
-8.240012824535369873e-02
-5.731135010719299316e-01
-4.382525384426116943e-01
-3.413185477256774902e-01
1.309365034103393555e-01
1.454326808452606201e-01
-1.438961923122406006e-01
9.084726870059967041e-02
1.397078484296798706e-01
-1.454650331288576126e-02
2.335132956504821777e-01
-2.315373569726943970e-01
-5.047201737761497498e-02
-2.411433495581150055e-02
1.655673086643218994e-01
1.200832352042198181e-01
5.198303237557411194e-02
9.778591990470886230e-02
2.428944110870361328e-01
-1.707183755934238434e-02
2.080141901969909668e-01
2.415329962968826294e-01
-1.851216405630111694e-01
-1.976201832294464111e-01
4.322426617145538330e-01
1.685909628868103027e-01
-1.715515702962875366e-01
-1.034042015671730042e-01
-3.423341512680053711e-01
-4.479851126670837402e-01
3.596796095371246338e-01
5.952265113592147827e-02
-6.712614744901657104e-02
-5.428076982498168945e-01
-4.812818393111228943e-02
-3.209353610873222351e-02
3.572086393833160400e-01
4.176476597785949707e-01
3.428824618458747864e-02
-6.465636193752288818e-02
-1.473501026630401611e-01
-9.565255045890808105e-02
2.191555313766002655e-02
3.161750137805938721e-01
3.123991489410400391e-01
3.726761043071746826e-01
2.120790034532546997e-01
-5.384984016418457031e-01
-6.250855326652526855e-01
7.441045343875885010e-02
5.584425851702690125e-02
3.015446662902832031e-01
-1.530480533838272095e-01
-3.679913580417633057e-01
-5.552781820297241211e-01
5.205591320991516113e-01
3.655090034008026123e-01
-2.046416103839874268e-01
-4.290711879730224609e-01
-7.074835896492004395e-02
3.846859931945800781e-01
-4.918355122208595276e-02
1.398983299732208252e-01
-2.816998362541198730e-01
-2.408041656017303467e-01
7.472992688417434692e-02
7.998024672269821167e-02
1.896010339260101318e-01
-6.608040928840637207e-01
1.157497018575668335e-01
3.305042088031768799e-01
-2.694957852363586426e-01
-5.263426154851913452e-02
-2.752381563186645508e-01
2.855860628187656403e-02
1.327210757881402969e-02
9.897699207067489624e-02
6.324160844087600708e-02
1.830122321844100952e-01
1.007467731833457947e-01
-1.611538082361221313e-01
-2.580429315567016602e-01
1.455100178718566895e-01
-1.639349013566970825e-01
1.049910113215446472e-01
-7.540994882583618164e-02
-4.075059667229652405e-03
7.045105099678039551e-02
-1.822098642587661743e-01
1.064140647649765015e-01
7.667414844036102295e-02
2.935774810612201691e-02
-2.599724531173706055e-01
2.266221940517425537e-01
9.480510652065277100e-02
-1.930249929428100586e-01
1.361129921860992908e-03
8.544822782278060913e-02
-7.286521047353744507e-02
-1.114395558834075928e-01
1.377731114625930786e-01
1.359661966562271118e-01
-2.469811439514160156e-01
-1.771623850800096989e-03
-7.227920740842819214e-02
2.475851476192474365e-01
2.634311020374298096e-01
4.264656305313110352e-01
-4.490750730037689209e-01
-6.422136425971984863e-01
-6.596981883049011230e-01
2.597676813602447510e-01
4.544409811496734619e-01
2.956264913082122803e-01
8.817192167043685913e-02
-2.397240698337554932e-01
-4.669200479984283447e-01
-1.333916038274765015e-01
2.564441561698913574e-01
2.715112864971160889e-01
4.638760089874267578e-01
-2.398557215929031372e-02
-1.405151337385177612e-01
-1.401965040713548660e-02
3.895479813218116760e-02
-1.338832825422286987e-01
-2.785608768463134766e-01
-2.588839232921600342e-01
-3.065076470375061035e-01
1.739507913589477539e-02
1.844795048236846924e-01
-2.425993420183658600e-02
-4.861082124989479780e-04
3.351218998432159424e-01
2.734500765800476074e-01
1.008057668805122375e-01
8.118996769189834595e-02
-5.660200119018554688e-02
-1.092777475714683533e-01
-3.023689389228820801e-01
-4.218010008335113525e-01
-1.065371334552764893e-01
4.055511355400085449e-01
4.259321689605712891e-01
9.042394906282424927e-02
-3.762089461088180542e-02
-3.480307459831237793e-01
-3.696054220199584961e-01
1.147812753915786743e-01
2.667568027973175049e-01
1.005275472998619080e-01
1.734895110130310059e-01
-1.160803884267807007e-01
-2.929907441139221191e-01
-2.954532951116561890e-02
2.064163386821746826e-01
6.180375814437866211e-02
2.392258942127227783e-01
-4.541136324405670166e-02
-1.401310712099075317e-01
2.543743550777435303e-01
1.580960154533386230e-01
1.520887911319732666e-01
6.760196387767791748e-02
2.152451276779174805e-01
6.456424295902252197e-02
-1.582397520542144775e-01
-2.716435194015502930e-01
-1.167005002498626709e-01
1.058080866932868958e-01
1.597670763731002808e-01
3.044767072424292564e-03
1.388257951475679874e-03
-4.950274825096130371e-01
-1.362478584051132202e-01
-1.513119637966156006e-01
-1.621527522802352905e-01
-1.401003822684288025e-02
1.592138111591339111e-01
1.270394176244735718e-01
-1.642973721027374268e-01
2.973150610923767090e-01
1.775819659233093262e-01
7.479831576347351074e-02
1.539389640092849731e-01
2.423905730247497559e-01
-2.433770708739757538e-02
1.462844461202621460e-01
1.227803342044353485e-02
2.652257122099399567e-02
-3.779808878898620605e-01
-4.484107196331024170e-01
6.151646375656127930e-02
-6.510131061077117920e-02
-2.772720158100128174e-01
-2.458292990922927856e-01
1.156321540474891663e-02
1.171244010329246521e-01
3.910351544618606567e-02
1.839118264615535736e-02
9.012944996356964111e-02
-1.626510918140411377e-01
2.300539612770080566e-01
-7.286145538091659546e-02
3.972567021846771240e-01
-5.414254963397979736e-02
-2.529579401016235352e-01
-1.753258109092712402e-01
-2.219891846179962158e-01
1.119484230875968933e-01
-7.118862867355346680e-02
1.124557405710220337e-01
1.130715459585189819e-01
-1.076850946992635727e-02
-2.353409528732299805e-01
-2.375068068504333496e-01
-7.301753014326095581e-02
-1.787076294422149658e-01
-1.223017871379852295e-01
-4.185466766357421875e-01
-2.162169367074966431e-01
-1.779221892356872559e-01
2.301817983388900757e-01
1.840513944625854492e-01
2.152713537216186523e-01
-1.951856166124343872e-01
-3.364528343081474304e-02
-2.882607653737068176e-02
1.216544806957244873e-01
-2.596361562609672546e-02
-8.675915747880935669e-02
1.207898408174514771e-01
1.945801228284835815e-01
5.251359343528747559e-01
4.310911595821380615e-01
5.560399219393730164e-02
-1.437523066997528076e-01
-4.292227327823638916e-01
-2.505879104137420654e-01
4.376101195812225342e-01
1.279312968254089355e-01
2.640608698129653931e-02
-2.181924581527709961e-01
-1.880138367414474487e-01
-4.862377420067787170e-02
-1.801127344369888306e-01
1.811208087019622326e-03
3.746525645256042480e-01
6.777039170265197754e-02
1.507599800825119019e-01
4.192723333835601807e-02
-1.575201191008090973e-02
-5.113259330391883850e-02
1.659679561853408813e-01
-2.400209158658981323e-01
-5.102398991584777832e-02
1.620582491159439087e-01
3.668188750743865967e-01
8.633740991353988647e-02
2.706449106335639954e-02
-4.952000081539154053e-01
-1.759599596261978149e-01
1.044152677059173584e-01
-1.186213120818138123e-01
6.336049735546112061e-02
-6.657043844461441040e-02
7.792436331510543823e-02
4.346249625086784363e-02
3.005345165729522705e-02
7.584320008754730225e-02
-1.746280342340469360e-01
1.259434688836336136e-02
1.668628156185150146e-01
-2.153940647840499878e-01
6.175866816192865372e-03
1.650470048189163208e-01
6.807474046945571899e-02
-1.035573706030845642e-01
-2.488157153129577637e-01
6.300418823957443237e-02
2.585398554801940918e-01
5.900964736938476562e-01
1.046039387583732605e-01
-5.747346282005310059e-01
-7.844036817550659180e-01
-4.709865450859069824e-01
2.996758222579956055e-01
5.326558351516723633e-01
2.846526205539703369e-01
1.996826827526092529e-01
-3.015996813774108887e-01
-2.552068531513214111e-01
3.105340600013732910e-01
-3.594822064042091370e-02
-2.614289522171020508e-01
-2.720221877098083496e-01
-2.676583826541900635e-01
2.111661434173583984e-01
-2.416545450687408447e-01
-5.658268462866544724e-03
-1.575781404972076416e-01
-3.047672212123870850e-01
-1.090179681777954102e-01
2.100588083267211914e-01
2.247238159179687500e-01
-1.835423260927200317e-01
-4.617046117782592773e-01
-5.624272227287292480e-01
1.294697448611259460e-02
6.573200225830078125e-02
-3.548489212989807129e-01
2.881878316402435303e-01
-4.621327295899391174e-02
-1.682882308959960938e-01
2.804921865463256836e-01
-2.530162334442138672e-01
-5.190759301185607910e-01
-1.642465889453887939e-01
1.701035052537918091e-01
3.663411140441894531e-01
5.037987828254699707e-01
-1.102306321263313293e-01
-1.105488166213035583e-01
4.205083847045898438e-02
1.532513052225112915e-01
3.713080659508705139e-02
1.199143454432487488e-01
1.580270677804946899e-01
1.295464336872100830e-01
6.026935204863548279e-02
-1.990912109613418579e-01
-1.493468433618545532e-01
1.460191607475280762e-01
3.610135912895202637e-01
-3.335113823413848877e-02
-1.540204733610153198e-01
-3.472047448158264160e-01
-1.160314083099365234e-01
1.501368284225463867e-01
3.387828469276428223e-01
1.992636620998382568e-01
1.054452806711196899e-01
-2.849089801311492920e-01
-5.308133959770202637e-01
-1.818279027938842773e-01
1.900542676448822021e-01
2.410203665494918823e-01
2.096416205167770386e-01
-3.078147210180759430e-02
-3.172560408711433411e-02
-7.885503768920898438e-02
-8.281650394201278687e-02
-3.704981505870819092e-01
-2.632866501808166504e-01
3.114414811134338379e-01
-5.197328329086303711e-01
2.596000768244266510e-02
3.770427107810974121e-01
6.368103623390197754e-02
-7.022241353988647461e-01
4.164692163467407227e-01
4.041455686092376709e-01
-5.274808406829833984e-01
-5.456243082880973816e-02
3.109031319618225098e-01
1.236575990915298462e-01
-6.155520081520080566e-01
3.764264583587646484e-01
2.616669535636901855e-01
-4.249231219291687012e-01
-8.167286217212677002e-02
4.096871316432952881e-01
1.733774691820144653e-02
-5.521201491355895996e-01
4.138266742229461670e-01
2.129839658737182617e-01
-4.684640467166900635e-01
5.537977442145347595e-03
4.126267135143280029e-01
2.376084960997104645e-02
-7.540915012359619141e-01
6.168085336685180664e-01
3.897877410054206848e-02
-1.642238944768905640e-01
8.493556976318359375e-01
4.203992486000061035e-01
-2.774553000926971436e-01
1.579593569040298462e-01
-2.257195115089416504e-01
-1.786257624626159668e-01
-1.115690320730209351e-01
6.999094784259796143e-02
1.752557307481765747e-01
2.764157354831695557e-01
2.893503308296203613e-01
-5.192696303129196167e-02
1.616595983505249023e-01
-3.000596463680267334e-01
9.464547038078308105e-02
-1.781483553349971771e-02
1.791766583919525146e-01
-2.067779302597045898e-01
-3.702019574120640755e-03
1.921219527721405029e-01
4.351149499416351318e-01
2.416902221739292145e-02
-4.139228165149688721e-01
-2.058091610670089722e-01
8.545579761266708374e-02
9.658305346965789795e-02
3.455363810062408447e-01
6.072537973523139954e-02
-4.709933996200561523e-01
2.646747231483459473e-01
8.486443012952804565e-02
2.880818247795104980e-01
-6.034532189369201660e-02
-2.426393032073974609e-01
-3.227116763591766357e-01
-1.819299012422561646e-01
-1.030964329838752747e-01
-7.316505163908004761e-02
1.037736311554908752e-01
-2.062055468559265137e-02
-1.949120312929153442e-01
-1.452478021383285522e-01
3.713723123073577881e-01
2.288997918367385864e-02
1.040564700961112976e-01
1.346161812543869019e-01
-5.797677487134933472e-02
2.426625192165374756e-01
3.954022657126188278e-03
-3.310092389583587646e-01
2.548431158065795898e-01
3.324567377567291260e-01
1.788842380046844482e-01
3.450391590595245361e-01
-1.973112523555755615e-01
-2.056280970573425293e-01
-2.261219173669815063e-02
2.497397214174270630e-01
5.703183263540267944e-02
-2.947869002819061279e-01
-3.728740513324737549e-01
-3.001470863819122314e-01
-1.125043258070945740e-01
4.419053494930267334e-01
4.333878159523010254e-01
-2.816338464617729187e-02
9.094072878360748291e-02
-2.569311261177062988e-01
-3.594858348369598389e-01
-2.406751215457916260e-01
6.194660812616348267e-02
3.847302496433258057e-01
1.631650626659393311e-01
6.175323203206062317e-02
1.809048801660537720e-01
-1.597360074520111084e-01
-2.788366377353668213e-01
-3.883658051490783691e-01
-4.718520119786262512e-02
1.744639128446578979e-01
2.381978482007980347e-01
2.691336274147033691e-01
2.188239805400371552e-02
1.744137108325958252e-01
-4.006882309913635254e-01
-4.124163091182708740e-01
-7.057143002748489380e-02
5.431701242923736572e-02
2.018581926822662354e-01
3.999582827091217041e-01
-3.268060684204101562e-01
-3.483072519302368164e-01
-4.151573479175567627e-01
1.416470259428024292e-01
1.847561448812484741e-01
5.079172253608703613e-01
2.162428498268127441e-01
1.255435943603515625e-01
-5.231086164712905884e-03
-2.049078941345214844e-01
-5.127264261245727539e-01
-2.926135361194610596e-01
-7.772081345319747925e-02
3.107134699821472168e-01
1.194569617509841919e-01
2.710429728031158447e-01
3.598661720752716064e-01
1.301664113998413086e-01
2.194290310144424438e-01
-3.726278841495513916e-01
-4.339564442634582520e-01
-1.906367242336273193e-01
1.159496325999498367e-02
2.046524435281753540e-01
2.003454267978668213e-01
7.843201607465744019e-02
-1.569625437259674072e-01
8.185259997844696045e-02
9.374300390481948853e-02
-2.278219610452651978e-01
3.756760060787200928e-01
1.715611517429351807e-01
-1.993723213672637939e-01
-1.792369335889816284e-01
3.736906945705413818e-01
3.305314481258392334e-01
-2.229465544223785400e-01
-3.847760260105133057e-01
-1.546379178762435913e-01
-8.980257809162139893e-02
5.217322707176208496e-01
4.358908534049987793e-01
7.915703952312469482e-02
-2.999899685382843018e-01
-3.599836528301239014e-01
1.218230649828910828e-01
2.162628322839736938e-01
2.780442833900451660e-01
-2.054056674242019653e-01
-1.620039343833923340e-01
1.607147008180618286e-01
-1.445081979036331177e-01
4.650064408779144287e-01
4.175828099250793457e-01
-3.106984496116638184e-02
-2.126500606536865234e-01
-4.819366335868835449e-01
7.849856466054916382e-02
-5.980739742517471313e-02
3.134307265281677246e-01
2.627069503068923950e-02
-4.435517359524965286e-03
4.877377673983573914e-02
2.600964903831481934e-01
-1.056271884590387344e-02
1.919741481542587280e-01
5.472049489617347717e-02
-2.720459699630737305e-01
7.559665292501449585e-02
-3.010629713535308838e-01
-1.395751982927322388e-01
-5.489245653152465820e-01
-5.243483185768127441e-01
1.309337317943572998e-01
2.391907870769500732e-01
3.749799728393554688e-01
3.465626835823059082e-01
3.402465581893920898e-01
6.633964926004409790e-02
-2.424018681049346924e-01
3.646396473050117493e-02
-4.591313302516937256e-01
7.865109294652938843e-02
7.456648349761962891e-02
4.597367346286773682e-01
-6.896623969078063965e-02
-3.577989339828491211e-01
-1.255922317504882812e-01
4.483226686716079712e-02
3.412505388259887695e-01
1.572057753801345825e-01
-3.134710788726806641e-01
1.399110406637191772e-01
1.943227946758270264e-01
-2.180063575506210327e-01
-2.075945027172565460e-03
4.535586759448051453e-02
-2.702923677861690521e-02
5.583085864782333374e-02
-8.748566359281539917e-02
2.818842232227325439e-02
-7.629899680614471436e-02
9.744883328676223755e-02
4.408458713442087173e-03
1.069723069667816162e-02
-2.419333308935165405e-01
2.217291444540023804e-01
2.593421041965484619e-01
-3.896000385284423828e-01
1.158637180924415588e-02
1.040959954261779785e-01
4.818468093872070312e-01
-1.522164046764373779e-01
-1.733213812112808228e-01
-6.839618086814880371e-01
-5.476835966110229492e-01
8.073077201843261719e-01
9.245067834854125977e-01
2.695975638926029205e-02
-6.364783048629760742e-01
-2.876845896244049072e-01
-5.281289666891098022e-02
1.951124221086502075e-01
5.921532213687896729e-02
1.070487350225448608e-01
-8.022190071642398834e-03
1.658691167831420898e-01
1.207524463534355164e-01
6.548991054296493530e-02
-2.087162286043167114e-01
2.796932160854339600e-01
-5.547939240932464600e-02
-2.351997941732406616e-01
-2.390453517436981201e-01
7.510243356227874756e-02
2.500167191028594971e-01
3.856119215488433838e-01
3.187376260757446289e-02
-5.070503950119018555e-01
1.232190802693367004e-01
1.700273454189300537e-01
-2.464590519666671753e-01
-2.574546635150909424e-01
-2.201514393091201782e-01
3.333539366722106934e-01
5.731376409530639648e-01
1.578925997018814087e-01
-1.322979331016540527e-01
-1.222796812653541565e-01
5.470653176307678223e-01
