2.837846279144287109e-01
4.113223254680633545e-01
-5.675226449966430664e-02
-3.819870948791503906e-02
2.367318980395793915e-02
8.190219104290008545e-02
-1.278452724218368530e-01
-2.556065917015075684e-01
-1.993117928504943848e-01
1.797851324081420898e-01
5.818596482276916504e-01
6.232546567916870117e-01
1.166412606835365295e-01
-7.311436533927917480e-02
-2.703033983707427979e-01
1.427754610776901245e-01
9.594635665416717529e-02
-7.600648701190948486e-02
2.032725885510444641e-02
-1.820428371429443359e-01
-7.843833416700363159e-02
4.145834222435951233e-02
1.373731996864080429e-02
-1.229190528392791748e-01
-1.164584159851074219e-01
-5.832414608448743820e-03
-1.649187207221984863e-01
-2.579449117183685303e-01
-2.107603400945663452e-01
-2.073377743363380432e-02
2.534787058830261230e-01
5.510728955268859863e-01
-5.041931867599487305e-01
-1.068956777453422546e-01
3.534504771232604980e-01
-5.459607113152742386e-03
-4.124048650264739990e-01
-2.966555356979370117e-01
-1.188503503799438477e-01
-1.355778127908706665e-01
1.686437427997589111e-01
-1.416087746620178223e-01
1.433053016662597656e-01
1.706395149230957031e-01
1.487712264060974121e-01
-1.661817282438278198e-01
1.518048048019409180e-01
-1.909804646857082844e-03
-3.619012609124183655e-02
1.640868037939071655e-01
-6.938721053302288055e-03
2.108869701623916626e-01
4.633229598402976990e-02
5.816835910081863403e-02
-1.406374126672744751e-01
1.888423264026641846e-01
-1.483488827943801880e-01
-2.667248547077178955e-01
-2.923820018768310547e-01
7.667838037014007568e-02
-1.724312603473663330e-01
-9.387728571891784668e-02
-1.112372726202011108e-01
6.335192918777465820e-01
-2.673562765121459961e-01
2.135490775108337402e-01
-1.703159138560295105e-02
5.204957444220781326e-03
-1.368918269872665405e-01
-3.667564392089843750e-01
7.060441374778747559e-01
5.580103993415832520e-01
-6.379604456014931202e-04
1.133872643113136292e-01
-3.082602024078369141e-01
-1.319337040185928345e-01
-2.054814696311950684e-01
-1.516141444444656372e-01
5.864491686224937439e-02
5.433919653296470642e-02
-2.254855260252952576e-02
2.325925529003143311e-01
-7.316832989454269409e-02
3.176222741603851318e-02
1.216528937220573425e-01
1.052286550402641296e-01
-9.160877019166946411e-02
-1.072361692786216736e-01
-1.817505806684494019e-02
6.599511206150054932e-02
6.327687203884124756e-02
-1.355763524770736694e-01
-2.029730528593063354e-01
9.983926266431808472e-02
3.039760589599609375e-01
3.397968411445617676e-01
-9.596395492553710938e-02
1.213448196649551392e-01
-5.941482260823249817e-03
-3.850786089897155762e-01
-5.649128463119268417e-03
1.898619979619979858e-01
4.264102876186370850e-01
3.480237424373626709e-01
1.806548088788986206e-01
1.500381529331207275e-01
-2.102709375321865082e-02
6.005115807056427002e-02
-5.277154501527547836e-03
4.127944707870483398e-01
5.348321199417114258e-01
2.624346017837524414e-01
2.095584869384765625e-01
-3.520938009023666382e-02
-1.327854096889495850e-01
8.525815606117248535e-02
-1.972322762012481689e-01
2.960020489990711212e-02
-8.431182056665420532e-02
-2.692083641886711121e-02
-2.956654131412506104e-01
-6.858538091182708740e-02
2.892519906163215637e-02
6.513429433107376099e-02
3.170153796672821045e-01
-2.870928728953003883e-03
-1.368501409888267517e-02
-5.629765987396240234e-02
3.324029147624969482e-01
1.270830482244491577e-01
-4.924619495868682861e-01
-8.467776328325271606e-02
2.528364956378936768e-01
1.831778287887573242e-01
-6.251735240221023560e-02
-1.373508274555206299e-01
1.826866120100021362e-01
2.560019120573997498e-02
3.772845566272735596e-01
-7.452739402651786804e-03
-7.283649593591690063e-02
-1.219671890139579773e-01
-9.761420078575611115e-03
1.451822221279144287e-01
3.904414549469947815e-02
-1.534041166305541992e-01
1.568824052810668945e-01
2.347114384174346924e-01
-1.529531031847000122e-01
9.963661432266235352e-02
-8.351543545722961426e-02
-5.212289467453956604e-02
-2.640992775559425354e-02
8.388790301978588104e-03
7.901738584041595459e-02
1.240957975387573242e-01
9.269630163908004761e-02
-3.450650274753570557e-01
-1.303671449422836304e-01
5.585452914237976074e-01
5.532249435782432556e-02
-2.138179540634155273e-01
-1.676333695650100708e-01
-2.027760595083236694e-01
-5.263200029730796814e-02
2.701613865792751312e-02
-1.759001612663269043e-02
1.864729970693588257e-01
-2.206993997097015381e-01
1.265621930360794067e-01
-1.823222786188125610e-01
8.160857111215591431e-02
-1.927369385957717896e-01
-4.085478186607360840e-02
-8.181770145893096924e-02
3.375020325183868408e-01
3.618871271610260010e-01
2.253391146659851074e-01
1.571182347834110260e-02
-2.858217060565948486e-02
2.534362077713012695e-01
-1.523512303829193115e-01
-3.536514639854431152e-01
-3.291111588478088379e-01
-2.371196597814559937e-01
-7.722821086645126343e-02
-6.416364014148712158e-02
-8.192477375268936157e-02
3.905895948410034180e-01
2.004404366016387939e-01
-9.408292919397354126e-02
-6.924138665199279785e-01
-3.624911904335021973e-01
-1.792742311954498291e-01
1.095320284366607666e-01
2.148463875055313110e-01
2.839747369289398193e-01
2.391587793827056885e-01
-1.534935832023620605e-01
-5.120644718408584595e-02
-2.067443355917930603e-02
-2.797590494155883789e-01
1.707814931869506836e-01
6.979814916849136353e-02
1.519169360399246216e-01
3.567021191120147705e-01
1.307487953454256058e-02
-1.474735885858535767e-01
-2.326332479715347290e-01
-6.534259766340255737e-02
-9.376764297485351562e-02
-3.061550855636596680e-02
-5.452846363186836243e-02
1.449429690837860107e-01
-7.841625809669494629e-02
-4.780345782637596130e-02
-2.257012426853179932e-01
-5.634324997663497925e-02
-3.293208479881286621e-01
-6.355001777410507202e-02
7.879076898097991943e-02
4.043932855129241943e-01
4.324902594089508057e-02
-1.299257278442382812e-01
-5.788972228765487671e-02
7.573106288909912109e-01
1.146750897169113159e-01
-4.680765271186828613e-01
-3.423482179641723633e-01
-3.882643878459930420e-01
1.325949132442474365e-01
5.247970819473266602e-01
8.261638134717941284e-02
-2.683576941490173340e-01
-1.513916105031967163e-01
1.919386982917785645e-01
-1.766418814659118652e-01
1.034864932298660278e-01
4.070554971694946289e-01
8.576691150665283203e-02
-9.391293674707412720e-02
-8.740829676389694214e-02
-9.014082700014114380e-02
-2.030854523181915283e-01
9.801938384771347046e-02
2.504088282585144043e-01
-2.666237764060497284e-02
3.594123125076293945e-01
8.238299936056137085e-02
-1.062450781464576721e-01
-1.543176025152206421e-01
-1.695729196071624756e-01
2.091369032859802246e-01
1.602448076009750366e-01
-4.458932876586914062e-01
3.993836045265197754e-01
-3.588932454586029053e-01
7.056938111782073975e-02
-2.463333755731582642e-01
-3.230200707912445068e-01
5.558227747678756714e-02
-1.401830464601516724e-01
3.746478259563446045e-02
-3.182866573333740234e-01
1.431005299091339111e-01
-1.686188206076622009e-02
1.515073422342538834e-02
2.811064720153808594e-01
2.221264988183975220e-01
-2.779328227043151855e-01
-9.177809208631515503e-02
-8.693020790815353394e-02
-1.097148135304450989e-01
-1.296802014112472534e-01
7.459087669849395752e-02
-1.009973362088203430e-01
-4.508540779352188110e-02
9.394479542970657349e-02
-2.339961975812911987e-01
-2.355971746146678925e-02
-1.121972948312759399e-01
-6.716657429933547974e-02
-1.456906646490097046e-01
-9.837690740823745728e-02
3.665638566017150879e-01
3.472381234169006348e-01
2.179520428180694580e-01
-7.615386694669723511e-02
7.766760885715484619e-02
-2.306722998619079590e-01
-2.579815685749053955e-01
5.021489784121513367e-02
1.198038309812545776e-01
-1.327582746744155884e-01
-3.282863646745681763e-02
-2.974164485931396484e-01
2.481913007795810699e-02
7.528191804885864258e-02
-2.796105444431304932e-01
-5.835533514618873596e-02
2.094579786062240601e-01
-1.947142183780670166e-01
-2.052446156740188599e-01
-2.330653369426727295e-01
7.681836187839508057e-02
4.365599453449249268e-01
1.482725143432617188e-01
-1.251027686521410942e-03
-1.100306287407875061e-01
-6.164783611893653870e-02
-1.973340064287185669e-01
6.532087177038192749e-02
3.631921410560607910e-01
3.307708501815795898e-01
6.752788275480270386e-02
-2.359873242676258087e-02
-3.333959579467773438e-01
-1.406383961439132690e-01
6.890271604061126709e-02
-3.430627286434173584e-01
4.655163288116455078e-01
2.186360359191894531e-01
2.664460241794586182e-01
7.500676065683364868e-02
-8.070726692676544189e-02
-7.280533015727996826e-02
-2.274181544780731201e-01
8.036366850137710571e-02
-2.686367742717266083e-02
1.725389212369918823e-01
1.085826382040977478e-02
1.450759768486022949e-01
-1.270654052495956421e-01
-8.140659332275390625e-02
-5.129091814160346985e-02
-3.774237930774688721e-01
-9.231811761856079102e-02
1.226304620504379272e-01
-8.660887181758880615e-02
1.000131443142890930e-01
9.846300631761550903e-02
-2.544547915458679199e-01
-1.483263820409774780e-01
1.729785352945327759e-01
-1.852979697287082672e-02
-4.727877676486968994e-02
-2.693197131156921387e-01
-2.216628342866897583e-01
1.209166646003723145e-01
2.810165286064147949e-01
4.737885296344757080e-02
1.518793106079101562e-01
-1.528050601482391357e-01
-1.706992387771606445e-01
-2.845740020275115967e-01
1.717436909675598145e-01
5.521961450576782227e-01
1.797849684953689575e-01
-3.232401013374328613e-01
-4.432165622711181641e-01
-2.019657790660858154e-01
1.395680159330368042e-01
5.707809329032897949e-01
2.946896851062774658e-01
-1.335192471742630005e-02
-4.243014156818389893e-01
-3.028146922588348389e-01
1.701623350381851196e-01
3.114936351776123047e-01
3.977247178554534912e-01
1.057373825460672379e-02
-4.367617368698120117e-01
-3.052540719509124756e-01
-1.222311854362487793e-01
1.137712672352790833e-01
4.582907259464263916e-01
1.867788583040237427e-01
-1.484298855066299438e-01
-4.008207917213439941e-01
-1.256992071866989136e-01
-4.380455613136291504e-01
1.166687831282615662e-01
1.850592494010925293e-01
2.693178951740264893e-01
-5.858033895492553711e-01
-1.645553112030029297e-02
2.022671997547149658e-01
-4.692154005169868469e-02
-3.066058754920959473e-01
-2.997016310691833496e-01
-2.375310808420181274e-01
-8.783011138439178467e-02
8.136700093746185303e-02
-1.620126068592071533e-01
-1.617299765348434448e-01
-1.618792265653610229e-01
-3.796337842941284180e-01
-6.166183855384588242e-03
-4.344202205538749695e-02
-2.740146219730377197e-01
-5.530845746397972107e-02
-7.390023022890090942e-02
-2.391459792852401733e-01
-1.665478199720382690e-01
-2.366567105054855347e-01
-2.476841807365417480e-01
-6.635572016239166260e-02
2.145901694893836975e-02
-2.020014673471450806e-01
-2.304647415876388550e-01
-1.797824651002883911e-01
1.501704901456832886e-01
-4.822788387537002563e-02
-3.206903859972953796e-02
-8.672112971544265747e-02
-2.523875534534454346e-01
-3.867212533950805664e-01
-4.128901660442352295e-02
-2.727131247520446777e-01
-1.481550037860870361e-01
-5.706308409571647644e-02
1.976215094327926636e-01
1.824973076581954956e-01
-3.003055453300476074e-01
-3.332492336630821228e-02
5.132647231221199036e-02
1.813019439578056335e-02
-6.152170896530151367e-02
7.916133105754852295e-02
-4.188789054751396179e-02
-1.551578342914581299e-01
-6.188793852925300598e-02
-1.799961626529693604e-01
-2.765705585479736328e-01
-6.535701453685760498e-02
8.073635399341583252e-02
1.760269552469253540e-01
-2.657709717750549316e-01
7.718045264482498169e-02
-1.159199029207229614e-01
-3.960098698735237122e-02
1.316335946321487427e-01
2.160187214612960815e-01
-1.855256706476211548e-01
-1.039117109030485153e-02
-2.042440026998519897e-01
-6.392721831798553467e-02
-5.703463554382324219e-01
-8.327442407608032227e-01
-2.043830454349517822e-01
1.650960892438888550e-01
1.606441885232925415e-01
1.414029747247695923e-01
3.291521668434143066e-01
-2.509257383644580841e-02
2.103659510612487793e-01
-3.141812086105346680e-01
-1.139920651912689209e-01
-1.235010474920272827e-01
3.822548314929008484e-02
2.892982959747314453e-02
-8.573945611715316772e-03
-2.694326452910900116e-02
1.618786714971065521e-02
-4.701118543744087219e-02
8.598414808511734009e-02
9.696307778358459473e-02
1.573200225830078125e-01
1.481347084045410156e-01
2.230750024318695068e-01
-4.619749262928962708e-02
-2.961169481277465820e-01
-1.344686448574066162e-01
-2.371155917644500732e-01
1.465985625982284546e-01
2.596975564956665039e-01
2.409118413925170898e-01
2.072379887104034424e-01
-2.792545221745967865e-02
-6.131266951560974121e-01
5.014007091522216797e-01
9.226176887750625610e-02
1.091950759291648865e-01
1.805286109447479248e-01
3.983198851346969604e-02
-1.834219992160797119e-01
-2.960475087165832520e-01
-7.781004160642623901e-02
2.979631423950195312e-01
-1.014853194355964661e-01
-3.183177709579467773e-01
-2.055556178092956543e-01
1.400770395994186401e-01
2.464971542358398438e-01
2.070224583148956299e-01
-1.880103647708892822e-01
-3.665634393692016602e-01
-3.204527199268341064e-01
-1.146829724311828613e-01
-3.562403097748756409e-02
1.608827710151672363e-01
2.742694020271301270e-01
-2.289122194051742554e-01
2.143809795379638672e-01
3.306946456432342529e-01
-3.028948977589607239e-02
-2.047132402658462524e-01
8.488856256008148193e-03
-3.486944437026977539e-01
-9.863932617008686066e-03
-2.806352078914642334e-01
9.132134169340133667e-02
-4.149728119373321533e-01
-2.619879245758056641e-01
-3.152990341186523438e-01
6.672205924987792969e-01
4.031197428703308105e-01
-1.156081333756446838e-01
1.176113858819007874e-01
1.068343967199325562e-01
1.912654004991054535e-02
-1.392328590154647827e-01
-4.605576395988464355e-02
2.039360851049423218e-01
1.709114909172058105e-01
-8.726104348897933960e-02
-1.960631161928176880e-01
3.104336932301521301e-02
9.926590323448181152e-02
-1.121754273772239685e-01
1.764869093894958496e-01
-9.430762380361557007e-02
-1.069746166467666626e-01
-4.118191823363304138e-02
-5.750062689185142517e-02
6.369590014219284058e-02
-2.488168179988861084e-01
-7.915186882019042969e-02
-6.713704764842987061e-02
2.721515595912933350e-01
5.379355549812316895e-01
1.745003610849380493e-01
-3.758284747600555420e-01
-8.584175705909729004e-01
-8.629826456308364868e-02
1.271188259124755859e-01
-7.336021959781646729e-02
-2.442455850541591644e-02
1.789146512746810913e-01
-2.119086682796478271e-01
1.722428053617477417e-01
-1.090763956308364868e-01
-3.246590197086334229e-01
2.947144806385040283e-01
-1.838210225105285645e-01
-9.876258671283721924e-02
-3.140062987804412842e-01
-3.417621254920959473e-01
3.753949403762817383e-01
1.985744945704936981e-02
2.209556549787521362e-01
1.259145885705947876e-01
-2.588924169540405273e-01
9.612431377172470093e-02
-1.206635124981403351e-02
3.472831547260284424e-01
-1.859742216765880585e-02
-5.153379589319229126e-02
-5.766662582755088806e-02
8.772017806768417358e-02
-1.141331866383552551e-01
-3.016692772507667542e-02
-4.187329709529876709e-01
-2.658222615718841553e-01
3.119917213916778564e-01
5.203596949577331543e-01
-1.662265509366989136e-01
-2.046158462762832642e-01
-1.262113749980926514e-01
-3.509364426136016846e-01
3.734148740768432617e-01
1.097153648734092712e-01
-3.211211562156677246e-01
6.567555665969848633e-02
1.619780994951725006e-02
1.285381615161895752e-01
-1.860795170068740845e-02
-5.077520012855529785e-02
2.557711601257324219e-01
-2.274243086576461792e-01
-2.706286311149597168e-01
-9.481021761894226074e-02
4.300740957260131836e-01
-2.881814958527684212e-03
-1.443778127431869507e-01
-2.989122271537780762e-01
2.920800745487213135e-01
3.633092045783996582e-01
-1.079792231321334839e-01
-2.771829664707183838e-01
4.977256059646606445e-01
2.431065887212753296e-01
7.658005505800247192e-02
-5.382500290870666504e-01
-2.733516395092010498e-01
-1.166335120797157288e-02
-3.375368714332580566e-01
-2.322876751422882080e-01
-6.451778411865234375e-01
2.371908724308013916e-01
2.434112876653671265e-01
1.888952106237411499e-01
1.887275278568267822e-01
9.288961440324783325e-02
5.693189799785614014e-02
1.231364980340003967e-01
-4.046549201011657715e-01
-2.625516653060913086e-01
1.096191629767417908e-01
5.118967890739440918e-01
2.186008729040622711e-02
1.426987498998641968e-01
2.792035639286041260e-01
2.608732581138610840e-01
-2.599992752075195312e-01
-6.977153569459915161e-02
3.690195083618164062e-02
1.258635967969894409e-01
2.342479974031448364e-01
4.103375226259231567e-02
2.575123310089111328e-01
-1.961113065481185913e-01
-3.475315868854522705e-01
-7.846733927726745605e-02
1.581744104623794556e-01
-2.602441003546118736e-03
-1.031220257282257080e-01
-3.069455325603485107e-01
-9.024874866008758545e-02
-2.243005037307739258e-01
-1.338383257389068604e-01
-3.145927190780639648e-02
3.261137008666992188e-02
1.605749577283859253e-01
7.446666806936264038e-02
-3.358478099107742310e-02
-1.854748278856277466e-01
-3.196720480918884277e-01
-2.478310465812683105e-01
1.343612968921661377e-01
-1.733104437589645386e-01
-1.727302819490432739e-01
-1.093911752104759216e-01
1.284787952899932861e-01
-1.305759549140930176e-01
-1.415347456932067871e-01
-2.745067179203033447e-01
-2.205529808998107910e-01
-3.653279244899749756e-01
-5.712400004267692566e-02
2.036042660474777222e-01
1.016287133097648621e-01
2.241328507661819458e-01
1.084324121475219727e-01
5.537857860326766968e-02
-9.268296509981155396e-02
-1.460749357938766479e-01
-5.565475672483444214e-02
1.101089641451835632e-01
1.708479672670364380e-01
-5.098108667880296707e-04
4.831118583679199219e-01
4.710513651371002197e-01
4.531415924429893494e-02
2.261942252516746521e-02
-4.014737904071807861e-01
-1.751662492752075195e-01
-2.272136658430099487e-01
-1.410517096519470215e-01
-4.809205234050750732e-02
-3.076961636543273926e-02
6.349838525056838989e-02
-7.335916906595230103e-02
2.946271002292633057e-01
5.611101910471916199e-02
-1.976124793291091919e-01
-4.379796683788299561e-01
-1.202258914709091187e-01
6.291603446006774902e-01
1.836492270231246948e-01
2.113250829279422760e-02
-4.102121591567993164e-01
-3.250001072883605957e-01
-3.432008922100067139e-01
-6.741211563348770142e-02
-8.469992317259311676e-03
-1.320606768131256104e-01
5.080113932490348816e-02
1.240832060575485229e-01
1.477660983800888062e-01
-1.141613069921731949e-02
-2.227255254983901978e-01
-1.893354356288909912e-01
1.088625490665435791e-01
-2.041930407285690308e-01
7.335409522056579590e-02
1.171811893582344055e-01
-1.374720185995101929e-01
3.679228946566581726e-02
1.271243542432785034e-01
-3.159573972225189209e-01
-2.426369190216064453e-01
-3.182116895914077759e-02
-1.792707666754722595e-02
2.724131047725677490e-01
-1.045069172978401184e-01
-2.077167928218841553e-01
-3.558573126792907715e-01
-3.608675003051757812e-01
3.332483116537332535e-03
2.192861139774322510e-01
2.058335393667221069e-01
1.762907803058624268e-01
7.961413264274597168e-02
-2.478988766670227051e-01
-1.629353761672973633e-01
2.708027362823486328e-01
1.539895683526992798e-01
-1.128107458353042603e-01
1.293763071298599243e-01
-2.346446812152862549e-01
-2.041763067245483398e-01
-3.102870881557464600e-01
2.062139362096786499e-01
-5.603192374110221863e-02
-1.150306090712547302e-01
-1.274724155664443970e-01
3.513239920139312744e-01
3.482680618762969971e-01
-4.331898689270019531e-02
-3.652677685022354126e-02
-2.776423990726470947e-01
-6.162932142615318298e-02
-2.661809027194976807e-01
-2.039727568626403809e-01
2.796505577862262726e-02
5.275586619973182678e-02
1.488232165575027466e-01
2.951002717018127441e-01
-1.392157971858978271e-01
-6.128805875778198242e-02
-2.330924011766910553e-02
-7.418046146631240845e-02
4.189211726188659668e-01
1.051629781723022461e-01
2.422028481960296631e-01
-8.368493616580963135e-02
-3.596042748540639877e-03
-2.667438983917236328e-01
1.346772760152816772e-01
-5.663352832198143005e-02
-1.059078518301248550e-02
-1.146003082394599915e-01
3.655245527625083923e-02
1.075386106967926025e-01
-8.605433255434036255e-02
-7.499384135007858276e-02
-2.659122943878173828e-01
-3.392177522182464600e-01
-3.193064332008361816e-01
1.777841746807098389e-01
2.282600551843643188e-01
-1.485847830772399902e-01
1.781774312257766724e-01
-2.708771638572216034e-02
-4.469481706619262695e-01
3.516660928726196289e-01
-2.160263806581497192e-01
-5.699103474617004395e-01
2.601683735847473145e-01
-1.719425469636917114e-01
-5.049791559576988220e-02
3.218158781528472900e-01
-5.276083946228027344e-02
2.148239165544509888e-01
-3.615400791168212891e-01
-7.521870732307434082e-02
-3.337863981723785400e-01
-4.792387783527374268e-01
-1.253280043601989746e-01
2.008484117686748505e-02
-4.224202409386634827e-02
-2.561195194721221924e-01
-1.508852094411849976e-01
2.511589527130126953e-01
4.601370543241500854e-02
-9.035002440214157104e-02
2.006847411394119263e-01
3.634513318538665771e-01
4.074920117855072021e-01
6.086295843124389648e-02
-1.153352782130241394e-01
1.680641919374465942e-01
-5.745507776737213135e-02
-5.262134075164794922e-01
-1.041722893714904785e-01
1.845062077045440674e-01
-3.398015797138214111e-01
-1.486538648605346680e-01
1.501294374465942383e-01
-1.429541707038879395e-01
2.979130111634731293e-02
4.268725514411926270e-01
4.570934176445007324e-01
3.636492416262626648e-02
9.007440507411956787e-02
3.040873110294342041e-01
1.980700939893722534e-01
-2.513540387153625488e-01
3.986822068691253662e-02
-5.624581128358840942e-02
-2.069353163242340088e-01
-1.884281337261199951e-01
2.532976567745208740e-01
-8.922992646694183350e-02
-3.796174228191375732e-01
2.113613039255142212e-01
1.755472421646118164e-01
-2.193723320960998535e-01
-1.621661037206649780e-01
2.472813576459884644e-01
-2.050102651119232178e-01
1.862710565328598022e-01
1.395292431116104126e-01
2.323674857616424561e-01
-1.068037450313568115e-01
1.840428709983825684e-01
-9.807304292917251587e-02
-1.323178112506866455e-01
1.085423901677131653e-01
-9.758192300796508789e-02
1.604320108890533447e-02
-3.339288011193275452e-02
-7.665316760540008545e-02
-8.379986137151718140e-02
3.292733430862426758e-01
2.948463708162307739e-02
2.218677848577499390e-01
-3.788601160049438477e-01
-4.512245059013366699e-01
-3.632775843143463135e-01
-4.146959185600280762e-01
-8.415179699659347534e-02
-1.073785871267318726e-02
-2.792018353939056396e-01
2.276906073093414307e-01
3.259686529636383057e-01
3.419345915317535400e-01
3.005002439022064209e-01
2.364996373653411865e-01
2.643753588199615479e-02
-3.889667242765426636e-02
-5.829832982271909714e-03
-6.474694609642028809e-02
-2.068032510578632355e-02
8.476682305335998535e-01
4.012612104415893555e-01
-7.540017366409301758e-01
-1.058693170547485352e+00
-4.864989519119262695e-01
-1.456767134368419647e-02
7.025499939918518066e-01
6.348909139633178711e-01
-4.638510942459106445e-02
-3.107196986675262451e-01
-4.928603395819664001e-02
9.567953646183013916e-02
-1.319683273322880268e-03
-4.713584110140800476e-02
3.996494412422180176e-02
-8.644529618322849274e-03
-3.410868346691131592e-02
1.002714484930038452e-01
-1.250541955232620239e-01
6.721580028533935547e-02
-9.914910420775413513e-03
8.480684459209442139e-02
-1.218539029359817505e-01
2.550719305872917175e-02
-9.369660168886184692e-02
1.674937158823013306e-01
-1.511828601360321045e-01
8.904607966542243958e-03
-3.406699746847152710e-02
9.637309610843658447e-02
-5.500047281384468079e-02
-7.220222353935241699e-01
5.452804267406463623e-02
1.842969208955764771e-01
-8.511074818670749664e-03
2.587739229202270508e-01
5.077339410781860352e-01
-1.490396410226821899e-01
-6.836549192667007446e-02
7.060432434082031250e-02
-4.112098813056945801e-01
3.607105314731597900e-01
-2.091955691576004028e-01
1.922921985387802124e-01
3.228498697280883789e-01
-7.559134066104888916e-02
-6.927304714918136597e-02
8.411695808172225952e-02
-2.477816492319107056e-01
5.117453634738922119e-02
-4.156739264726638794e-02
-9.819990023970603943e-03
1.978940665721893311e-01
-1.794036291539669037e-02
-2.690955102443695068e-01
5.378921050578355789e-03
3.603713810443878174e-01
5.247997045516967773e-01
-1.745235770940780640e-01
9.883218258619308472e-02
-6.800616532564163208e-02
-8.549972623586654663e-02
9.501440823078155518e-02
5.094000101089477539e-01
4.101265221834182739e-02
-3.927931785583496094e-01
2.535146474838256836e-01
-2.052435725927352905e-01
-3.859174996614456177e-02
-9.709409624338150024e-02
1.234189495444297791e-01
-5.550078302621841431e-02
1.630957126617431641e-01
9.876915812492370605e-02
1.632760465145111084e-02
2.586389482021331787e-01
1.165120005607604980e-01
-6.424435973167419434e-02
2.987588010728359222e-02
7.181717455387115479e-02
2.748508453369140625e-01
2.358068674802780151e-01
-1.085137855261564255e-02
-1.716354861855506897e-03
2.740036137402057648e-02
7.799276709556579590e-02
9.948757290840148926e-02
1.322288662195205688e-01
-8.044195175170898438e-02
2.306296974420547485e-01
-2.904577180743217468e-02
8.754356205463409424e-02
-1.054821610450744629e-01
-3.850282728672027588e-01
6.922129392623901367e-01
-2.468515373766422272e-02
1.153143942356109619e-01
-3.140555694699287415e-02
1.579611748456954956e-01
1.032517105340957642e-01
-2.022981792688369751e-01
-5.824511647224426270e-01
-8.085624873638153076e-02
3.035354316234588623e-01
2.456140220165252686e-01
1.595892161130905151e-01
1.370654404163360596e-01
-1.170267835259437561e-01
-2.103987932205200195e-01
-2.939775586128234863e-01
-3.053881525993347168e-01
1.850943416357040405e-01
3.054594695568084717e-01
1.507482379674911499e-01
-1.167534962296485901e-01
-4.655551612377166748e-01
-3.528018295764923096e-01
-1.775022447109222412e-01
3.145462274551391602e-01
5.124288797378540039e-01
1.729617416858673096e-01
-2.406200021505355835e-01
-6.125978827476501465e-01
-3.135756254196166992e-01
1.599049717187881470e-01
3.650912344455718994e-01
3.478336632251739502e-01
-5.976271256804466248e-02
-3.167101144790649414e-01
2.694626748561859131e-01
5.232858285307884216e-02
-1.360092498362064362e-02
2.601903975009918213e-01
5.094929039478302002e-02
3.139499723911285400e-01
2.693676352500915527e-01
2.280585169792175293e-01
-3.188557028770446777e-01
-4.252615571022033691e-01
-4.339408576488494873e-01
-2.086456716060638428e-01
-6.436273455619812012e-02
-2.330544777214527130e-02
9.020953625440597534e-02
8.757787197828292847e-02
-2.063155770301818848e-01
1.897475682199001312e-02
-2.630967274308204651e-02
9.762433171272277832e-02
4.697826504707336426e-02
-1.443980932235717773e-01
-3.306727157905697823e-03
8.124511688947677612e-02
-5.679471790790557861e-02
1.756722331047058105e-01
-2.511014696210622787e-03
1.097367182374000549e-01
3.646957129240036011e-02
-4.229689016938209534e-03
